// Neural Network File Format by Kyle Julian, Stanford 2016
2,4,4,16,
4,16,4,
0,
0,0,-1,-1,
1,3,1,1,
0,0,0,0,0,
1,1,1,1,1,
-2.06170e-01,-1.91446e-02,5.70118e-02,8.22825e-02,
3.93286e-01,-3.26784e-01,-2.75181e-01,3.90297e-01,
3.44090e-01,-6.46138e-02,3.40138e-01,8.08586e-02,
-5.40373e-01,-8.64673e-03,5.35758e-01,-3.38285e-01,
2.13507e-01,-4.70542e-02,2.48421e-01,1.50016e-01,
-1.19786e-01,-3.20189e-01,2.24242e-01,-9.02427e-02,
-2.63918e-01,-3.84797e-01,4.64808e-01,3.47641e-01,
6.88048e-01,7.51248e-01,-3.66964e-01,-1.66717e-01,
4.09201e-01,-2.29812e-01,4.32346e-01,5.48560e-02,
2.15971e-01,3.60353e-02,3.46261e-01,-1.73225e-01,
-2.37238e-01,4.12091e-01,-2.60488e-02,8.44558e-02,
-4.23863e-01,5.58049e-02,-3.95041e-01,1.36409e-01,
-2.38314e-01,9.35882e-02,6.15455e-01,5.32756e-01,
1.57264e-01,2.09184e-01,2.61853e-02,4.39549e-02,
-4.26399e-02,3.86319e-02,2.02804e-01,-3.43119e-01,
1.33478e-01,2.04852e-01,6.08697e-01,-2.18283e-01,
0.00000e+00,
1.17327e-01,
1.29683e-01,
0.00000e+00,
-1.14677e-01,
0.00000e+00,
-3.68000e-02,
2.13749e-01,
-9.69342e-02,
1.73530e-01,
1.45254e-01,
6.57737e-02,
2.27309e-01,
6.87061e-02,
-1.42453e-01,
7.01948e-02,
-2.06170e-01,4.41652e-01,6.12722e-01,-4.02797e-01,9.83792e-02,7.34124e-02,-1.73009e-01,-6.52692e-02,1.82274e-01,4.06574e-01,3.96464e-01,2.69776e-01,1.09616e-01,3.10783e-01,2.42698e-01,3.87446e-01,
3.57489e-01,1.79186e-02,2.80379e-01,3.81323e-02,-2.76089e-01,-3.20189e-01,-9.64390e-02,5.00827e-01,-3.47690e-01,4.61611e-01,4.00290e-01,5.04984e-02,6.09947e-01,1.03516e-01,-2.57010e-01,1.08259e-01,
2.02598e-01,-2.37349e-01,-4.07810e-01,7.76690e-02,-2.15004e-01,-3.48090e-01,3.28094e-01,9.49763e-02,6.36428e-02,5.45223e-01,-2.63635e-01,2.27395e-01,7.84712e-02,2.57727e-01,-1.27861e-01,-3.51673e-01,
-5.40373e-01,3.56006e-01,-4.40921e-01,1.06314e-02,-7.09511e-02,5.46449e-01,2.34598e-01,3.15369e-01,3.70842e-01,-4.87690e-01,-3.57876e-01,6.04791e-01,-6.91165e-02,-2.04803e-01,1.93717e-01,-2.02679e-01,
9.14628e-02,
1.87582e-01,
-1.46770e-02,
1.12548e-01,
