// Neural Network File Format by Kyle Julian, Stanford 2016
2,4,4,16,
4,16,4,
0,
0,0,-1,-1,
1,3,1,1,
0,0,0,0,0,
1,1,1,1,1,
-2.20927e-01,-2.69992e-02,5.70118e-02,1.03359e-01,
4.72370e-01,-2.58541e-01,-3.66828e-01,3.87909e-01,
3.31403e-01,-4.49648e-02,1.97623e-01,1.14935e-02,
-5.59979e-01,4.62323e-02,5.07686e-01,-3.44880e-01,
1.88671e-01,-4.51026e-02,3.29287e-01,1.71741e-01,
-1.44005e-01,-3.20189e-01,2.00031e-01,-9.02427e-02,
-2.62795e-01,-3.48090e-01,4.65940e-01,3.47641e-01,
6.80259e-01,6.95836e-01,-4.83138e-01,-2.34317e-01,
3.91239e-01,-2.47093e-01,4.69352e-01,8.78685e-02,
2.01435e-01,3.42725e-03,2.23520e-01,-3.34777e-01,
-2.43520e-01,4.19853e-01,-2.74610e-01,2.59057e-02,
-3.74672e-01,1.09638e-01,-5.92276e-01,1.32104e-01,
-3.50640e-01,-4.02332e-02,5.04999e-01,3.80359e-01,
1.42565e-01,2.08167e-01,-1.31706e-01,-4.24795e-02,
-4.94185e-02,5.60509e-02,2.73643e-01,-3.45005e-01,
1.18398e-01,1.85126e-01,4.30101e-01,-2.91981e-01,
1.37372e-02,
1.48763e-01,
1.29094e-01,
8.01252e-03,
-1.18305e-01,
-2.42307e-02,
-3.56460e-02,
1.52445e-01,
-1.06704e-01,
1.49790e-01,
1.29686e-01,
-6.24551e-02,
9.69272e-02,
3.76268e-02,
-1.32341e-01,
6.09812e-02,
-1.32691e-01,4.61836e-01,6.42087e-01,-3.93086e-01,8.50944e-02,9.75265e-02,-1.10950e-01,-5.23010e-02,1.73610e-01,4.92168e-01,4.45437e-01,4.06223e-01,1.97818e-01,3.06526e-01,1.91542e-01,3.83527e-01,
4.24559e-01,7.23015e-03,2.16922e-01,1.08758e-01,-2.66688e-01,-2.96096e-01,-1.00445e-01,4.61125e-01,-3.20578e-01,3.90642e-01,3.16193e-01,-4.06970e-03,4.10531e-01,5.33251e-02,-2.47437e-01,4.97231e-02,
2.87962e-01,-2.06430e-01,-3.63620e-01,1.19431e-01,-1.95235e-01,-3.27094e-01,3.32959e-01,1.32530e-01,1.38940e-01,5.54402e-01,-2.54465e-01,2.39438e-01,2.40769e-02,2.83697e-01,-1.22444e-01,-3.15661e-01,
-4.35001e-01,4.17374e-01,-4.73527e-01,6.79116e-02,-6.79420e-02,5.28328e-01,1.95246e-01,3.36671e-01,4.24342e-01,-5.49641e-01,-3.99984e-01,5.71799e-01,-2.07578e-01,-2.10244e-01,2.09840e-01,-2.13506e-01,
1.02347e-01,
1.43794e-01,
-1.02841e-02,
6.59851e-02,
