// Neural Network File Format by Kyle Julian, Stanford 2016
2,2,2,16,
2,16,2,
0,
0,0,
0.8,2,
0,0,0,
1,1,1,
-2.17323e-01,-2.01802e-02,
-1.19386e-01,-1.47379e+00,
4.48482e-01,1.34218e-01,
-5.69603e-01,-9.11444e-03,
5.09028e-01,2.92069e-01,
-1.26265e-01,-3.37509e-01,
-2.39450e-01,-3.66919e-01,
7.44079e-01,8.31739e-01,
2.46194e-01,-5.94917e-01,
5.15119e-02,-8.94785e-01,
-6.73962e-02,3.88897e-01,
-6.11744e-02,7.63553e-01,
-4.24585e-01,-1.16246e-01,
1.79654e-01,5.44286e-01,
-1.16204e-01,4.22224e-01,
1.24357e-01,4.87368e-01,
0.00000e+00,
1.41263e+00,
1.91920e-02,
0.00000e+00,
1.39592e-02,
0.00000e+00,
0.00000e+00,
2.51344e-02,
5.11694e-01,
9.40853e-01,
-2.92112e-01,
-7.93459e-01,
0.00000e+00,
3.22696e-02,
1.97005e-01,
4.49465e-02,
-2.17323e-01,3.58649e+00,5.39682e-01,-2.39450e-01,7.27082e-01,-3.87214e-01,-4.24585e-01,2.81131e-01,-1.27761e+00,-3.92156e+00,6.01960e-01,-1.64373e+00,-1.50682e-01,5.13663e-01,5.51703e-02,4.04254e-01,
3.76826e-01,-1.77687e-02,-2.64132e-01,5.68308e-01,7.23152e-02,-4.22093e-01,4.01949e-02,7.61656e-02,-6.16196e-02,-2.94171e-01,4.89969e-02,4.02985e-01,-1.39397e-01,3.51056e-01,5.32046e-01,4.27471e-01,
7.86909e-03,
2.03244e-01,
