// Neural Network File Format by Kyle Julian, Stanford 2016
2,2,2,16,
2,16,2,
0,
0,0,
1,1,
0,0,0,
1,1,1,
-1.21482e-01,-3.75401e-01,
9.63375e-02,4.17159e-02,
6.27046e-01,-1.99515e-01,
-2.88942e-01,4.01145e-01,
-2.50023e-01,-4.11224e-01,
8.71217e-02,-2.69246e-01,
-1.63536e-01,7.75726e-02,
-1.23300e-01,-4.69889e-01,
2.19743e-01,-2.94898e-01,
3.14664e-01,3.13370e-01,
-4.23588e-01,-1.24498e-01,
-3.08825e-01,5.14488e-01,
-4.26365e-01,-3.39678e-01,
-1.38319e-01,-1.30144e-01,
1.77743e-01,4.20381e-01,
6.38528e-01,2.82058e-03,
0.00000e+00,
-1.34895e-01,
4.15844e-01,
2.80147e-01,
0.00000e+00,
-1.63666e-01,
-1.65211e-01,
0.00000e+00,
-1.81521e-01,
-3.96953e-02,
0.00000e+00,
2.77223e-01,
0.00000e+00,
0.00000e+00,
2.89954e-01,
3.44765e-01,
-2.17323e-01,3.58315e-01,8.18648e-01,9.09364e-02,5.28973e-01,-2.34692e-01,-2.83876e-01,8.18703e-02,1.61893e-01,1.31828e-01,7.73834e-02,-4.69569e-02,-1.50682e-01,3.14438e-01,2.57071e-01,6.43837e-01,
3.76826e-01,-3.67059e-01,2.55148e-02,7.81875e-01,6.49325e-02,-2.76054e-01,1.78336e-01,1.12064e-02,-2.32462e-01,1.83603e-01,-3.37509e-01,7.84477e-01,-1.39397e-01,2.10291e-01,5.44411e-01,4.66464e-01,
3.55701e-01,
2.41364e-01,
