// Neural Network File Format by Kyle Julian, Stanford 2016
3,10,5,128,
10,128,128,5,
0,
-1,-1,-1,-1,-1,-1,-1,-1,-1,-1,
1,1,1,1,1,1,1,1,1,1,
0.0,0.0,0.0,0.0,0.0,0.0,0.0,0.0,0.0,0.0,0.0,
1.0,1.0,1.0,1.0,1.0,1.0,1.0,1.0,1.0,1.0,1.0,
3.29830e+00,9.86853e-02,4.51219e-02,-6.17167e-02,2.49757e-02,7.59547e-04,9.55705e-03,5.58861e-02,-1.06066e-01,-3.37487e-02,
2.72371e+00,-1.05999e-01,-1.07063e-02,-1.16205e-01,6.62274e-02,-4.88646e-02,3.09753e-02,7.00673e-02,4.51270e-02,1.62169e-01,
3.53765e+00,-8.38755e-03,-1.06694e-01,-5.18404e-02,3.93758e-02,5.85625e-02,2.43011e-01,-1.49218e-02,1.71839e-01,-2.30741e-02,
4.45077e+00,-2.25464e-03,-6.48758e-02,-5.52029e-02,-3.58832e-02,4.68252e-02,-2.75855e-02,-8.24212e-02,-4.72518e-02,3.66936e-02,
3.41158e+00,6.74678e-03,-9.37753e-02,-1.45094e-01,6.78511e-02,8.85978e-02,5.57123e-02,-4.07040e-02,-5.64574e-02,-1.07083e-01,
2.62661e+00,-4.64999e-02,-7.00282e-02,6.24161e-02,-1.45785e-01,1.20638e-01,-1.20597e-01,1.06507e-02,1.22061e-01,2.53271e-02,
2.91394e+00,1.44575e-01,4.99409e-02,2.05107e-02,-4.26101e-02,1.52906e-01,-2.65640e-01,9.06705e-02,1.93181e-01,6.32442e-02,
2.74127e+00,3.62039e-03,3.32680e-02,8.64752e-02,-3.18853e-02,-1.27360e-01,5.10822e-02,-2.03833e-02,5.34735e-02,5.52399e-02,
3.17418e+00,-5.16636e-02,-5.22541e-02,-6.00727e-02,1.07019e-01,3.25683e-03,-1.09035e-01,9.90633e-02,2.20395e-02,5.78561e-02,
2.19716e+00,-1.85446e-02,3.04289e-03,-3.58471e-02,3.11965e-02,-2.30322e-02,5.89781e-02,-1.18111e-01,1.57298e-02,-1.10644e-02,
3.13004e+00,4.66386e-02,-1.05444e-01,6.20301e-03,-3.68210e-02,-4.38491e-02,1.89798e-02,3.36302e-03,2.04279e-02,-1.00070e-02,
2.04303e+00,-8.34819e-04,6.38356e-02,2.44249e-02,-9.39812e-02,6.59687e-03,-3.60296e-02,-5.65227e-02,-1.53339e-03,1.24669e-02,
3.46082e+00,2.28800e-01,1.29530e-01,-1.21494e-01,1.31715e-01,7.21922e-02,-9.38417e-02,5.56721e-02,2.82650e-02,1.80934e-01,
3.09510e+00,-7.24559e-03,-9.12337e-03,-1.24629e-01,5.37733e-02,5.43858e-02,-7.51753e-02,1.08239e-01,1.06909e-02,1.18884e-01,
3.16582e+00,1.02886e-02,1.69677e-01,6.78268e-02,1.82349e-02,1.14625e-01,-2.46480e-01,3.95718e-04,-7.35527e-02,4.50074e-02,
4.05025e+00,-4.96723e-03,4.93366e-03,-1.39112e-01,5.17086e-02,-2.25937e-02,-1.95890e-01,-1.02671e-01,2.93974e-01,1.87239e-01,
3.20089e+00,-1.16896e-02,-2.36536e-02,3.73661e-02,5.27714e-05,-4.45318e-03,1.99314e-02,1.70327e-02,4.09906e-02,-2.96635e-02,
2.72423e+00,1.88877e-02,-8.31132e-02,8.42860e-02,6.65681e-04,-1.13111e-01,-7.02190e-02,5.29464e-02,-1.44618e-01,1.26056e-01,
2.38968e+00,-2.28930e-02,2.22070e-02,6.44000e-02,-1.25629e-03,-9.02060e-03,-8.88207e-02,6.52994e-02,-1.74352e-02,-8.44827e-03,
1.07561e+00,1.41612e-03,-1.31603e-03,9.26429e-05,-3.07904e-03,-7.26818e-03,3.16563e-03,-1.38812e-02,2.21988e-02,-9.55738e-03,
3.24190e+00,-5.21240e-02,4.79667e-03,-5.96791e-02,3.13070e-02,1.13191e-02,-7.39562e-02,3.87106e-02,4.21436e-02,1.95255e-02,
3.02482e+00,-4.95224e-03,-7.51229e-02,-8.90577e-02,-8.95208e-03,1.29069e-01,1.31237e-02,-3.65844e-02,4.43968e-03,2.18743e-01,
4.27702e+00,1.94034e-01,-1.11273e-01,-6.53190e-02,5.88623e-02,-4.05121e-02,-1.26663e-01,1.17384e-01,1.26277e-01,1.78981e-01,
3.22458e+00,-1.11555e-01,8.72635e-02,7.53193e-03,1.20100e-01,4.73133e-02,-1.76463e-01,-1.32100e-01,2.71489e-02,4.24362e-03,
2.82212e+00,2.43557e-01,-1.18587e-01,-1.98801e-02,-4.84479e-02,3.13979e-03,-8.06693e-02,6.77451e-02,1.16663e-01,-2.55380e-02,
3.25948e+00,1.96801e-01,-2.03249e-01,-1.38222e-01,-1.93094e-01,7.08471e-02,-1.81567e-01,1.64977e-01,-1.91838e-02,4.54879e-02,
3.57300e+00,-5.39802e-02,-2.53902e-02,3.10063e-02,-7.88538e-03,3.25847e-02,6.31566e-02,-1.15028e-01,2.92560e-02,-2.55943e-02,
2.66285e+00,-1.01265e-01,6.46531e-03,4.12203e-02,-5.50747e-03,1.01644e-01,-7.04116e-02,8.62307e-03,1.60722e-01,1.76592e-02,
2.45164e+00,1.27911e-01,1.61363e-01,-6.63197e-02,1.13328e-01,1.51018e-01,8.24341e-02,6.40558e-02,-4.57009e-02,1.00436e-02,
2.63150e+00,2.64853e-01,2.61566e-02,5.47962e-02,-4.41353e-02,-5.73460e-03,-4.80206e-02,1.98982e-02,1.29469e-01,6.70894e-02,
3.28300e+00,9.56367e-02,-1.45298e-01,-1.92371e-02,1.55577e-02,6.50747e-02,-1.93295e-01,8.59602e-04,1.30346e-02,1.37738e-02,
3.35272e+00,2.14219e-01,6.31134e-02,1.41891e-02,-1.01505e-01,1.58425e-02,-4.07197e-02,1.39097e-01,2.80424e-02,2.68602e-02,
2.31621e+00,-8.13464e-02,-8.14083e-02,-1.23868e-02,4.17521e-02,4.00948e-02,-3.60822e-02,-2.20036e-02,6.85207e-02,-1.36951e-02,
3.22802e+00,-8.04320e-02,2.52415e-02,-4.56757e-02,-2.00979e-02,-4.13908e-02,-4.21744e-02,-3.89122e-02,-5.44247e-02,-8.42202e-03,
3.23799e+00,-7.58109e-02,-1.05947e-02,-1.32262e-01,1.04699e-01,1.16308e-01,-1.57513e-01,-5.97219e-02,-2.63758e-02,-7.62221e-02,
6.46721e-01,3.91579e-03,5.71392e-03,1.19334e-02,6.80540e-03,-6.31668e-04,-6.66142e-03,1.01235e-02,1.21205e-02,-8.14775e-03,
3.54606e+00,-1.33345e-01,-1.99709e-02,1.40858e-01,-8.34233e-02,1.42885e-01,3.86215e-03,7.14028e-02,1.61204e-01,3.17688e-02,
2.23528e+00,1.97766e-02,-3.02645e-02,2.12011e-02,8.59059e-03,4.21283e-02,-2.72332e-02,-4.21493e-02,-2.96509e-02,3.41136e-02,
3.92600e+00,6.83912e-02,1.42150e-02,-1.82768e-02,-4.81158e-02,7.28732e-02,-1.31496e-01,1.01450e-01,-4.22698e-03,2.98482e-02,
2.78797e+00,-1.14589e-01,-2.01458e-02,2.87673e-01,8.74755e-02,-1.45404e-01,1.23308e-01,-5.02343e-02,7.42821e-02,-2.66570e-02,
6.71194e-01,1.03409e-01,7.15159e-03,-1.25559e-01,-2.67974e-02,-5.96582e-02,-1.09333e-01,-3.50157e-02,8.21309e-02,1.81042e-01,
3.94466e+00,8.75497e-02,3.31932e-02,3.72933e-02,-1.42035e-01,7.09291e-02,2.68203e-01,1.57366e-02,1.59763e-02,3.49817e-02,
3.60790e+00,1.72012e-02,3.16184e-02,9.74203e-02,-2.14055e-02,3.71083e-02,4.35920e-02,-1.05260e-01,-4.63967e-02,-2.10533e-03,
3.09476e+00,1.62698e-01,7.13655e-02,-5.86204e-03,-2.36161e-02,2.09926e-02,-9.76384e-02,1.30879e-01,4.55659e-03,1.08182e-01,
2.88027e+00,2.60895e-02,6.26648e-02,6.83406e-04,-3.17805e-02,2.99651e-02,7.41906e-02,-3.69968e-02,-1.25992e-02,-3.29291e-02,
2.56528e+00,4.25374e-02,1.09820e-02,-1.61268e-01,9.09945e-02,1.57781e-01,-8.66977e-02,-6.05232e-02,2.04749e-02,2.66659e-02,
4.32845e+00,-6.98789e-03,8.25708e-02,1.49908e-01,-1.75372e-01,1.26223e-01,-1.58934e-01,-1.67335e-02,6.56256e-02,-1.52193e-02,
3.04069e+00,1.60186e-01,8.00246e-03,2.64488e-02,-3.59193e-02,7.96869e-02,1.19751e-02,4.54867e-02,7.08691e-02,-1.77158e-04,
2.91155e+00,9.35640e-02,-8.89290e-02,1.67868e-02,4.65387e-02,-6.12911e-02,-1.00167e-02,4.76184e-02,9.74296e-02,9.84112e-02,
3.34025e+00,2.11729e-01,3.21891e-02,-7.67314e-03,-5.14590e-02,8.99116e-02,-6.14321e-02,1.06622e-01,-4.33048e-02,4.39158e-02,
2.80471e+00,-7.39783e-02,-2.20459e-03,4.69416e-02,-7.43099e-02,1.05761e-01,-7.10406e-02,1.82912e-02,7.49353e-02,-8.96188e-03,
1.30369e+00,-2.01809e-02,2.78029e-02,1.06851e-03,4.57184e-03,-1.39928e-02,1.58966e-02,8.13686e-03,2.84944e-02,9.37837e-03,
2.23309e+00,-1.79929e-02,3.49223e-02,-3.35455e-02,-2.45809e-02,5.70926e-02,-6.08648e-02,-9.43611e-02,6.81486e-02,7.17077e-02,
2.65378e+00,4.02086e-03,-2.68568e-02,1.56796e-02,2.50986e-02,-6.05064e-02,6.98763e-03,-2.35227e-02,-2.82066e-02,3.51060e-02,
2.13935e+00,-2.91895e-02,-1.96707e-02,-1.23806e-02,2.11913e-02,6.80400e-03,7.34758e-02,-1.19007e-01,9.71587e-02,-3.06572e-02,
2.75565e+00,2.85038e-02,-7.77190e-02,-2.55202e-01,1.37694e-01,-1.35929e-02,3.76386e-02,3.98800e-02,-2.77378e-02,1.04642e-01,
1.18627e+00,1.97415e-02,-1.93703e-01,-3.03328e-02,4.16582e-03,1.98044e-02,2.21288e-01,-5.68423e-02,2.71857e-02,-5.07314e-02,
3.12857e+00,-8.25037e-02,-8.26051e-02,-1.90325e-01,-4.50664e-03,-7.68804e-03,-2.24825e-01,3.46484e-02,1.28773e-02,1.31243e-01,
6.73516e+00,-2.02614e-01,4.84317e-02,-3.63760e-02,-1.57119e-01,1.92709e-02,-5.05324e-02,-1.08542e-01,1.29478e-01,1.43185e-01,
2.34197e+00,1.53822e-03,3.16205e-02,-2.95562e-02,-7.21989e-02,-2.11691e-02,2.40670e-02,1.67680e-02,1.94886e-02,3.09152e-02,
3.23510e+00,4.70290e-02,-7.48311e-02,-5.01742e-02,1.01063e-02,-3.85624e-02,4.96958e-02,-1.42645e-01,-1.02922e-01,-7.92613e-02,
2.41890e+00,-5.72852e-02,4.84428e-02,-1.13879e-01,4.15218e-02,6.69774e-02,8.82235e-03,-2.79040e-02,-1.48721e-02,2.15757e-03,
2.67050e+00,3.70083e-02,4.19800e-02,-1.88275e-02,-6.20351e-02,4.53662e-02,1.54196e-02,2.28834e-01,-1.48200e-02,3.00000e-02,
2.82466e+00,8.42103e-04,1.00744e-01,6.74461e-02,-1.56104e-01,2.57787e-01,-1.34789e-01,-9.99795e-02,6.68406e-02,5.65511e-02,
2.05362e+00,3.73752e-03,3.55621e-02,6.65411e-02,-1.32329e-03,6.72143e-02,-9.13270e-02,-2.92333e-02,2.95093e-02,5.90471e-02,
2.87552e+00,6.25155e-02,-4.93108e-02,-1.15438e-01,-3.90884e-02,-3.49457e-03,-7.14475e-02,7.80639e-02,3.57606e-02,1.42305e-01,
2.85503e+00,-3.37142e-02,-6.48900e-02,7.54724e-03,-1.22217e-01,1.26033e-01,-1.00292e-01,-5.38686e-02,1.74685e-01,-6.60584e-03,
3.34475e+00,-2.28729e-01,-2.16871e-01,-2.23409e-01,1.60311e-02,4.13878e-02,5.49009e-03,1.12615e-01,4.07662e-02,-3.77880e-02,
3.33280e+00,-5.54437e-02,-6.33876e-02,-3.40719e-02,1.00065e-02,-5.15943e-02,4.68012e-02,-8.36077e-02,4.54851e-02,1.65023e-02,
3.44980e+00,-3.57192e-02,1.19868e-02,-3.96560e-02,3.05524e-02,7.21522e-03,3.14579e-02,8.32110e-03,1.22563e-02,-1.51865e-02,
3.25952e+00,1.86345e-01,-1.40964e-01,-1.41526e-01,5.91490e-02,9.74078e-03,-3.46681e-02,1.59237e-01,2.30725e-02,1.23531e-01,
1.48070e+00,7.69067e-03,-2.59132e-02,1.90366e-02,-2.76619e-02,-2.11976e-02,-4.38504e-02,4.78113e-03,3.87653e-02,-7.47656e-03,
3.66702e+00,6.49071e-03,-8.55499e-02,-9.00664e-02,-6.14836e-02,1.60270e-01,3.17844e-02,-1.00580e-01,-6.87086e-02,-3.38699e-02,
-4.00383e-03,1.10857e-04,-3.71086e-03,-4.61966e-03,2.18030e-03,4.89416e-03,5.68946e-03,-1.50479e-03,-2.84798e-03,-4.73431e-03,
2.75224e+00,3.58654e-02,-8.15047e-02,-2.38278e-01,1.41725e-01,1.03016e-01,4.52450e-02,8.42457e-02,-1.10595e-02,3.85439e-02,
2.92192e+00,-6.49253e-03,-5.50825e-02,-1.12801e-02,-1.79871e-02,-1.51647e-03,-3.46189e-02,-1.54930e-02,-3.40871e-02,1.81574e-02,
2.89527e+00,-5.65368e-02,-4.73161e-04,-3.15544e-02,-9.02757e-02,3.14604e-02,-7.13009e-02,-5.82438e-02,-3.56770e-02,1.65993e-02,
2.53263e+00,-1.16817e-01,-7.82783e-02,6.58907e-02,-7.07129e-02,3.59630e-02,-6.51227e-02,-1.27793e-01,1.44116e-01,3.81496e-02,
3.02948e+01,5.16816e-02,-6.08235e-03,3.04552e-02,1.62677e-02,9.95318e-02,-3.37256e-02,7.01300e-02,-8.21663e-03,1.25771e-01,
3.72554e+00,2.85351e-01,7.16106e-02,3.53081e-02,3.85520e-02,3.78048e-02,-2.30680e-02,4.07520e-02,3.29796e-02,6.26265e-02,
2.79074e+00,1.13313e-01,-1.97269e-01,-1.42530e-01,-6.19663e-02,-3.39503e-02,-8.55335e-02,6.85290e-02,1.80789e-02,2.43032e-01,
1.74749e+00,7.67297e-02,1.86639e-02,-7.14315e-02,1.07476e-03,2.63685e-02,3.26529e-02,-3.85989e-02,-7.16222e-02,1.08172e-01,
3.19799e+00,4.08852e-02,-1.31366e-01,1.18211e-01,1.78081e-02,1.30122e-02,-4.32460e-02,4.98508e-02,-8.49633e-02,1.19778e-01,
1.67829e+00,-6.03587e-02,-1.32274e-02,-1.31583e-02,-6.93094e-03,-5.14986e-03,1.24841e-02,2.14062e-02,1.58517e-02,1.87161e-03,
2.51693e+00,-4.95520e-02,2.01063e-02,-2.18408e-02,6.25345e-03,-4.17684e-02,-1.48072e-02,-5.26579e-02,1.37994e-02,-2.64653e-02,
3.37976e+00,3.69064e-02,-1.00893e-01,-1.16979e-01,-8.51213e-02,-3.87181e-02,-9.24296e-02,1.27141e-01,7.18194e-02,1.43929e-01,
1.94904e+00,-5.30009e-02,1.37863e-02,1.07167e-01,5.36656e-02,7.55525e-03,-3.45831e-02,-2.09935e-02,-2.95860e-02,-3.56841e-02,
2.16224e+00,6.48737e-02,-4.00258e-02,3.29541e-02,1.43816e-02,-6.89155e-02,-4.94634e-02,-1.39795e-02,-4.72275e-02,-4.77547e-04,
3.04593e+00,-8.14137e-02,-1.38344e-01,-1.22965e-02,-2.29095e-01,1.22967e-01,-7.10649e-02,-5.14797e-02,-1.03317e-01,9.65912e-02,
2.84546e+00,-1.14840e-01,-2.06337e-02,5.05978e-03,-9.44685e-03,-6.10478e-02,-7.70143e-02,-5.79696e-02,6.16905e-02,5.65295e-02,
3.26237e+00,5.00169e-02,-3.04055e-02,-1.27106e-01,-2.14987e-02,-3.61121e-02,5.27029e-02,6.90878e-03,4.05346e-02,6.39705e-02,
2.52568e+00,-5.48691e-02,1.52986e-01,1.57614e-01,-1.57906e-01,-6.56352e-02,7.14518e-03,4.59177e-02,3.04501e-03,-4.41993e-02,
3.09657e+00,7.93160e-02,1.39119e-01,-2.10461e-02,-6.78206e-02,-1.23668e-01,-1.55881e-02,-3.31058e-02,-6.51144e-02,8.41982e-02,
3.48413e+00,1.90280e-01,1.15969e-01,-8.62011e-02,1.12596e-01,-1.40939e-02,-5.61146e-02,8.25562e-02,4.79726e-02,1.16799e-01,
2.71106e+00,5.08204e-02,-6.13987e-02,5.82598e-02,1.21192e-01,5.65635e-02,-7.24317e-02,5.70746e-02,3.69791e-02,6.82170e-02,
1.66840e+00,1.91580e-02,3.03227e-02,3.58611e-02,-3.43018e-02,-3.01673e-02,3.74933e-03,-2.13199e-02,-1.33124e-02,3.13249e-02,
2.71352e+00,2.71128e-02,9.34277e-02,4.32311e-02,2.68648e-02,-1.11924e-01,5.75163e-02,-3.03408e-03,1.36878e-01,3.84672e-02,
2.91474e+00,6.14150e-02,-1.45596e-01,-1.46316e-01,6.52568e-02,-6.20299e-03,1.12113e-02,-4.39515e-02,4.59875e-02,-8.24172e-02,
2.76332e+00,-8.89102e-02,-7.09231e-03,-3.58387e-02,-1.07393e-01,1.09686e-01,4.99102e-02,-1.06882e-02,-4.07801e-02,3.66881e-02,
3.55119e+00,8.01185e-02,2.27256e-01,-2.33650e-02,-4.12695e-02,1.68878e-01,2.68542e-02,4.06682e-02,1.36820e-01,2.34066e-02,
2.55050e+00,4.84312e-02,-6.03380e-02,4.40830e-02,6.11617e-02,-8.32802e-02,3.90727e-02,-8.64935e-02,4.80275e-02,1.24601e-01,
2.80322e+00,7.11347e-04,5.33009e-02,-9.30312e-02,2.48920e-02,2.16671e-02,8.58637e-03,5.20306e-02,-7.80709e-02,-2.80546e-02,
1.88429e+00,-3.49185e-03,-3.96754e-02,-9.46389e-02,-6.09977e-02,3.33421e-02,8.00634e-02,5.84322e-03,5.12534e-02,3.10816e-02,
3.92128e+00,9.03931e-03,-1.37820e-01,-1.02024e-02,-1.22957e-02,2.93427e-02,-1.02990e-01,5.95098e-02,3.79441e-03,1.23766e-01,
2.50624e+00,4.98630e-02,-7.77031e-02,-1.09456e-01,7.74795e-02,1.22014e-01,5.45512e-02,-3.41800e-02,3.41547e-02,-1.02069e-02,
2.66828e+00,-2.20471e-01,-1.00151e-01,3.94579e-03,-3.50450e-02,-6.45156e-02,-6.97008e-02,7.49495e-02,1.56101e-01,-8.99338e-02,
1.65157e+00,-1.87670e-03,2.55369e-03,1.31494e-02,-1.55079e-02,-2.44674e-02,-1.44318e-02,-1.94568e-02,8.42778e-03,-1.55896e-02,
3.30645e+00,1.84091e-01,3.58868e-02,-3.16251e-03,-4.41477e-02,5.05384e-02,-5.34495e-02,3.56725e-02,3.34741e-03,1.42369e-02,
3.22200e+00,1.37127e-01,-7.64663e-02,2.66283e-03,1.35172e-02,-2.41496e-02,3.78851e-02,-1.55322e-02,1.27550e-01,5.89434e-02,
3.03809e+00,1.54577e-02,-1.08620e-01,-1.75989e-02,2.23000e-02,-2.69892e-02,2.16618e-01,-3.09520e-02,1.69097e-01,-9.55703e-02,
1.71146e+00,2.15033e-02,2.09869e-02,3.64897e-02,-2.21163e-02,-1.95488e-03,-3.57575e-02,-3.32752e-02,-2.84874e-02,2.89061e-02,
2.70475e+00,-1.59288e-01,-5.53161e-02,-3.25243e-03,-6.32547e-02,2.82976e-02,-3.82453e-02,1.00638e-01,2.88445e-02,2.49783e-02,
3.15675e+00,-6.23967e-02,-1.78944e-01,-2.42073e-01,5.97861e-02,-1.71107e-01,-1.23591e-01,2.81075e-02,-5.26751e-02,8.75990e-02,
2.43204e+00,9.50586e-03,2.55014e-03,-2.69438e-02,3.05991e-02,-1.23283e-02,-5.37329e-02,3.96430e-03,6.28278e-03,5.44553e-02,
1.86971e+00,-8.76309e-03,-5.82590e-02,1.18685e-01,4.82483e-03,-4.58012e-02,1.61607e-02,-1.10114e-01,8.67049e-02,-7.86463e-02,
2.57910e+00,-2.18717e-03,-2.62009e-02,9.57316e-02,-3.90384e-02,-4.19902e-02,2.14906e-02,8.37106e-02,3.24579e-02,-3.84181e-02,
2.31081e+00,3.23769e-02,-4.40063e-02,-1.54642e-02,1.46392e-02,6.75891e-02,-8.61542e-02,-2.46218e-02,1.13564e-02,2.92099e-02,
2.84593e+00,-1.35961e-01,2.33729e-02,2.88963e-02,-9.58081e-02,2.78553e-02,-1.16841e-01,-8.84856e-02,2.80033e-02,5.21176e-02,
2.73282e+00,2.25868e-02,-1.87462e-01,-4.44660e-03,1.59361e-01,1.08046e-01,1.78036e-01,1.76490e-02,-1.56428e-01,1.12466e-01,
2.61226e+00,-2.88337e-01,1.49318e-01,-1.19238e-01,-1.42467e-01,-1.58317e-03,-1.52473e-01,-1.04129e-01,-2.12686e-01,-1.39463e-01,
3.61242e+00,3.52212e-02,-1.27425e-02,-5.18036e-02,3.19157e-02,2.67410e-02,-7.31084e-02,6.38740e-02,7.21736e-02,2.96462e-02,
2.74189e+00,1.48065e-01,-2.65208e-02,2.23283e-02,3.58053e-02,1.30852e-02,1.92987e-02,1.18435e-01,-5.83828e-02,9.46515e-03,
2.77416e+00,-2.99169e-02,-1.83883e-02,-2.31718e-01,2.89998e-02,3.25762e-02,-1.42736e-01,1.56737e-03,-1.17547e-01,7.68322e-02,
1.53172e+00,-1.63786e-02,-2.39566e-02,1.09332e-02,1.61309e-02,-1.57708e-02,-2.39554e-02,1.91301e-03,2.47156e-02,1.69983e-02,
2.74864e+00,2.03443e-01,9.81123e-02,8.01380e-02,-3.53008e-03,3.49214e-02,8.59448e-02,-1.47190e-02,-2.25719e-03,2.51084e-02,
2.52715e+00,-1.31027e-02,-6.51822e-02,-2.26165e-01,1.19820e-01,9.92038e-02,6.52314e-02,1.50926e-02,6.83620e-02,-1.24178e-01,
1.98716e+00,6.61021e-02,-8.20095e-02,-3.57426e-02,6.00483e-02,7.69438e-02,7.18940e-03,6.26771e-03,1.49476e-02,1.97578e-02,
2.65415e+00,-1.02035e-01,4.43392e-02,1.07164e-02,-7.42553e-02,4.42668e-02,-1.07780e-01,1.59155e-02,3.47192e-02,3.31599e-02,
-4.60991e+00,
-3.52571e+00,
-4.70396e+00,
-3.52037e+00,
-4.33727e+00,
-3.85773e+00,
-6.49066e+00,
-4.79509e+00,
-4.20264e+00,
-4.38421e+00,
-4.55059e+00,
-4.13347e+00,
-3.63941e+00,
-5.44707e+00,
-5.48623e+00,
-4.67669e+00,
-3.86724e+00,
-5.73596e+00,
-4.27043e+00,
-1.79762e+00,
-4.86030e+00,
-5.14439e+00,
-4.82249e+00,
-4.39180e+00,
-5.53743e+00,
-4.30870e+00,
-3.99694e+00,
-4.32729e+00,
-4.99165e+00,
-3.45707e+00,
-4.87680e+00,
-3.63075e+00,
-4.01595e+00,
-3.79120e+00,
-4.47376e+00,
-2.07540e+00,
-6.05339e+00,
-4.53286e+00,
-4.29417e+00,
-2.85500e+00,
3.35713e+00,
-5.81648e+00,
-6.00761e+00,
-2.65925e+00,
-4.58593e+00,
-3.66806e+00,
-3.31252e+00,
-2.08041e+00,
-3.19056e+00,
-3.15438e+00,
-3.03888e+00,
-3.15541e+00,
-4.86878e+00,
-4.95954e+00,
-4.13398e+00,
-5.23848e+00,
-1.40963e+00,
-5.12306e+00,
-9.55547e-01,
-5.27523e+00,
-5.20418e+00,
-4.16400e+00,
-5.50513e+00,
-4.24596e+00,
-3.52788e+00,
-5.78176e+00,
-4.79885e+00,
-4.75887e+00,
-5.03172e+00,
-4.94781e+00,
-6.20285e+00,
-4.38720e+00,
-7.02878e+00,
1.42419e+01,
-4.67292e+00,
-4.37004e+00,
-3.13139e+00,
-5.04011e+00,
3.41033e+00,
-3.87880e+00,
-4.05770e+00,
-3.57636e+00,
-4.31804e+00,
-4.11104e+00,
-4.80163e+00,
-4.78047e+00,
-4.43139e+00,
-4.65972e+00,
-5.19320e+00,
-5.26512e+00,
-5.82079e+00,
-4.86072e+00,
-5.35387e+00,
-2.69270e+00,
-4.87971e+00,
-4.24977e+00,
-4.59093e+00,
-4.59598e+00,
-4.74823e+00,
-4.70157e+00,
-5.05693e+00,
-4.74887e+00,
-4.04384e+00,
-4.62229e+00,
-4.29190e+00,
-4.69787e+00,
-3.31719e+00,
-3.27938e+00,
-3.06731e+00,
-4.61816e+00,
-4.31319e+00,
-4.39665e+00,
-4.58877e+00,
-4.64044e+00,
-3.06957e+00,
-4.77325e+00,
-4.30498e+00,
-5.14957e+00,
-5.07252e+00,
-5.90035e+00,
-5.32645e+00,
-4.13243e+00,
-5.44360e+00,
-4.16728e+00,
-4.47122e+00,
-4.86185e+00,
-4.23107e+00,
-4.29710e+00,
-1.31447e-01,8.20990e-02,-9.78582e-02,-1.34623e-01,-7.35447e-02,-2.06619e-01,-2.28066e-04,6.57036e-03,-3.86034e-02,-6.37728e-02,3.36652e-03,-1.03418e-01,-7.65036e-02,1.06137e-01,-4.74046e-02,3.12167e-02,-2.68676e-02,-1.58017e-01,1.18911e-01,1.25490e-02,-8.72642e-02,-4.86877e-02,-1.67272e-01,-1.27355e-01,-1.12722e-02,-1.50581e-01,6.13596e-02,4.38987e-02,-2.39155e-02,5.56537e-03,5.93538e-02,-4.75259e-02,-1.31817e-01,-4.63467e-02,-4.43023e-02,-1.81667e-01,6.20831e-02,-1.66716e-01,-7.45759e-02,5.97015e-02,-1.63193e-02,-1.32811e-01,-4.04252e-02,2.14950e-02,3.25729e-02,2.16131e-02,-1.42818e-01,-1.84357e-01,-1.09128e-01,5.59800e-03,-3.26608e-02,-1.96965e-01,-3.88898e-02,-5.27164e-02,7.37846e-02,-1.91374e-01,-9.23406e-03,-4.07031e-03,5.56240e-02,-1.35912e-01,-1.00051e-01,5.90453e-02,-9.66657e-03,-1.39702e-02,2.80915e-02,-1.50820e-01,1.12780e-01,3.64680e-02,-7.54285e-02,-1.90112e-01,2.28881e-02,3.90004e-02,-2.04865e-01,-3.39508e-01,-6.68622e-03,-1.25336e-01,1.10629e-01,-1.34645e-01,-1.89593e-01,3.04508e-02,-4.43011e-02,5.73521e-02,-4.83554e-02,6.92267e-02,-3.41123e-02,-1.57850e-01,-1.93972e-01,-1.66770e-01,-1.20631e-01,-3.60804e-02,3.69181e-02,-4.14662e-02,-8.76230e-02,-1.07242e-01,-3.82721e-02,-1.48929e-02,-1.96439e-02,-1.56667e-01,-5.40874e-04,-1.32709e-01,-1.50486e-01,9.43668e-02,-1.52433e-01,1.23518e-02,-2.44556e-02,-1.71304e-01,-7.57194e-02,-1.30819e-02,-1.56542e-01,1.97101e-02,-6.12788e-02,-6.02512e-02,-1.76857e-01,-1.34359e-01,-1.38373e-01,2.11898e-02,2.67138e-02,9.07677e-02,-4.77745e-02,1.07598e-01,6.80966e-02,3.50458e-02,-1.39130e-01,8.87667e-02,-1.66648e-01,-1.47831e-01,-1.74468e-01,9.38252e-02,
-9.91688e-02,-5.57917e-02,5.97065e-02,-7.30529e-02,-7.27600e-02,-9.96966e-02,1.01945e-02,-1.62110e-01,-1.51457e-01,3.14784e-02,-1.04970e-01,2.08637e-02,5.86622e-02,-4.24470e-02,-1.69199e-01,-6.56806e-02,-1.65719e-01,-1.96250e-01,-2.14909e-01,-5.90876e-02,5.22888e-02,-1.55695e-02,-9.13655e-02,-1.81656e-01,1.42560e-02,-9.92884e-03,5.33584e-02,1.15511e-02,-1.18342e-01,-1.54472e-01,-2.20405e-02,-1.60048e-02,-2.40235e-01,8.38172e-03,-1.82052e-01,-2.32904e-01,-3.81762e-02,-5.79137e-02,-1.37401e-01,-9.90935e-02,-2.90224e-01,-1.46282e-01,-2.06141e-02,-1.69707e-02,-1.28665e-01,-1.89230e-01,-1.25379e-02,-1.87954e-01,-1.80380e-01,-1.23895e-01,-9.08384e-02,-1.94728e-01,-1.53424e-01,-1.19587e-01,-7.35115e-02,2.33835e-02,-2.46626e-01,-1.88161e-01,-6.39760e-02,2.07288e-04,-4.37991e-02,-1.65468e-01,8.27028e-02,6.36315e-02,1.29479e-02,-9.55491e-02,-1.52494e-01,2.85911e-02,-8.74962e-02,-1.43553e-01,8.70846e-02,-2.60804e-01,-1.29594e-01,-4.45653e-01,-2.44648e-01,-1.95177e-01,-8.48188e-02,-1.67006e-01,6.20237e-02,4.50951e-02,-1.82887e-01,3.19660e-02,2.88467e-02,5.11103e-02,-9.95329e-02,-1.29131e-01,6.04343e-03,3.61075e-02,-2.24065e-01,-1.07407e-01,-2.52380e-02,9.71479e-03,-1.68540e-01,8.04976e-02,5.39092e-02,2.22834e-02,-1.09562e-02,-1.21319e-01,-1.08243e-01,-1.82512e-01,-2.78922e-02,9.09097e-02,-1.05693e-01,-1.04360e-01,7.17837e-02,-8.92638e-02,-8.18624e-02,-3.42684e-02,-5.70126e-02,-2.12867e-01,3.00995e-02,-4.47765e-02,8.05286e-02,-5.81702e-03,-1.31506e-01,7.42686e-02,-2.06301e-01,-3.56580e-02,-2.74103e-02,-1.82290e-01,-2.00591e-01,-4.02341e-01,3.36796e-02,-1.19417e-01,-2.47135e-02,3.06623e-02,-1.11391e-02,-3.65515e-02,
-1.53527e-01,-2.05776e-01,3.41342e-02,-1.45727e-01,-1.87193e-01,-4.76984e-02,-2.79855e-02,-1.27107e-01,-8.80109e-02,-7.89077e-02,3.20089e-03,-1.06755e-01,-2.08056e-01,-1.55758e-01,1.56662e-02,-1.41533e-01,-9.39202e-02,-6.60680e-02,-6.58050e-02,-4.81703e-02,-1.08040e-02,-1.61013e-01,1.22701e-03,2.01603e-03,-9.55245e-03,-2.13114e-01,4.73746e-02,2.19423e-02,-7.53504e-02,-2.56345e-02,-3.45211e-02,-5.99527e-02,5.87248e-02,3.06780e-02,-2.78153e-02,-7.81084e-02,3.30892e-02,8.26345e-02,9.39297e-02,-5.56585e-02,-7.73321e-02,-1.46743e-01,-3.02406e-02,3.13153e-02,-4.03948e-02,-1.82102e-04,-5.39909e-02,-9.31628e-02,-1.74527e-01,9.15734e-03,-1.24547e-01,-9.98746e-03,-1.72295e-01,1.02715e-01,-1.67638e-01,-7.18015e-02,-1.89687e-01,8.39223e-02,5.37397e-03,3.78413e-02,-1.19931e-01,1.59443e-02,-1.08749e-01,-1.69061e-01,3.75597e-02,-5.51948e-03,1.89273e-02,6.25085e-02,-7.80066e-02,-1.56505e-02,-1.27505e-01,2.74904e-02,-4.36329e-02,-3.57441e-01,-1.08535e-01,-9.37353e-04,3.03913e-02,6.35200e-02,-3.04204e-02,5.95474e-03,1.81689e-02,-2.13353e-01,-1.76695e-01,7.53371e-02,2.32910e-02,-1.15104e-01,8.74994e-02,-5.92138e-02,-9.37087e-02,9.53566e-02,-1.43129e-01,-1.65437e-01,-1.55547e-01,-1.84959e-01,1.11052e-01,-1.64065e-01,-7.22240e-02,-9.31707e-03,-4.13510e-03,-1.14924e-01,6.92460e-02,5.04243e-05,3.81311e-02,-4.37861e-03,-1.64589e-01,-1.38623e-01,8.97958e-04,-9.27329e-02,-1.47567e-02,-1.15493e-01,-6.23423e-02,-1.33286e-01,-1.55093e-01,-8.67376e-02,9.48916e-03,3.01269e-02,-2.76183e-02,-1.10242e-01,3.00506e-02,-2.03056e-01,-1.54173e-01,-1.52413e-01,-5.42551e-02,1.36917e-02,-7.61337e-02,-1.08433e-01,-4.51749e-02,-2.16694e-01,
-1.26157e-01,-3.97491e-01,-3.30850e-01,9.62037e-02,-1.13247e-01,-3.72770e-01,-2.40710e-01,-6.02960e-02,-2.89410e-01,-2.20911e-01,-2.25199e-01,-3.60564e-01,-1.32334e-01,-7.63257e-02,-3.64217e-01,1.27243e-01,-1.99280e-01,-2.10948e-01,-2.70659e-01,-2.75637e-01,-2.20472e-01,-1.60316e-01,-2.51422e-01,1.38772e-01,-1.70501e-01,6.89942e-02,-5.20591e-01,-2.39250e-01,-1.28828e-01,-5.14607e-02,-2.03839e-01,3.87700e-02,-1.59934e-01,8.51643e-02,-3.27281e-01,-1.71401e-01,1.31758e-01,-3.03783e-01,-4.88693e-01,-8.14529e-02,-3.99547e-01,-3.56786e-01,-1.65578e-01,1.36588e-01,5.36830e-02,-3.75877e-01,-9.92622e-02,-4.95996e-01,-5.01009e-01,-3.75292e-01,-3.33886e-01,-1.63355e-01,-1.16813e-01,5.19292e-02,-4.73284e-02,-1.94569e-01,-3.00889e-01,-6.75103e-02,8.52846e-02,-3.52106e-01,7.17462e-02,-3.62397e-01,2.20214e-02,-4.10585e-01,-1.55513e-01,-2.95526e-03,-2.17073e-01,-2.70216e-01,-2.46368e-01,2.06438e-02,-3.87153e-01,-9.54925e-02,6.05664e-02,-2.39580e-01,-2.15158e-01,-3.45915e-01,-2.37233e-01,-9.16411e-02,-2.79117e-01,-1.44193e-01,-3.54090e-01,-1.17530e-01,-2.61672e-01,-6.85636e-03,4.40613e-02,6.93560e-02,-2.60940e-01,-3.95389e-02,-1.70101e-02,-1.21149e-01,-2.29749e-03,-9.30978e-02,2.10270e-01,-6.64892e-01,4.27115e-02,-4.89882e-02,8.74381e-02,4.98965e-02,-1.94776e-01,-4.34577e-01,-2.13584e-01,-3.07161e-01,-2.21328e-03,-1.93316e-01,-8.97726e-02,-1.93243e-02,-4.09571e-01,-3.25095e-01,-3.09150e-01,-2.82965e-01,-2.88887e-01,-1.97973e-01,-2.11594e-01,-1.73987e-01,-1.54344e-02,1.08985e-01,-9.66739e-02,-2.73957e-01,-2.93001e-01,-1.57626e-01,-5.17542e-01,-2.80988e-01,-1.53810e-01,1.37646e-02,5.99991e-02,-1.74563e-01,-2.85415e-01,-2.68465e-03,
-5.79834e-02,8.85621e-02,-1.26955e-01,-3.93865e-02,-1.49918e-01,-3.80231e-03,-1.34877e-01,-1.20065e-01,-1.60941e-01,5.91163e-03,-1.50940e-01,1.03559e-01,-5.38812e-02,-1.75393e-01,-7.63283e-02,1.40027e-02,-1.72078e-01,-1.63577e-03,3.25661e-02,1.76095e-02,-1.96166e-01,1.69517e-01,-1.95882e-01,-1.57284e-01,-1.91957e-01,-1.69943e-01,8.00635e-03,-1.53699e-02,-9.63026e-02,-9.14418e-02,-3.22021e-02,-1.71431e-01,8.40294e-02,-2.96099e-02,-1.96302e-01,-8.25479e-02,-1.22083e-01,-1.13976e-01,-4.72767e-02,-1.60286e-01,-3.12143e-01,-5.96051e-02,-1.61640e-01,-1.95571e-01,6.58326e-02,-1.86267e-01,3.92177e-03,-1.47562e-01,1.97176e-02,-8.02825e-02,-5.57405e-02,5.16060e-02,-8.66715e-02,7.85830e-02,-1.48580e-01,-8.22145e-03,-1.90964e-01,-1.70273e-01,-1.61174e-01,-5.96415e-03,-6.82998e-02,-3.72833e-02,9.04239e-02,-1.39274e-01,-1.45824e-01,8.83883e-02,4.92774e-02,6.62394e-02,-4.74111e-02,1.98319e-02,8.23740e-02,-1.51978e-01,-1.72976e-01,-3.35139e-01,-2.04875e-02,6.93066e-02,-1.10837e-01,3.72807e-02,-1.30240e-01,-4.42110e-02,6.96709e-02,-1.62774e-01,-7.31928e-02,-1.24881e-01,-1.40205e-01,7.61015e-02,-1.33174e-01,-1.25226e-01,-1.87047e-01,-2.92238e-02,1.19546e-02,-3.18608e-02,-1.66239e-01,-3.24892e-02,-5.20865e-02,2.63335e-02,-1.91333e-02,-1.03349e-01,7.44305e-02,-1.37343e-01,-4.71401e-03,-9.17004e-03,-2.00874e-02,-1.82052e-02,-1.58166e-02,7.95055e-02,-1.01253e-01,-1.11772e-01,6.83983e-02,-5.70632e-02,-1.63638e-01,-1.45842e-01,-5.00549e-02,-7.19257e-02,-1.58024e-02,-1.41284e-01,8.42488e-03,7.46898e-02,1.30061e-01,-7.73153e-02,-2.79390e-02,-2.07785e-01,-9.57701e-02,-1.67332e-01,3.49680e-02,2.47899e-02,-7.51874e-02,-1.55133e-01,
7.69411e-02,-1.20273e-01,5.79805e-02,-2.07647e-01,-6.21598e-02,-1.81655e-01,-6.80200e-02,-5.89161e-02,-2.04802e-01,-3.94924e-01,-5.79137e-03,7.32323e-02,-1.19585e-01,1.90504e-02,2.84517e-02,1.66127e-01,-7.47897e-02,-1.94622e-02,-1.37374e-01,5.14494e-02,-4.78256e-02,-1.70778e-01,-1.61538e-01,-1.14729e-01,-1.18897e-02,-1.38959e-01,6.02151e-02,-3.11151e-01,1.09656e-02,-1.60643e-01,1.03599e-01,-3.58319e-03,-4.43730e-02,4.05734e-02,-1.33348e-01,8.93309e-02,7.09203e-02,-1.60279e-01,2.71567e-02,5.99072e-02,-4.78997e-01,-8.79577e-02,3.54373e-03,-9.42404e-02,-5.45376e-02,-2.04270e-01,-2.92070e-01,-7.52128e-02,-8.31083e-02,-1.99232e-01,-3.71415e-02,-1.01566e-03,-9.12097e-02,-1.62663e-01,-1.61481e-01,3.30810e-03,-1.40574e-01,3.49049e-02,-6.57363e-02,-1.89278e-01,-8.86553e-02,-1.32964e-02,-1.59367e-01,8.81630e-03,6.52083e-02,-1.52037e-01,-1.40323e-01,-9.56127e-02,-1.64240e-01,-1.41262e-02,5.95156e-03,-1.18542e-01,9.09434e-04,-4.37286e-01,-5.32044e-02,-1.72500e-01,-1.78556e-01,-2.26203e-01,-8.13686e-02,-1.18977e-01,-1.28329e-01,5.61342e-02,-9.52433e-03,-1.64829e-01,4.74258e-02,-3.46731e-01,1.43193e-02,-4.86309e-02,-1.02928e-01,-1.32367e-02,-6.41584e-02,-4.31748e-02,-1.03546e-01,7.58027e-02,8.65912e-02,-1.38122e-01,-3.89922e-01,-4.62035e-01,-1.58832e-01,-2.00609e-02,-5.38970e-02,6.16705e-02,-1.85512e-01,1.79722e-01,-1.88601e-01,-3.96184e-01,-1.34835e-01,-2.52017e-02,-1.34027e-01,-6.54654e-02,4.15709e-02,1.10328e-02,-1.77846e-01,-3.90383e-02,2.22398e-02,-2.79203e-02,-1.91272e-01,-4.56342e-01,-1.71700e-01,-1.46620e-01,-8.50425e-02,-1.95197e-01,-1.70958e-01,-2.12793e-01,1.98945e-02,-7.34641e-02,-1.87894e-01,-9.66154e-02,
-1.66482e-01,-3.21260e-01,-3.61378e-01,-3.28136e-01,4.88610e-03,-2.80276e-01,9.01571e-02,-1.56702e-01,-3.97312e-02,-3.19481e-01,-8.18557e-02,-2.44933e-01,9.16109e-02,1.63041e-01,-1.91650e-01,-2.74617e-01,1.38398e-01,-3.51862e-01,-1.58198e-01,9.27049e-03,-6.04884e-02,2.37081e-02,-2.55383e-01,2.65303e-01,-3.65272e-02,1.18326e-02,-2.30442e-01,-6.11836e-03,-7.46749e-02,-2.36231e-01,2.47050e-01,-3.54470e-01,-1.69970e-01,-2.95352e-01,-1.21015e-01,6.13910e-02,6.81794e-02,-6.28993e-02,-1.18514e-01,-6.89784e-02,-4.68511e-01,4.53886e-02,-1.87779e-01,-4.64459e-02,-3.08888e-01,2.22314e-02,-5.44931e-02,-1.40048e-01,-1.64339e-01,-1.79571e-01,-1.26107e-01,-1.44311e-01,-2.02075e-01,9.41212e-02,8.86254e-02,2.84984e-01,-1.77222e-01,-2.67411e-01,-8.98740e-02,-8.90359e-03,-8.97028e-02,-1.27654e-01,1.75208e-01,-1.18143e-01,-2.99338e-02,-8.27410e-02,-1.57602e-01,7.59935e-02,-1.92675e-02,-1.22264e-01,-6.98578e-03,-2.29915e-02,-1.81543e-01,-3.18561e-01,-1.98082e-01,9.64214e-02,-1.91485e-01,-3.32806e-01,-4.81237e-01,-1.44275e-02,-3.08395e-01,2.11267e-02,-3.61600e-01,2.56097e-01,-8.63963e-02,-2.24695e-01,1.13323e-01,2.70878e-01,-6.07383e-02,-8.42675e-02,-3.50352e-02,-1.07417e-01,-3.63670e-01,-4.53310e-01,-4.58345e-02,8.73400e-02,-1.69856e-01,-1.49010e-01,-1.60615e-01,-1.93385e-01,-1.67507e-01,-1.05066e-02,-1.94303e-02,-2.55045e-01,5.95743e-02,2.87109e-02,-1.65949e-01,-1.46391e-01,-1.43632e-01,-1.19966e-01,9.14469e-03,-2.01323e-01,-1.59238e-01,1.44572e-01,-1.61976e-01,5.78474e-02,-2.92978e-01,1.82575e-01,-1.87355e-01,9.61723e-02,-3.35493e-02,2.91623e-01,2.22653e-01,8.21640e-03,-5.02753e-02,-1.13928e-01,-2.37355e-01,-1.08298e-01,
2.13400e-02,-6.26294e-02,2.23537e-02,-1.63891e-01,-2.33715e-01,-2.18922e-02,4.60619e-02,-2.72885e-02,7.26983e-02,4.90316e-02,-1.00837e-01,6.71598e-02,-4.11073e-01,-2.14254e-01,-1.79424e-01,-1.77856e-01,-2.99549e-02,4.18793e-02,9.11846e-02,-7.58562e-02,-1.79649e-01,-1.84213e-01,-1.77407e-01,-1.11682e-01,-2.05387e-02,-9.00780e-03,-4.13986e-02,3.19408e-02,1.06731e-01,1.43781e-01,-1.40458e-01,2.11249e-03,-4.25618e-02,-1.17742e-01,-1.33627e-01,-1.67333e-01,-1.17006e-02,1.85273e-02,-5.05210e-04,3.80571e-02,-1.99765e-01,-1.74875e-02,-5.95132e-02,-2.28545e-01,-2.72266e-01,3.36442e-02,-1.25733e-01,-1.56504e-02,-1.32025e-01,-1.39881e-02,-1.55674e-01,-1.87534e-01,2.85621e-03,-1.41312e-01,-1.69792e-01,-1.12152e-01,-1.66199e-01,-6.12551e-02,-2.02887e-01,-1.57608e-01,7.88436e-02,-1.56212e-02,-3.78873e-02,-3.18828e-02,-1.77332e-01,-1.48790e-01,1.07300e-01,-1.84711e-02,4.09352e-02,3.18718e-02,-1.95900e-01,4.82111e-02,1.56136e-02,-3.45762e-01,2.54677e-02,-1.43660e-01,1.00830e-01,9.48164e-02,-1.12689e-01,5.64412e-02,-1.17153e-01,4.01783e-02,-1.36904e-01,-1.67547e-01,-7.27576e-02,-2.19420e-01,-1.47905e-01,7.30060e-02,-1.33846e-01,9.20643e-02,-2.32351e-01,4.13714e-02,-1.61128e-01,-1.30254e-01,1.34820e-02,2.88899e-02,-7.52387e-03,-1.56210e-01,1.25249e-02,-9.61156e-02,4.87694e-02,-1.24609e-01,2.03525e-03,1.71258e-02,8.66016e-02,-1.89335e-01,7.80789e-02,-1.12466e-01,-3.89195e-01,-2.10376e-03,-1.48649e-01,-1.44190e-01,-6.60216e-02,-1.19741e-01,-6.47799e-02,-1.70917e-02,-1.18336e-01,-1.14100e-01,6.55299e-02,7.72725e-02,-5.14873e-02,-1.90754e-01,-1.96363e-02,-3.44053e-02,-8.78958e-03,-7.82401e-02,-1.12175e-02,6.12472e-04,
-4.95819e-02,4.87030e-02,3.12973e-02,-1.85838e-02,-1.75972e-01,-1.05190e-01,-2.13917e-02,-7.77886e-02,3.24766e-02,4.22425e-02,5.11463e-02,-1.06191e-01,-2.34207e-02,9.16253e-02,-1.84917e-02,6.38167e-02,-7.73127e-02,5.16018e-02,-2.29626e-02,-3.00531e-04,-1.62996e-01,-1.21918e-01,-4.04674e-02,1.32765e-02,-9.09989e-02,-4.93323e-02,-1.63200e-01,-1.15442e-01,-3.21132e-02,-5.08376e-02,4.58094e-02,7.48107e-02,-1.40947e-01,-4.18178e-02,-1.71853e-01,-1.10683e-01,-1.07332e-01,-1.52453e-01,-8.72013e-02,5.04883e-02,-1.93322e-01,-1.83900e-01,1.64341e-02,-3.23941e-03,-7.46724e-02,2.71738e-02,4.72245e-02,-8.87619e-02,-1.28273e-01,3.82502e-02,-9.44513e-02,-6.80819e-02,-1.08653e-01,-1.60418e-01,-3.13816e-02,-6.91341e-02,-2.56487e-01,1.96148e-02,-6.91635e-02,-3.39604e-02,-1.14358e-01,-6.22166e-02,4.87438e-02,-1.08970e-01,-1.04954e-01,-1.75363e-01,-1.49628e-01,-1.52400e-01,-1.86848e-01,5.82170e-02,-1.54456e-01,-9.41639e-02,-2.71756e-02,-2.42977e-01,-4.33856e-02,-1.32102e-01,-9.20979e-02,2.19871e-02,-1.15058e-01,-4.84708e-02,-4.96901e-02,-1.49981e-01,9.87029e-03,5.86339e-02,-1.78944e-01,-4.79748e-02,3.38032e-02,-9.12007e-02,-9.96085e-02,-4.88348e-02,-1.70804e-02,-9.70515e-03,7.35941e-02,7.57169e-03,-8.28816e-02,-8.40769e-02,-7.66004e-02,-7.24487e-02,-1.24921e-01,-1.64958e-01,7.97961e-02,1.95805e-02,6.33013e-02,-1.36879e-01,-3.57695e-02,-1.06233e-01,-8.15662e-02,-1.63387e-01,2.65615e-03,-1.76633e-01,-9.29991e-02,2.62466e-02,-1.46611e-01,-1.57041e-01,-1.43675e-01,1.53090e-04,2.87627e-02,-5.38443e-02,-1.13929e-01,3.51373e-02,-1.38895e-01,-2.05302e-03,1.03283e-02,-1.21146e-01,7.46151e-02,3.61385e-02,-1.13495e-01,-6.21513e-02,
-3.66539e-01,-2.17663e-03,-7.13859e-02,-2.72961e-01,-1.63172e-01,-1.94334e-02,6.22083e-02,6.07798e-02,-1.21392e-01,-1.50006e-01,1.68689e-02,5.96083e-02,4.50331e-02,4.54682e-02,3.57440e-02,-1.65884e-01,4.70678e-02,-1.55746e-01,7.67084e-02,8.93776e-02,-6.90180e-02,-3.61294e-01,-4.55443e-02,-4.78268e-02,7.29727e-03,1.05758e-01,-1.40900e-01,5.04455e-03,-1.29500e-01,5.45889e-02,-7.53954e-04,7.77225e-02,5.59614e-02,-2.30941e-01,1.17838e-01,1.33009e-01,-1.15162e-01,-2.75853e-02,-8.96085e-02,-2.09632e-01,-3.26302e-01,1.55626e-02,-1.48340e-01,-8.54572e-02,-5.29565e-04,3.75660e-03,1.96261e-02,5.29895e-02,-1.97145e-01,6.11551e-03,-2.37563e-01,-1.41295e-01,1.07810e-01,2.47828e-02,1.85675e-02,-1.17847e-01,-3.31318e-01,-1.70898e-01,-8.64397e-02,2.37212e-02,5.20091e-02,-2.05819e-01,-2.20305e-01,-3.72915e-02,-1.42364e-01,-1.84461e-01,-4.93545e-02,5.15851e-03,-1.46040e-01,-1.01386e-01,-1.67197e-01,6.24526e-02,-2.01107e-01,-5.61827e-01,-4.92984e-02,8.31587e-02,-9.52868e-02,-9.72220e-02,-5.45002e-03,-3.05707e-02,-2.00008e-02,-1.10930e-01,-1.04118e-01,7.06500e-02,-1.92965e-02,7.37724e-02,-2.10522e-01,-1.84095e-01,-1.56814e-01,5.40409e-02,-1.35382e-01,-1.22074e-01,-1.32684e-01,-1.30717e-01,-1.48113e-01,-1.17815e-01,-1.65323e-01,7.88554e-02,-2.28760e-02,-8.21947e-02,-2.97920e-02,-7.94179e-02,-1.49826e-01,-4.71128e-02,-2.77191e-02,-2.20269e-01,-1.42185e-01,-1.03688e-01,-1.70703e-01,-3.01142e-02,9.04891e-02,2.04225e-02,-1.44132e-01,-7.95787e-02,-2.10049e-01,-1.88879e-01,-3.13684e-01,5.12459e-02,-1.19235e-01,-4.16811e-02,-5.16407e-03,-2.38494e-01,-1.50223e-01,4.17170e-02,-9.47401e-02,-1.31535e-02,2.32949e-02,-9.64884e-02,
-2.01128e-01,8.36678e-02,-8.20114e-02,-1.97660e-01,5.17617e-02,-1.26367e-01,-1.67349e-01,5.58001e-03,-1.69808e-01,-1.59221e-01,-1.06965e-01,-1.80553e-02,-1.38802e-01,4.74882e-02,-1.39328e-01,-1.81759e-01,-2.13124e-01,-2.08308e-01,-1.38818e-01,5.82438e-02,-1.12303e-01,-1.25805e-01,7.73367e-02,-1.70166e-01,-1.54422e-01,-1.99874e-01,7.38213e-03,-1.50507e-01,7.96984e-03,-1.26986e-02,-1.84511e-01,-2.33805e-01,-1.78332e-01,-8.70651e-03,-4.09980e-02,8.75101e-02,-1.37987e-01,-1.49976e-01,-8.08320e-02,-1.37592e-01,-3.94934e-02,-1.16945e-01,-1.71753e-01,-7.83080e-02,2.00190e-03,-2.49380e-02,5.21687e-02,-2.38526e-01,-1.19970e-01,9.88772e-02,-1.25192e-01,-1.03966e-01,-2.79670e-03,-5.99933e-02,-2.05679e-01,6.22466e-02,-2.12100e-01,3.36126e-02,-2.00792e-03,-1.86656e-01,1.08705e-01,-1.50938e-01,2.52358e-02,-1.63621e-01,4.72484e-03,-2.52251e-02,-1.93913e-01,-7.39293e-02,-1.56543e-01,-1.50908e-01,1.31434e-02,2.61215e-02,-3.86244e-03,-4.80126e-01,-1.48988e-01,1.17898e-01,7.47070e-03,-1.80197e-01,-1.07316e-01,-1.89786e-01,3.37142e-03,-4.08135e-02,-1.38668e-01,8.43032e-02,-8.72061e-02,-4.33510e-02,-1.59358e-01,-1.39654e-01,-2.89223e-02,-5.12203e-02,9.57908e-02,3.40534e-02,-6.24784e-02,-5.58298e-02,-1.32650e-01,-1.55911e-01,1.05672e-01,-2.18647e-01,2.74857e-02,9.94401e-03,-2.13735e-01,1.70996e-02,-1.77423e-01,1.01941e-01,-6.27106e-02,-5.30148e-02,-2.10401e-01,-3.15071e-02,1.09928e-02,1.45062e-02,9.07440e-02,8.17386e-02,-1.43828e-01,-1.20361e-01,-1.48676e-03,-5.84815e-02,3.38120e-02,-1.47587e-01,-9.52031e-02,1.51031e-02,-9.75556e-02,-3.36182e-02,-2.30012e-02,-2.96509e-02,-2.48306e-03,-9.22772e-02,2.29505e-02,-6.65387e-02,
-1.49884e-01,4.58408e-02,-2.07071e-01,-2.67855e-01,-4.18581e-02,7.00972e-02,-1.98543e-01,-1.20767e-02,-2.17096e-01,-2.44225e-01,-7.20857e-03,-4.96913e-01,-1.73062e-02,-1.16641e-01,-1.56263e-01,-4.51793e-02,-2.22049e-01,2.11622e-02,1.32356e-02,7.25171e-02,-1.68681e-01,-2.33469e-02,-1.00664e-01,1.33455e-01,-1.71915e-02,-8.68672e-02,-1.29467e-01,-2.76776e-03,1.05342e-03,-3.74152e-01,-7.89011e-02,2.58241e-02,-1.45810e-01,-1.45728e-01,-8.59560e-03,-1.15296e-01,-1.13315e-01,-2.15456e-02,5.96770e-02,8.89649e-02,-2.60174e-01,9.18909e-02,3.49675e-02,-1.07728e-01,3.26285e-03,-2.01193e-01,-2.38865e-02,-1.47893e-01,-8.67699e-02,5.58400e-02,-1.57260e-01,-6.89220e-02,-6.03258e-02,-2.05447e-02,5.91650e-02,-1.37701e-01,-2.44793e-01,-7.38853e-02,-3.17219e-01,-2.05837e-01,2.20829e-02,-9.44362e-02,1.04007e-02,-3.45108e-02,-1.60197e-01,-9.32269e-04,-2.43154e-01,1.04101e-01,1.05228e-01,3.81037e-02,-1.27030e-02,-2.60433e-01,-1.88498e-01,-3.00720e-01,-7.40366e-02,-2.02281e-01,-1.18346e-01,7.04968e-02,-1.11623e-01,-1.04795e-01,-9.80955e-02,-1.43011e-02,-2.19080e-01,7.82126e-02,3.61483e-02,4.28116e-02,-9.28424e-02,-5.93201e-03,-2.80656e-03,2.95919e-02,6.30638e-03,-4.53010e-02,-1.69239e-01,-2.77191e-02,-3.48654e-02,-7.68338e-02,5.40372e-02,-4.96808e-02,-2.01395e-01,9.28755e-02,-8.37585e-02,1.42939e-01,-1.42671e-01,2.07478e-02,-1.94469e-01,3.13927e-02,-1.24878e-01,-6.92956e-02,-3.32307e-01,-2.39966e-02,-1.91863e-01,-2.32826e-01,7.80439e-02,-8.50296e-02,-1.49660e-01,-8.01173e-02,5.29136e-02,-1.82694e-02,-2.70605e-02,-1.89673e-02,9.60218e-02,-3.50600e-02,-4.35416e-02,-1.70224e-01,-1.86899e-01,-2.63066e-01,-2.60558e-01,-1.11122e-01,
-2.71564e-01,-9.46722e-02,-5.57870e-02,-1.60330e-01,-1.87312e-01,6.23939e-02,-3.08344e-01,1.20716e-02,-8.49469e-03,2.69998e-02,-1.54900e-02,-1.20207e-01,-4.29449e-01,-1.08802e-01,-1.20055e-01,-4.62989e-01,-1.06200e-01,-1.73442e-01,-4.21502e-01,-6.98301e-02,6.49607e-02,-1.25474e-01,1.04883e-02,-6.52052e-02,-4.27798e-01,-1.01916e-01,-1.55874e-01,-1.89591e-01,5.48265e-03,-4.62869e-01,1.17086e-01,-3.79453e-01,6.19840e-02,-6.53206e-02,-1.90266e-01,9.13616e-02,-1.42770e-01,-9.73697e-02,-1.06191e-01,-2.82037e-01,-6.12699e-01,-3.23022e-01,-1.76350e-01,-4.41002e-01,-1.24987e-01,1.90130e-02,-4.04504e-01,-2.90908e-01,-1.80282e-01,-2.97326e-02,-1.40353e-01,-8.80314e-02,-2.43103e-01,-5.23411e-03,-1.54494e-01,-1.82690e-02,-2.03188e-01,1.03267e-01,-3.81618e-01,5.81302e-02,-1.51895e-01,-1.88773e-01,-1.26558e-01,-3.93677e-02,-1.99255e-01,-1.86392e-01,-5.66955e-02,-1.31629e-01,-2.72101e-02,-5.67023e-02,-4.07949e-01,-2.06383e-02,4.04862e-02,-5.83417e-01,-1.74631e-01,-1.00703e-01,-2.24014e-02,1.03604e-01,-3.87125e-01,-3.79820e-01,2.41481e-01,7.58947e-02,-3.57975e-01,-7.93052e-02,-1.25004e-01,-1.13313e-01,-1.03314e-01,3.38145e-02,-1.05147e-01,-2.79713e-01,9.12425e-02,-4.85858e-02,-1.20663e-01,-3.71545e-01,-8.89362e-03,-8.05110e-03,-2.34976e-01,-1.87911e-01,-2.81840e-02,6.85706e-04,-5.37115e-02,-1.38241e-02,-9.24431e-02,-3.25852e-01,-5.73630e-02,-2.84869e-01,-1.75995e-01,-1.99653e-01,-3.51370e-01,3.59188e-02,-1.52937e-01,-8.43676e-02,-1.80846e-01,-1.57699e-01,-5.42780e-02,8.32878e-02,-1.36723e-01,-2.86640e-01,-8.01790e-02,7.52326e-02,-1.58100e-01,-2.29457e-01,-1.94500e-01,6.27644e-02,8.80499e-03,1.09561e-01,7.84504e-03,-4.49298e-01,
4.33349e-02,-6.03936e-03,-1.84410e-01,5.14650e-02,-3.79565e-02,-6.81839e-02,-6.50753e-02,-1.05866e-01,-6.70485e-02,-1.59319e-01,8.60927e-02,8.23939e-03,-1.07221e-01,-8.26617e-02,-7.44506e-02,-1.89423e-01,-6.14932e-02,6.91625e-02,-3.66858e-02,-1.56557e-01,1.12764e-01,-1.75265e-01,4.71954e-02,4.83219e-02,-4.38456e-02,-4.42920e-02,1.07926e-01,-2.29681e-01,-1.91522e-01,-8.88696e-02,-3.61162e-02,-1.88222e-02,2.66786e-02,-9.73911e-02,-1.79229e-01,-5.42422e-03,1.24013e-01,-4.47619e-02,-1.00576e-01,7.91697e-02,-1.49797e-01,-1.24031e-01,-1.32880e-01,-9.88098e-02,2.23373e-02,-8.17415e-03,-5.69567e-02,-9.00001e-02,-2.85161e-02,-1.20594e-01,-1.19796e-01,-2.18142e-02,1.01121e-01,-9.71638e-02,-7.27812e-02,6.96749e-03,-9.29125e-02,-1.16805e-01,-6.03034e-02,4.59907e-05,-9.78961e-02,2.20358e-02,-9.52560e-02,-1.44408e-01,4.58386e-02,2.61593e-03,-9.91090e-02,3.25693e-02,-2.22377e-02,-5.03480e-03,-1.57779e-01,-1.95143e-01,-1.87724e-02,-3.06129e-01,8.70784e-02,-2.38806e-03,-6.56247e-02,-5.69548e-02,-7.40551e-02,9.69522e-02,-3.41384e-02,-3.81015e-02,-1.23841e-01,-1.44921e-01,-5.13582e-02,-5.61281e-02,-6.81729e-02,-6.53789e-02,-7.04574e-02,-1.41969e-01,-9.47268e-02,4.19914e-02,-1.23096e-02,-1.53470e-01,-8.03526e-02,-1.80034e-01,4.22483e-02,-1.53938e-01,-2.73541e-02,-1.18962e-01,-7.84165e-02,-1.65177e-01,-1.42191e-01,-9.51784e-02,-6.60526e-02,-1.88999e-01,-4.12488e-02,1.05767e-02,6.57652e-02,-1.57378e-01,9.71643e-02,-1.90094e-01,1.29869e-01,-8.82594e-02,-9.99259e-02,-5.67660e-02,-5.21923e-02,-6.44027e-03,-1.87393e-01,-4.24637e-03,3.76486e-02,-4.11637e-02,-5.84785e-02,-1.16724e-01,-6.68044e-03,9.35906e-02,-5.65065e-02,-9.50645e-02,
-6.93088e-02,-4.41499e-02,-1.46764e-01,8.42558e-02,-1.25744e-01,1.37560e-01,9.57250e-02,-1.90334e-01,-9.13910e-02,-2.31797e-01,-4.41409e-02,-8.54607e-02,-1.26996e-01,-6.49152e-02,3.74794e-02,-1.06783e-01,-2.82862e-02,1.46482e-01,-1.67615e-01,-1.47007e-01,-1.81124e-01,-1.07251e-01,5.21020e-03,-1.48627e-02,-1.74521e-01,-5.26555e-02,-1.09464e-01,-6.95942e-02,8.36229e-02,-4.45887e-01,-1.37250e-01,1.24151e-01,8.24588e-02,-2.72434e-01,-7.57021e-02,-7.70961e-02,9.25901e-02,-1.34513e-01,-2.29755e-01,-1.15571e-01,-2.76581e-01,-1.83323e-01,-1.07443e-01,-7.64962e-02,1.65564e-01,4.16356e-02,-9.77930e-03,-1.76157e-01,-1.54761e-01,-4.87515e-02,-1.96014e-01,-5.08799e-03,-2.54058e-01,-1.38435e-01,-1.09542e-01,-8.65825e-02,-3.37688e-01,-9.39095e-02,-2.02305e-01,-2.59806e-01,-8.86460e-02,1.02323e-01,3.12154e-02,-2.74950e-01,4.33984e-02,-4.97097e-02,-2.25825e-02,2.21015e-02,-3.82314e-02,-1.05861e-01,4.28153e-02,6.22549e-02,-3.10335e-01,-5.17522e-01,-1.86755e-01,-2.14678e-03,-4.23913e-01,-2.82070e-01,-4.32789e-01,-1.43464e-01,2.11175e-02,8.72293e-02,-4.26959e-02,-6.75744e-02,4.51909e-02,7.71809e-02,-5.63610e-02,-2.17038e-03,-1.94334e-01,-1.89802e-02,5.29047e-03,-1.86786e-02,5.60002e-02,-9.77296e-02,-7.64599e-02,1.06967e-02,-2.00514e-01,-2.24352e-01,7.63008e-02,-1.53108e-01,-2.82552e-01,-1.27478e-01,-2.22857e-01,3.56057e-02,-1.80521e-01,-2.58946e-01,-1.70801e-01,-1.00394e-01,-4.03815e-01,-2.28458e-01,-5.08746e-02,1.13288e-01,-3.96829e-02,6.07247e-02,1.01753e-01,-2.07083e-01,-1.09635e-01,-1.69278e-01,2.78717e-01,-6.83534e-02,-2.01991e-01,5.04219e-03,-1.05873e-01,-1.08698e-01,6.90524e-03,-2.61397e-02,-1.27153e-01,-1.27041e-01,
-5.07872e-02,-5.62337e-02,-1.65278e-01,6.22323e-02,-1.75172e-01,-1.52120e-01,7.39174e-03,-8.83594e-02,1.98067e-02,-1.55480e-01,-1.54052e-01,-1.88115e-01,1.06889e-01,6.37681e-02,9.30093e-03,-8.39124e-02,-3.23217e-02,1.28764e-02,-9.94215e-02,7.80260e-02,-1.87363e-01,8.60431e-02,1.07576e-01,7.67243e-02,-8.50039e-03,1.10212e-01,2.49014e-03,8.55955e-02,-1.21268e-01,-1.74148e-01,-9.12343e-02,-3.14850e-02,-1.86892e-01,-1.14684e-01,-4.78964e-02,7.56410e-02,-1.26227e-01,5.57992e-03,-1.77208e-01,-2.13218e-01,-2.60133e-01,-8.37537e-02,2.39036e-03,1.00578e-01,-5.03616e-02,-6.68070e-04,-2.07145e-01,-7.21342e-02,-7.26910e-02,1.40784e-02,-8.45149e-02,-6.82104e-03,-1.03334e-01,-3.02927e-03,-1.35762e-01,-1.05253e-01,-1.26043e-01,-4.25196e-02,-1.63785e-01,-1.76197e-01,-1.63848e-03,-9.71892e-02,8.71766e-02,-1.21248e-02,-1.71837e-01,-4.53214e-02,-1.47938e-01,-1.61270e-01,-1.92384e-01,3.06670e-02,-1.69067e-01,-1.37234e-01,2.07425e-02,-4.31017e-01,-5.58925e-02,-5.85674e-02,-1.92071e-01,-7.88885e-02,-4.50058e-02,-1.57925e-01,-5.49565e-02,-1.89932e-01,-1.26821e-01,-1.32352e-01,-9.70803e-02,-1.95255e-01,-2.08691e-01,4.92758e-02,-2.51232e-01,-1.13764e-01,-1.29250e-01,1.70951e-02,-1.80199e-01,-1.37312e-01,9.77303e-02,-1.53903e-01,1.11763e-01,4.42034e-02,4.39011e-02,-9.27458e-02,-4.30138e-03,-1.39409e-01,-2.52197e-02,-5.97418e-02,-8.25699e-02,-2.35226e-01,1.11154e-02,5.44036e-02,-2.55277e-01,-1.46420e-01,9.85108e-02,1.12272e-01,-1.14933e-02,-3.37246e-02,-2.34620e-01,-1.36315e-01,-6.50818e-02,6.16329e-02,-3.29232e-02,8.17677e-02,-1.75800e-01,3.01375e-02,6.78279e-02,-2.90476e-01,-5.00079e-02,-1.17123e-01,5.53449e-02,-1.62127e-01,
-1.74787e-01,2.46392e-02,-1.86989e-01,-1.94262e-01,-7.48877e-02,7.77806e-02,1.06926e-01,8.36947e-02,-1.46699e-01,-1.10382e-01,-8.50580e-03,-2.39781e-02,7.98103e-02,2.27032e-02,1.17851e-02,6.49817e-02,-1.36299e-01,3.02191e-02,-1.12605e-01,-8.18328e-03,-1.52557e-01,-2.82796e-01,-6.77298e-03,-1.00029e-01,-1.52587e-01,-1.57698e-01,1.31047e-01,3.43881e-02,3.19522e-02,4.36677e-02,-4.17865e-02,-4.16239e-02,8.95110e-02,-1.69352e-02,-5.68172e-02,-1.46102e-01,4.48431e-02,-1.44476e-01,4.50920e-02,-8.80305e-02,-7.10774e-02,6.62984e-02,-5.40237e-02,8.07358e-02,1.41428e-02,-1.05286e-01,3.34005e-02,-1.08473e-01,-5.26937e-04,-1.23994e-01,-7.99108e-02,-8.10433e-02,-4.43671e-02,-1.83418e-01,7.75015e-02,2.52702e-02,-2.63000e-02,9.59534e-02,-7.45270e-02,6.56628e-02,-7.38295e-02,-2.01072e-01,-4.65371e-02,-3.75873e-02,7.55945e-02,1.24936e-02,-4.62590e-02,2.99989e-02,-5.21260e-02,-2.02946e-02,-9.61243e-02,-4.39946e-03,-7.62999e-02,-4.65716e-01,7.56209e-02,-1.81626e-01,-1.38932e-01,-3.35339e-02,-1.91376e-01,-2.36233e-01,3.87449e-02,-3.74651e-02,-1.04237e-01,-1.67120e-01,-1.04446e-01,-1.80954e-01,8.45537e-02,4.92529e-02,-1.76266e-01,-1.97380e-02,-1.72299e-01,-1.12745e-01,-1.93582e-01,5.82540e-02,-2.95163e-02,-2.90012e-02,1.18167e-01,-2.59277e-01,-2.24604e-01,-8.81532e-02,-1.31969e-01,-1.81768e-01,-2.16485e-01,2.21150e-02,-3.74080e-02,3.94703e-02,-5.82164e-02,-1.81364e-01,-8.74361e-02,-1.17269e-01,-5.68929e-02,-1.53651e-01,-8.36157e-02,2.20785e-02,4.91328e-02,-1.20434e-01,-5.02042e-02,-1.78640e-01,-1.90475e-01,7.11884e-02,-2.73721e-02,4.31506e-02,-1.52480e-01,-1.63672e-01,2.74540e-02,-2.08475e-01,-4.38676e-02,-9.24457e-02,
-1.82872e-01,-4.45417e-03,-9.23415e-02,4.73762e-02,9.28360e-02,2.08934e-02,-4.44840e-02,-1.39983e-01,4.49907e-02,-1.29594e-01,-9.81659e-02,-1.79353e-01,-2.60600e-02,-5.30139e-02,1.49188e-02,-1.91064e-01,-7.70240e-02,1.00507e-02,-1.00006e-01,-1.86123e-01,-9.15970e-02,3.98065e-02,-1.50993e-02,-2.09281e-02,-1.55232e-01,-5.72791e-02,5.46584e-02,9.07301e-02,7.50270e-02,-1.60082e-02,-2.54480e-03,6.29150e-03,-9.28155e-02,-3.33904e-03,-3.24451e-02,-1.27441e-01,-7.67606e-02,-1.65545e-01,-1.84434e-01,9.13602e-02,-2.34942e-01,5.52057e-02,-9.05961e-02,-1.89341e-01,-3.56850e-02,5.73365e-02,-7.80258e-02,-6.14588e-02,3.19228e-02,-2.93769e-02,-1.90794e-01,-1.28242e-01,-1.74322e-01,-1.24287e-01,-1.39725e-01,-5.81289e-02,-8.22563e-02,-1.59763e-02,-3.58194e-02,-4.10499e-02,-1.09867e-01,-2.02028e-02,-1.27596e-02,-1.03231e-01,6.64048e-03,-1.26088e-01,-1.77170e-01,-1.52353e-01,-2.03839e-01,-1.01154e-01,-5.21914e-02,-1.26820e-02,-1.98114e-01,-2.88451e-01,-8.75828e-02,-1.00780e-01,4.63587e-02,-7.91358e-02,-1.54108e-03,-1.33254e-01,-2.05517e-02,-5.86686e-02,4.98146e-02,-1.48639e-01,-4.41103e-02,-1.80488e-01,-1.52527e-01,-9.93676e-02,-1.41817e-01,-1.12149e-01,-7.54318e-02,5.78823e-02,-1.02702e-01,-3.25508e-02,6.45139e-02,-1.34791e-02,-1.68422e-02,-1.69723e-01,-1.14205e-01,2.50275e-02,2.04391e-02,-1.59262e-01,-1.96706e-01,-5.16182e-03,-1.00002e-01,-3.63730e-02,8.74505e-02,-4.47563e-02,2.96898e-03,8.51829e-02,-3.98286e-02,-1.81722e-02,-4.47507e-02,-9.63679e-02,4.81320e-03,-1.35252e-01,-4.48155e-04,2.28870e-02,4.69205e-02,8.17494e-02,-1.13627e-01,-1.42437e-01,-1.22326e-01,1.09320e-02,-1.50060e-01,7.79336e-02,-5.13826e-02,-2.20125e-01,
-1.63628e-01,-1.86331e-01,-2.07950e-02,2.61177e-02,-9.30977e-02,1.11967e-02,-8.80502e-02,-1.41556e-01,-7.16786e-02,7.69660e-02,-2.64180e-02,-1.61828e-01,8.13145e-02,-1.37351e-01,5.95769e-02,-3.30834e-02,-1.40045e-01,-3.73302e-02,-1.36046e-01,-3.13296e-02,-1.61618e-01,-1.74499e-01,-3.70908e-02,-4.21658e-02,-6.55406e-02,1.29554e-02,-9.88596e-02,-6.54146e-02,-1.46360e-01,5.38141e-02,-4.18446e-03,-2.58718e-02,5.40171e-02,-1.55834e-01,-3.34447e-02,-2.49382e-02,-1.34639e-01,-2.24948e-01,-9.08507e-02,-1.90734e-01,-1.12165e-01,-4.64788e-02,-8.82005e-02,1.54704e-02,-6.83973e-03,3.85019e-02,-1.50328e-01,-1.19725e-01,-1.58814e-01,-1.54610e-01,-8.86308e-03,-7.43774e-02,4.56111e-02,8.92932e-02,-1.04998e-01,-2.98399e-03,-2.37020e-02,8.13280e-02,-6.92815e-02,-1.00806e-01,-1.53756e-01,-1.42778e-01,-1.42984e-04,-1.93182e-01,-1.01413e-01,-1.36684e-01,-2.10296e-01,-3.78744e-03,-7.91947e-02,8.71170e-02,-5.46337e-02,-1.83616e-01,-1.04079e-01,-1.35527e-01,-1.78011e-01,-5.84998e-03,-3.34728e-02,-1.13635e-01,-1.50937e-01,-3.52639e-04,-1.39010e-01,-1.61274e-02,-3.13717e-02,-1.98740e-01,2.64759e-03,-2.62896e-02,-3.63660e-02,4.14282e-02,-1.42046e-01,-1.86751e-02,-1.39567e-01,4.79351e-02,-1.15479e-01,1.60722e-02,-1.54524e-01,-5.30279e-02,-5.82295e-02,-1.40197e-02,-2.16969e-01,-7.04274e-02,-1.13043e-01,-7.64125e-03,-2.09956e-02,-1.47343e-01,3.06904e-02,-2.19943e-01,-2.94496e-03,-5.39586e-02,-8.91965e-02,-1.84005e-01,1.92611e-02,-7.86878e-02,-1.45960e-01,-8.50432e-02,7.83879e-02,-1.61989e-01,-1.42490e-01,1.91831e-03,2.39664e-02,2.74409e-02,8.65417e-02,-2.83913e-02,-1.73948e-01,-1.71112e-01,-2.06797e-01,4.52988e-02,-1.72500e-01,-6.35720e-02,
6.63082e-02,-6.18585e-02,-7.80378e-02,9.43958e-02,-4.79065e-02,-1.78187e-02,-1.49436e-01,-6.72223e-02,2.27867e-02,-2.02299e-02,-1.32576e-02,-4.80480e-02,-2.16788e-02,-4.51850e-03,-1.17916e-01,-1.69071e-01,-2.00754e-01,-3.99343e-02,5.20623e-02,5.02856e-02,-1.96640e-01,3.57736e-02,-3.61971e-02,3.46628e-02,-1.48462e-01,8.69944e-02,-1.45526e-01,-1.31387e-01,-1.73698e-01,-1.69664e-01,-1.99219e-01,-3.90301e-02,6.62704e-03,-1.54166e-02,-1.75562e-01,-2.05376e-01,-4.08447e-02,-7.92369e-02,-2.39612e-01,-9.74024e-02,-1.56897e-01,-1.42724e-01,3.52424e-02,3.98313e-02,-1.85415e-01,7.52326e-02,-1.55253e-01,6.86780e-02,-7.75546e-03,-1.68540e-01,-1.14842e-01,-2.75365e-03,8.07541e-02,4.87300e-03,-1.56875e-01,-4.76631e-02,-1.94644e-01,-3.12078e-02,-5.30074e-02,3.03094e-02,-1.50559e-01,3.12145e-02,-3.45009e-02,-3.20573e-02,-7.73065e-03,-1.30216e-01,-2.52097e-01,-1.98934e-01,-9.85371e-02,-7.70647e-02,5.06100e-02,-1.85200e-02,-2.10986e-01,-1.18711e-01,-1.71518e-01,6.80559e-02,-2.06971e-01,1.46035e-02,-1.97537e-01,3.23593e-02,-7.63812e-02,-1.99182e-01,-1.26035e-01,-8.01638e-02,4.30978e-02,-1.79409e-01,-8.38675e-02,-9.53858e-02,-1.12108e-01,-6.14926e-02,-8.24449e-03,-1.49016e-01,-1.54525e-02,-7.82467e-02,-2.56531e-02,-1.40799e-01,-7.80009e-02,-8.04874e-03,-1.26205e-01,6.46973e-02,5.33025e-02,-7.92710e-02,-1.39803e-01,-3.61226e-02,-9.74737e-02,3.27485e-02,-1.83847e-01,-4.23301e-02,-1.91776e-01,-1.05633e-02,-1.78544e-02,3.64452e-02,-1.49351e-01,-2.55827e-02,3.27719e-02,-8.16424e-02,-1.35869e-01,3.90441e-03,3.88878e-02,-2.21185e-02,1.34647e-02,-1.14886e-01,-1.55690e-01,-1.86963e-01,9.00982e-02,-7.73388e-02,-2.19128e-01,-1.85403e-01,
1.79258e-02,-1.95507e-01,-2.12505e-01,4.52798e-02,5.21103e-02,-9.28644e-02,4.86371e-02,-9.96389e-02,-1.93265e-01,-1.80295e-01,-1.15216e-01,6.54125e-02,-1.28277e-01,-7.38090e-02,7.07608e-02,-9.35126e-02,2.67976e-02,6.52900e-02,4.63184e-02,4.34413e-02,-1.08888e-01,3.92628e-02,-6.81288e-02,-1.94535e-01,6.43461e-02,3.42010e-03,1.22262e-02,6.31339e-02,-4.81933e-02,-1.36913e-01,-1.54676e-01,3.53497e-02,-1.27712e-02,5.40628e-02,-5.02046e-02,-1.53648e-01,-4.45646e-03,-8.60036e-02,-2.04896e-01,-1.44487e-01,-1.01830e-01,-4.17565e-02,-2.85193e-03,-7.07970e-02,-1.63465e-01,-1.52291e-01,-8.81170e-02,-2.07176e-01,-1.00881e-01,8.07826e-02,-2.05577e-01,-5.17539e-03,5.35541e-02,-9.27738e-02,1.80481e-02,6.48849e-03,5.34912e-02,-1.33066e-01,2.26032e-02,-7.42485e-02,-8.09314e-02,-1.07122e-01,-1.87016e-01,7.65477e-02,-1.45431e-01,-4.13999e-02,-6.68224e-02,-1.20099e-01,-1.38419e-01,-1.37192e-01,1.59345e-02,2.56171e-02,-2.76897e-02,-2.06937e-01,-1.10808e-01,-1.19757e-01,-8.15766e-02,3.72825e-02,-1.58817e-01,2.02850e-02,-1.29924e-01,-1.17649e-01,-7.54702e-03,-1.20344e-01,-2.64276e-01,3.62490e-02,-4.35191e-02,1.30295e-02,-4.57071e-02,-3.38148e-02,-1.84439e-01,-1.07126e-01,-3.87234e-02,-2.51371e-01,-1.57120e-01,-8.62821e-03,-1.85035e-01,-6.77538e-02,-2.18934e-01,-4.45064e-02,-1.50280e-01,-1.48261e-01,-4.25716e-02,-1.53317e-01,3.36704e-02,1.73327e-02,-1.37457e-01,-8.97373e-02,-2.00587e-02,-5.47568e-02,-6.37535e-02,-3.11952e-02,1.19108e-03,-6.46851e-02,1.76235e-03,4.17653e-02,1.40441e-01,-6.81363e-02,-1.98768e-01,-4.54245e-02,-1.47630e-01,-9.90425e-03,-7.42095e-02,-1.77302e-01,-5.94823e-02,2.98741e-02,-1.33537e-01,-9.27873e-02,
5.30571e-02,-1.75553e-01,-1.36520e-01,9.27215e-02,-9.34144e-02,1.22580e-01,5.09164e-02,-4.02022e-02,1.07655e-01,-2.10645e-01,-1.48762e-02,-1.94439e-01,-9.70086e-02,-2.01415e-01,-4.77217e-02,-5.82339e-02,-7.96345e-02,-9.06591e-02,-1.54428e-01,-1.63939e-01,-2.02219e-02,4.59614e-02,-7.72539e-02,-2.04629e-01,3.24239e-02,6.94453e-02,-1.14108e-01,7.52138e-02,6.70497e-02,6.72174e-02,-1.64934e-01,-9.67926e-02,-6.04387e-02,-1.33129e-01,3.77421e-02,-1.23354e-01,-1.04429e-01,3.16002e-02,4.43194e-03,3.73323e-02,-2.18054e-01,3.32778e-02,3.14677e-02,-4.17673e-02,4.00202e-02,3.73863e-02,-7.77629e-02,-1.41006e-01,-1.63368e-01,-1.70271e-01,-9.59605e-02,1.34512e-02,1.13110e-01,1.61232e-02,-2.13461e-02,-1.37281e-01,-3.63258e-01,-2.68647e-01,1.01319e-02,7.26942e-03,-1.64122e-01,-7.40829e-02,-1.45743e-01,4.15994e-02,-8.61733e-02,4.48723e-02,-2.03108e-01,3.57868e-02,-7.28144e-02,-6.19267e-02,3.95009e-02,-1.90987e-01,-3.97223e-03,-5.11031e-01,9.38785e-02,-1.37720e-01,-1.36942e-01,-1.25384e-01,-1.35053e-01,6.12470e-02,9.49164e-02,2.02221e-02,-2.30707e-02,1.94173e-02,-1.80884e-01,-2.03032e-01,6.84550e-02,-2.30447e-01,1.96518e-02,2.03878e-02,4.75401e-02,-9.92450e-02,-1.77836e-02,-1.12124e-02,6.89837e-02,-1.42516e-01,6.23424e-02,-4.05539e-03,-5.04550e-02,-7.18121e-02,-1.88182e-02,-1.87494e-01,-9.76979e-02,-1.44527e-01,-1.53328e-01,6.35283e-02,6.79822e-02,-1.92673e-01,-1.23525e-01,-1.19134e-01,-1.88297e-01,-5.66549e-02,8.32214e-02,-9.76382e-02,-5.22342e-02,-1.18930e-01,-2.08443e-01,3.32208e-02,-4.70082e-02,-3.68666e-02,-1.20934e-01,-5.44775e-02,-1.18285e-01,3.52668e-02,4.23575e-02,5.55629e-02,-3.49717e-01,-1.77880e-01,
-1.98013e-01,5.05924e-03,-3.25984e-01,1.53371e-02,-1.01166e-01,-4.88105e-01,8.32437e-02,-1.93766e-01,-1.71780e-01,-2.84910e-02,-1.99478e-01,1.44516e-01,-2.47460e-01,-1.29155e-01,4.49626e-02,-2.13164e-01,5.90982e-02,-1.95255e-02,8.59770e-02,-9.52609e-02,-1.07921e-01,-1.61736e-01,5.39041e-02,-2.07354e-02,5.11778e-02,-1.09527e-02,7.04095e-02,-3.64894e-01,-3.84034e-01,-6.26962e-02,-2.32834e-01,2.41930e-02,-1.62840e-01,-1.39247e-01,6.39503e-03,1.10842e-01,-9.59091e-02,-6.83332e-02,-9.67698e-02,2.18871e-01,-5.88777e-01,5.29936e-02,-1.83621e-01,9.17246e-02,-1.74641e-01,-5.41760e-02,-5.89054e-02,1.79705e-03,-1.65540e-01,2.65499e-02,-2.13968e-01,-1.11403e-01,-7.83481e-02,-2.68129e-02,8.03350e-02,1.08003e-01,-5.02496e-01,-1.74258e-01,-2.11051e-01,-3.82175e-02,-9.25371e-02,-2.72567e-01,-1.46440e-01,-2.14592e-01,7.67029e-02,-1.55520e-01,-9.40748e-02,-2.14931e-01,-3.08045e-02,-5.50987e-02,-3.85854e-02,1.46396e-02,-1.13735e-01,-4.44155e-01,4.25566e-02,-1.65349e-01,-1.18236e-01,-5.66623e-02,-3.26149e-01,1.96949e-01,1.15101e-01,-7.39750e-02,-2.36035e-01,-2.02294e-01,-3.45984e-01,1.63777e-02,-3.62570e-01,-6.07552e-02,1.20576e-01,-1.48538e-01,-4.13323e-01,4.85267e-02,-1.75892e-02,-2.33225e-01,3.65859e-02,-2.55856e-01,-6.63377e-02,-2.20471e-01,-1.16973e-01,-2.28798e-01,2.32791e-01,-7.24381e-01,-3.41195e-02,-2.16507e-01,-5.44908e-02,-1.33672e-01,-3.59294e-01,-4.32735e-02,-2.72060e-02,-3.53302e-01,-1.55957e-02,-2.05332e-01,-2.96687e-01,2.44119e-01,-1.15169e-01,-1.99119e-01,-4.03960e-02,-7.32617e-02,1.08668e-01,-3.68797e-01,-1.95176e-02,-6.22102e-02,-2.17573e-03,7.75999e-02,-1.66085e-01,-1.88452e-01,-1.21030e-01,-2.09851e-02,
-1.99816e-01,-1.80809e-01,2.76445e-03,-1.10978e-01,8.32014e-02,-2.21710e-01,-1.62269e-01,-7.04311e-02,7.94930e-02,-5.03184e-02,1.03535e-01,-1.73404e-01,5.26056e-02,9.36284e-02,6.45053e-02,-1.25604e-01,-1.79552e-01,-1.78105e-01,3.93896e-02,5.78923e-02,-1.72217e-01,9.66101e-02,-1.25510e-01,-1.73766e-01,-9.60396e-02,3.11484e-02,-8.41976e-02,-1.58798e-02,3.22356e-03,-2.08273e-01,7.13547e-03,-1.46105e-01,-1.29732e-01,-4.23456e-01,-7.16002e-02,5.27587e-02,-1.23279e-01,-1.67671e-01,2.03128e-02,-1.56445e-01,-3.81714e-01,-3.57985e-02,-6.66091e-02,-1.52147e-01,-1.34271e-01,-4.92633e-01,-6.92171e-04,5.91895e-02,-2.97910e-01,-3.31079e-01,4.74969e-02,-1.46602e-01,-8.62783e-02,5.13646e-02,6.71409e-02,-1.52284e-01,-2.11777e-01,-2.88482e-01,-4.22674e-03,-1.97671e-01,-1.28468e-01,-1.29679e-01,-1.38278e-01,-1.29638e-01,-1.86617e-01,-8.64857e-02,-9.62592e-02,7.74269e-04,-2.11714e-01,-7.97407e-02,4.28394e-02,-1.85140e-01,-4.99494e-02,-3.04070e-01,-1.45919e-01,-3.25125e-02,-1.24702e-01,-9.03033e-02,-9.75395e-02,-1.94623e-01,-1.44137e-01,7.67484e-02,-3.68070e-02,-1.44803e-01,-1.78163e-01,-9.14177e-02,-1.98975e-01,-2.88795e-03,-1.45810e-01,-1.35810e-01,-3.49703e-02,-1.37814e-01,-1.91615e-01,9.32571e-02,-1.03935e-01,-6.14160e-02,7.65184e-02,-8.43280e-02,5.77900e-02,5.54780e-02,-6.49056e-02,-2.28211e-01,5.07435e-02,-1.08441e-01,9.37595e-02,-8.11891e-02,-1.39233e-01,-6.32208e-02,-1.47320e-01,-4.29253e-02,-2.07958e-01,-6.00578e-02,-6.11083e-02,-1.68953e-01,5.55290e-02,-1.01679e-01,4.66777e-02,-6.51383e-02,6.47194e-02,-1.33476e-01,-1.63132e-01,-7.33760e-02,-4.92350e-03,-1.28117e-01,-2.90987e-02,3.40804e-02,-6.38438e-02,-6.59437e-02,
7.69097e-02,2.20198e-02,-7.14920e-02,-3.93906e-02,-7.67605e-02,-2.40825e-03,-4.64281e-02,-2.12327e-01,6.08732e-02,-3.54876e-02,9.28238e-02,-1.61790e-02,-1.90723e-02,-1.97088e-01,-1.09823e-01,-2.03790e-02,-9.68610e-02,-7.19679e-02,-1.83614e-01,-1.47918e-01,-1.32622e-01,-3.58273e-02,-1.79946e-01,-8.83533e-02,-1.85899e-01,3.65310e-02,-1.10152e-01,-1.81254e-01,-8.77482e-02,-5.71818e-01,-1.53894e-01,4.49221e-02,-1.70763e-01,-5.90490e-02,-1.51537e-01,-5.41290e-02,-3.44826e-01,-4.48676e-02,-2.51689e-02,-1.70642e-01,-5.80346e-01,-2.23768e-02,-2.31028e-02,-2.46042e-01,-1.62007e-01,2.27226e-02,-4.49873e-02,-2.06376e-01,2.45050e-02,-1.88403e-01,-3.71732e-02,-1.18182e-01,-9.57965e-02,-9.24562e-03,-7.16265e-02,-1.66818e-01,-3.41193e-01,-5.15381e-02,-1.58648e-01,-6.63620e-02,-1.38120e-01,-6.65259e-02,-2.00663e-01,-1.58276e-01,-1.44750e-01,-1.62871e-01,7.08099e-02,-8.95566e-02,-1.18480e-01,-4.33011e-02,8.19422e-02,-5.40764e-02,-2.61811e-02,-8.08626e-02,-1.88575e-01,-1.82367e-01,-1.38557e-01,-3.50488e-02,3.48944e-02,-9.36279e-02,2.04795e-02,-1.72243e-01,-8.70420e-02,5.64875e-02,2.55246e-02,-1.24394e-02,1.62856e-02,-1.01001e-01,-2.09357e-02,-1.05405e-01,5.31152e-03,7.40919e-02,-6.29351e-02,-1.30878e-01,-2.21233e-01,3.89182e-02,-1.25324e-01,8.45581e-03,5.92441e-02,-3.15386e-02,-1.17834e-02,-7.90295e-02,-1.10281e-01,4.74403e-02,-1.90137e-01,-4.35827e-02,-4.91197e-01,1.11722e-01,-1.84681e-01,-8.74000e-02,-1.21726e-01,-1.92228e-01,-1.07209e-01,-8.97424e-02,-9.84802e-02,-1.10027e-01,-1.91760e-01,-1.73810e-01,5.86947e-03,-2.36405e-02,-2.64208e-02,4.57726e-02,-1.32015e-01,-5.30968e-03,-2.01440e-01,-6.78874e-02,-2.20366e-01,4.72361e-02,
6.18159e-02,-3.21244e-02,3.32072e-02,-1.64722e-01,-1.14235e-01,-4.78188e-02,9.10110e-02,-1.64617e-01,-8.16213e-02,-1.50864e-01,-1.25610e-01,1.14335e-02,5.70912e-02,-1.62593e-01,-1.68817e-01,-1.00331e-01,-2.18628e-01,-1.20187e-01,-8.85481e-02,-1.09500e-01,1.77627e-02,-1.07828e-01,2.58085e-02,2.13878e-02,-9.76769e-03,8.99921e-02,-2.57225e-02,1.18577e-01,1.22500e-01,-6.27238e-02,-8.25771e-02,-6.75175e-02,-1.93248e-01,-7.54191e-02,-1.33769e-01,-4.84358e-02,4.73191e-03,-1.32261e-01,-8.10758e-03,-1.56034e-02,-3.33336e-01,-1.13700e-02,-1.53057e-01,-1.07765e-01,2.05540e-02,-1.41981e-01,7.27944e-02,6.23938e-02,7.69707e-02,-2.08571e-01,-1.98256e-01,2.19749e-02,-1.58001e-01,-1.40009e-02,8.76763e-02,-1.08089e-01,-2.36053e-01,-1.04356e-01,-2.35660e-01,1.97502e-02,5.89238e-02,-2.20226e-01,-1.53528e-01,-1.91012e-01,-2.12335e-01,4.05946e-02,-4.48490e-02,-1.92350e-01,-2.73058e-02,-1.27625e-01,-3.71097e-02,-6.69152e-02,-1.26719e-01,-1.77233e-01,-1.73810e-01,1.62869e-01,-7.23582e-02,-1.51872e-01,-1.25791e-01,5.72622e-02,-1.91650e-01,-1.64933e-01,-8.79203e-02,-7.01080e-02,-7.60664e-02,-2.10968e-02,-5.91138e-02,3.57466e-02,8.44624e-03,-1.34291e-01,1.31383e-02,-2.36076e-01,-9.66737e-02,-9.10016e-02,-1.49899e-01,-1.98754e-01,6.21379e-02,5.68084e-02,-1.99951e-01,3.47088e-02,-1.98441e-01,-2.27671e-01,-1.14119e-01,-6.36236e-02,-5.50757e-02,7.29151e-02,-1.26599e-01,-1.83235e-02,-1.76602e-01,-3.63072e-02,-2.06128e-01,-1.02763e-01,4.21868e-02,-1.70564e-02,-9.52540e-02,-5.75421e-02,2.49001e-02,-2.00602e-01,-5.17271e-02,4.15201e-02,2.99955e-02,-1.54081e-01,-1.66078e-01,-3.45987e-02,-8.32035e-03,-1.56593e-01,3.26176e-02,-1.17294e-01,
-1.21924e-01,2.46203e-03,-6.82962e-02,-1.68879e-01,-8.04906e-02,-2.29229e-01,-9.19755e-02,5.20295e-02,-8.65668e-02,1.17574e-01,-1.44509e-01,8.15825e-02,-3.52470e-03,-4.73850e-02,-1.54514e-01,-9.54602e-02,4.14710e-02,8.34269e-02,-1.03221e-01,-1.84098e-01,2.24711e-02,-1.03524e-01,5.84115e-03,-3.74618e-02,-1.21081e-01,-1.82801e-01,-2.14379e-02,1.32614e-02,8.24675e-02,-9.59002e-02,-1.84839e-01,-7.83662e-02,-8.53510e-02,-9.50963e-02,-1.89917e-01,-9.44454e-02,6.30858e-02,-9.21731e-02,-2.64205e-01,-1.94542e-01,-1.61483e-01,-1.42622e-01,2.65215e-02,-6.09678e-02,-8.89452e-03,-8.98300e-02,5.75992e-02,-3.21424e-02,-1.43839e-02,3.09828e-02,-3.12305e-01,-2.19002e-01,-2.92116e-01,-8.81252e-02,-1.38548e-01,-6.25166e-02,-1.68501e-01,-5.95116e-02,-3.63964e-02,-3.22541e-02,-1.35086e-01,-1.26098e-01,5.52982e-02,-8.43338e-02,8.41090e-03,6.84759e-02,-3.63296e-02,2.85229e-02,7.55357e-03,1.92101e-02,-1.05292e-01,-2.57143e-01,1.99810e-02,-3.51722e-01,-8.53285e-02,5.99707e-02,3.09193e-02,-1.42934e-01,-1.34743e-01,-1.90536e-01,-1.28286e-01,-4.70414e-02,6.17912e-02,-3.13975e-02,1.97655e-02,-4.79362e-02,-4.27303e-01,-1.53440e-01,2.05447e-02,7.20804e-02,-1.61015e-01,-1.91084e-01,-2.09846e-01,-1.92942e-01,-1.88040e-01,5.48878e-02,4.38375e-02,-7.34703e-03,8.42362e-02,-3.08163e-01,-1.12965e-01,6.07761e-02,8.19737e-02,-1.38572e-01,-1.76009e-01,-1.28964e-01,1.82838e-02,-2.09306e-01,-9.17242e-02,2.28276e-02,-1.75779e-01,-1.24438e-01,3.11335e-02,1.23545e-02,-4.40790e-01,8.19297e-02,-3.11431e-02,8.83721e-02,2.34701e-02,7.34865e-02,-3.58805e-02,1.72367e-02,-2.17594e-02,-1.15686e-01,4.55274e-02,4.24539e-02,1.38929e-02,3.22888e-02,
-3.31152e-02,1.00077e-01,-2.19111e-01,-6.47340e-02,2.87547e-02,-4.40158e-02,-1.47370e-02,-6.39254e-02,-1.79761e-01,-2.00248e-01,1.94906e-03,5.67080e-02,-9.25964e-02,-9.84839e-03,-1.39146e-01,-8.65578e-02,-1.47884e-01,1.85728e-02,-1.15340e-01,2.47196e-02,-1.82781e-01,-8.52384e-02,6.66026e-02,-1.24047e-02,3.04996e-02,-1.55296e-01,-1.95534e-01,-1.32926e-01,-1.87865e-02,-2.82350e-02,2.97431e-02,-3.96144e-02,4.88519e-02,7.12599e-02,-6.71064e-02,-2.42265e-03,4.43330e-02,-1.10126e-01,-1.37339e-01,-8.83611e-03,-9.05186e-02,-1.16554e-01,5.86868e-03,-2.92060e-02,-1.42283e-02,-1.84424e-01,-1.26803e-01,3.02758e-02,-2.37880e-02,1.51923e-02,-9.05600e-02,-4.00361e-02,7.90018e-03,-7.36404e-03,-6.75859e-02,7.67972e-02,-2.23353e-01,3.09975e-02,-1.58114e-01,-9.62648e-02,-5.67172e-02,3.91325e-02,4.35254e-02,2.15424e-02,-1.98851e-01,-3.64086e-02,-1.06442e-02,-1.87572e-01,-9.70360e-02,7.07150e-02,-4.62455e-02,3.20217e-02,-1.64651e-01,-2.19700e-01,5.04754e-02,5.91043e-02,-1.75611e-01,-6.20298e-02,-4.30687e-02,-1.50692e-02,8.49909e-02,-8.99706e-02,-1.76255e-02,-1.87342e-01,6.66429e-02,-1.30151e-01,-1.77840e-01,-5.10700e-02,-9.82457e-02,-1.53093e-01,-3.04575e-02,5.54939e-02,-1.20658e-01,8.87303e-03,-1.83350e-01,-1.30499e-05,3.21188e-02,4.59243e-03,2.65404e-02,9.69121e-02,1.08387e-01,-1.62373e-01,4.06354e-02,-3.89232e-02,7.54378e-02,7.75660e-02,-1.51117e-01,-1.77658e-01,-4.63845e-02,8.51848e-03,-4.72677e-03,2.52887e-02,-1.65467e-01,-2.72720e-02,5.66581e-02,-1.85791e-01,-1.51833e-01,-6.22436e-02,-1.66670e-01,-4.80864e-02,8.56463e-02,9.15985e-03,6.06095e-02,-1.84622e-01,-1.00457e-02,3.63029e-02,-7.53285e-02,-1.26318e-01,
-5.84309e-02,1.04626e-01,-4.38389e-03,-8.29539e-02,1.58533e-01,-1.73614e-01,-1.96050e-03,-1.31220e-01,-5.56347e-02,-2.08424e-01,-1.11987e-01,-1.87220e-01,9.72331e-02,-1.47346e-01,5.31915e-02,-1.88191e-01,7.63120e-02,-1.03390e-01,-2.46609e-01,-6.08750e-02,-1.85507e-01,3.30627e-02,-7.53416e-02,7.33395e-02,2.64695e-02,-1.44149e-01,-9.40301e-02,-9.98200e-02,-1.45828e-01,-1.33833e-01,-5.44647e-02,-1.36497e-01,7.47829e-02,-2.71926e-02,-3.72946e-02,-1.69682e-02,-1.32408e-01,-2.01878e-01,-1.95330e-01,-6.59883e-02,-2.45819e-01,-1.57522e-01,-2.94010e-02,-2.10501e-01,-1.45876e-01,-1.24823e-01,-1.53900e-01,-6.53049e-02,-5.41166e-02,-1.32122e-01,-1.48738e-01,6.28222e-02,1.36820e-01,-2.36902e-02,6.25453e-02,-1.47143e-01,-2.49545e-01,-1.71625e-01,3.77659e-02,8.18579e-02,-1.64789e-01,1.56992e-02,3.06168e-03,-1.47023e-02,3.07988e-02,-1.19249e-01,1.98250e-02,-7.96712e-02,-2.00359e-01,5.79948e-02,1.67893e-02,-8.45154e-03,-1.76490e-01,-2.11102e-01,-2.30696e-01,2.85076e-02,-1.69505e-02,-8.61269e-03,-3.86213e-02,-9.06346e-02,-2.22854e-01,2.34710e-02,7.95104e-02,-2.69040e-02,1.97677e-02,6.14798e-02,5.99515e-02,-1.58673e-02,6.82367e-02,5.09807e-02,9.89591e-02,1.40664e-01,-1.34591e-01,-7.08872e-02,-7.01134e-02,-8.40538e-02,-1.37315e-01,5.31058e-02,-1.29865e-02,-4.83640e-02,-1.23148e-01,-2.02521e-01,-1.66707e-01,-4.92047e-02,-5.10315e-02,2.91424e-02,1.89565e-02,-1.73749e-01,-1.34405e-01,-1.78324e-01,-1.62862e-01,8.68599e-02,-2.00295e-02,1.72274e-02,-1.86066e-01,-1.12357e-01,1.31978e-02,-3.74025e-02,-1.68514e-01,-1.39708e-01,2.86627e-03,-1.11037e-02,-4.26414e-02,-9.29434e-02,-3.36244e-02,-3.33327e-03,-5.35332e-02,-1.07968e-01,
2.85831e-02,-9.16893e-02,-1.12614e-01,9.36745e-02,-7.04156e-02,-1.74512e-01,-1.31597e-01,-1.40423e-03,-2.06095e-02,-1.20126e-01,-3.18893e-01,-1.12228e-01,-1.43351e-01,-8.47505e-02,9.98397e-02,-1.18086e-01,-1.99453e-01,-4.76904e-02,-2.28997e-01,-4.17928e-02,8.42512e-02,2.58429e-02,-4.06697e-02,-1.50944e-01,-1.53205e-01,1.82176e-02,9.27610e-02,4.81580e-02,7.46265e-02,-2.03477e-01,-2.69797e-01,1.14235e-01,3.67173e-02,-2.79596e-01,1.31552e-02,-1.14175e-03,-9.98878e-02,-1.91758e-01,-1.72677e-01,-1.55744e-01,-3.99848e-01,-2.43096e-01,-1.26927e-01,-2.17235e-01,-2.13658e-01,-2.64931e-02,-1.47966e-01,-4.13373e-02,-5.71366e-02,-9.49247e-02,-2.80011e-02,1.02616e-02,8.40370e-02,6.56026e-02,-4.97128e-02,-5.17105e-02,-2.05786e-01,1.09264e-02,-1.56245e-01,1.73175e-02,-3.30247e-02,1.12901e-05,-4.09880e-02,-5.35623e-02,-1.88504e-01,-1.41556e-01,-9.23448e-02,-4.29368e-02,-2.31820e-01,-5.73530e-02,-5.19064e-02,-1.40638e-01,-1.97665e-01,-2.69614e-01,-2.27304e-01,7.09342e-03,-1.24822e-01,-8.42572e-02,-7.35001e-02,-1.99210e-01,-3.57877e-02,-4.40221e-03,-1.22801e-01,-1.79049e-01,-2.29009e-01,5.56089e-02,1.97564e-03,-3.47246e-02,3.56903e-02,-2.61071e-01,-4.04047e-02,-2.44533e-01,6.22863e-02,3.57453e-02,-4.75698e-02,-3.93129e-02,8.55806e-02,-8.74485e-02,-2.82432e-03,7.63750e-02,1.02289e-01,-2.05927e-01,-7.44675e-02,-1.19411e-01,-4.33978e-02,-4.44986e-03,-1.77621e-01,-1.96838e-01,-8.85551e-02,-2.23193e-01,-6.46667e-02,5.47233e-02,-1.10903e-02,5.09232e-02,-1.76341e-01,6.73747e-02,3.31366e-02,-1.01580e-01,-1.24489e-01,5.48407e-03,-1.98490e-01,-9.25911e-02,-9.52028e-02,-3.39670e-02,-2.25483e-01,2.48810e-02,-9.46178e-02,-1.25929e-01,
-2.63802e-02,6.71257e-02,-4.45345e-02,2.04889e-02,6.50805e-03,5.80715e-02,-4.14778e-02,-4.57364e-02,4.13715e-02,-1.80191e-02,-2.44998e-02,-2.61392e-02,-1.33615e-02,2.13572e-02,-5.78834e-04,3.54248e-02,4.54596e-03,-3.27785e-02,-3.06408e-02,1.11393e-02,-1.24515e-02,-6.20322e-02,3.12112e-03,-3.69131e-02,2.30756e-02,-9.55430e-02,2.64379e-02,-1.99527e-02,1.63092e-01,2.16053e-02,3.47812e-02,2.55244e-02,2.42907e-02,-3.14342e-02,-1.87619e-02,-5.31249e-02,-3.40631e-02,3.36089e-03,2.81973e-02,5.04001e-02,5.36986e-03,-6.31723e-03,1.24066e-01,1.89454e-02,1.70625e-02,-1.37625e-02,-6.02967e-02,-4.34112e-03,-2.39640e-02,2.31236e-02,7.32448e-03,2.23396e-03,1.88858e-02,-1.30778e-01,-4.55181e-02,-3.79064e-02,8.86861e-03,5.34991e-02,1.98558e-02,-1.97387e-02,-2.64678e-02,4.48792e-02,-2.88096e-02,-4.39292e-02,9.45694e-02,-2.18952e-02,-5.39235e-03,2.02400e-01,2.73227e-02,-1.98302e-02,-1.87628e-02,2.10645e-03,-2.33869e-03,5.88384e-01,-2.35277e-02,-4.05506e-03,4.49436e-02,3.06773e-02,-2.78447e+00,2.74670e-02,1.12582e-02,-2.87144e-03,-5.14925e-02,5.94920e-04,-9.57279e-03,2.15975e-02,2.99379e-03,2.04211e-02,-6.21435e-02,1.90512e-02,-1.04778e-01,-5.14594e-02,-3.42509e-02,-1.60768e-02,-3.91072e-02,-9.39369e-03,-6.04337e-02,-5.46558e-03,2.79260e-02,-4.37716e-02,-2.07630e-02,3.92011e-03,-1.87684e-02,-2.78472e-02,-2.92380e-02,1.04424e-01,4.60621e-02,1.85906e-02,-3.26811e-02,-1.01192e-02,-5.48392e-03,3.14996e-02,4.92663e-02,2.62852e-03,-3.51825e-02,-4.56543e-02,-3.14549e-03,2.94388e-02,6.86563e-02,-6.02596e-02,-9.26896e-02,2.67659e-02,1.47754e-02,-6.06472e-03,4.82279e-03,-1.92176e-02,-9.22353e-03,2.93636e-02,
-1.12731e-01,-2.77312e-02,-1.62886e-01,9.87127e-03,-3.57282e-02,-5.95104e-02,3.96498e-02,-9.46614e-02,-1.71693e-01,6.56178e-02,8.37782e-02,1.93204e-02,-3.47144e-02,-1.83143e-01,-1.52728e-01,-3.30513e-01,1.88109e-02,-8.85427e-02,-1.26225e-01,1.55877e-01,-5.66185e-02,1.66586e-02,-1.13729e-01,-1.21300e-02,-8.43874e-02,-1.78558e-01,4.17282e-02,8.15125e-02,-8.69677e-02,-9.05461e-02,-1.25358e-02,5.57679e-02,2.86189e-02,-4.81659e-02,-2.01059e-01,-1.80381e-01,-1.06042e-01,-3.00404e-02,-2.02877e-01,-2.69089e-03,-6.81552e-01,-1.27637e-01,-1.72321e-01,-4.13300e-02,-2.76792e-02,-1.33658e-01,-1.87626e-01,-1.26649e-02,-1.84439e-01,-1.66293e-01,-6.96967e-02,9.66105e-03,-8.65669e-03,-1.22516e-01,-1.68499e-01,7.01071e-02,-1.01132e-01,9.24754e-02,-7.16086e-02,7.11909e-02,-1.04229e-01,-1.38514e-01,-4.46846e-02,-1.43576e-01,2.56500e-02,8.42190e-03,-4.04761e-02,4.09464e-02,-1.61031e-01,-9.33426e-02,8.56077e-02,-4.53672e-02,-5.52852e-02,-3.39014e-01,3.58546e-02,-4.53286e-02,-9.49618e-02,1.36887e-01,-6.60222e-02,-1.06994e-01,-8.50623e-02,-1.50164e-01,-1.73769e-01,-4.66648e-02,-1.25777e-01,1.82256e-01,-2.14474e-02,-8.54145e-02,1.59840e-02,-9.83155e-02,-2.14278e-01,1.28069e-01,-5.26500e-02,-1.35038e-01,-1.00030e-01,-2.49068e-01,-6.16427e-02,-8.60005e-03,-1.74618e-01,2.81892e-02,-9.30452e-02,-8.89481e-02,-1.78540e-01,-5.99157e-02,-1.62980e-01,-2.08517e-01,1.16772e-02,-1.00861e-01,1.44260e-03,-1.78497e-01,-9.71024e-02,-8.82571e-02,-1.36841e-01,-1.48545e-01,8.63556e-02,-2.25490e-01,3.28253e-02,-7.91025e-02,-1.25245e-01,-3.56498e-01,-1.39567e-01,-1.09271e-01,-9.55993e-02,5.30471e-04,-4.03670e-02,-1.38673e-01,-7.50272e-02,-3.16434e-01,
-1.73679e-01,-4.82711e-02,-1.72920e-01,5.08356e-02,-7.85818e-02,1.30600e-01,-1.35218e-03,-3.62941e-01,6.39243e-02,-1.12595e-01,-1.53917e-01,-2.12861e-01,-1.62997e-02,-1.98578e-02,-8.18899e-02,-1.54267e-01,-1.49915e-01,-7.08069e-02,-7.79829e-02,-3.96415e-02,-2.51515e-01,-1.24079e-01,-1.81721e-01,2.49259e-02,9.90104e-04,-2.60191e-01,-1.28494e-01,-1.45406e-01,6.00347e-02,-2.64929e-01,-7.49923e-02,-1.21709e-01,-1.69214e-01,1.08993e-01,-8.76900e-02,1.64171e-02,-1.49366e-01,-1.75805e-01,-6.78259e-02,9.27390e-02,-4.62617e-01,-3.63012e-01,-3.22008e-02,-2.64005e-02,-1.69434e-01,5.53532e-02,-1.90533e-01,-1.66735e-01,4.06540e-02,-1.68136e-01,2.70883e-02,-1.05517e-01,-5.27863e-04,-1.43582e-02,-3.05403e-01,-2.12902e-01,-3.11077e-02,2.11603e-02,-1.13518e-01,5.44945e-02,-1.91898e-02,2.67874e-02,1.08650e-01,-2.20677e-01,-2.08910e-01,-2.44309e-02,-2.20309e-01,2.76053e-02,-1.29671e-02,-5.34772e-02,3.06088e-02,-1.14358e-01,4.19447e-04,-5.15433e-01,-9.65644e-02,-3.91095e-01,-1.01851e-01,-1.73654e-01,-2.60094e-01,3.66251e-02,-1.92281e-01,-2.00081e-01,8.87971e-02,-1.24887e-01,-1.28900e-01,-1.96625e-02,7.68643e-02,-3.09719e-01,-4.88506e-02,-4.66517e-01,-1.97272e-01,6.61624e-02,-9.06639e-02,2.62937e-02,-7.68259e-02,-7.60767e-02,1.29396e-01,-3.51394e-01,-1.48436e-01,-1.37621e-01,-1.07708e-04,-4.61276e-02,-3.78346e-02,5.43754e-02,2.35408e-02,-1.95679e-01,8.36649e-02,4.00041e-02,-1.30226e-01,4.14640e-02,-1.85675e-02,-9.26885e-02,-2.44029e-02,-1.68384e-01,-1.12462e-02,-3.74071e-01,-2.10556e-02,-4.73988e-02,-2.30968e-01,-1.33273e-01,-1.08214e-02,-2.87661e-02,3.19622e-02,3.54537e-02,-1.58358e-01,1.43612e-03,-3.05436e-02,-1.28939e-01,
-5.62376e-02,9.26645e-02,-5.30910e-02,-1.23835e-02,-3.13837e-02,-1.25991e-01,-8.78892e-02,-2.65268e-02,-2.04389e-02,-1.23331e-01,-7.53209e-02,-8.15509e-02,-9.61062e-02,-5.85290e-02,1.35385e-02,-3.68903e-02,-1.30207e-01,-3.03436e-02,-4.11794e-02,-4.08287e-02,-7.52583e-02,-4.65346e-02,-5.94876e-02,-4.75813e-02,-3.03765e-03,4.05007e-02,-9.10647e-02,-4.66991e-02,-8.06386e-02,-9.28453e-02,-6.03172e-02,-1.81056e-01,-2.06388e-01,-1.33777e-01,-7.98647e-02,-5.04691e-03,-2.52114e-02,-1.34863e-01,-2.36905e-02,-4.50095e-02,-1.88178e+00,-2.96192e-02,-2.95508e-02,-1.76038e-01,-7.61195e-02,-1.32689e-01,-8.64651e-02,-5.98897e-02,-7.20655e-02,-1.53750e-02,-1.49044e-01,-5.60435e-02,-6.63334e-02,-4.49225e-02,-1.47148e-02,-6.40580e-02,-7.32451e-01,-6.16227e-02,5.52967e-02,-1.16593e-01,-8.51576e-03,-1.28712e-01,-2.24163e-02,-6.77813e-02,-1.00788e-01,-1.08428e-01,-3.41300e-02,-1.02315e-01,-1.29599e-01,-3.78684e-02,-1.45652e-01,-1.69540e-02,-4.47919e-02,-1.85872e-01,1.42237e-01,-5.04364e-02,-8.90000e-02,6.97348e-02,-6.18131e-02,-2.87903e-02,-4.77264e-02,-1.11105e-01,-1.68876e-01,-4.57350e-02,-1.55147e-02,-8.06744e-02,-3.94289e-02,-6.31263e-02,-1.31903e-01,-4.26906e-02,-2.71442e-02,-4.60852e-02,-9.83844e-02,-6.10848e-02,-4.85603e-02,4.19049e-02,-5.66303e-02,-4.24203e-02,-1.78032e-01,4.92800e-03,-6.39784e-02,-1.00758e-01,-1.16805e-01,-1.23377e-01,-6.25591e-02,-8.53088e-03,-4.55674e-02,-8.60338e-02,-2.96527e-01,-9.07538e-03,-3.90075e-03,-7.47856e-02,-1.04026e-02,-1.16322e-01,-3.52309e-03,-1.20411e-01,-2.80474e-02,-7.38912e-02,-9.05045e-02,7.28689e-03,-5.53381e-02,-1.07115e-01,-5.03275e-02,-1.08317e-01,-1.14711e-01,-2.59177e-02,-3.87877e-02,-2.72475e-02,
-1.63720e-02,6.32332e-02,-1.47408e-01,-1.58630e-01,3.86537e-02,3.19148e-02,-3.49860e-02,-2.33395e-01,-1.78470e-01,7.68180e-05,-1.10430e-01,-2.87742e-02,4.03150e-02,-1.21561e-02,4.92670e-03,-1.65509e-01,-9.63019e-02,-8.85336e-02,-4.00259e-02,-3.19935e-02,-1.16856e-01,2.35583e-02,-8.60220e-02,2.71988e-02,-4.26216e-02,-2.86792e-02,-6.39637e-02,-1.26212e-02,2.28316e-02,4.02760e-02,3.37102e-02,5.39172e-02,-5.33400e-02,-1.48938e-01,1.16547e-02,-4.48220e-02,9.22894e-03,-1.46973e-01,8.35999e-02,-1.83694e-01,-3.28941e-01,-9.57322e-02,-7.89688e-02,-2.64596e-02,9.88610e-02,-1.52764e-01,1.48053e-02,-9.01714e-02,-2.60331e-01,-1.17901e-01,-2.21179e-01,-5.82134e-02,1.06677e-01,3.98788e-02,1.26810e-02,5.08253e-02,-1.50440e-01,-1.29721e-01,3.79342e-02,-3.28804e-02,-3.14189e-03,-1.19185e-01,7.65535e-02,3.73760e-03,8.38969e-02,2.46411e-02,1.85792e-02,-9.07944e-02,-4.45728e-02,4.96455e-02,1.40978e-02,1.13154e-02,-1.03814e-02,-2.58915e-01,-1.81432e-01,-3.38488e-02,1.45528e-02,-1.50840e-01,-1.49065e-01,1.18889e-01,-1.24288e-01,7.85129e-02,-2.04916e-02,-1.17016e-01,-8.95519e-02,1.99241e-02,-8.77917e-02,1.22672e-01,-1.84683e-01,5.66526e-03,9.45126e-02,-9.76596e-02,1.36300e-02,-5.53185e-02,-4.40123e-02,7.89786e-02,6.61645e-02,-9.55557e-02,-3.96850e-02,-3.54174e-02,-6.92139e-02,-1.78801e-01,-5.44333e-02,2.04201e-03,-2.18669e-02,7.40621e-02,-1.64896e-01,-2.33858e-01,-1.38266e-01,-1.56714e-01,-8.29474e-02,5.75216e-03,-5.61462e-03,-1.51158e-01,1.22801e-02,3.42052e-03,-6.33934e-02,-3.25536e-01,-7.57791e-02,-1.53083e-02,-8.24749e-02,5.78032e-02,-7.59837e-02,-8.57498e-02,1.55048e-02,-6.37902e-02,-8.01862e-02,-2.16204e-01,
-3.64248e-04,-1.24670e-02,-1.31671e-01,1.08282e-01,-2.87771e-02,1.40996e-02,-1.52609e-01,-2.08256e-02,-2.91153e-02,-1.31945e-01,2.87360e-02,-6.40362e-02,-1.11104e-02,5.19840e-02,8.86468e-03,-1.31200e-02,-4.28472e-02,-1.40652e-01,-6.46337e-02,-7.25386e-02,-5.14134e-02,6.91263e-02,4.61005e-02,-1.10213e-01,-4.12227e-02,-1.26489e-01,-1.27549e-01,-1.33394e-01,4.16424e-02,2.12410e-04,3.67444e-02,-8.04563e-02,3.56825e-02,-8.05067e-02,-7.73914e-02,1.29273e-02,-1.90037e-01,6.92061e-03,-1.27124e-01,-1.92211e-01,-2.26273e-01,-1.10161e-01,-8.50959e-02,-1.20582e-01,-8.36554e-02,-8.53645e-02,-2.35290e-02,7.85842e-02,-6.48215e-02,4.82231e-02,-8.00378e-02,-1.25123e-01,7.86781e-02,-1.12268e-01,-2.12396e-02,1.06482e-01,-2.48723e-01,-1.02046e-01,-1.95579e-01,-1.02231e-01,-5.34439e-02,3.72104e-03,-2.98388e-02,-6.92828e-02,1.09238e-02,-5.50722e-03,-1.61606e-01,2.54819e-02,-9.80484e-02,-1.03693e-01,1.11987e-01,-7.24067e-02,6.34103e-02,-3.83829e-01,-1.17776e-01,-1.12230e-01,-1.56095e-01,-1.45274e-01,-7.95812e-02,6.05656e-02,-1.48264e-01,-1.12388e-01,8.52197e-02,-1.01574e-01,-4.61928e-02,-7.12829e-02,-3.23149e-02,-6.35072e-03,-1.36650e-01,-1.85041e-01,-6.39809e-02,1.49861e-02,-1.47266e-01,-5.08086e-04,-7.50038e-02,-1.06701e-01,-1.30136e-01,-1.41418e-02,-2.46442e-02,-1.73168e-01,-5.47147e-02,-1.51809e-01,-9.48143e-03,-1.85612e-01,-1.50723e-01,3.62966e-02,3.26937e-02,-3.70859e-02,-1.35600e-01,-2.09521e-01,8.84220e-02,-1.23595e-01,-7.25076e-02,1.87154e-02,-3.38846e-02,-2.42492e-02,-1.21899e-01,3.63025e-02,6.27451e-02,-6.29594e-02,1.05311e-02,5.90145e-02,-7.97113e-02,7.64796e-02,1.07685e-01,-3.43541e-02,-1.25321e-01,-1.47754e-01,
6.51827e-02,-7.10443e-02,6.12102e-02,-1.31569e-01,-1.04893e-01,-1.64007e-02,1.05700e-01,6.03729e-03,9.97677e-03,-4.30601e-02,-1.04115e-01,5.54913e-02,-8.54973e-02,-9.12011e-02,9.77886e-02,6.69300e-03,-1.71140e-02,9.76212e-03,-9.36299e-02,-4.36793e-02,5.96310e-02,1.05578e-02,-1.49954e-01,-1.10063e-01,-3.36328e-02,-5.34261e-03,-6.07215e-02,3.16319e-02,3.16043e-02,-1.56820e-01,-7.79508e-03,-1.01508e-01,-8.70002e-02,-1.15984e-01,-4.36475e-02,-2.85704e-02,6.83350e-03,-1.31352e-01,-8.28343e-02,-1.78278e-01,-2.81703e-01,-5.68723e-02,-4.55148e-02,5.65643e-02,2.06623e-02,-1.11536e-01,8.40038e-02,-1.50031e-01,-9.52571e-02,-1.63417e-01,-1.61033e-01,4.67796e-02,-6.71634e-02,-1.58738e-01,-1.22078e-02,1.02630e-01,-1.32624e-01,-2.32401e-02,5.87905e-03,-6.36185e-02,-1.12733e-01,7.41578e-02,-1.06140e-01,8.16803e-02,-6.29718e-02,4.37728e-02,-2.19865e-01,-1.61169e-01,2.35729e-03,-2.58581e-02,2.19521e-02,-5.47028e-02,-1.91313e-01,-1.38705e-01,1.12096e-02,7.53618e-02,-1.62265e-01,-5.32074e-02,-1.37172e-01,-2.98774e-03,3.45230e-02,-2.63524e-02,-5.44123e-02,-1.09876e-01,-8.98188e-02,-1.16746e-01,9.54633e-02,-2.07564e-01,-5.13083e-02,1.82647e-02,3.12660e-02,-1.65736e-01,-1.36326e-02,-1.92938e-02,5.90754e-02,-1.59832e-01,1.43536e-02,-7.23448e-02,-6.48047e-02,-1.23233e-01,7.80868e-03,8.21025e-02,6.27069e-02,-1.40101e-01,4.91454e-03,7.33948e-02,2.45250e-03,-1.84461e-01,-1.62211e-01,2.02945e-02,-2.47165e-02,-1.94269e-01,-7.38866e-02,-1.54046e-01,7.32406e-02,3.52167e-02,1.83916e-03,-3.66772e-02,-1.15230e-01,3.44985e-03,-1.08229e-01,3.29106e-02,-1.16174e-01,7.54569e-02,-3.08516e-02,-1.63621e-01,-5.18982e-03,3.41242e-02,
-1.21294e-01,7.58533e-02,-2.09343e-01,-1.30842e-01,-1.11325e-01,8.76278e-02,-1.08072e-01,-1.88912e-02,4.00558e-02,2.59568e-02,8.37264e-02,1.03254e-01,-1.64888e-01,-8.69795e-02,-1.96256e-01,2.41541e-02,-4.20126e-02,-5.64645e-02,-1.66216e-01,-1.66324e-01,9.32790e-02,-1.54520e-01,2.77757e-02,-1.11331e-01,-1.53734e-01,-7.37619e-03,-1.36505e-01,-1.79454e-01,-1.13390e-01,-1.71542e-01,-1.49689e-01,-7.58295e-02,-1.69764e-01,3.32802e-02,-1.74378e-01,-1.16591e-01,8.56811e-02,-1.41309e-02,-2.24112e-02,-1.67770e-01,-1.53671e-01,-7.47102e-02,7.64593e-03,-1.14043e-01,8.97336e-02,5.14513e-02,-4.31828e-02,-1.04554e-01,6.53620e-02,-1.05027e-01,-1.33851e-01,-4.17667e-02,-1.59959e-01,-1.65106e-01,-3.20208e-02,-1.77208e-01,-9.97692e-02,-5.86253e-02,-2.08650e-02,3.28480e-02,-5.13913e-02,-5.23044e-02,2.93151e-02,4.83443e-02,6.13878e-02,4.76639e-02,-5.09679e-02,-7.10868e-02,-1.27666e-02,-1.04868e-01,1.67487e-02,-3.64950e-02,-1.43532e-01,-1.63497e-01,-1.68700e-01,-4.49706e-02,-3.88334e-02,-1.21675e-01,-1.90518e-01,-1.01058e-01,-5.62658e-02,1.81900e-02,-1.83151e-01,-1.24430e-01,-1.92133e-01,-3.80841e-02,7.53083e-03,-1.46889e-01,2.49123e-02,1.34217e-02,-1.50533e-01,-3.39074e-02,2.92992e-02,2.11874e-02,-1.39716e-01,3.80807e-03,-1.47252e-01,-2.52756e-02,3.89408e-02,8.18385e-02,-1.70003e-01,-2.11412e-01,5.67835e-02,-1.93587e-01,-1.86100e-01,-4.92193e-02,-1.74557e-01,6.24284e-02,2.87839e-02,1.59435e-02,-1.64076e-01,-7.99626e-02,-1.16681e-01,-1.45302e-01,-3.63310e-02,-5.87010e-02,7.05052e-02,-4.69051e-04,1.33968e-03,-1.17072e-01,6.46407e-02,-7.12157e-02,-2.71368e-02,-7.63624e-02,6.10526e-02,-3.31567e-02,-1.65521e-01,-1.26178e-01,
-9.66123e-02,-1.05118e-01,-1.69328e-01,2.32943e-02,-5.13789e-03,-9.78627e-02,2.43964e-01,1.39177e-02,-2.66536e-02,-1.10928e-01,-3.69582e-01,-2.89399e-01,-5.01536e-01,-1.41290e-01,-6.33925e-02,-1.18273e-01,-2.80181e-01,-7.32719e-03,-2.48584e-01,-1.67756e-01,-2.34345e-01,-4.02418e-02,-4.68954e-02,-3.22838e-01,-4.24833e-01,4.83920e-02,-1.59018e-01,-1.54316e-01,-1.51199e-03,-4.49888e-01,-3.62933e-01,-4.62798e-01,-2.59014e-01,-1.57777e-01,-1.11202e-01,1.00422e-01,-2.67920e-01,5.19111e-02,1.58254e-02,1.44401e-02,-4.64326e-01,-1.90868e-01,-3.01012e-01,-4.91449e-01,-9.89519e-02,-1.76775e-01,4.27334e-02,-4.38335e-01,-4.07288e-01,-4.95720e-01,-2.40380e-01,-6.55891e-02,-1.87981e-01,2.19730e-03,-2.37143e-02,-8.53532e-02,-1.77303e-01,-2.96966e-03,-1.69120e-01,-7.15546e-02,-2.21869e-01,-2.97766e-01,-4.16398e-01,-3.66509e-01,-6.18060e-02,-3.13072e-01,-2.32028e-01,1.38984e-02,-1.89065e-01,-3.24359e-01,-3.79072e-01,-1.30965e-01,-2.51514e-01,-4.09235e-01,-1.30939e-01,-1.06974e-02,-2.30213e-01,-1.79300e-01,-4.59542e-01,-4.31027e-01,9.13432e-02,-5.75210e-03,-3.62820e-01,-1.73702e-03,-2.19029e-01,3.80416e-02,-2.09669e-01,7.39279e-02,2.34644e-01,-2.13494e-01,4.42203e-02,-1.99515e-01,-1.22008e-01,-5.00575e-01,-3.47328e-01,9.16655e-02,-1.07243e-01,4.42858e-02,-2.60756e-01,-3.64362e-01,-2.83657e-01,-1.82339e-01,4.12820e-02,-8.87710e-02,-1.34124e-01,-1.14539e-01,-1.06099e-01,-4.72388e-01,-4.12186e-01,-4.14154e-02,-1.26287e-01,3.26552e-02,-8.54520e-02,-1.11569e-01,1.59283e-02,-1.20775e-01,-2.45628e-02,-2.35707e-01,-8.41499e-02,-1.68214e-01,7.47429e-02,-4.36817e-01,2.84904e-03,1.60882e-02,-3.92600e-01,-2.43364e-01,-1.03818e-02,-3.22256e-01,
-5.01730e-02,-1.24019e-02,-1.82931e-01,-1.06684e-01,-3.85797e-02,-8.17647e-02,-1.96555e-01,-2.13609e-01,-4.34131e-02,-4.39324e-02,-1.45483e-01,-6.37582e-02,5.45687e-02,2.11199e-02,-8.82594e-02,-1.82507e-01,-1.19197e-01,2.18285e-03,-1.79818e-01,3.03317e-02,-1.43907e-01,-5.78592e-03,4.93764e-02,8.41365e-02,8.95200e-02,-1.37525e-01,9.21815e-02,-1.00511e-01,-3.34820e-02,-2.11056e-01,-9.12854e-02,-1.43464e-01,-1.42052e-01,7.34826e-02,-2.10926e-01,3.95461e-02,-1.27601e-01,-1.13591e-01,4.50563e-02,8.96456e-02,-3.11315e-01,5.02323e-02,-1.23697e-02,-5.53517e-02,-1.37470e-01,-6.17838e-02,5.75080e-02,-1.98125e-02,3.18038e-02,-1.18877e-01,-4.68045e-02,-2.84951e-04,-5.88983e-02,7.20712e-03,-5.58269e-02,-7.60877e-02,-2.06803e-01,3.55086e-02,9.38803e-02,-5.14494e-02,5.26215e-02,-1.83170e-01,-1.19290e-01,8.76548e-02,7.17889e-02,1.02117e-01,7.09841e-03,-1.35133e-01,-1.76079e-01,1.75143e-02,-1.03499e-01,-4.87261e-02,-5.69896e-03,-2.19897e-01,-2.13126e-02,-1.38214e-01,-1.45175e-01,5.75143e-02,-9.96843e-02,-2.32824e-02,7.09446e-03,-9.57940e-03,6.77132e-02,-9.97402e-02,5.44047e-02,-1.39390e-01,-6.62870e-03,4.14264e-02,9.43825e-02,-1.49249e-01,-1.26626e-01,-3.98172e-02,-7.26758e-02,4.23472e-03,-1.58300e-01,-1.92919e-02,-1.99947e-01,-1.81224e-01,-1.23884e-02,1.44920e-03,-1.30794e-01,4.81412e-02,-2.93420e-02,-4.45972e-02,-2.70979e-02,-8.26831e-02,1.91709e-02,-6.36268e-02,2.15879e-02,-1.17886e-01,-8.13412e-02,-7.49537e-02,8.34185e-02,7.83617e-02,-1.68365e-01,3.39335e-02,9.04736e-02,-1.80647e-01,2.27619e-02,-5.09005e-02,-3.85569e-02,8.10562e-02,4.57267e-02,-6.63344e-02,2.00993e-03,-4.19112e-02,-1.90468e-01,2.36261e-02,
-8.54335e-02,2.96103e-02,5.58118e-02,-7.30037e-02,-1.01648e-01,-6.30466e-02,6.32479e-03,-4.51508e-02,9.16222e-02,-3.35228e-02,-9.42307e-02,-2.03827e-01,9.19244e-02,-1.90170e-01,-1.88884e-01,-1.09518e-01,-2.30488e-02,-1.80021e-01,-1.90966e-01,-6.58240e-03,-1.58054e-01,2.06294e-02,-1.18218e-01,-1.06780e-01,-4.97811e-02,-2.14413e-02,-1.67355e-01,2.22945e-02,-1.03710e-01,-1.21200e-01,3.58690e-02,-5.83019e-02,-4.67425e-02,-3.12436e-02,-2.22462e-01,-3.55345e-02,-1.56860e-01,-7.67384e-03,-1.97216e-01,3.87959e-04,-5.26975e-02,-4.60923e-02,5.58847e-02,-1.12981e-03,-9.73069e-03,-2.43113e-02,6.82465e-02,7.09642e-02,1.99092e-02,-1.25826e-01,-5.81730e-02,-1.63336e-01,-9.03809e-02,-1.46954e-01,1.29563e-02,-9.40766e-02,-1.43815e-01,-1.40612e-01,-9.10421e-02,4.68185e-02,-5.05543e-02,-1.18874e-01,-1.60587e-01,-1.63387e-01,-2.44040e-01,6.21925e-02,-1.93821e-01,-3.07072e-02,-1.29249e-01,9.55228e-02,-1.43203e-01,-6.17737e-02,1.36091e-02,-1.84171e-01,-1.52915e-01,5.01423e-02,-1.73296e-01,-2.33932e-01,-8.26671e-02,-5.36533e-02,-1.48387e-01,-1.29276e-01,-1.15598e-01,-6.22336e-02,-2.21264e-01,-1.33540e-01,9.08774e-02,-1.62939e-01,-8.14639e-02,-2.15490e-01,-7.86410e-03,6.62790e-02,9.77232e-02,7.80567e-02,-2.04220e-02,-1.28830e-01,-5.35892e-02,-4.43244e-02,-1.58462e-01,-3.90804e-02,-1.62063e-01,-5.64430e-02,-1.03130e-01,-3.70931e-02,-5.90315e-02,-7.68624e-02,6.40804e-02,2.96308e-02,2.55559e-02,-1.88333e-02,-5.72296e-02,5.99669e-02,-3.05100e-02,-1.69780e-01,-1.25827e-01,2.92804e-02,3.76382e-02,-2.86969e-02,-1.16559e-01,4.30427e-02,7.14166e-02,-1.46652e-01,8.38353e-02,-1.77126e-01,2.51494e-02,-8.82274e-02,-5.42285e-02,-1.00507e-01,
5.25004e-03,-1.65123e-01,-7.26954e-02,-1.82629e-01,-1.31334e-01,3.52702e-02,8.48606e-03,-1.76425e-01,-1.65968e-01,-2.34247e-01,-9.79188e-02,-1.81650e-01,5.40292e-02,7.15918e-02,-1.91363e-01,5.63172e-02,1.11602e-01,-1.42711e-01,-1.24656e-01,1.06352e-01,-1.87152e-01,6.30903e-02,-4.02411e-02,6.53716e-03,-2.49671e-02,9.01548e-02,-8.37570e-02,-9.74607e-02,8.43014e-02,-1.48702e-01,-1.93270e-01,6.86616e-02,1.31668e-01,-8.61920e-02,1.86877e-02,-1.14047e-01,3.68349e-02,6.64611e-02,-2.91324e-02,5.99242e-02,-2.01735e-01,-1.04030e-01,-6.72121e-03,-3.22421e-02,7.81899e-02,-4.55992e-02,8.11751e-02,-3.33562e-02,1.09796e-02,-1.40320e-01,3.34572e-02,8.27421e-02,-6.41107e-02,8.29926e-02,-7.64694e-02,1.34421e-02,-7.64377e-02,-1.66281e-01,3.64610e-02,7.43970e-02,-6.47606e-02,-1.81344e-01,-1.61710e-01,-1.77287e-02,2.11374e-02,-9.68722e-02,-1.39406e-01,3.49034e-02,-1.57383e-01,-9.98295e-03,-1.69433e-01,-2.00697e-01,4.77796e-02,-2.50947e-01,-4.29424e-02,-3.92080e-02,-6.70619e-03,6.11936e-02,-1.65310e-01,-4.81495e-03,-3.18430e-02,6.09960e-02,-8.25050e-02,-6.83526e-02,-9.99316e-02,7.78087e-02,-3.74647e-02,-1.04302e-01,1.74013e-02,6.51759e-02,-1.77048e-01,5.36511e-02,-8.13548e-02,-1.86388e-01,5.95574e-02,3.87801e-02,-1.66351e-01,-3.24122e-02,6.36251e-04,1.15045e-02,9.80013e-02,-1.62105e-01,-1.23411e-01,2.00794e-02,8.94350e-02,-2.01243e-02,1.04376e-02,1.78144e-02,-1.13297e-01,-1.37075e-01,2.24262e-02,1.29462e-01,-2.19295e-01,1.13748e-02,5.82804e-02,-1.51298e-01,-1.31714e-01,-1.33307e-02,2.76248e-02,2.31215e-02,-7.90923e-02,-1.64796e-02,6.07499e-02,3.82581e-02,-1.77462e-01,4.99920e-02,-2.18315e-02,-1.81844e-01,
-1.50037e-01,-6.03174e-02,-1.77750e-01,-2.07541e-01,-1.81392e-01,4.58379e-03,5.42042e-02,-2.72019e-01,-3.87058e-01,-2.61707e-01,-2.65340e-01,-2.71658e-01,-7.01563e-02,-4.17828e-01,1.07402e-01,-3.02207e-01,-4.79268e-01,3.93642e-02,9.69723e-02,2.67250e-02,-3.71224e-02,-2.07136e-01,-1.07334e-01,-2.95687e-01,-2.03828e-01,7.04748e-02,6.22998e-02,-9.94842e-02,-1.90838e-01,-1.29402e-01,-2.58961e-01,-2.76436e-01,4.22594e-02,-1.49636e-01,-1.49495e-02,-1.47626e-01,8.98038e-02,7.73660e-03,-8.26783e-02,-2.33745e-01,-5.14952e-01,-2.85292e-02,-1.54178e-02,-2.29042e-01,-1.37838e-01,-6.20320e-02,-3.49937e-01,-1.76120e-01,-4.70909e-01,-1.92680e-01,-6.08446e-02,-7.91691e-02,-3.26872e-01,-1.34122e-01,1.47513e-02,-3.54146e-02,-4.38463e-02,5.53464e-02,-2.52231e-01,-3.09737e-01,-7.43602e-02,-1.45564e-01,-1.04415e-01,-8.39999e-02,-4.39870e-01,-1.86597e-01,-1.38313e-01,4.26465e-02,-4.91347e-01,-1.88223e-01,-2.13395e-01,8.38038e-02,4.34712e-02,-3.43713e-01,-2.29074e-01,-2.36520e-01,-2.65640e-01,-3.38828e-01,-3.27776e-01,-1.86230e-01,5.43825e-02,-2.79278e-02,-1.74068e-01,-3.78866e-01,7.91852e-02,-2.66279e-01,-5.16030e-02,1.63609e-01,-3.70647e-01,-1.48231e-01,-4.38024e-01,-6.09300e-03,-3.29651e-03,-5.02566e-01,8.40543e-03,6.30323e-02,9.30351e-02,-2.97670e-01,-8.43020e-02,-6.42750e-02,-3.24275e-01,4.01176e-02,-2.16875e-01,-4.03949e-01,-1.70648e-01,-1.01759e-01,-8.65438e-02,-3.04197e-01,-4.59060e-01,-2.65669e-01,-1.56188e-01,-2.07531e-01,-3.03669e-01,-3.48482e-01,-1.31547e-02,-1.39558e-02,-2.82626e-01,3.74393e-02,-8.00843e-02,2.51394e-02,-3.19442e-01,-4.59336e-01,-4.83612e-01,-3.17167e-01,4.87911e-02,-1.22769e-01,7.05865e-02,-1.85426e-01,
6.04880e-02,-2.32152e-02,-1.76446e-01,-2.23293e-01,-6.59556e-02,5.50964e-02,5.64196e-02,-3.26861e-02,-1.97062e-02,7.56606e-02,-1.11830e-01,-6.70652e-02,-3.97953e-02,-6.42434e-02,-1.16817e-01,-1.00851e-01,-2.81484e-02,-1.03983e-01,-1.16274e-01,-2.17972e-01,-9.30905e-02,-8.33107e-02,-2.95765e-02,-1.03146e-01,-2.05551e-01,-6.88051e-02,2.68062e-02,-7.28919e-02,3.46101e-02,-1.55948e-01,-1.81592e-02,-5.13959e-02,-8.16057e-02,-9.40291e-02,-1.23579e-01,3.14557e-02,-1.73195e-01,-1.64215e-01,-1.46213e-02,-1.26379e-01,-2.84413e-01,-6.65544e-02,-1.46652e-01,-1.48479e-01,6.94123e-02,-1.22781e-01,-1.03306e-01,-1.48892e-03,-1.54914e-01,-4.98953e-02,-1.81544e-01,-1.64820e-01,6.74400e-02,-1.62386e-02,-1.75529e-01,-1.01371e-01,-2.24158e-01,5.72074e-03,-8.26049e-02,3.30769e-02,2.39190e-02,5.96665e-02,-1.27658e-01,-1.33264e-01,-1.47065e-01,-1.80073e-01,6.21779e-02,-1.48310e-01,-6.96552e-02,-6.49416e-03,-2.18650e-01,-6.36286e-02,-1.14920e-01,-3.02888e-01,-7.52069e-02,-8.59961e-02,-2.97260e-02,4.74906e-02,2.84150e-02,3.84891e-02,-1.69243e-01,5.05220e-02,5.21914e-03,2.51007e-02,-6.31188e-02,-3.40081e-02,-4.44552e-02,-1.00696e-01,-1.49415e-02,-2.25846e-01,-2.20237e-01,-1.30817e-01,-3.83967e-02,3.38593e-02,-1.07992e-01,-1.56092e-01,-2.07300e-01,5.86404e-02,-1.48107e-01,-5.03762e-02,6.03601e-02,-8.78617e-02,3.55007e-02,5.80504e-02,-1.11750e-01,-1.65063e-01,-1.84402e-01,-4.65251e-02,-2.86179e-02,-1.46470e-01,-1.54318e-01,-1.10417e-01,-1.97701e-01,-1.71418e-01,-1.17455e-01,-2.26385e-01,3.36701e-02,-1.08823e-01,-5.38228e-02,-2.11303e-01,-2.63608e-02,-1.35212e-01,-1.50690e-02,-1.58967e-01,-1.69282e-01,-1.44386e-01,7.29057e-02,-8.61911e-02,
1.83938e-01,-7.35284e-02,-2.46340e-01,-3.40064e-01,-2.55023e-01,2.22100e-03,-9.25743e-02,7.89452e-03,-1.88174e-01,-1.02301e-01,9.06527e-03,2.96326e-02,-1.84738e-01,-3.56982e-01,-9.87091e-02,-2.17596e-01,-1.78395e-02,-1.38025e-01,-7.51777e-02,-2.71857e-02,-1.98108e-02,-2.17615e-01,3.88778e-02,1.28045e-01,-3.94835e-02,-4.01614e-02,-1.87756e-01,6.49175e-02,-4.86338e-02,5.21988e-02,-1.11808e-02,3.19760e-02,-1.75608e-01,3.19487e-02,-1.10398e-01,-1.82258e-01,-1.44127e-02,-1.63438e-01,9.07318e-02,7.87582e-02,-3.94919e-01,4.04238e-02,-1.41170e-01,5.59308e-02,-5.84393e-02,-2.28075e-01,-8.60277e-02,-6.06704e-02,2.15315e-01,-4.83484e-02,-2.10084e-01,4.79546e-02,1.39480e-02,1.36868e-01,-1.69652e-01,-3.30642e-02,-4.27320e-02,-4.10400e-01,-1.41904e-01,-1.80642e-01,-1.67628e-01,-1.58222e-01,4.23687e-02,-2.36406e-01,4.75080e-02,-3.99733e-02,-5.12044e-02,7.74608e-02,-1.42654e-01,-3.13628e-01,-1.97850e-01,1.19172e-01,-1.90167e-01,-3.19320e-01,3.57176e-02,-2.38868e-01,-1.49274e-01,6.09653e-03,-4.06983e-01,-6.36908e-02,1.19152e-01,-1.52584e-01,6.41133e-02,-1.59733e-01,1.38853e-01,1.02513e-01,1.92640e-02,-1.91177e-01,-3.67322e-01,-1.70039e-01,-1.16980e-01,-1.01523e-01,3.92536e-02,-1.22140e-01,-2.18100e-01,3.32968e-02,-2.66004e-01,-7.98800e-02,-2.12949e-01,-1.29447e-01,-1.54226e-01,-8.41701e-02,8.18261e-02,-5.60301e-01,-1.32539e-01,-1.19377e-02,9.65097e-02,-7.92811e-02,-1.39964e-01,-2.09050e-02,-3.85001e-02,9.07744e-03,-6.56631e-02,-4.28124e-01,-7.33196e-02,9.58404e-02,-1.17650e-01,-3.19110e-02,-7.50799e-02,-8.91857e-02,2.86627e-02,4.96667e-02,-1.18259e-01,2.77341e-02,-5.61008e-02,8.88024e-02,1.24392e-02,-7.92149e-02,
-1.41840e-01,-1.18960e-01,-3.90804e-02,-1.99529e-01,8.86815e-02,-1.33754e-01,-1.14667e-01,1.22947e-02,-7.90809e-02,-1.66910e-01,3.96237e-02,-2.64525e-01,-2.73596e-02,1.58750e-02,1.73609e-02,7.41940e-03,-1.07687e-02,-1.30806e-01,-4.64153e-02,-4.69806e-02,-2.85258e-01,7.68919e-02,-4.60749e-02,4.13244e-02,1.21831e-01,3.58079e-03,1.94636e-02,-1.78647e-01,-1.45502e-01,2.79997e-02,-1.32089e-01,-4.61072e-02,-4.30719e-02,-3.53070e-01,-1.76124e-02,-1.18858e-01,-4.70361e-01,-2.15849e-01,-2.48602e-01,-1.87964e-01,-2.72612e-01,7.12150e-02,7.03552e-02,3.07101e-03,-2.62226e-01,5.58727e-02,5.88590e-02,-3.65996e-02,-1.38277e-02,-7.42725e-02,-4.37027e-02,-1.63545e-02,-1.31071e-01,-2.52318e-01,-1.64152e-01,1.12874e-01,-3.81403e-01,1.75411e-02,-1.57789e-01,-4.38603e-02,-6.87512e-02,-9.27174e-02,-1.60258e-01,-1.29174e-01,6.63927e-02,5.03943e-02,-6.81739e-02,-2.07218e-01,-1.43810e-01,-1.33635e-01,-1.87169e-01,3.37362e-02,-7.84245e-02,-2.85990e-01,-1.56783e-01,-4.43953e-01,-3.68904e-02,2.33568e-02,-1.45956e-01,8.37485e-02,1.15504e-01,-3.48055e-02,-6.56315e-02,-1.83640e-01,-9.37302e-02,-1.29469e-01,4.33653e-02,5.12707e-02,-9.40409e-02,1.95005e-02,-9.84546e-02,-2.06056e-02,-6.42471e-02,-4.27658e-01,-1.92698e-01,-5.09671e-02,1.01461e-02,9.58860e-02,-8.29632e-04,-1.96105e-01,6.12031e-03,2.05566e-02,-9.41975e-02,-2.06993e-02,-1.45404e-01,-2.47395e-02,-1.99621e-01,6.49895e-02,-4.15426e-02,-1.89133e-01,-1.15072e-01,-7.78255e-02,-4.92273e-02,1.02324e-01,-1.71418e-01,7.46495e-02,-2.45222e-01,-7.22961e-02,-2.57127e-02,-1.11576e-02,4.35981e-02,-3.21008e-01,-1.58433e-01,-2.10731e-01,-1.36851e-01,-7.81167e-02,-4.96372e-01,-3.02321e-01,
1.06082e-02,-7.11891e-02,-1.88486e-01,2.41626e-02,-1.66554e-01,-3.15282e-02,7.26680e-02,-1.32445e-01,1.56843e-01,8.16137e-02,-8.50928e-02,-1.42632e-01,1.42664e-02,6.12728e-02,-7.57060e-02,-1.31530e-01,-1.52674e-01,-1.04104e-01,-1.64568e-02,-8.14062e-02,5.28724e-02,-1.63402e-01,-1.65414e-01,-2.17867e-01,8.78402e-02,-9.96964e-02,-6.52319e-02,8.28250e-02,-1.08507e-01,1.90159e-02,-1.45537e-01,-9.85532e-02,-2.62250e-01,8.19800e-02,7.14276e-02,5.67578e-02,-1.68455e-01,-8.37454e-02,-6.66829e-03,6.27917e-02,-2.53144e-01,9.27213e-02,1.25422e-01,8.67789e-03,-1.74630e-01,8.07781e-02,-7.14101e-02,4.99483e-02,-1.70218e-01,1.53587e-02,-1.52516e-01,-7.56382e-03,-4.88675e-02,-1.22779e-01,7.72547e-04,-1.89029e-01,-1.77404e-01,-1.57694e-01,8.33026e-02,8.76506e-02,-2.10312e-02,-1.43522e-01,-5.62118e-03,-1.38069e-01,-6.36300e-02,3.78583e-02,3.05000e-02,-7.50588e-03,2.57948e-02,-1.06208e-02,1.61077e-02,-3.31450e-02,5.16594e-02,-1.85124e-01,-8.93407e-02,7.94755e-03,-1.23889e-01,8.94883e-02,-2.75118e-01,-8.88322e-02,-1.44381e-01,-5.07037e-02,6.20452e-02,7.93053e-02,-1.75128e-01,-3.87732e-02,-5.47948e-02,-1.22546e-01,-3.00579e-02,2.98428e-02,-1.50081e-01,-1.42944e-01,-1.53185e-01,2.42427e-02,-9.64649e-02,-1.76379e-01,8.14437e-02,-1.78785e-01,7.71738e-02,8.05629e-02,-1.46865e-02,6.42549e-02,-1.01016e-01,-1.00569e-01,-1.00952e-01,-2.00691e-01,-1.53544e-01,-3.02320e-02,-1.42075e-01,-3.26967e-02,8.89634e-02,5.04219e-02,7.35761e-02,9.37413e-02,-2.25098e-02,-4.19553e-05,5.95975e-02,-7.06727e-02,-1.22167e-01,9.04366e-02,-1.28521e-02,-1.67844e-01,7.02599e-04,-8.92332e-02,-1.95866e-01,3.96704e-02,-5.00080e-02,-5.89309e-02,
-9.27880e-02,-1.02585e-01,-2.66926e-02,2.01369e-02,7.43236e-02,-8.25658e-02,3.12187e-02,1.78038e-01,3.08193e-02,-1.27219e-01,-1.19322e-01,8.18054e-03,-1.78638e-01,-2.12769e-01,1.09236e-01,8.19860e-02,5.53160e-02,-1.95058e-01,-4.34046e-02,3.42657e-02,-8.27581e-02,-5.86294e-02,-8.04310e-02,4.83441e-02,9.27474e-03,-1.02003e-01,-9.19418e-02,-7.13246e-02,2.53383e-02,-1.54459e-03,-1.78556e-01,-4.18995e-02,-1.30612e-01,-1.61436e-01,2.33907e-02,7.66695e-02,5.20521e-04,-4.11630e-02,-1.61877e-01,-2.23784e-01,-3.02364e-01,-1.97334e-01,2.64703e-03,-2.03479e-01,4.61986e-02,1.13501e-01,8.49156e-02,-6.50175e-03,6.72130e-04,-1.43727e-01,-3.69962e-01,3.82469e-03,-4.78420e-02,-1.24553e-01,-3.67484e-02,2.70280e-02,-1.12846e-01,-1.58663e-01,-2.62443e-01,5.24826e-02,-1.02527e-02,3.18160e-02,-1.71562e-01,-2.05259e-01,-5.87082e-02,-2.18819e-01,-1.28314e-01,2.15787e-01,-5.85028e-02,-3.88095e-03,-1.77533e-01,-1.08445e-01,9.37505e-02,-3.50410e-01,1.05214e-01,-4.29609e-04,-2.87154e-01,3.36134e-02,-2.36622e-01,-4.24852e-02,-5.60702e-02,8.19725e-02,-9.40721e-02,3.77784e-02,-2.17200e-01,-1.46954e-01,-1.75374e-01,-8.45087e-02,-5.05579e-02,2.61354e-02,-2.69378e-02,3.82143e-02,1.12582e-01,-1.24671e-02,-8.60769e-03,-6.18188e-02,-6.40975e-02,1.55962e-01,-2.03135e-01,8.34549e-03,-1.49948e-01,1.12616e-02,-5.55581e-03,-9.46357e-02,-9.58764e-03,-1.62694e-01,-1.27307e-01,-2.25468e-01,-1.44309e-01,-1.93100e-01,9.16023e-02,3.47895e-02,-3.04633e-03,-2.83989e-02,1.82645e-02,6.53890e-02,-3.07943e-03,-6.40323e-02,-7.97333e-02,-2.11052e-01,-2.24831e-01,-2.09520e-02,-1.65537e-01,3.87216e-03,-5.98864e-02,-4.72778e-02,-2.13941e-01,5.75874e-02,
-1.10420e-01,-1.31846e-03,-2.06760e-02,-2.23661e-02,4.66427e-02,-1.77402e-01,-1.08114e-01,2.50783e-02,6.36793e-02,-1.05056e-01,-3.80672e-02,1.43380e-02,-1.28048e-01,-9.60347e-02,-2.66859e-01,-2.24458e-01,-9.77481e-02,-6.24731e-02,-1.03172e-01,-2.65300e-02,-3.63139e-03,-1.85059e-01,-1.48821e-03,2.33086e-02,-6.00517e-02,8.35123e-02,6.97228e-02,-9.83200e-02,-1.66473e-01,-6.33959e-02,-4.27510e-04,6.47958e-02,-1.31659e-01,-2.25050e-01,1.72378e-02,-1.26366e-01,-7.93141e-03,-1.49443e-01,9.08413e-02,-1.17479e-01,-2.19183e-01,-1.72088e-01,-1.70129e-01,6.87770e-03,-1.71293e-02,-1.12412e-01,-1.62627e-02,-5.13027e-02,-2.30465e-01,-2.10937e-01,5.79330e-02,-1.67454e-01,1.43967e-02,-8.54900e-02,-6.47810e-02,1.35995e-01,-8.50653e-03,-3.78119e-02,-6.27206e-02,9.53607e-02,-3.89486e-02,7.80131e-02,-3.56185e-02,-1.09622e-01,-4.74118e-02,-2.99866e-02,-1.82841e-03,7.84862e-02,-3.72145e-02,-2.90976e-03,-1.43009e-02,-1.29139e-01,-2.25485e-02,-3.21632e-01,-2.50656e-01,-1.24893e-01,-2.66654e-01,-5.14976e-02,-1.04329e-01,-1.79618e-01,-3.21970e-01,8.22925e-02,-8.57887e-02,-2.01602e-01,-3.20271e-02,-1.62022e-01,3.65577e-02,-1.92620e-01,-1.46586e-01,1.43696e-01,-1.63811e-01,-1.95816e-01,-1.75042e-01,-2.08451e-01,1.72927e-02,-1.33763e-01,-2.02890e-01,-1.34576e-01,5.28030e-02,2.15808e-02,-1.11463e-01,-2.01451e-01,-1.12745e-01,-7.09749e-02,-2.14317e-01,-1.42713e-01,-5.00201e-03,-5.87341e-02,8.36525e-02,-3.25922e-02,2.03387e-02,-1.45292e-01,-2.27097e-01,8.89805e-03,-1.92388e-01,-3.00953e-02,7.63327e-02,7.80079e-05,-1.20064e-01,8.33154e-02,2.60477e-02,3.78899e-02,-1.26320e-01,4.18054e-03,-1.49991e-01,-3.25206e-02,-1.89341e-01,-3.93867e-02,
-1.95453e-01,-8.97575e-02,-4.91078e-02,4.21630e-02,1.10550e-01,-5.97731e-02,-7.80246e-02,-3.50757e-02,1.02199e-01,-3.00460e-01,-1.98142e-01,-2.13988e-01,-6.26112e-02,8.66454e-02,-5.54515e-02,-1.29854e-01,-1.93766e-01,1.08802e-02,1.79330e-02,-6.54478e-02,-3.37589e-03,-1.85613e-01,-1.66967e-01,-1.32697e-01,1.16627e-01,-1.34543e-02,-1.43360e-01,-6.26210e-02,7.36932e-02,-2.98301e-02,-1.06251e-01,1.76066e-02,-9.20745e-02,-4.14791e-02,-5.05539e-02,-1.02960e-02,-3.25888e-02,-1.44935e-02,3.85253e-02,-1.71802e-01,-1.79985e-01,-1.61833e-01,-1.93161e-01,-1.08505e-01,-3.53320e-02,1.57376e-04,-1.01450e-01,2.38839e-02,-1.76760e-01,-1.87143e-01,-5.15102e-02,-1.50519e-01,-9.32557e-02,6.31544e-03,-1.02079e-02,-1.66935e-01,-1.69852e-01,-1.15716e-02,-1.18017e-01,9.23598e-02,-1.51475e-03,-1.35600e-01,2.92436e-02,-9.40844e-02,-1.19664e-01,-9.06137e-02,-1.59598e-01,-1.77039e-01,-1.52360e-01,-5.02552e-03,-1.36176e-01,8.33396e-03,-9.76507e-02,-3.34418e-01,-2.48420e-01,-3.03764e-02,2.72931e-02,-1.36914e-01,-1.97535e-01,-1.46537e-01,5.38216e-02,5.73079e-02,8.59689e-02,-6.88212e-02,-1.67562e-01,4.17937e-02,2.52558e-02,-2.36888e-03,-9.31835e-02,-1.85268e-01,-7.97684e-02,8.32130e-03,9.41346e-02,-1.11819e-01,-1.13616e-01,-8.52723e-02,-1.49013e-01,-1.08553e-01,-7.14878e-02,-8.24381e-02,-3.81202e-02,2.14751e-02,-2.23025e-01,-1.25766e-01,-9.78384e-02,-1.76794e-01,-8.02254e-02,-2.86615e-02,-4.47298e-01,-2.13044e-01,-1.51230e-01,-5.71128e-02,-1.56573e-01,-5.41711e-02,-9.34471e-02,3.95541e-02,9.31881e-02,-8.57502e-02,6.55856e-02,-2.88844e-02,-1.51101e-01,-9.24704e-02,2.00030e-02,3.24016e-02,8.56772e-02,2.78582e-02,-1.20945e-01,1.94968e-03,
