// Neural Network File Format by Kyle Julian, Stanford 2016
3,10,5,16,
10,16,16,5,
0,
-1,-1,-1,-1,-1,-1,-1,-1,-1,-1,
1,1,1,1,1,1,1,1,1,1,
0.0,0.0,0.0,0.0,0.0,0.0,0.0,0.0,0.0,0.0,0.0,
1.0,1.0,1.0,1.0,1.0,1.0,1.0,1.0,1.0,1.0,1.0,
2.59687e+00,-4.25602e-02,-3.02650e-03,6.27355e-02,-3.09405e-02,8.34241e-02,5.28786e-02,5.46201e-03,8.04705e-02,4.42692e-02,
2.44188e+00,-5.71266e-02,8.95460e-02,-3.25150e-02,1.47430e-03,-3.45880e-02,4.67946e-02,-3.41902e-03,-2.55206e-02,3.43577e-02,
1.55587e+00,3.77762e-02,-4.38109e-02,-8.63207e-02,5.47154e-02,-5.35272e-02,6.85101e-03,-2.72562e-02,-9.77210e-02,5.43004e-02,
1.29711e+00,-3.55976e-02,3.78604e-02,6.15463e-02,3.07527e-02,2.76180e-02,-4.03918e-02,9.72833e-02,-3.99837e-02,-3.44321e-02,
2.87886e+00,6.00472e-02,1.07030e-01,-1.28528e-02,-3.68264e-02,4.80482e-02,-2.59816e-02,-4.95916e-02,3.67927e-02,-3.48574e-02,
1.55587e+00,-2.31048e-02,-3.08028e-02,7.29466e-02,-2.78564e-02,-9.53319e-02,1.13993e-01,5.95183e-02,-9.43642e-03,-2.73812e-02,
2.16678e+00,-1.66142e-02,2.90405e-02,2.14903e-02,5.46267e-02,-6.62542e-02,-1.83072e-01,1.39791e-01,-2.81041e-02,2.75028e-01,
3.06960e+00,-1.52077e-02,1.22152e-03,2.82920e-02,9.08551e-03,-8.75824e-04,-2.30087e-02,6.75699e-02,1.67828e-03,-8.99532e-04,
3.05536e+00,8.80018e-02,6.34565e-02,1.32029e-02,-1.42197e-01,5.96348e-02,4.38805e-02,-5.97403e-02,-2.10928e-02,6.44663e-02,
1.69617e+00,-3.46781e-02,2.88252e-02,-3.35863e-02,1.49461e-02,-2.36859e-02,6.35397e-04,7.56725e-03,1.19704e-02,3.31678e-02,
2.08140e+00,1.85912e-02,-2.36117e-02,-6.90432e-03,-1.34676e-02,-4.98139e-02,1.70026e-04,3.10588e-02,1.10535e-02,-3.13335e-02,
2.86155e+00,-1.04478e-01,4.46443e-02,4.93763e-02,6.19945e-02,1.42931e-01,-2.47353e-02,8.53295e-02,-1.78168e-02,-1.02153e-01,
1.57137e+00,-2.64939e-02,-5.13047e-02,-1.63111e-02,-8.79166e-03,-6.59249e-02,-4.02684e-03,3.09925e-02,-5.53023e-02,2.85550e-02,
1.76865e+00,7.85915e-02,-5.27304e-02,2.89780e-02,3.94254e-02,-4.83419e-02,1.03676e-01,8.38048e-02,3.54866e-03,-1.30079e-02,
2.73380e+00,-1.85507e-01,9.55234e-02,8.17605e-02,-3.43568e-02,5.29902e-02,-1.87001e-01,1.74787e-01,1.39793e-01,1.89728e-01,
2.35147e+01,-1.26250e-02,-2.68230e-02,-4.24902e-02,-1.41330e-03,6.13475e-02,1.93628e-02,4.11504e-02,-1.62652e-03,3.62723e-02,
-6.22156e+00,
-5.80834e+00,
-4.17248e+00,
-4.83306e+00,
-5.19728e+00,
-3.97703e+00,
-5.41330e+00,
-4.44656e+00,
-3.59996e+00,
-3.71731e+00,
-3.61846e+00,
-5.20312e+00,
-4.62100e+00,
-4.58793e+00,
-5.94211e+00,
3.11541e+00,
-1.93104e-01,-1.59466e-01,-1.23968e-01,-2.76328e-01,-5.09557e-01,1.10786e-01,-6.00314e-03,-4.38510e-01,-2.24316e-01,-2.19840e-01,-1.65470e-01,-3.02231e-01,-6.81765e-02,-2.69844e-01,-3.84009e-01,-2.45272e-01,
-4.14425e-01,-2.63764e-01,1.88144e-02,1.87888e-01,-1.78956e-01,4.80655e-02,-8.88620e-02,-1.53464e-01,1.41126e-01,-1.36529e-02,-5.86056e-02,-2.21179e-01,4.00730e-03,-7.71343e-02,-1.24737e-01,-1.89857e-01,
-1.83560e-01,4.44636e-03,-2.93187e-01,-3.91961e-02,-1.05766e-01,-4.69479e-01,-7.20373e-02,-9.78727e-03,6.83400e-03,-5.15485e-02,-1.56601e-01,-1.76986e-01,-3.14251e-01,-4.86969e-02,-6.24413e-02,-4.14072e-01,
-4.33156e-01,-4.28335e-01,1.24877e-02,1.97639e-01,-8.65723e-02,-4.73647e-02,-1.42554e-01,-1.33360e-01,1.20988e-01,2.46861e-02,-2.32488e-02,-1.93271e-01,-1.40051e-02,1.44141e-04,-1.36532e-01,-1.86508e-01,
-2.30795e-01,-3.87001e-01,-2.96512e-01,-2.41124e-01,-4.18893e-01,-2.20817e-02,-3.72225e-02,-3.52356e-01,1.59162e-01,-1.45998e-01,-1.27921e-01,-1.92936e-01,1.00768e-01,-1.02227e-01,5.27543e-02,-3.12946e-01,
-2.49180e-01,2.12816e-01,9.17270e-02,6.06288e-02,-3.35126e-01,9.50924e-02,2.24980e-02,-2.79785e-01,4.41266e-02,-2.24005e-03,-1.63719e-01,1.23214e-01,6.73401e-02,8.57037e-02,5.81105e-02,-3.49627e-01,
-3.07411e-01,-4.75761e-02,-3.87493e-01,-3.37838e-01,5.38343e-02,-1.89948e-01,-1.45782e-03,-2.48865e-01,-2.74508e-02,-1.11170e-01,-3.55130e-01,-2.79789e-01,-4.07997e-02,-1.80707e-01,-1.39294e-01,-4.90106e-01,
-3.02874e-01,1.59458e-02,8.04052e-02,-3.58076e-02,8.86517e-02,-3.02840e-01,5.85787e-02,1.46777e-02,9.64124e-02,1.19482e-01,1.61424e-01,-1.37061e-01,6.87863e-03,-8.43464e-02,-3.95116e-01,-4.24055e-01,
-2.78644e-01,-1.68516e-01,-2.52944e-01,-1.23601e-01,-4.27763e-01,-2.61959e-01,-4.08561e-01,-2.36929e-01,-1.12084e-01,-1.84327e-01,-7.23161e-02,-3.51682e-01,4.54490e-02,-2.84798e-01,-1.55121e-01,-5.15105e-01,
-2.93311e-01,-1.07117e-01,4.40980e-02,7.56877e-02,-4.22898e-01,-4.16248e-01,-1.21880e-01,-2.21815e-01,-4.35342e-01,2.08552e-03,4.14269e-03,-3.04546e-01,4.03226e-02,7.55244e-03,-7.93327e-02,-4.70411e-02,
6.46129e-02,-2.05919e-01,-1.58821e-01,-1.72789e-01,-4.56538e-01,-4.08957e-01,-8.57126e-02,-3.67022e-01,3.68783e-02,-1.51032e-01,3.01583e-02,-1.98647e-01,1.26430e-02,-1.63727e-01,6.66640e-02,-1.05659e-01,
-1.89344e-01,-1.90037e-02,-1.62556e-01,-1.38200e-01,-3.27955e-02,-3.58838e-01,-2.76589e-01,-1.83951e-01,-3.20263e-01,6.70357e-02,-2.38575e-01,-7.40036e-02,-1.21612e-01,-1.23083e-01,-4.24814e-02,-2.09076e-01,
-1.23770e-02,1.48607e-01,9.75907e-02,-6.06106e-02,2.69693e-02,1.79572e-02,-4.70083e-02,3.35858e-03,-4.14768e-02,5.59711e-02,5.90278e-02,-1.09485e-01,4.08309e-02,2.19295e-02,2.69633e-02,-7.87406e-01,
-1.57660e-01,-8.18135e-02,-6.13304e-02,-5.09122e-03,6.54282e-02,-4.12591e-01,-2.65980e-01,-6.43569e-02,-5.04155e-01,-6.85763e-02,-1.08427e-01,-1.56124e-01,5.61963e-02,-1.60399e-01,-5.99906e-02,-2.33933e-01,
-4.54285e-01,-2.85535e-02,-3.41377e-01,-3.54808e-02,2.15712e-02,-3.27606e-01,-1.33603e-01,-3.12613e-01,-2.78937e-01,2.07345e-02,-1.79824e-01,-2.19259e-01,5.08296e-02,-1.88087e-02,-8.39960e-02,-3.53038e-01,
2.44529e-02,5.47254e-02,-1.50238e-01,-2.24438e-01,-4.41604e-02,-1.89452e-01,-7.32625e-02,-4.53564e-01,-1.60025e-01,-3.59783e-01,8.42322e-04,-5.30650e-01,-2.06344e-01,-1.60740e-01,-2.41477e-02,-1.19642e-01,
-8.94000e-01,
-7.43037e-01,
-1.18764e+00,
-6.77261e-01,
-1.41387e+00,
1.79736e+00,
-1.17016e+00,
-9.44585e-01,
-1.03344e+00,
-1.13024e+00,
-1.21155e+00,
-9.66058e-01,
5.38318e+00,
-9.37100e-01,
-7.67124e-01,
-1.27031e+00,
1.81944e-01,-8.10025e-02,-3.32630e-01,1.11217e-01,-9.73984e-02,-1.48658e-02,-3.77432e-02,-5.25103e-03,-1.80081e-01,2.19441e-01,2.55556e-01,3.22635e-02,-3.74202e-01,-9.03595e-02,-4.35352e-03,-1.90871e-02,
1.78741e-01,7.12309e-03,1.24890e-01,9.45134e-03,-6.49155e-02,-1.52716e-02,8.68895e-02,-5.67447e-03,1.48429e-01,-9.21265e-02,1.30772e-02,8.61769e-02,-3.73988e-01,-1.16851e-01,-4.84400e-02,-1.06088e-02,
1.81824e-01,-1.27388e-02,1.86709e-01,1.71867e-02,-1.29771e-01,-1.52941e-02,1.96641e-01,-7.78867e-03,-1.24381e-01,1.66581e-02,1.41792e-01,-1.44836e-01,-3.73984e-01,1.84962e-01,-6.71248e-02,4.81780e-02,
1.80870e-01,-1.22725e-02,-9.58853e-02,5.43960e-02,3.38847e-02,-1.53121e-02,6.72358e-02,1.92142e-03,-2.13162e-01,1.34292e-01,-1.28820e-01,2.76968e-02,-3.73982e-01,-1.27202e-01,-9.85872e-03,-1.57775e-01,
1.45381e-01,1.52892e-02,-2.02977e-01,-1.58670e-02,5.75686e-02,-1.48750e-02,-1.11011e-01,-2.22718e-03,2.14460e-01,-9.60445e-02,-2.64579e-01,1.64754e-01,-3.74063e-01,-3.17260e-01,2.15688e-02,-1.28176e-01,
9.90524e-01,
9.90594e-01,
9.90569e-01,
9.90588e-01,
9.90627e-01,
