// Neural Network File Format by Kyle Julian, Stanford 2016
3,40,20,40,
40,16,16,20,
0,
-1,-1,-1,-1,-1,-1,-1,-1,-1,-1,-1,-1,-1,-1,-1,-1,-1,-1,-1,-1,-1,-1,-1,-1,-1,-1,-1,-1,-1,-1,-1,-1,-1,-1,-1,-1,-1,-1,-1,-1,
1,1,1,1,1,1,1,1,1,1,1,1,1,1,1,1,1,1,1,1,1,1,1,1,1,1,1,1,1,1,1,1,1,1,1,1,1,1,1,1,
0.0,0.0,0.0,0.0,0.0,0.0,0.0,0.0,0.0,0.0,0.0,0.0,0.0,0.0,0.0,0.0,0.0,0.0,0.0,0.0,0.0,0.0,0.0,0.0,0.0,0.0,0.0,0.0,0.0,0.0,0.0,0.0,0.0,0.0,0.0,0.0,0.0,0.0,0.0,0.0,0.0,
1.0,1.0,1.0,1.0,1.0,1.0,1.0,1.0,1.0,1.0,1.0,1.0,1.0,1.0,1.0,1.0,1.0,1.0,1.0,1.0,1.0,1.0,1.0,1.0,1.0,1.0,1.0,1.0,1.0,1.0,1.0,1.0,1.0,1.0,1.0,1.0,1.0,1.0,1.0,1.0,1.0,
3.99558e+00,-8.37211e-02,2.45906e-01,-2.12857e-01,1.60888e-01,8.41794e-02,1.06888e-01,9.90916e-03,1.74021e-01,-4.31604e-02,1.12792e-01,-8.56807e-02,-1.71081e-01,-1.48876e-02,-1.54698e-01,-2.59588e-02,7.47081e-02,7.66377e-02,1.34782e-02,-1.61045e-01,-3.48476e-02,7.60118e-02,2.41088e-01,-3.16896e-02,-2.73293e-01,5.45752e-02,2.33737e-02,1.66969e-01,1.32761e-01,1.73990e-01,1.50543e-01,2.97611e-02,5.01343e-02,9.68584e-02,-1.30163e-02,-7.71850e-02,-7.12406e-02,7.86468e-02,-1.79844e-01,-5.78890e-02,
6.62010e+00,-2.83237e-01,5.43429e-02,4.93109e-02,1.69333e-01,-7.58178e-02,-1.81684e-01,1.02297e-01,-1.17663e-01,-2.69333e-01,1.05225e-01,-1.29702e-01,-7.10255e-02,1.11220e-01,-4.39420e-02,-6.93764e-02,7.49131e-02,2.16099e-01,-2.72808e-01,-8.75186e-02,-1.07254e-01,-5.58828e-02,-4.96197e-02,-6.58027e-02,-1.88205e-02,1.02417e-02,1.53278e-01,9.20310e-02,8.06085e-02,9.30455e-02,1.51920e-01,7.89581e-03,-2.32380e-01,1.63893e-01,-8.73592e-04,-1.08134e-01,9.06847e-03,2.71683e-01,1.23658e-01,1.74335e-01,
6.02372e+00,-1.70829e-01,1.04925e-01,-1.42650e-01,-9.80987e-03,-3.13095e-02,1.18108e-01,2.45273e-01,-6.76239e-03,-3.33339e-02,-3.58376e-02,1.79513e-01,-3.48288e-02,-1.63172e-01,-1.72887e-01,-3.42118e-02,1.67372e-01,1.49039e-01,-1.26043e-02,-1.71120e-01,1.66289e-01,-1.38784e-01,9.32367e-02,-6.05189e-02,-1.32110e-01,1.14654e-01,2.73320e-02,-2.01936e-01,-1.33386e-01,-2.41755e-01,-1.39148e-01,8.20854e-02,-7.60644e-02,3.21610e-02,-2.83793e-02,3.76748e-02,1.54744e-02,-6.48820e-02,-7.64430e-02,6.26046e-02,
3.54603e+01,2.32014e-02,-5.18686e-02,-1.25776e-01,2.09891e-02,1.84618e-01,-5.38733e-02,-6.14976e-02,2.13550e-02,1.75059e-03,5.21213e-02,-2.73023e-02,-5.94601e-02,-1.17285e-02,5.38564e-02,-1.37048e-01,1.49272e-01,-1.64221e-01,-1.83805e-02,1.69423e-02,1.25602e-01,7.90812e-02,-3.02182e-02,-1.11578e-01,-2.12495e-04,-4.21275e-02,2.39868e-02,4.00737e-02,1.25237e-01,1.27969e-01,-5.61767e-02,7.12924e-02,-1.12392e-02,-5.09153e-02,-1.83241e-01,-1.36254e-01,1.29377e-01,-3.75570e-02,-1.16987e-01,4.96523e-02,
7.78354e+00,-1.44717e-01,6.82095e-02,-7.18478e-02,1.41285e-01,-3.47764e-01,3.41130e-02,1.40074e-01,2.43096e-02,-9.18971e-02,1.29187e-01,-4.07173e-03,1.05153e-01,1.73459e-01,-2.09581e-01,-2.45047e-01,-1.33936e-01,1.40522e-01,-2.41289e-01,2.54597e-01,-1.78903e-01,-2.55537e-01,1.26805e-01,6.67168e-02,-2.03150e-01,-7.00491e-02,-1.03409e-01,-2.50666e-02,-4.99672e-02,-7.76050e-02,8.65868e-02,3.21368e-02,1.00449e-01,-1.38574e-01,3.80412e-02,2.10908e-01,-2.69839e-01,-1.34887e-01,-1.80910e-01,1.20141e-01,
5.36159e+00,-1.79488e-01,8.94027e-02,-1.93776e-02,7.88554e-02,1.82382e-01,-1.77519e-01,8.18966e-02,-4.23553e-02,-7.14031e-02,3.30555e-02,1.63039e-02,9.31014e-02,2.07563e-01,2.04730e-01,-2.81773e-02,-8.16752e-02,1.27379e-01,-3.93901e-02,1.97962e-01,-5.96377e-02,1.38140e-01,-4.74564e-02,1.66667e-01,-9.31105e-02,5.81177e-02,-1.04331e-01,-9.68399e-02,1.15278e-01,-9.26555e-02,2.93731e-02,-2.78046e-02,-1.84570e-01,-4.67702e-02,-1.06691e-01,-5.80603e-02,2.33649e-02,-1.08718e-01,-2.39337e-02,2.29128e-01,
1.30853e+01,2.82274e-02,-1.36832e-01,1.37924e-02,-1.35745e-02,2.56652e-01,-2.10408e-01,-2.88983e-01,-4.53874e-02,4.81528e-02,4.12894e-02,-1.69978e-01,-1.47369e-01,9.96525e-02,6.11081e-02,-1.15241e-01,-5.11786e-02,9.93281e-02,1.82588e-01,-1.46025e-01,2.19208e-02,1.21326e-01,-1.52353e-01,-1.61685e-01,2.68543e-03,-1.36948e-01,-6.57033e-02,-8.40192e-02,1.28359e-02,2.70991e-01,-8.70895e-02,-2.81569e-01,-7.05819e-02,9.84714e-02,-3.34203e-01,-1.46030e-01,3.12217e-01,5.02034e-02,1.39374e-02,3.70834e-01,
6.75483e+00,-3.53109e-02,-1.27909e-01,1.14590e-01,3.39106e-01,-2.03703e-03,-3.59627e-03,1.20962e-01,-7.15480e-02,-5.19750e-02,-8.60500e-02,-6.10071e-02,9.26430e-02,-1.16629e-01,-1.33043e-01,6.77373e-03,-1.33990e-01,7.74650e-02,1.94521e-01,4.22286e-02,1.19960e-01,4.19619e-02,-4.34798e-02,7.53008e-03,-2.91527e-01,2.50849e-01,-1.00104e-01,1.00776e-01,-4.55850e-02,5.49791e-02,9.97148e-02,-2.96798e-01,-9.12223e-02,-1.95141e-01,6.00698e-02,-1.38358e-01,5.65278e-02,2.34258e-02,9.21125e-02,6.86112e-02,
3.83950e+00,-1.34109e-01,-5.96342e-02,-1.78325e-02,-1.59198e-02,-2.82297e-01,2.51907e-02,4.21497e-02,-1.24905e-01,1.30687e-01,2.07385e-01,1.05507e-01,-1.63182e-01,-8.27433e-02,-8.91421e-02,-7.46658e-03,5.58555e-02,-1.82586e-01,-1.22815e-01,5.80991e-02,2.18897e-01,1.58113e-02,-1.78921e-01,-2.34715e-01,1.41635e-01,-2.08981e-01,-1.52563e-03,1.29244e-01,-4.43267e-02,-2.96460e-02,-1.43526e-01,4.33549e-02,1.25500e-01,-9.80015e-02,1.00860e-01,3.07130e-02,-8.32798e-03,1.85322e-01,2.70278e-01,2.44027e-01,
5.61828e+00,-1.38762e-01,5.31210e-02,-1.81169e-02,-4.67189e-02,-7.03596e-02,-1.18479e-01,1.12376e-01,-1.58720e-02,7.41548e-02,-1.38409e-01,2.15722e-01,1.55203e-01,2.42681e-01,-1.27468e-01,-1.91253e-02,-1.34959e-01,2.11790e-01,-3.56976e-02,-6.98381e-02,-1.04097e-01,-6.31318e-02,-1.55157e-01,-1.27106e-01,2.76934e-01,-7.74206e-02,-9.85368e-02,1.87532e-01,-4.14106e-01,9.72682e-02,1.29633e-01,1.57178e-01,2.13849e-01,1.43714e-01,1.03531e-01,3.34401e-02,-2.19030e-01,1.35378e-01,-3.48885e-01,1.82981e-01,
6.23973e+00,8.21291e-02,1.69790e-01,-8.10073e-02,-1.06661e-01,3.93935e-02,-1.56086e-01,-1.51866e-01,-1.01395e-01,-2.64827e-01,8.78920e-02,2.93899e-02,-7.19042e-02,7.71172e-02,-9.88487e-02,-5.29925e-03,1.40695e-01,-1.95622e-01,-4.91208e-02,-1.18921e-01,6.28804e-02,7.10245e-02,-6.33892e-02,1.59047e-01,-1.44277e-01,2.70307e-01,2.26277e-01,-4.42803e-03,4.33848e-01,6.15262e-02,-1.90995e-02,-5.74061e-02,1.34636e-01,-8.93749e-02,-1.11309e-01,-2.24280e-01,1.70449e-01,2.04567e-01,-5.03528e-02,-1.55396e-01,
5.21722e+00,-7.62250e-02,-1.45193e-01,-7.00164e-02,-4.37797e-02,-1.36540e-01,3.97062e-02,6.60666e-02,3.24955e-02,-1.85442e-01,-4.74504e-02,2.71583e-02,-2.33583e-01,-5.08378e-02,-9.76778e-02,-5.25484e-02,-6.77278e-03,1.19630e-02,1.66663e-01,1.11714e-02,5.92952e-02,-1.91867e-01,3.31261e-03,-6.43352e-02,-1.95671e-01,-1.84968e-01,-1.27395e-01,-7.45859e-02,-7.56227e-02,-1.14546e-01,2.37526e-02,-1.17871e-01,3.76612e-03,-3.28441e-01,-7.17302e-02,-6.70327e-02,1.73869e-01,-2.07710e-01,-1.29514e-01,-1.15238e-01,
5.58040e+00,9.41582e-02,-8.79438e-02,-1.55551e-01,-7.65776e-02,-1.05520e-01,1.89251e-02,3.86251e-02,-6.33119e-02,-1.21925e-01,-1.25149e-01,6.97316e-02,-1.29603e-01,3.64514e-02,-1.10245e-01,8.78286e-04,8.38480e-02,9.32404e-02,-6.15096e-02,-2.37013e-03,3.40466e-02,7.04594e-02,-5.96823e-02,-7.44640e-02,-3.47402e-03,-2.23885e-01,-1.15686e-01,8.90429e-02,1.51852e-02,-2.05546e-01,-3.58509e-02,5.34562e-02,9.70785e-03,-4.70758e-02,-3.22596e-04,4.16072e-02,-3.48670e-02,-3.68298e-02,-1.59190e-01,-1.45271e-01,
4.74572e+00,-5.38020e-02,4.64083e-02,-2.60213e-01,6.85403e-02,2.02643e-03,1.62850e-01,4.89861e-02,4.57965e-02,-1.07795e-01,6.16560e-02,5.40828e-02,-1.45983e-01,-2.98490e-02,4.70720e-02,3.94335e-02,8.88050e-02,-1.38043e-01,-3.62505e-02,-2.07650e-01,2.50816e-01,1.50361e-01,-9.03647e-02,-1.08379e-02,-2.28604e-01,5.47573e-02,-1.91758e-01,-6.07526e-02,4.96575e-02,9.01121e-02,-4.43073e-02,2.28176e-01,1.01864e-01,1.72775e-02,-7.17341e-02,-9.70976e-02,2.94836e-02,-1.30498e-01,2.54641e-01,9.01051e-03,
6.91494e+00,-1.33861e-01,6.12788e-03,-1.50387e-01,5.52285e-02,-1.37967e-01,-9.61567e-03,1.23659e-02,-3.06742e-01,3.57317e-02,-1.29645e-01,-1.12639e-01,-4.35988e-02,7.06048e-02,1.47926e-01,-2.74820e-02,1.01448e-01,7.65582e-02,-1.81145e-01,-1.78942e-01,3.88488e-02,-2.61062e-01,-1.74980e-01,-6.15840e-02,-3.41114e-02,6.31380e-03,-1.71884e-01,-2.56019e-02,-1.84867e-01,2.11333e-01,2.75054e-01,2.00088e-01,-7.94119e-03,-2.27206e-01,2.20021e-01,-2.20139e-01,-1.89943e-01,2.10069e-02,3.22753e-01,2.76039e-01,
7.26117e+00,1.08692e-02,7.55046e-02,-1.00134e-01,-1.33548e-02,-1.13318e-01,6.17770e-02,-1.17947e-01,1.71858e-01,1.27525e-01,1.95128e-01,8.04230e-02,-1.54819e-01,1.60802e-01,-1.34090e-01,-1.46234e-01,3.44803e-02,2.20512e-01,-9.28851e-02,-1.19423e-01,-2.48960e-01,9.00652e-02,-9.96916e-02,-3.03573e-01,-6.03611e-02,1.04304e-01,-2.50908e-01,-7.98906e-02,1.73308e-01,9.38144e-02,-2.56817e-02,-2.39822e-01,1.51302e-02,-1.44103e-01,-2.02090e-01,1.29339e-01,-3.87051e-02,-2.97665e-01,-1.43395e-01,-1.38280e-02,
-8.36577e+00,
-8.51886e+00,
-8.58829e+00,
7.65010e+00,
-6.91810e+00,
-7.12136e+00,
-1.97809e+00,
-8.43389e+00,
-7.37814e+00,
-6.70318e+00,
-7.67124e+00,
-9.70464e+00,
-8.58730e+00,
-7.51112e+00,
-9.44374e+00,
-9.55436e+00,
1.26833e-02,-2.73208e-01,-2.26903e-01,-1.14105e-02,-3.58884e-01,-4.16852e-01,-5.87053e-02,-1.40683e-01,-3.24157e-02,-3.88098e-01,-3.94388e-01,-5.67129e-01,-7.91532e-02,9.89947e-03,-1.71324e-01,-3.47703e-01,
-4.22965e-01,-2.78844e-01,-1.03303e-01,-1.81260e-01,-1.84258e-01,-2.46538e-02,-1.21644e-01,-1.35884e-01,-2.58094e-02,-3.11636e-02,-7.89900e-02,3.88572e-03,-1.42912e-02,-1.14391e-01,-2.92622e-01,-1.25581e-01,
-4.76655e-01,-1.02852e-02,-2.02444e-01,-8.10823e-02,-2.14366e-01,-9.34279e-02,-9.13165e-02,-1.26766e-02,-3.65243e-01,-2.59846e-02,-1.72346e-01,-1.61453e-01,-2.96240e-01,-1.66612e-01,1.83175e-02,-1.73403e-02,
-3.33850e-01,-4.95051e-01,-5.21857e-01,-3.16996e-01,-9.50086e-02,-1.96980e-02,5.25404e-03,-7.39522e-02,-3.85824e-01,-2.18527e-02,4.36009e-04,-2.75460e-02,-1.82583e-01,-3.91893e-01,-2.32035e-01,-3.63241e-02,
-2.58137e-01,-5.40772e-02,-5.86866e-01,-1.63578e-02,-1.62373e-01,-3.79643e-01,-6.50278e-03,-4.81015e-01,7.95203e-03,-1.16734e-01,-2.48501e-01,-5.07411e-02,-1.14558e-01,-3.34457e-01,-2.88163e-01,-7.77503e-02,
-3.73756e-01,-3.40844e-01,-4.99792e-01,-1.09023e-01,-2.09027e-01,-2.99907e-01,1.73500e-02,-3.13761e-01,-1.80544e-01,3.34843e-03,-1.08890e-01,-4.12613e-01,-2.93848e-01,1.27789e-02,-9.74710e-02,-4.69982e-01,
-9.09740e-02,-2.04428e-02,-4.54490e-01,-3.65592e-01,-4.94188e-01,-5.60415e-01,-5.65515e-01,-4.75406e-02,-5.60274e-01,-5.27138e-01,-4.92558e-02,-1.64369e-01,-1.03458e-01,-9.25278e-03,-1.35967e-01,1.95164e-02,
-2.18656e-03,-4.65580e-01,-1.64326e-01,-6.28799e-02,-3.65581e-01,-1.06974e-01,1.42823e-02,-2.49817e-01,-3.18330e-01,-9.02659e-02,-3.60588e-01,-1.75662e-01,-5.44295e-01,-3.13054e-02,-1.06505e-01,-2.17813e-01,
-3.22776e-02,-3.10920e-01,-1.22906e-01,-3.03177e-01,-1.99431e-01,-2.31839e-01,-1.65643e-01,-9.96471e-02,-3.06945e-01,-4.49550e-01,-1.58108e-01,-4.49423e-01,-3.86471e-02,-6.55596e-02,-2.03500e-01,-2.68461e-01,
-6.19820e-02,-4.01912e-02,-5.25851e-01,1.71589e-03,-1.73909e-02,-2.66475e-01,-5.91117e-02,-1.66458e-01,-2.44912e-01,-8.39224e-02,-1.57687e-01,-6.83583e-02,-4.59185e-01,4.10967e-03,1.19912e-02,4.18893e-04,
-4.82141e-02,-2.33064e-01,-3.79415e-01,-1.37553e-01,-3.52389e-01,-2.07026e-01,-8.14930e-02,-6.39132e-02,-2.19402e-01,-7.42926e-02,-4.36378e-01,-4.22531e-01,-2.94671e-01,-1.40988e-01,-3.28091e-01,-1.99883e-01,
9.70954e-03,-2.75553e-02,-4.40932e-01,-1.89087e-01,-1.34912e-01,-3.37980e-01,-5.07636e-01,-8.75832e-03,-4.61777e-01,-2.22568e-01,-5.49253e-01,-2.73517e-01,8.31387e-03,-4.37673e-01,3.87343e-03,-4.40248e-01,
1.93430e-02,1.53406e-02,1.60982e-02,-6.80002e-01,-3.89469e-02,1.37603e-02,-1.38761e-03,3.98716e-03,-3.84005e-04,-1.03067e-02,1.51900e-02,2.68799e-03,2.42660e-03,-3.31300e-02,-9.19122e-02,2.49136e-02,
1.03748e-02,-3.19519e-01,-3.16263e-02,-3.08561e-01,-4.36153e-02,-3.57716e-01,-3.12830e-01,-4.16626e-01,-1.46423e-01,6.28333e-03,6.17009e-03,-6.70541e-02,-8.94388e-02,-3.55273e-01,-3.68897e-01,-3.50308e-01,
-1.23647e-01,-5.49593e-02,-1.82405e-01,-6.29601e-02,-2.22425e-01,-2.90949e-01,-3.01253e-01,-3.76430e-01,-1.93026e-01,-2.89975e-02,-1.27081e-01,-7.86578e-02,-1.62475e-01,-1.30207e-03,-6.62472e-02,-4.26527e-01,
-1.35985e-02,-4.02280e-02,-2.54463e-01,1.18182e-03,-3.84613e-02,-1.56744e-01,-1.56541e-01,-1.27722e-02,-6.30870e-03,-1.41445e-01,-5.49886e-01,-5.88557e-01,-5.72279e-01,-2.34058e-01,-1.64965e-01,7.86187e-03,
-5.91379e-01,
-1.53029e-01,
-6.78387e-01,
-5.87555e-01,
-7.79759e-01,
-6.82709e-01,
-6.24043e-01,
-8.65453e-01,
-8.24158e-01,
-4.71495e-01,
-1.07745e+00,
-4.14351e-01,
9.35202e+00,
-4.91320e-01,
-5.88939e-01,
-5.08961e-01,
7.31277e-02,-2.32876e-02,-1.40347e-01,2.33779e-01,-3.15819e-01,-4.15403e-02,5.91713e-02,-6.99035e-02,1.49382e-01,2.27187e-01,-5.07568e-02,2.02776e-01,-2.14883e-01,-2.43658e-01,1.46748e-01,-1.33927e-01,
-4.94909e-02,-1.96620e-02,2.56465e-01,-2.25647e-02,2.44277e-01,-7.08150e-02,5.33174e-02,-2.00963e-01,-1.95672e-04,1.34661e-01,7.29413e-02,-1.76963e-02,-2.14883e-01,4.96628e-02,2.31670e-01,-1.17290e-01,
-2.45092e-03,-1.97954e-02,1.34262e-01,-1.86693e-01,3.53833e-02,1.79905e-02,8.64413e-02,6.63946e-02,-8.65034e-02,-1.82651e-02,7.38072e-02,-1.53303e-01,-2.14885e-01,-7.95444e-03,-9.01367e-02,2.02560e-02,
6.12579e-02,-1.85922e-02,9.24029e-03,1.27229e-01,-2.32836e-01,1.21306e-01,-1.31879e-01,-1.12968e-01,6.81361e-03,-6.72762e-02,1.43555e-01,1.83477e-01,-2.14883e-01,-2.34467e-02,1.59209e-02,4.63500e-02,
-2.07368e-01,-2.44607e-02,3.11529e-01,7.96522e-02,1.74689e-01,8.78203e-02,-1.80097e-01,-1.77044e-01,2.50288e-01,-3.03102e-02,4.88219e-02,1.38186e-01,-2.14887e-01,-1.56042e-01,2.94423e-01,-1.62469e-01,
-5.87154e-03,-2.18558e-02,1.44630e-01,-1.50596e-01,1.00492e-01,3.64986e-03,3.38385e-02,-4.63833e-02,1.71995e-01,1.48763e-01,5.43235e-02,1.08579e-01,-2.14883e-01,-1.24648e-01,8.17822e-02,2.61753e-02,
1.00999e-01,-1.81909e-02,5.13774e-02,9.15128e-02,-1.16958e-01,8.22550e-02,-7.42225e-02,-2.71532e-01,-3.66974e-02,1.66744e-01,-2.93923e-01,-8.05595e-02,-2.14887e-01,6.12329e-02,-1.10648e-01,-1.99505e-02,
9.84095e-02,-1.84702e-02,1.31567e-01,1.18048e-01,-9.19437e-02,-1.09370e-01,1.96679e-01,4.47397e-02,1.18230e-01,-9.01205e-02,4.80642e-02,-1.05650e-01,-2.14882e-01,1.76980e-01,-6.45952e-02,-2.53577e-02,
-1.16044e-02,-1.86808e-02,5.80264e-02,-4.65823e-02,1.28041e-01,1.32263e-01,3.34683e-02,-5.36848e-02,1.44424e-01,-3.01986e-01,-5.40108e-02,3.64152e-02,-2.14898e-01,7.36593e-02,-2.21696e-01,1.15581e-01,
3.65282e-02,-1.86106e-02,5.85363e-02,-1.70120e-01,2.00549e-01,-5.53449e-04,1.82595e-02,-3.40317e-02,1.50801e-01,-1.94522e-01,-2.42009e-01,3.93670e-02,-2.14889e-01,-1.20224e-01,1.21905e-01,-1.10889e-01,
-5.73597e-02,-1.79394e-02,1.43509e-01,7.67796e-03,-3.66024e-02,1.40594e-01,8.97074e-02,-1.89335e-01,2.28666e-01,-1.38401e-01,-1.27326e-01,1.75450e-01,-2.14894e-01,1.48144e-01,-1.25924e-01,4.82426e-02,
9.95374e-02,-2.36355e-02,-2.86471e-01,2.15685e-01,1.18687e-01,-1.32833e-01,-2.60870e-01,-2.66551e-01,7.65154e-02,-8.40654e-02,-2.38021e-01,-2.34893e-01,-2.14887e-01,-3.24222e-01,1.68356e-01,1.42774e-01,
-1.03793e-01,-2.31415e-02,1.66663e-01,-1.05732e-02,-1.73676e-01,-2.77779e-02,-1.86456e-01,-2.15201e-01,3.44583e-01,1.48688e-01,-5.55727e-02,-7.67150e-02,-2.14899e-01,-1.59624e-01,-3.20333e-01,-1.52735e-01,
1.88657e-01,-2.36122e-02,-1.37914e-01,7.11889e-02,-7.29713e-02,1.92262e-01,2.34731e-01,-3.01383e-01,-2.81197e-01,2.45736e-01,-1.30910e-01,-3.07835e-01,-2.14884e-01,-2.91891e-01,1.32016e-01,-1.42794e-01,
1.12185e-01,-2.24270e-02,-6.90160e-02,-3.11389e-01,6.21546e-02,1.70644e-01,1.57137e-01,-3.89421e-01,-1.13222e-01,-4.95472e-02,-1.99780e-01,-3.37994e-01,-2.14891e-01,6.06455e-02,-3.63580e-01,9.48376e-02,
3.91818e-02,-2.33579e-02,2.01352e-01,-3.13130e-01,-4.21108e-01,1.55584e-01,-1.40370e-01,-1.71530e-01,-2.88949e-01,2.29196e-01,-2.14203e-01,1.13231e-01,-2.14889e-01,2.29235e-01,-1.21075e-01,-1.87355e-02,
-2.60324e-02,-2.10144e-02,3.59113e-02,1.56640e-01,-1.72202e-01,-1.90863e-01,2.01472e-01,-3.93328e-02,-4.18245e-03,-3.04262e-01,1.57054e-01,-2.99545e-03,-2.14885e-01,-7.78488e-02,1.86229e-01,1.82513e-01,
-5.08052e-02,-2.43879e-02,1.79415e-01,-1.53818e-01,-3.33051e-02,3.35463e-01,2.90323e-01,-2.29516e-01,3.99582e-01,-1.90218e-01,-1.96723e-01,1.02925e-01,-2.14892e-01,-5.25284e-02,-5.20484e-02,1.74591e-01,
4.56525e-02,-1.98734e-02,1.66098e-02,2.34491e-01,-9.03419e-02,1.58672e-01,-6.77214e-02,4.67455e-03,3.35220e-02,2.87650e-01,-2.84715e-01,8.83181e-03,-2.14888e-01,-9.89182e-02,-2.10543e-01,-2.03292e-01,
-3.28943e-02,-1.87237e-02,6.05225e-02,1.34924e-01,6.37644e-02,5.91619e-02,1.75445e-01,-1.13990e-01,-1.55174e-01,4.43376e-02,-2.32075e-01,8.34900e-02,-2.14890e-01,7.32408e-02,1.00263e-02,-1.91201e-01,
9.79277e-01,
9.79276e-01,
9.79276e-01,
9.79278e-01,
9.79270e-01,
9.79276e-01,
9.79273e-01,
9.79278e-01,
9.79263e-01,
9.79272e-01,
9.79266e-01,
9.79273e-01,
9.79261e-01,
9.79276e-01,
9.79268e-01,
9.79271e-01,
9.79276e-01,
9.79268e-01,
9.79272e-01,
9.79271e-01,
