// Neural Network File Format by Kyle Julian, Stanford 2016
3,40,20,128,
40,128,128,20,
0,
-1,-1,-1,-1,-1,-1,-1,-1,-1,-1,-1,-1,-1,-1,-1,-1,-1,-1,-1,-1,-1,-1,-1,-1,-1,-1,-1,-1,-1,-1,-1,-1,-1,-1,-1,-1,-1,-1,-1,-1,
1,1,1,1,1,1,1,1,1,1,1,1,1,1,1,1,1,1,1,1,1,1,1,1,1,1,1,1,1,1,1,1,1,1,1,1,1,1,1,1,
0.0,0.0,0.0,0.0,0.0,0.0,0.0,0.0,0.0,0.0,0.0,0.0,0.0,0.0,0.0,0.0,0.0,0.0,0.0,0.0,0.0,0.0,0.0,0.0,0.0,0.0,0.0,0.0,0.0,0.0,0.0,0.0,0.0,0.0,0.0,0.0,0.0,0.0,0.0,0.0,0.0,
1.0,1.0,1.0,1.0,1.0,1.0,1.0,1.0,1.0,1.0,1.0,1.0,1.0,1.0,1.0,1.0,1.0,1.0,1.0,1.0,1.0,1.0,1.0,1.0,1.0,1.0,1.0,1.0,1.0,1.0,1.0,1.0,1.0,1.0,1.0,1.0,1.0,1.0,1.0,1.0,1.0,
-6.76229e+00,9.42030e-02,3.09851e-01,-1.10736e-01,6.99205e-02,-4.63857e-02,1.61342e-01,-2.28179e-01,-7.82846e-02,1.26212e-01,4.54023e-02,-2.48164e-01,9.58803e-02,-1.21570e-01,2.60973e-02,-2.00792e-01,4.12020e-02,3.10572e-02,1.36478e-01,2.48237e-01,-1.42603e-01,-2.32915e-02,4.60697e-02,7.84559e-02,-2.56208e-01,-1.69389e-02,-4.97577e-03,-4.11005e-01,-1.91459e-01,-2.44962e-01,-2.61270e-02,2.92089e-01,6.08931e-02,2.50251e-01,-3.51613e-03,-7.72036e-02,-1.02632e-01,-2.50172e-01,-4.50533e-02,2.64948e-02,
-5.40206e+00,4.97842e-02,1.68453e-01,1.19936e-02,-2.87366e-01,3.73833e-02,5.66186e-02,1.42543e-01,-1.26852e-03,-1.85656e-01,1.39867e-01,7.29746e-02,-2.58815e-02,1.96645e-01,4.14398e-03,-1.11459e-01,2.49208e-02,1.03787e-01,2.14940e-01,8.23684e-02,-1.41043e-01,1.97383e-01,-6.93391e-02,-2.51027e-01,5.22834e-02,-3.08264e-01,1.25647e-01,2.40190e-02,3.55151e-02,-1.45894e-01,3.10827e-01,-5.73888e-02,-9.65504e-02,-1.49969e-01,-1.71247e-01,7.98668e-02,-1.12242e-01,-3.26274e-01,-1.83655e-02,-1.77920e-01,
-3.64029e+00,-2.50273e-01,-2.73321e-02,-1.31914e-01,2.94960e-02,-1.82647e-01,1.03176e-01,-1.82164e-01,9.50389e-02,-2.24763e-02,-5.80791e-02,-8.28943e-02,4.31172e-02,1.93344e-01,-2.38735e-01,2.17719e-01,-2.14034e-01,4.50676e-02,8.92021e-02,2.76012e-01,-1.06470e-01,-1.49825e-01,-1.63932e-01,1.31268e-02,3.75713e-03,2.52669e-01,1.15624e-02,2.54947e-02,-1.08082e-01,1.12395e-01,1.10829e-01,-8.32746e-02,1.49678e-01,1.45853e-01,1.45680e-01,-1.13093e-01,-1.28926e-01,-8.93426e-02,-2.24921e-02,-2.98894e-01,
3.66122e-01,3.39408e-02,-3.52070e-03,-1.19316e-02,-2.47866e-02,8.99687e-03,2.54317e-02,-2.24111e-02,-1.53818e-02,2.14731e-02,-1.58048e-02,-8.34248e-03,4.47068e-02,4.71052e-02,-6.31443e-03,-1.29725e-02,1.21469e-02,-9.98987e-03,-1.60975e-02,-1.72917e-02,-5.06928e-02,2.55807e-02,3.44524e-02,-5.52160e-02,-3.09542e-02,2.49781e-03,1.24255e-02,-2.70072e-02,-1.68122e-02,-1.79096e-02,1.23729e-03,1.49978e-02,-2.21015e-02,2.71916e-02,-1.46466e-02,5.95723e-03,3.92579e-02,5.41333e-03,-1.32809e-02,8.25167e-02,
-1.72087e+00,2.21323e-01,4.28659e-02,1.09700e-01,1.92028e-01,4.79153e-02,-1.64857e-01,-1.67189e-01,1.64172e-01,1.93422e-01,-1.47289e-01,2.26918e-01,-2.18440e-02,-1.93621e-02,1.34102e-01,5.71759e-02,5.55542e-02,-4.69538e-02,-7.95589e-02,6.07483e-03,1.48882e-01,-1.14132e-01,-4.61918e-02,4.37763e-02,8.61068e-04,1.68398e-01,9.31509e-02,-5.92578e-02,7.85280e-02,3.64916e-01,1.53744e-03,-2.55490e-01,2.72694e-01,-1.06067e-01,8.47529e-04,1.10206e-01,4.27878e-03,-4.01614e-02,-2.80916e-02,-1.55403e-01,
-3.17813e+00,6.18147e-02,4.79544e-02,2.49888e-03,-3.12973e-01,1.52666e-01,2.51639e-01,-2.17456e-01,1.45956e-01,2.68588e-01,2.70562e-01,-8.77451e-02,-2.56934e-01,9.67096e-02,1.02475e-01,-3.98377e-02,3.82288e-02,-4.57656e-02,1.84496e-01,-3.90803e-02,-2.17711e-01,-7.85406e-02,3.25293e-01,-2.00504e-01,-7.62289e-02,-7.03574e-02,6.87277e-02,-2.61055e-01,1.12601e-01,1.58206e-01,-1.10628e-01,2.34379e-03,7.44573e-02,6.74625e-02,6.42831e-03,7.64599e-02,1.51308e-02,9.91662e-02,-1.07135e-01,-1.39652e-01,
-3.78626e+00,6.85389e-02,2.74149e-02,9.47205e-02,4.64532e-02,-6.97426e-02,2.61717e-01,6.31888e-02,-7.27759e-02,9.14433e-03,9.17864e-02,1.18862e-01,-1.10031e-01,6.06687e-02,9.49353e-02,1.81226e-02,-1.12877e-01,6.22906e-02,-1.11600e-02,-2.33278e-01,4.76131e-02,2.27449e-01,1.27098e-01,-4.09255e-02,-4.58540e-02,-7.42962e-02,-6.56048e-02,-1.25688e-01,7.76243e-03,-2.41998e-02,1.31789e-01,-7.98896e-02,-1.53563e-01,2.45867e-01,-4.88897e-02,4.90681e-02,1.13666e-01,1.40262e-01,1.12461e-01,6.72446e-02,
-2.32100e+00,-2.92947e-01,7.79328e-02,2.22310e-02,-1.65107e-01,1.68866e-01,2.79841e-01,2.89382e-01,-6.85365e-02,6.31608e-02,1.44739e-01,1.02265e-01,-7.92743e-03,-1.10892e-01,1.08303e-01,-1.00755e-01,-2.21721e-01,-1.79323e-01,1.19754e-01,2.75660e-02,-5.52859e-02,-3.04712e-01,-1.92921e-01,1.29004e-01,-1.73842e-01,3.54317e-02,-9.27675e-02,7.20088e-02,8.27455e-02,-7.83104e-02,6.14522e-02,1.45707e-01,-5.76908e-02,1.77264e-01,5.09480e-02,2.15565e-01,1.27465e-02,-2.00968e-01,1.10140e-01,5.20982e-02,
-8.41683e+00,-9.17449e-02,4.92555e-02,5.25687e-02,-7.18060e-02,-8.27745e-02,1.85986e-02,3.01778e-01,-3.46923e-03,1.44180e-01,-5.77027e-02,-1.57095e-01,3.03071e-01,1.23861e-01,-1.42794e-01,3.16217e-01,6.38849e-03,-2.90717e-02,1.54247e-01,2.42855e-01,-1.15679e-01,1.01290e-01,-1.43979e-01,4.12122e-01,8.21059e-02,1.63735e-01,6.52775e-03,3.20843e-02,1.19569e-01,2.10262e-01,3.33793e-01,-2.74538e-01,-1.55910e-01,1.62110e-01,1.44844e-01,3.01871e-02,1.78791e-01,-1.13580e-01,1.02538e-01,7.89867e-02,
-3.57329e+00,1.21580e-01,-2.40378e-02,-7.70149e-02,-9.21372e-02,-5.49708e-02,-3.09552e-01,1.02150e-01,-2.92609e-01,-2.24485e-01,-1.36669e-02,-6.06297e-02,3.00450e-02,-1.33553e-01,-7.91469e-02,1.30734e-01,-2.87554e-01,-6.56905e-03,-1.28334e-01,-1.44891e-01,1.62729e-01,-3.25497e-02,-1.09990e-02,1.07831e-01,6.47568e-02,-1.56977e-01,-3.70945e-03,-5.52600e-02,9.42455e-02,-1.54811e-02,-9.84730e-03,7.78985e-02,5.70557e-02,-1.13803e-01,-1.02489e-02,1.28532e-01,3.03944e-01,-9.04974e-02,2.23066e-01,-1.95398e-01,
-4.28407e+00,1.78846e-01,4.41090e-02,-3.62650e-01,-1.66397e-01,4.97329e-02,3.69799e-02,1.08240e-01,1.40686e-02,8.91090e-02,5.29432e-02,2.90480e-01,-9.13710e-02,-1.23306e-01,1.90786e-02,9.81875e-02,-2.97268e-01,-3.27486e-01,-1.06887e-02,6.57538e-03,4.06123e-02,8.14674e-02,3.41462e-02,1.16380e-01,8.99399e-02,-1.03607e-01,1.80435e-01,2.86048e-01,-2.09769e-02,5.92902e-03,-3.06837e-02,-1.63396e-01,-1.59804e-01,-1.80642e-01,-6.66881e-02,1.31173e-01,1.35458e-01,1.27362e-01,2.15989e-01,-1.67286e-01,
-4.54801e+01,1.96644e-02,7.82987e-03,3.03611e-02,-7.59930e-02,7.19465e-02,-1.08618e-01,1.20959e-02,-6.72412e-02,-7.33826e-03,7.54437e-04,-3.01856e-02,1.50157e-02,-5.58851e-02,7.00928e-02,4.14390e-02,2.26862e-01,1.06447e-01,-2.93365e-02,1.58528e-03,4.85575e-02,5.48718e-02,-3.15820e-02,-2.46409e-02,-2.13364e-02,8.01386e-02,-1.20189e-01,8.01269e-02,-2.04789e-02,9.13223e-02,1.80896e-02,-1.33678e-01,-1.40842e-01,4.20373e-02,4.01764e-02,-1.73371e-01,2.07038e-01,-9.98259e-02,-3.22929e-02,3.88220e-02,
-7.42964e+00,-2.22220e-01,-2.09416e-01,1.95270e-01,2.88407e-01,-3.51820e-02,9.90710e-02,2.32001e-01,2.57665e-01,8.10264e-02,6.78180e-02,1.59144e-01,1.30993e-01,1.18117e-01,-6.34659e-02,1.61703e-01,-6.07234e-03,-2.37998e-02,-1.25495e-01,-1.57587e-01,2.17542e-01,-3.29438e-01,-6.34468e-02,-1.56370e-01,-1.87327e-01,-4.32016e-02,-3.06090e-01,4.87318e-02,-1.42206e-01,-3.69203e-02,7.62196e-03,3.09827e-02,-4.83529e-02,1.86116e-01,-3.30687e-01,1.12701e-01,-5.45053e-02,-2.21366e-01,-1.86872e-01,-9.90606e-02,
-5.26444e+00,-2.25349e-01,7.67624e-02,4.24984e-01,4.10023e-02,-1.24444e-01,8.43602e-02,-1.15464e-01,-2.69078e-01,1.04139e-01,4.03812e-01,-1.41723e-01,-1.99278e-02,1.13761e-01,5.27709e-02,2.62386e-01,1.25926e-01,3.84904e-01,-1.99159e-02,1.59683e-01,-3.22646e-02,-7.64463e-02,9.48659e-02,-2.26579e-01,3.64445e-02,3.69509e-03,1.21905e-01,-7.01955e-02,4.20293e-01,1.38517e-01,-9.10765e-02,5.61021e-02,1.03604e-02,4.12834e-02,-9.16723e-02,-1.47797e-01,4.52971e-02,-5.43833e-02,-1.26687e-01,2.92613e-02,
-1.80608e+00,1.71799e-02,1.43806e-02,-1.41459e-01,-6.77413e-02,1.03295e-01,3.11144e-01,1.87918e-02,1.91350e-02,3.69700e-02,1.03828e-01,-3.01266e-03,1.53063e-03,1.03968e-01,1.11223e-01,-1.02155e-01,1.59613e-01,-9.32726e-02,-7.19372e-02,-1.76361e-01,-5.24899e-02,-9.77796e-02,9.88700e-02,1.31966e-01,-1.55702e-01,-1.90781e-01,1.61709e-01,-1.17037e-01,1.03559e-01,4.09909e-02,8.91212e-02,8.22768e-02,-5.97669e-02,1.68344e-01,2.37257e-02,2.05403e-02,1.27625e-01,1.48000e-01,-1.76374e-01,-3.60468e-02,
-4.43381e+00,-2.66557e-01,1.04778e-01,-9.75602e-02,2.74746e-01,3.87146e-01,5.09503e-02,8.21705e-02,2.56488e-01,5.42604e-02,-5.10471e-02,-4.61486e-02,1.76394e-01,-3.03723e-02,1.03598e-01,-9.25094e-02,5.34625e-02,5.13965e-02,9.77685e-02,8.28441e-02,-9.26303e-02,1.53130e-01,-1.37187e-01,-6.01064e-02,-9.90635e-02,1.47585e-02,1.37596e-01,-4.64914e-01,-2.38810e-01,1.87794e-01,-1.58227e-01,7.33294e-02,-1.65901e-01,1.32263e-01,1.77061e-01,7.15027e-02,-8.15968e-03,2.72820e-01,1.82444e-01,3.05425e-01,
-1.62393e+00,-1.33325e-01,-7.87308e-04,7.18731e-02,1.39664e-01,-6.00149e-02,-2.10697e-01,4.49715e-02,-1.44651e-02,-1.58515e-01,-7.64019e-02,1.97900e-02,-1.62817e-01,-9.97852e-02,-5.86312e-02,-9.12374e-02,-3.53214e-02,-1.56609e-01,-2.38791e-01,-4.19255e-02,-1.04120e-01,1.21212e-01,3.44161e-01,1.57429e-01,1.31392e-01,7.23621e-02,2.03548e-01,6.98296e-02,2.40711e-01,2.46202e-02,2.52162e-01,-1.02221e-01,1.39529e-01,-1.20498e-01,7.16062e-02,-1.49242e-02,1.38356e-01,1.76867e-01,-2.56110e-01,1.55737e-01,
-7.79698e-01,-3.28877e-01,-4.78841e-02,3.79181e-02,-3.84620e-01,-2.69787e-01,2.42587e-02,7.92248e-03,1.39962e-01,-1.04561e-01,-2.40508e-01,-3.22690e-02,-1.73530e-01,-2.18111e-01,-2.06816e-01,-1.14030e-01,5.27659e-02,-2.39726e-01,-2.18513e-01,-1.68124e-01,-3.32033e-01,3.89318e-01,-1.62517e-01,1.65091e-02,-1.16985e-01,-4.83877e-02,-3.81802e-02,2.79008e-01,2.71504e-01,-6.45188e-02,-6.65445e-02,-2.01627e-01,-5.94788e-02,1.60843e-01,2.24174e-02,-1.42365e-02,1.83282e-01,2.22451e-01,9.46210e-03,-1.47971e-01,
-3.34662e+00,-9.11912e-02,-1.58941e-01,1.02990e-01,-3.37955e-02,-3.02783e-02,2.05271e-01,-1.34877e-01,-2.88280e-01,1.37574e-01,1.79407e-01,-7.88683e-02,1.35318e-01,-3.49355e-02,2.10164e-02,-1.70209e-01,-3.42827e-02,-3.88024e-02,6.99125e-03,-3.84610e-02,-3.11615e-02,-5.24954e-02,2.37933e-01,-4.97242e-02,2.44653e-02,-1.83036e-01,7.37106e-02,1.71284e-01,1.17502e-01,-1.40573e-01,-1.23241e-01,3.09795e-01,-2.54650e-01,7.01206e-02,1.32478e-02,8.12516e-02,1.50009e-02,-1.54544e-01,1.17935e-01,5.97003e-02,
-5.58032e+00,1.77786e-01,-1.05477e-01,7.25256e-02,4.81850e-02,-1.33856e-01,9.19260e-02,-3.09734e-01,3.56607e-02,1.97415e-02,2.31707e-01,2.68813e-01,-1.61647e-01,-5.20745e-02,-4.03576e-02,1.90782e-02,-4.25919e-02,-4.24540e-01,2.43051e-01,-5.92153e-02,-1.29166e-01,-2.39032e-02,-7.11320e-02,2.81638e-02,-5.43574e-02,6.30948e-02,2.23378e-02,-8.35661e-03,-7.54005e-02,2.22653e-01,-1.22570e-01,-6.71077e-02,7.32150e-02,-2.40901e-02,1.49589e-01,-7.51679e-02,-1.48788e-01,2.51259e-01,1.07359e-01,-1.31429e-01,
-1.02697e+01,2.07292e-02,-2.10183e-01,2.49312e-01,-1.58847e-02,-9.42440e-02,-2.10464e-01,1.28923e-01,-1.62771e-01,1.29908e-01,-1.88560e-01,1.58303e-01,8.92835e-02,-1.26003e-01,-3.80510e-01,-2.18697e-01,-2.05665e-01,-4.45570e-01,1.93790e-01,-1.43515e-01,-7.31039e-02,-8.87958e-03,-1.56070e-01,3.31747e-01,1.50907e-01,3.66973e-01,-5.22174e-02,6.54765e-02,-6.99663e-03,-6.09102e-02,4.36415e-01,-1.68974e-01,-2.99502e-01,-8.77911e-02,8.05825e-02,1.49234e-01,2.95801e-01,-1.15719e-01,-1.05324e-01,1.13899e-01,
-4.87009e+00,3.02688e-01,7.81154e-02,-1.40024e-01,4.33441e-01,-1.09535e-01,-1.63789e-01,2.82251e-01,-1.55792e-02,-7.40102e-02,-7.17520e-03,1.06434e-01,-6.62308e-02,7.29608e-03,6.62810e-02,-2.24131e-01,1.91520e-02,-1.96680e-02,-1.58953e-01,2.58323e-02,1.22058e-01,-2.00758e-01,5.28122e-02,2.13699e-02,1.18368e-01,-4.21606e-02,4.62585e-02,1.75809e-01,1.91993e-01,1.78693e-01,9.34551e-02,-1.20141e-01,2.27429e-01,5.23971e-02,1.25352e-02,-2.94463e-03,8.03512e-02,1.14546e-03,5.27323e-02,1.27011e-01,
-2.66315e+00,1.93814e-01,-1.72928e-01,2.46766e-01,-2.76394e-01,-1.36313e-01,1.78940e-01,3.10724e-01,-3.33460e-01,-9.54692e-02,1.84748e-01,-1.60597e-01,-2.21750e-01,-7.90450e-03,1.86804e-01,2.32620e-01,-2.41519e-02,-3.85847e-02,-1.80906e-01,1.74799e-01,-1.02573e-01,-6.65935e-02,-5.40146e-02,1.15405e-01,1.22157e-01,4.81818e-02,-3.89223e-02,-9.08348e-02,-5.00775e-01,-2.58395e-01,-4.79969e-02,-2.56528e-02,6.78289e-02,9.79324e-02,-1.08702e-01,-1.29462e-02,7.89773e-02,-1.56386e-02,2.04984e-02,1.16709e-02,
-1.53842e+00,-1.31111e-01,7.61411e-02,-3.91572e-02,-1.23477e-01,-5.57969e-02,4.89529e-02,-6.82359e-02,1.10446e-01,6.63320e-02,-2.46233e-02,2.19062e-03,-2.80837e-01,-6.52760e-02,6.76471e-02,1.25430e-01,-9.99230e-02,-2.70223e-02,3.23412e-03,3.44288e-02,6.33943e-03,-5.94399e-02,1.08763e-02,1.00535e-02,3.51969e-02,-2.24180e-02,2.97743e-01,8.67194e-02,-9.21821e-02,7.89955e-02,1.43321e-01,9.23745e-02,4.02968e-02,5.32669e-02,1.31857e-01,6.90351e-02,-4.02655e-02,-3.95483e-02,1.08493e-01,2.30357e-02,
-3.18900e+00,1.98096e-02,-6.89054e-02,-2.96920e-01,-1.43219e-01,1.05593e-01,-5.34127e-02,-2.27591e-01,-1.25664e-02,1.61473e-01,-5.84181e-02,-8.57632e-02,7.10162e-02,9.62689e-03,-8.46100e-02,2.28094e-01,-7.40450e-02,-6.39471e-02,-6.31755e-02,1.81121e-03,-9.12451e-02,2.13637e-02,3.75079e-02,1.22388e-02,1.44930e-01,9.78840e-03,2.28313e-01,-1.32279e-01,1.91163e-02,3.13588e-01,1.97208e-01,5.81580e-02,-4.18296e-02,7.97932e-02,3.05195e-02,-3.26813e-01,-9.77091e-04,1.86814e-01,-1.67886e-01,-8.11405e-02,
-6.76811e+00,8.64380e-02,-2.12290e-01,-1.30157e-01,1.22382e-01,1.84067e-01,-1.53825e-01,3.08447e-01,1.09140e-01,4.37911e-02,1.07386e-02,3.13236e-01,-1.79133e-01,-1.90433e-01,-1.86236e-02,6.29492e-02,2.16571e-02,2.19686e-01,4.17691e-02,1.40525e-01,-1.23697e-02,-1.06425e-02,-2.99378e-01,6.66008e-02,6.79759e-02,3.63415e-01,2.05620e-01,-1.60934e-01,-7.16535e-03,-8.43845e-02,2.18903e-02,-2.40212e-01,-1.84123e-04,-2.46476e-01,1.51914e-01,1.54247e-01,2.74042e-01,-8.31070e-02,-2.16363e-01,2.46257e-02,
-2.46050e+00,1.56117e-01,-3.04541e-01,-2.60805e-02,-6.98647e-02,2.01509e-01,2.16968e-01,-5.51208e-02,2.23077e-01,-7.48492e-02,-7.86683e-02,2.28144e-01,3.41500e-03,7.76426e-02,1.32047e-02,2.64688e-01,3.49709e-02,4.51120e-02,1.17755e-01,4.91365e-02,1.72863e-01,-1.26423e-02,-1.50816e-01,1.56874e-01,1.39899e-01,-6.09925e-02,1.69683e-01,4.70413e-03,1.13223e-01,1.51011e-01,1.80602e-01,-4.77702e-01,6.34857e-02,-9.62900e-02,1.82311e-01,-5.24739e-02,2.74724e-01,2.50461e-01,-8.63028e-02,1.22509e-01,
-5.80246e+00,7.14803e-03,-2.76721e-01,-3.89802e-01,-1.71104e-01,3.61917e-01,1.17608e-01,3.50515e-02,1.57841e-01,2.09597e-01,1.31285e-01,5.58185e-02,4.29707e-01,-8.71859e-02,-1.51744e-01,-1.93928e-01,-2.91979e-01,-4.15983e-01,-1.62315e-01,-1.43927e-01,1.57148e-01,1.21167e-01,-3.50888e-02,2.00808e-01,4.70195e-02,-3.42892e-01,3.97225e-01,1.08114e-01,-1.95914e-01,2.29795e-01,1.89020e-01,-8.45112e-02,-4.95590e-02,1.51473e-01,2.20557e-02,1.41474e-01,-1.19812e-01,3.60177e-01,8.10166e-02,1.29514e-01,
-6.56589e+00,1.86558e-01,8.09266e-02,-1.33922e-01,-1.87440e-01,2.93659e-01,5.06874e-02,-2.32589e-01,-1.63337e-01,3.39077e-02,-4.92755e-02,-1.46486e-01,7.69825e-02,-1.14486e-01,3.20387e-02,9.81905e-02,-3.04623e-02,-1.39044e-01,1.77814e-01,-5.27402e-03,1.08935e-02,-2.64193e-01,8.39833e-02,6.63411e-02,4.10601e-04,1.38368e-01,2.64372e-01,-3.29590e-02,-1.40779e-01,1.62834e-02,-2.17077e-02,-2.42145e-02,1.41470e-01,-1.77398e-02,-3.25437e-02,1.10431e-01,-2.63255e-01,2.99801e-02,9.76831e-02,-8.41657e-02,
-7.63547e+00,6.02888e-02,1.11487e-01,-3.78061e-02,3.96566e-01,1.70394e-01,-4.43725e-02,-1.01848e-01,-2.31528e-02,5.67132e-02,7.02336e-02,4.83292e-02,-1.06063e-03,6.34760e-02,-1.18385e-01,2.21480e-01,5.22810e-02,-1.58848e-01,2.72225e-01,-2.91217e-01,1.59965e-01,1.86441e-01,-4.00838e-02,-3.17681e-02,-4.29487e-01,-1.94809e-01,-4.03504e-01,2.63725e-02,1.21244e-01,-3.85842e-02,9.40542e-02,-2.31976e-01,3.10613e-01,2.52808e-02,-6.69513e-02,-1.85123e-01,5.95724e-02,1.06660e-01,2.79963e-01,7.77306e-02,
-3.65274e+00,-8.80132e-02,5.71316e-02,-1.13454e-01,1.94310e-01,-1.15228e-03,-8.25045e-02,2.14110e-01,-2.38906e-01,-1.35085e-01,1.22788e-01,-7.00803e-02,8.01017e-02,-3.84997e-03,1.59937e-01,-3.17396e-02,-6.89999e-02,5.34730e-02,-5.03402e-02,-1.27557e-01,6.68078e-02,-6.51230e-02,1.76000e-01,6.11158e-02,-2.48615e-01,1.60933e-01,-1.00089e-01,-1.64307e-01,-2.30071e-02,1.88914e-01,2.45313e-01,-4.64646e-02,9.43420e-02,-1.73412e-01,-4.57714e-02,-1.04728e-01,5.07540e-02,-4.86918e-02,2.05313e-01,8.93749e-02,
-2.42689e+00,1.56115e-01,6.95012e-02,-1.43542e-01,1.59377e-01,4.55579e-02,-4.93126e-02,1.83272e-01,9.99053e-02,1.04255e-01,1.90545e-01,6.04982e-02,1.19425e-01,-7.89487e-02,-1.18211e-01,-1.26357e-01,7.69195e-03,6.86896e-02,8.81835e-04,-1.36340e-01,-3.98284e-02,-7.81705e-02,1.06488e-01,7.06925e-02,-1.40438e-01,-1.36517e-01,-1.29808e-01,-4.89928e-02,1.04788e-01,2.96127e-03,1.10252e-01,9.75998e-03,7.67520e-02,2.15035e-01,-1.06170e-02,-4.78102e-02,-5.95753e-02,2.93876e-01,-2.78555e-01,-9.74152e-02,
-1.17167e+00,-9.02893e-03,4.94091e-02,-9.79991e-02,2.30398e-01,-2.40208e-01,1.57578e-01,-1.79493e-01,1.67542e-01,2.05764e-02,9.00207e-03,7.44158e-02,-1.69265e-01,1.24055e-01,1.11734e-01,1.08644e-01,-5.90891e-02,2.89539e-02,-2.22082e-01,-1.33713e-01,-5.80310e-03,1.49162e-01,-3.86687e-02,-1.73474e-01,-1.43785e-01,8.48003e-02,-6.27128e-02,1.09142e-01,6.81706e-02,1.02679e-01,-3.24230e-02,-3.74504e-02,2.70876e-01,-1.69630e-01,1.09501e-01,-4.44844e-02,-2.89506e-01,2.94149e-01,4.12614e-02,-2.01707e-02,
-3.73941e+00,1.45103e-01,1.66901e-01,-6.12284e-02,3.54107e-01,1.17016e-02,-2.71968e-01,1.72886e-01,3.65409e-02,-2.04939e-01,-1.10799e-01,-7.25359e-02,9.78037e-02,1.40427e-01,1.82469e-01,-8.80838e-02,-1.27998e-01,-6.84973e-02,1.41566e-03,7.56791e-02,-1.46442e-01,-2.52471e-01,1.03806e-01,1.92670e-01,-3.60163e-02,1.18455e-01,1.72470e-01,9.54511e-02,1.72021e-01,-1.42713e-02,8.97762e-02,6.18080e-02,1.89898e-01,6.06856e-02,-4.66722e-02,1.92357e-01,-2.99557e-01,-1.20395e-01,5.39429e-02,2.62311e-01,
-8.42398e+00,9.18076e-02,2.85193e-01,-2.82815e-02,3.01150e-01,-4.08635e-02,1.66351e-01,1.66785e-01,3.20827e-01,2.20388e-01,-1.12083e-01,-2.43253e-02,8.15512e-02,-3.83192e-01,-6.36780e-02,-2.66666e-02,-1.42102e-01,1.63820e-01,8.35545e-02,1.30194e-01,-5.03572e-03,-1.98027e-01,-1.21495e-01,6.40985e-02,2.07026e-01,2.04703e-01,-2.59878e-01,1.13347e-02,2.72098e-02,-1.41236e-02,-1.41970e-01,-1.77890e-01,4.70342e-01,-1.68717e-01,2.11867e-01,2.84637e-01,-3.07460e-02,5.67858e-02,-1.28063e-01,9.20292e-02,
-1.88326e+00,-7.92950e-02,-2.52692e-01,-1.06343e-01,-1.48706e-01,-1.08710e-01,-3.67749e-02,-2.58182e-02,1.11216e-01,-1.18830e-01,-1.69260e-02,1.02265e-01,-6.30190e-02,-2.90794e-01,5.89902e-02,-1.71661e-02,4.09312e-03,-1.14023e-01,-1.48888e-01,-1.75429e-01,-1.47378e-01,3.56335e-02,2.16725e-01,2.93222e-01,2.69910e-02,-1.04752e-01,6.03644e-02,-9.08035e-02,1.57995e-01,-1.73559e-01,5.18967e-02,-2.46230e-01,-1.27163e-02,1.08840e-01,1.13712e-01,-5.74234e-02,-9.38138e-02,3.74952e-02,1.95236e-02,-1.11701e-02,
-1.57778e+00,-3.10509e-02,1.67226e-01,-2.30182e-01,8.96602e-02,-8.53316e-02,6.49353e-02,-5.68477e-02,-5.33470e-02,8.71395e-02,1.45344e-01,-4.09065e-02,-4.15755e-02,2.61883e-01,2.46625e-02,-7.52222e-02,1.60646e-01,5.17191e-03,1.58098e-02,1.45811e-01,-1.73222e-01,-1.64094e-01,7.08266e-02,7.81167e-02,1.70070e-01,-4.60047e-02,8.19807e-02,5.19221e-02,2.33956e-01,1.53604e-01,-2.76910e-02,1.54186e-01,7.08390e-02,1.98158e-03,8.57357e-02,7.48552e-03,1.77037e-02,1.70039e-01,-1.59691e-01,-2.92198e-01,
-1.44486e+00,2.96673e-01,-1.67537e-01,4.42166e-02,9.82462e-02,1.86216e-01,9.88825e-02,-1.79451e-03,2.36404e-01,-2.11814e-02,-1.63642e-01,-1.42545e-02,1.82656e-01,6.83439e-03,2.91366e-02,4.21882e-02,-1.33763e-01,1.45969e-01,3.44975e-02,-2.93186e-02,1.94313e-01,-4.04586e-02,-6.14024e-02,-1.99991e-01,-3.17621e-01,-2.97446e-01,1.89697e-01,-2.66663e-01,-6.38523e-02,-1.77118e-01,2.59366e-01,-1.98640e-01,-7.74424e-02,2.55984e-01,-7.01157e-02,1.05316e-01,-6.46184e-02,1.00185e-01,9.90120e-02,2.70878e-01,
-6.82282e+00,-2.87948e-01,-5.07745e-02,-2.48582e-01,1.19953e-01,9.64913e-02,-4.91732e-02,-2.94530e-02,-1.93555e-01,9.71463e-02,2.32673e-01,-1.65129e-01,1.14967e-01,-1.57725e-01,-1.17119e-01,-1.68270e-02,-4.61895e-02,-4.89886e-02,-1.70539e-01,-3.24285e-01,5.62214e-02,2.57929e-02,2.01977e-01,-3.82771e-03,-2.34702e-01,9.20903e-02,-8.70898e-02,-7.23993e-02,-6.52682e-02,-7.67440e-02,1.07510e-01,-2.24693e-01,6.46880e-04,7.56295e-02,-3.15572e-01,1.49658e-01,-2.92358e-01,4.97371e-01,-1.91563e-02,-5.20303e-02,
-4.48789e+00,1.51010e-01,1.23225e-01,1.97284e-01,-1.47650e-01,-1.43468e-01,7.69348e-02,-2.30732e-01,-5.79667e-02,4.59835e-02,2.21678e-01,-5.39831e-02,-1.55074e-02,3.95670e-02,-1.65346e-02,5.82654e-03,3.23953e-02,-2.42740e-02,-5.35406e-02,-8.38507e-02,-6.19062e-02,1.42875e-01,-1.21475e-01,1.11471e-01,-1.92455e-02,2.24394e-01,7.55849e-02,-1.73207e-03,-2.87347e-01,9.99350e-03,1.22073e-01,6.77825e-02,3.13937e-01,3.37477e-01,2.03294e-01,-4.59408e-02,-7.60044e-02,-3.11833e-02,1.65287e-01,1.56914e-01,
-5.86283e+00,-5.52047e-02,7.62616e-02,-1.54189e-01,-5.40603e-02,2.65136e-02,-8.02680e-02,1.58806e-01,-2.85564e-01,-4.76884e-02,3.44614e-01,-1.28695e-01,-1.12594e-01,-1.57165e-01,-5.63190e-02,3.15744e-01,-1.42187e-01,9.08593e-02,-2.07738e-01,-4.39049e-01,-1.70368e-01,-2.05329e-01,3.32148e-02,5.39701e-02,-1.18002e-01,3.70071e-02,-1.97058e-01,-1.08043e-01,1.43110e-01,3.13119e-01,1.54726e-01,-1.84788e-01,2.59655e-01,-9.59755e-02,-1.42309e-01,2.07498e-01,1.57929e-01,1.52281e-02,7.61140e-02,-1.49737e-01,
-1.96307e+00,-1.32916e-01,-1.17109e-01,-7.91440e-02,-1.36796e-01,-2.57650e-02,3.20808e-01,2.77306e-03,-1.12217e-01,2.31092e-01,4.35337e-02,-6.80641e-02,-3.21534e-01,6.85986e-02,2.23615e-01,-5.69801e-02,8.13323e-02,4.37945e-02,-1.96489e-02,-7.47390e-02,-1.71563e-01,1.80551e-03,-3.60340e-02,-4.34608e-02,1.49594e-01,-1.01649e-01,1.66517e-01,2.44236e-02,-8.06936e-02,-4.00197e-03,2.58428e-02,-8.29972e-02,3.38716e-02,-6.00560e-02,8.67171e-02,-5.17147e-03,-7.41319e-02,3.12477e-02,-1.18671e-01,-3.42645e-02,
-1.87048e+00,-1.33622e-01,8.67517e-03,3.01322e-03,1.06108e-01,-4.16101e-03,1.46599e-01,-1.35034e-01,-4.49440e-02,1.63737e-01,2.52451e-01,8.22540e-02,2.20017e-02,8.58273e-02,1.69996e-01,-3.87981e-02,1.52471e-01,3.26376e-02,6.10991e-02,1.08245e-01,-1.29984e-01,1.78581e-01,4.61161e-03,-7.18160e-02,-1.03348e-01,8.33294e-02,-8.11283e-02,-6.00054e-02,1.74759e-01,-1.03575e-02,-2.26057e-01,-9.49077e-02,-9.43727e-02,3.02312e-02,-6.50663e-02,-1.04116e-01,7.24440e-02,2.01375e-01,1.20364e-01,-5.62604e-02,
-4.40893e+00,-1.50811e-01,4.19369e-03,-3.32383e-02,9.77036e-02,2.04875e-01,2.53623e-01,5.78704e-03,2.10014e-02,1.66611e-01,3.16881e-02,-1.49581e-01,7.61185e-03,-8.65694e-02,1.13137e-01,-1.67983e-01,1.03801e-01,-2.00117e-01,2.24529e-01,-5.32914e-02,5.51076e-02,-1.77239e-01,-1.87778e-02,2.56327e-01,7.91589e-02,6.52807e-02,2.06968e-01,-1.06131e-01,-6.25246e-02,-1.38925e-01,-1.63992e-01,6.79400e-02,-6.55181e-02,2.68362e-02,-1.56575e-01,1.68630e-01,-2.31727e-01,2.97892e-01,3.46168e-01,2.31001e-01,
-1.12787e+00,-8.93200e-02,1.57061e-01,8.22651e-02,-2.60613e-02,3.00091e-01,2.33929e-01,1.28431e-01,-8.72473e-02,-2.27513e-02,-2.16529e-01,8.99357e-03,-3.09582e-02,-2.68371e-02,1.84330e-01,1.95957e-01,3.11084e-01,-2.99545e-01,2.33694e-01,6.83220e-02,1.83426e-01,-1.24054e-01,-2.46175e-01,2.53217e-01,-4.66552e-02,1.73150e-01,7.56662e-02,4.86106e-02,4.37332e-02,1.12160e-01,7.64850e-02,-8.85281e-02,1.42569e-02,4.26993e-02,-1.15037e-01,7.18529e-02,1.68927e-01,5.42423e-02,3.29478e-01,1.65785e-01,
-1.56744e+00,-1.24223e-01,6.27652e-02,6.10179e-02,-1.20309e-01,-4.05632e-02,1.82823e-01,5.77435e-02,-9.84409e-02,-1.27473e-01,-1.11075e-01,-6.52407e-02,2.22869e-01,-1.39853e-01,2.98188e-02,1.59057e-01,2.05297e-01,6.80428e-02,1.50675e-01,6.32287e-02,5.58675e-02,-4.17570e-02,-1.00479e-01,5.25711e-02,5.24951e-02,-1.60987e-01,-8.27044e-02,-6.75801e-02,6.06962e-02,-2.05357e-02,1.97351e-01,1.05110e-01,1.05112e-01,3.00039e-02,1.28996e-03,9.31236e-02,-1.76056e-02,1.23064e-01,1.53333e-01,1.04540e-01,
-7.07387e+00,2.02101e-01,2.42827e-01,-8.01848e-02,-3.20628e-02,-9.80949e-02,-1.11956e-02,2.15919e-02,-1.32072e-01,-9.59618e-02,9.04919e-02,-7.79029e-02,-5.65656e-02,1.79275e-01,2.28250e-02,6.12628e-02,1.08843e-01,-1.17267e-01,1.07601e-01,1.87598e-01,-1.60630e-01,-2.92906e-02,-4.40835e-03,-2.09562e-01,5.57964e-02,-1.96915e-01,1.83755e-02,-1.94431e-01,-2.02772e-01,-2.15198e-01,-7.37322e-03,1.85814e-01,1.13954e-01,2.66546e-02,-2.68611e-01,-1.22719e-01,8.62733e-02,-2.20653e-01,1.44432e-02,-8.99926e-02,
-3.80649e+00,2.23443e-01,1.46588e-01,-1.93770e-02,1.52596e-01,5.05156e-02,-2.35521e-01,3.66545e-02,2.22117e-01,-2.19405e-02,3.40998e-02,-6.00335e-02,2.53710e-02,3.51931e-01,6.53353e-02,-5.62669e-02,-1.54152e-01,1.83194e-01,9.67143e-02,-1.37308e-02,-3.72823e-02,-4.65808e-02,-2.44843e-01,-3.63483e-03,-5.94108e-02,-3.50758e-01,9.55169e-02,-2.34891e-01,2.50245e-01,-1.14549e-01,8.99313e-02,1.36932e-01,2.51292e-01,-4.53827e-02,2.16766e-03,7.68100e-02,-5.66661e-02,1.49609e-01,-2.06607e-01,-3.83236e-02,
-6.33420e+00,-1.40810e-03,-9.79207e-02,4.60157e-02,-3.28468e-01,4.54334e-02,2.09778e-01,-2.18567e-01,2.13276e-01,2.86139e-01,4.05920e-01,-1.37703e-01,-3.08168e-01,-6.13442e-02,1.62507e-01,-4.97780e-02,1.63442e-01,-1.98742e-02,1.48862e-01,7.15452e-02,-1.38217e-01,-8.70969e-02,9.38096e-02,-4.69869e-02,2.72637e-02,-3.01731e-01,2.20961e-01,-2.01422e-01,-1.57520e-01,-7.62735e-02,-2.11882e-01,3.32231e-01,2.94551e-02,8.90431e-02,4.82509e-02,6.22796e-02,4.29389e-02,2.55711e-01,-6.58985e-02,-1.08566e-01,
-4.44982e+00,-1.28756e-01,-1.31574e-01,-3.09852e-02,1.56662e-02,2.46311e-02,3.49291e-02,1.04710e-01,-7.73964e-02,2.17833e-01,1.68398e-02,3.13000e-04,1.90959e-01,-1.29521e-02,8.03782e-03,2.50911e-01,-3.02926e-02,4.65716e-02,5.98254e-02,-2.65823e-02,-8.10715e-02,-1.62346e-02,-2.54903e-01,2.82469e-01,4.16782e-02,-1.14791e-01,3.09332e-02,-2.04141e-03,-5.06077e-02,1.91584e-01,1.83682e-02,-4.77861e-02,1.62931e-02,3.05711e-02,2.30539e-01,9.53418e-02,-1.03710e-01,-1.55691e-01,-1.59520e-02,2.71779e-02,
-6.41816e-01,-1.35134e-01,-2.74997e-01,-1.95429e-02,-8.18597e-02,5.10370e-02,-7.30476e-02,1.06685e-01,-3.61226e-02,-3.74615e-01,1.26003e-01,-2.15663e-01,-7.83594e-02,9.48374e-02,-2.26494e-01,-1.82225e-02,1.56729e-01,7.01545e-02,1.63768e-01,-1.15232e-01,-1.85675e-02,7.75836e-02,1.09181e-01,3.31007e-02,5.34499e-02,2.22164e-01,6.89419e-02,2.12074e-01,1.09295e-01,-4.38025e-02,-5.74599e-02,-1.86285e-01,4.96401e-02,-1.32034e-01,-6.28931e-02,1.86276e-01,-1.11235e-01,1.03647e-03,-1.24074e-01,-1.70396e-01,
-1.62452e+00,-1.20720e-01,-8.57023e-02,-1.46827e-01,2.84269e-01,-1.45754e-01,-3.52208e-01,1.47353e-01,7.72034e-02,8.36358e-02,7.60787e-02,1.21270e-01,-1.80811e-02,-2.33030e-02,2.90254e-02,1.42208e-01,-6.75308e-02,-1.46159e-01,-1.05541e-01,1.72072e-01,-1.74496e-01,-1.11431e-01,2.49812e-01,5.28200e-02,1.62049e-01,2.26622e-01,-1.96238e-01,7.74714e-05,-1.94863e-01,1.07433e-02,-5.49905e-03,3.76885e-02,7.53373e-02,-2.36964e-01,2.76397e-01,-1.03871e-01,6.87344e-02,-8.93304e-02,-3.17882e-01,1.75015e-01,
-3.67079e+00,4.79886e-02,-1.61576e-01,-1.56358e-01,1.46730e-01,2.90507e-02,-1.08914e-01,-1.24013e-01,-1.48195e-02,-2.66038e-01,-1.10144e-01,-3.43182e-02,-2.85795e-02,2.19968e-01,-4.24948e-02,3.68324e-01,-1.04076e-01,-3.82030e-02,-1.49598e-01,-8.57163e-02,-4.31785e-02,4.45363e-02,-6.54846e-02,-1.57599e-01,1.50899e-01,1.23090e-01,2.03874e-01,1.99121e-01,6.77921e-02,8.41519e-02,1.13873e-01,-1.01100e-01,4.61147e-02,8.24866e-02,1.78953e-01,8.03773e-02,-2.98926e-01,-4.83084e-02,8.48529e-02,-1.07828e-01,
-6.39173e+00,-1.29226e-01,-1.81572e-01,4.97724e-02,-1.44982e-02,4.01453e-02,-4.34562e-02,-9.34567e-02,-2.65423e-02,-5.88114e-02,1.57547e-02,1.91301e-01,1.90944e-01,1.51463e-01,5.58641e-02,1.15980e-01,-1.72380e-01,3.89833e-02,-2.00570e-01,-1.31499e-01,1.03285e-02,-1.86531e-01,-8.89259e-02,2.87598e-01,1.59256e-01,2.35374e-02,-7.40977e-02,5.35456e-03,-1.20242e-01,-2.44971e-01,-1.22589e-01,-1.67971e-01,7.70254e-02,2.16661e-01,-5.37734e-03,-3.67723e-03,-2.13142e-01,-2.03280e-01,-3.82832e-02,-1.58240e-01,
-3.13748e+00,4.23191e-01,-1.49492e-01,-3.04862e-01,8.73910e-02,-1.96719e-03,-7.15875e-03,-2.45533e-01,2.06699e-01,7.67478e-02,4.01047e-02,3.18112e-01,2.12537e-02,-1.69677e-02,6.70156e-02,7.51005e-02,-2.86323e-02,-1.68854e-01,-1.74329e-02,1.37576e-01,-1.93087e-01,-9.32847e-02,1.22978e-01,1.15047e-01,-1.77160e-01,2.37448e-01,1.84362e-01,2.18250e-02,3.64274e-02,2.86942e-01,8.87675e-02,-4.25671e-01,4.70153e-01,8.84338e-02,-1.40229e-01,-4.56841e-02,-1.35041e-01,-1.43523e-01,-1.87038e-02,-1.28238e-01,
-8.62745e+00,3.47119e-01,-1.51610e-02,8.98347e-02,1.10228e-01,-2.53603e-01,-3.24846e-01,1.17530e-01,2.71243e-02,-2.78876e-01,1.98202e-01,-2.12671e-01,2.24924e-02,5.20215e-02,3.98610e-01,-8.68315e-02,-2.61120e-01,4.84035e-02,-1.98057e-01,4.17926e-01,-1.87717e-01,-5.40766e-01,-2.06921e-01,-1.00977e-01,1.29967e-01,-9.14608e-02,1.34731e-01,7.10442e-02,2.43348e-01,1.87857e-01,-1.48520e-01,-1.17160e-01,1.00187e-01,2.25445e-01,1.01090e-01,-3.37834e-02,-9.12225e-03,1.23654e-01,-1.62770e-01,-9.71311e-04,
-5.58894e+00,1.67402e-02,-5.46207e-02,-2.68444e-01,6.70559e-02,-1.95878e-01,2.88704e-02,3.13042e-01,8.33895e-02,2.33468e-01,1.86324e-01,1.91043e-01,-7.86699e-02,4.20919e-01,8.88327e-02,-1.71565e-01,-2.43035e-01,4.22002e-02,1.68652e-01,-3.08549e-01,1.34855e-01,1.76254e-01,-8.64994e-02,2.34546e-01,-2.26893e-01,-3.16059e-02,1.94793e-02,-3.42165e-02,-9.53449e-02,1.08294e-01,3.13146e-01,1.69011e-01,3.14040e-02,-9.25964e-02,-1.02823e-01,-2.19066e-01,6.37235e-02,-8.65007e-02,-7.51919e-03,-1.69254e-01,
-4.82443e+00,-8.52007e-04,-1.28822e-01,-2.17001e-02,2.43630e-01,1.05378e-01,-1.99966e-01,1.11230e-01,6.96958e-02,-1.15236e-01,3.15954e-02,9.93146e-02,4.52794e-02,1.98881e-01,-2.99567e-02,-1.53767e-01,1.41273e-01,2.00373e-01,-3.83120e-02,-2.10754e-01,-1.83014e-01,1.83860e-01,-1.51608e-01,4.77887e-02,-1.44202e-01,-3.93122e-02,2.46669e-01,-3.24114e-01,1.55803e-02,-2.51456e-01,1.51039e-01,4.90643e-02,-2.73570e-01,7.57643e-02,-1.64081e-01,4.18157e-02,5.61122e-02,-2.26227e-01,3.38428e-02,2.05569e-01,
-6.34695e+00,-1.70985e-01,-6.01950e-02,1.70877e-01,-1.40498e-01,8.76143e-02,1.36423e-01,-1.45746e-01,-1.31882e-01,-2.58199e-01,-2.74695e-02,-2.89052e-01,7.50368e-02,1.89159e-01,1.45235e-01,-1.67114e-01,1.46007e-01,1.96736e-01,-1.77008e-01,-7.13397e-02,-6.16165e-03,-2.37661e-05,-9.64727e-03,-9.27239e-02,1.29666e-01,-1.50027e-01,1.92710e-01,1.09785e-01,1.68732e-01,-2.14201e-01,-3.16601e-01,5.08370e-02,-2.27364e-01,7.33719e-02,-8.15985e-02,-1.22012e-01,3.28321e-01,1.12650e-03,4.96610e-02,-1.12168e-01,
-7.37826e+00,1.31883e-01,-1.22101e-01,-3.35948e-01,2.86367e-01,1.02230e-01,-5.99411e-04,-1.29347e-01,-1.62171e-01,2.35934e-01,1.21789e-01,-5.53975e-02,-1.01679e-01,-2.45338e-02,2.39548e-02,3.02883e-02,-2.34187e-01,6.42039e-02,-2.89794e-02,-1.07425e-02,-1.43947e-01,5.88399e-02,5.44566e-02,6.39937e-02,7.26004e-02,1.21134e-01,-3.00210e-01,-8.87108e-02,-2.65781e-01,2.07927e-01,2.19594e-01,8.78643e-02,-5.61218e-02,-3.75277e-01,-1.25958e-01,-3.47612e-02,1.71936e-01,2.84174e-01,2.79321e-02,5.10729e-02,
-9.04311e+00,2.69451e-01,-2.76219e-01,2.70468e-02,-4.36115e-01,-2.73158e-02,3.23096e-01,-6.91153e-02,1.72653e-02,2.82462e-01,-4.65823e-02,3.93944e-02,-1.07642e-01,-1.93401e-01,-2.75926e-01,1.26169e-01,-6.12900e-02,8.14061e-02,2.06660e-01,1.29632e-01,8.21415e-03,-3.66646e-02,-1.86657e-01,-3.22528e-03,-1.33827e-01,1.53571e-01,-3.53170e-01,8.07940e-02,-1.48577e-02,5.91982e-02,-2.37739e-01,5.60677e-02,2.40836e-01,3.71831e-02,-3.26331e-01,6.18937e-02,-1.01704e-01,1.85411e-02,1.47928e-01,1.59339e-01,
-2.73258e+00,2.04441e-01,-2.06885e-02,1.99255e-01,2.92330e-02,2.11464e-01,4.86751e-02,1.24424e-01,-1.23045e-01,7.05134e-02,-2.28365e-02,1.96843e-01,-2.33380e-01,-8.58170e-02,2.79520e-02,1.45269e-01,5.99493e-02,1.17163e-01,5.04702e-02,7.80743e-02,-1.25129e-01,1.04869e-01,-1.17620e-01,1.87346e-01,-8.47733e-02,-1.54428e-01,-1.13478e-02,-7.05992e-02,1.12859e-01,1.44278e-01,1.41573e-01,-1.01063e-01,1.21689e-01,9.62493e-02,1.71066e-01,1.83539e-02,6.30232e-03,1.43928e-01,2.25501e-02,-8.55386e-02,
-7.57155e+00,1.24587e-01,-4.99177e-02,-9.45406e-03,5.98426e-01,3.65985e-02,1.37269e-01,3.26855e-02,3.26745e-02,-3.71766e-02,-1.04106e-01,-2.60968e-01,-5.53336e-02,1.41120e-01,-1.83128e-01,-8.50372e-02,9.18287e-02,-2.09280e-01,2.10878e-01,-2.36384e-01,-5.24071e-02,4.53951e-02,1.69060e-01,-7.21410e-02,-1.17743e-01,3.65292e-02,-2.95930e-01,-2.23761e-01,-3.54458e-01,5.72356e-02,-1.03018e-01,3.32998e-01,2.53078e-01,-3.07344e-01,-2.26025e-01,-3.05540e-02,1.09113e-01,1.06231e-01,7.90940e-02,1.03507e-02,
-8.49586e-01,-2.50769e-01,1.45641e-01,3.21973e-01,1.52642e-01,1.32249e-01,-1.88293e-01,-2.20153e-02,-1.49488e-01,-9.77893e-02,1.61628e-01,-1.77494e-02,2.56667e-02,1.46470e-01,-4.19489e-02,6.49674e-02,-1.57365e-01,-2.79624e-01,3.13074e-02,2.61247e-01,1.65705e-01,-3.42855e-02,-2.48855e-01,9.49743e-02,-1.42875e-02,-1.44252e-02,2.15193e-02,-2.05475e-01,6.88039e-02,1.68908e-01,5.06937e-02,-6.43617e-02,-1.32584e-01,1.55588e-01,-8.13291e-02,2.71292e-02,2.63504e-01,-2.27870e-01,-4.94646e-02,-1.88735e-01,
-2.83272e+00,-7.69193e-02,4.75342e-02,-1.07981e-01,1.57573e-01,-7.13239e-02,-1.29630e-01,2.38083e-01,-2.24379e-01,1.02044e-01,-8.52915e-02,-1.77753e-02,-2.25350e-02,-1.86053e-01,1.85301e-02,1.60780e-01,-1.55836e-01,-3.61798e-02,-9.78057e-02,-9.93820e-02,1.77581e-01,-5.70394e-02,-1.11195e-01,-1.70923e-02,-3.46823e-01,7.20707e-02,-2.22435e-02,1.09595e-01,-3.95874e-03,1.18399e-01,2.25261e-01,-3.99660e-02,8.42850e-02,7.23238e-02,1.70591e-01,-9.89172e-02,7.70783e-02,-6.57442e-02,1.35479e-02,6.13304e-02,
-6.77288e+00,-1.09964e-01,-3.84171e-01,-1.52870e-01,1.16757e-02,-1.15930e-01,1.23839e-01,-1.18985e-01,-3.16024e-02,-2.03965e-02,-1.76300e-02,3.41356e-01,-4.55398e-02,-3.48907e-01,-1.45884e-02,2.78127e-01,-2.91281e-01,5.53091e-02,-1.44311e-01,1.35098e-01,-1.16075e-01,7.65780e-02,-2.36314e-01,8.84263e-02,1.39397e-01,-2.88976e-01,6.23047e-02,-4.20772e-02,-6.72798e-02,1.26777e-01,-4.42287e-02,-3.34861e-01,-2.03813e-01,-1.31254e-01,-1.00908e-01,3.89765e-01,-1.61538e-01,-3.11933e-01,-1.31946e-01,1.85590e-02,
-6.32191e+00,2.45107e-01,2.66157e-01,2.33100e-02,3.05566e-01,7.25281e-02,2.54366e-03,6.72858e-02,-4.26955e-02,2.69920e-01,-9.75826e-02,1.56174e-02,4.50099e-02,1.15722e-01,-6.56412e-02,-4.85539e-02,1.46833e-01,-2.77417e-01,-2.08596e-01,1.78901e-01,-1.54305e-01,-9.01311e-02,3.67150e-02,-1.67098e-01,-2.86484e-02,2.69317e-01,-3.41244e-01,1.57642e-01,1.60509e-01,7.31189e-02,-2.11394e-01,-3.20714e-02,-5.74885e-02,-6.03266e-02,-3.68655e-02,-2.35129e-02,-1.13939e-01,-3.08240e-05,-3.79729e-02,8.40756e-02,
-1.74761e+00,-3.99875e-02,-4.33068e-02,4.56927e-02,-2.99228e-01,-9.02143e-02,1.80829e-02,-9.27897e-02,1.82452e-01,-3.14776e-02,2.11019e-01,6.24848e-03,-2.64517e-01,5.31606e-02,-6.02135e-02,4.25124e-02,1.78832e-02,4.41463e-03,-1.33346e-01,-2.39636e-02,-2.33310e-01,-9.79983e-02,-3.43419e-02,-7.00073e-02,-1.18583e-02,-2.88448e-01,-7.47892e-03,7.81878e-02,-7.93308e-03,2.54906e-02,1.62303e-02,7.12024e-02,-1.27742e-01,-2.28880e-02,8.48099e-02,6.99274e-02,3.23007e-02,-8.83016e-02,-4.10158e-02,-3.35147e-02,
-8.80867e-01,9.48577e-02,-3.92947e-02,-1.79962e-01,-1.03558e-01,-4.34842e-02,-1.46762e-01,-2.26293e-01,1.02451e-01,1.02501e-01,2.41422e-01,1.29425e-01,2.28619e-01,5.47121e-01,-1.09539e-01,5.98859e-02,-1.85954e-01,1.39184e-01,-6.71478e-02,-6.49766e-02,8.31975e-02,-1.39317e-01,1.55534e-01,1.00390e-01,3.91872e-02,-2.53652e-02,6.18297e-02,6.89861e-02,7.80054e-02,2.88234e-01,1.58583e-01,2.86386e-01,1.25386e-01,9.19915e-02,-1.65030e-01,-1.37249e-01,-1.10649e-01,-1.68592e-01,3.73526e-02,-2.08075e-01,
-7.85633e+00,3.36646e-01,2.45706e-01,-1.38442e-01,-3.42732e-01,-4.30735e-02,-1.33071e-01,3.31349e-01,-6.15634e-02,6.60049e-02,-3.29030e-01,-4.64399e-01,1.69542e-01,-2.71661e-01,1.15798e-01,-3.29983e-01,1.74399e-02,-6.59834e-02,3.84074e-02,-1.77037e-01,9.88796e-02,-1.85594e-01,1.19514e-01,4.09551e-02,1.16848e-01,1.25037e-01,2.04506e-01,2.31738e-01,-1.94740e-02,3.22333e-02,-4.73987e-02,3.23554e-02,1.02829e-01,-1.78612e-01,-1.80976e-02,1.72144e-01,-2.55679e-01,6.40312e-02,4.91961e-02,-3.74955e-02,
-2.69476e+00,-1.90404e-01,-2.62643e-02,-2.59642e-02,1.06634e-01,-1.56630e-01,-8.57135e-02,-1.22762e-03,5.33189e-02,4.41621e-02,-3.82348e-02,-2.31432e-01,1.81040e-01,-7.32572e-03,-1.60298e-01,-2.10675e-01,6.02505e-02,-1.84741e-01,-4.42648e-02,-2.19180e-02,-1.20623e-01,-8.47010e-02,2.34487e-01,-1.31934e-01,4.52489e-02,5.16784e-03,1.76135e-02,1.35457e-01,-7.14860e-02,4.44267e-02,1.83218e-02,2.43189e-01,-1.45200e-01,3.86173e-02,-1.81946e-01,1.50837e-02,1.79319e-01,1.14078e-01,-4.39276e-02,-6.81702e-02,
-5.05830e+00,5.39602e-02,3.00969e-01,2.31973e-01,1.10230e-01,4.28626e-01,-1.56096e-01,-7.41002e-02,-9.88036e-02,9.19717e-02,1.63008e-01,2.44366e-03,5.87476e-02,1.78130e-02,1.21318e-01,1.67656e-01,5.20119e-02,-2.41501e-01,3.10327e-01,-1.69904e-01,-9.40170e-03,-3.58333e-02,1.84641e-01,2.80683e-01,1.30800e-01,-3.33154e-03,-1.91367e-02,5.91449e-02,1.94778e-01,2.42685e-01,-1.05392e-02,-1.60479e-01,-1.36747e-02,-2.66946e-02,-2.01424e-01,-2.80423e-01,1.17146e-02,-2.27129e-01,2.11771e-01,2.77914e-02,
-4.68456e+00,-9.31980e-02,-1.15964e-01,-7.53084e-02,1.26507e-01,2.03308e-01,5.60836e-03,-8.04263e-02,2.15792e-01,8.77607e-02,7.51589e-02,-2.08642e-01,-2.63016e-01,-2.65439e-01,4.27467e-02,-8.34732e-02,1.51802e-01,-4.82981e-02,4.69260e-02,-1.90324e-01,-1.85580e-01,7.91668e-02,-6.47618e-02,6.81030e-02,-2.27332e-01,1.18485e-01,1.05511e-02,-2.06043e-01,3.23239e-02,-1.92149e-02,-1.16481e-01,-1.65350e-01,2.51593e-01,1.56249e-01,-1.92455e-02,-1.50931e-01,-1.18059e-01,7.59449e-02,1.29643e-01,1.67252e-03,
-1.36555e+00,-9.11907e-02,-1.01445e-01,1.48603e-02,1.64611e-01,1.87258e-02,3.01024e-01,1.69411e-01,-3.32491e-01,-6.26196e-02,-3.04530e-02,-2.53550e-01,9.08866e-02,1.67217e-01,1.34076e-01,1.05068e-01,2.05593e-01,-1.37625e-02,-7.74189e-02,-1.42462e-01,1.59786e-01,1.84129e-01,2.25862e-02,2.42100e-02,2.31581e-01,1.25561e-01,-1.17785e-01,8.84513e-02,-4.14901e-02,1.22969e-01,2.02919e-01,6.90871e-02,3.63947e-01,1.07898e-01,1.72108e-01,-5.46285e-02,5.27040e-02,1.50340e-01,2.96436e-03,1.55013e-01,
-6.13059e+00,-1.09540e-02,-3.08373e-01,-1.93338e-01,2.74356e-02,-2.42294e-03,-8.03620e-02,-7.72676e-02,-1.11262e-01,-1.65466e-03,-2.05208e-01,1.24849e-01,-2.58053e-02,3.08978e-03,4.86588e-02,9.33679e-02,1.03642e-01,-1.04099e-01,-7.23800e-02,-1.11800e-01,-1.04036e-01,-2.03024e-02,-4.14759e-02,-2.50706e-02,3.15367e-02,3.74334e-02,-2.98057e-01,3.94347e-02,1.10058e-02,2.31490e-01,-7.67506e-03,-6.15349e-02,3.58641e-02,6.56659e-03,-1.54259e-01,2.55563e-02,-2.14129e-02,5.08612e-02,2.87324e-01,1.84132e-02,
-1.99396e+00,-1.19281e-01,-3.16446e-02,-2.00359e-01,-1.43164e-01,2.73182e-02,1.15046e-01,-5.75001e-02,1.00009e-01,1.10136e-01,2.84204e-01,-1.20855e-02,-2.24170e-01,9.41241e-02,1.09947e-01,-5.84290e-02,1.19467e-01,4.06933e-02,2.01188e-01,9.95756e-02,1.26735e-01,-1.17181e-01,1.56162e-01,4.51258e-02,3.31116e-02,-8.30320e-02,9.26524e-02,1.10542e-01,5.81736e-03,-6.57863e-02,9.12644e-02,1.47518e-01,-5.43326e-02,7.21283e-02,7.31132e-02,2.65201e-02,-2.50121e-02,6.43162e-02,-1.52235e-01,-2.12612e-01,
-5.79453e+00,2.58511e-01,-2.58062e-01,4.51770e-02,-2.80266e-02,2.31058e-02,-6.78391e-02,1.44544e-01,1.95462e-01,-2.36669e-01,2.84104e-01,2.80255e-01,-5.32564e-01,4.44463e-01,-2.46546e-01,2.17896e-01,2.06304e-01,-2.62663e-01,8.98585e-03,1.72966e-01,-3.17675e-01,-6.04234e-02,4.60770e-03,1.40890e-01,-1.53801e-01,5.34299e-02,2.92346e-02,-2.57082e-01,1.91081e-01,2.54222e-01,-1.35133e-01,1.74964e-01,1.16234e-01,6.12944e-02,-6.24144e-02,1.88347e-01,8.58711e-02,-1.86605e-01,-2.59006e-01,-7.68869e-02,
-4.93943e+00,-3.36371e-01,8.29806e-02,-2.12460e-01,3.53875e-01,-3.36562e-01,-1.91381e-02,8.57175e-02,1.86399e-01,-5.38773e-02,-2.59860e-01,-5.80746e-02,2.18114e-02,-2.67786e-01,-1.83741e-01,6.45070e-02,1.30415e-01,-1.67659e-01,-1.39086e-01,-2.64978e-01,1.41850e-01,8.14803e-02,-2.73313e-02,-9.47347e-02,-1.03704e-01,7.60914e-02,-3.22546e-01,7.87059e-02,-1.62218e-01,2.69402e-01,6.67714e-02,4.06684e-02,-2.73961e-01,-3.81738e-02,-2.39106e-01,1.77632e-01,-4.31819e-02,2.21646e-01,2.93418e-02,-4.12174e-02,
-6.48367e+00,3.44655e-01,-4.39880e-01,8.18837e-02,-1.53684e-01,2.36843e-01,1.28061e-01,3.52362e-02,4.46636e-04,8.13132e-02,1.92456e-01,5.72965e-02,1.40347e-01,-3.23973e-02,-2.81156e-01,-1.66232e-01,-4.10289e-02,-4.17347e-01,-2.50569e-01,2.99973e-01,2.87124e-02,1.54374e-01,-1.15872e-02,1.36711e-01,-2.36215e-02,1.80217e-01,8.07271e-02,2.58089e-02,1.04860e-02,-8.89596e-02,7.94526e-02,1.92338e-01,-3.28689e-01,-3.38864e-02,-2.56109e-01,-3.58966e-01,1.51998e-01,-8.39590e-02,-1.32468e-01,-4.23879e-02,
-7.40138e+00,-2.27076e-01,-2.54569e-01,-1.92058e-01,-1.79295e-01,1.33345e-01,2.08003e-01,1.11144e-01,-4.75362e-01,3.15697e-01,1.92190e-01,-8.26247e-02,-1.34240e-01,-3.38065e-01,-1.30781e-01,-1.32356e-01,1.99738e-01,-3.88364e-01,-3.17458e-01,-5.77350e-03,-9.23634e-03,-2.25665e-01,1.34845e-01,5.37658e-02,-2.82790e-01,-3.15224e-01,-1.10777e-01,-6.21924e-02,2.76799e-01,3.39259e-02,-1.78266e-01,2.27070e-01,-1.40406e-01,1.36932e-01,1.31888e-01,2.78823e-01,-1.43659e-01,-6.93334e-02,-8.20229e-02,2.26750e-02,
-9.28328e+00,1.16232e-02,-2.19775e-01,-3.04236e-02,-2.34672e-01,-3.05171e-01,-1.62216e-01,-8.47057e-02,9.41869e-02,-1.88449e-01,-4.78557e-02,4.46614e-01,2.85483e-03,-2.31693e-01,1.16828e-02,1.53674e-01,1.02608e-01,1.21552e-01,1.42378e-01,3.72166e-01,-2.05067e-01,-3.02008e-01,-7.30031e-02,2.46970e-01,-2.10203e-01,1.31651e-01,2.54536e-02,-1.33137e-01,-3.09304e-01,1.22899e-01,4.79436e-02,-1.89381e-01,5.68167e-02,1.52715e-01,2.29568e-01,-6.23763e-05,1.40335e-02,-1.65811e-01,-3.57331e-02,9.41443e-03,
-1.94500e+00,1.15346e-01,5.42327e-02,-4.38156e-02,1.33535e-01,-1.44915e-01,-1.52942e-01,-2.42689e-01,1.39371e-01,4.70334e-02,-1.76995e-01,5.36028e-02,1.30189e-01,2.31009e-01,-2.06269e-01,3.39410e-02,1.34224e-01,-1.22014e-01,-8.39891e-02,4.19451e-02,7.95858e-02,-7.03180e-02,-6.82906e-02,5.54960e-02,2.19093e-02,2.03363e-02,-1.08490e-01,-2.86844e-01,1.68064e-01,-1.33630e-01,-9.40415e-02,-3.77124e-01,-1.53771e-01,7.62432e-02,-6.01714e-02,4.92781e-02,-9.94112e-02,1.02770e-01,6.29878e-02,7.97846e-02,
-2.69288e+00,2.43949e-02,-1.35832e-01,-3.16091e-01,-3.80957e-04,1.58297e-02,-3.24566e-02,1.76101e-01,-1.50526e-01,2.79241e-01,-2.56085e-02,1.10329e-02,-5.72456e-02,-1.51255e-01,-5.92992e-02,6.65631e-02,-1.05887e-01,2.10095e-01,-1.69249e-01,1.93453e-01,4.74366e-02,7.32231e-02,-5.10528e-02,-2.82733e-02,7.38874e-03,-2.44938e-01,9.69668e-02,-8.79022e-02,-2.10976e-01,-2.54423e-01,5.18382e-02,1.23770e-01,-9.02577e-02,-4.58697e-02,-1.61116e-01,-1.70779e-01,-9.76735e-02,1.30227e-01,-4.27492e-02,-5.17637e-02,
-3.25286e+00,9.25162e-02,-1.38928e-01,1.55292e-01,-1.47275e-01,1.04038e-01,1.13106e-01,-1.48510e-01,1.65136e-02,-7.84712e-02,8.69873e-02,-1.67608e-01,-1.77869e-01,3.37157e-02,3.13039e-02,-1.29043e-03,1.22381e-01,-5.90750e-02,-1.21301e-02,-1.00880e-02,-1.71358e-01,-3.63116e-03,5.82743e-02,-1.41624e-01,1.59574e-01,-1.55846e-01,1.28358e-01,-5.49924e-02,1.02023e-01,5.41187e-03,-7.60144e-02,9.51027e-02,-1.57670e-01,-1.31082e-01,3.94239e-02,-6.15685e-02,7.77464e-02,3.29373e-01,-6.71389e-02,-2.79675e-01,
-6.76249e+00,2.03785e-01,3.15752e-01,-1.05307e-01,-3.81162e-01,2.04252e-01,-2.08037e-01,-1.11738e-01,-7.79924e-02,2.14921e-02,1.28310e-01,1.02182e-01,2.81993e-01,-2.53372e-01,-8.70532e-02,-3.63441e-02,-9.82071e-02,-1.03146e-01,-1.20897e-01,5.50561e-02,-4.53891e-01,-2.01008e-01,-3.46348e-02,-2.96356e-01,2.21362e-02,3.31641e-01,-1.84492e-02,1.81216e-02,8.65388e-02,1.47365e-01,1.16458e-01,-2.11219e-01,3.95955e-02,9.65757e-02,9.14076e-02,2.67626e-02,1.77366e-01,2.52814e-01,-9.13396e-02,-1.47453e-01,
-6.48672e+00,-3.94197e-01,-2.02542e-01,-2.20252e-02,1.86929e-01,-1.22200e-01,3.37045e-02,1.21904e-02,-1.40383e-01,2.01244e-01,3.68129e-01,6.93168e-02,-5.14014e-02,2.80633e-01,-4.20152e-02,1.50939e-01,-1.59298e-01,-1.39392e-01,-1.15279e-01,-1.38313e-01,6.11974e-02,1.00091e-01,-1.12334e-01,7.27772e-02,-1.74977e-01,6.24068e-02,-2.15828e-01,-2.97457e-01,2.48357e-01,2.47800e-01,1.80688e-01,-3.29020e-01,2.77376e-01,8.59683e-02,-2.16761e-01,-3.17493e-01,-6.30154e-02,-4.84634e-02,9.97032e-02,2.95249e-02,
-7.77012e+00,-1.53659e-01,1.22612e-01,1.12859e-01,2.52714e-01,1.89079e-01,9.40136e-02,1.08198e-01,-7.14680e-02,-1.32025e-01,3.65487e-01,1.86620e-03,-7.82891e-02,-1.07950e-01,-1.21866e-01,-6.91522e-03,1.23305e-01,3.95966e-02,2.07089e-02,2.55730e-01,1.40234e-01,2.97988e-02,-1.61625e-01,-1.52812e-01,1.39557e-01,1.21958e-01,-1.94104e-01,-3.65805e-01,2.24800e-01,3.04567e-01,4.35622e-02,-3.23652e-01,7.81447e-02,-5.46120e-02,1.96563e-01,-1.67323e-02,-4.87547e-02,9.35307e-02,1.39362e-01,-1.76851e-01,
-9.02525e+00,-1.54724e-01,1.90719e-01,-1.17338e-02,-1.33104e-01,-2.43528e-01,-3.70179e-02,-1.14743e-01,3.09777e-02,4.70579e-02,2.03784e-01,-1.28445e-01,-1.94744e-01,-3.37917e-01,4.24471e-02,-2.76987e-01,1.66927e-02,2.60867e-01,-1.69397e-01,-2.24800e-01,1.25357e-01,2.10413e-01,-1.42891e-01,2.13651e-03,-1.30638e-01,2.80510e-01,-2.54426e-01,4.75226e-03,-2.32351e-02,1.91438e-01,1.71855e-02,-5.77076e-02,1.71049e-01,3.13382e-01,9.31932e-02,2.69422e-01,6.70783e-02,-1.41267e-01,4.78460e-01,2.21342e-01,
-6.81499e+00,1.65216e-01,-3.84391e-02,-2.15670e-01,-2.94104e-02,3.29977e-02,2.96782e-03,2.94367e-01,8.67878e-02,2.07759e-01,-5.04518e-02,-2.33129e-01,1.83491e-01,-1.07684e-01,-9.17270e-02,-2.26531e-01,-3.31863e-01,-2.88601e-01,2.04972e-02,-6.80174e-02,1.40979e-01,-9.67192e-02,-9.80433e-02,1.80884e-01,-1.53550e-01,-1.99093e-01,-2.01896e-01,2.75660e-02,-2.85008e-01,3.15586e-01,-1.86276e-01,-2.33780e-02,-4.01060e-02,-2.14983e-02,-1.10972e-01,-4.20993e-02,3.32629e-01,-4.72770e-02,3.05229e-02,1.47788e-02,
-8.48395e-01,-2.79915e-01,2.03693e-01,2.89805e-01,1.54837e-01,-8.77853e-03,-6.42737e-02,5.16440e-02,2.77137e-01,-7.09974e-02,-4.84880e-02,-1.79435e-01,7.88461e-03,-4.44121e-02,-2.01104e-01,-1.42475e-01,-8.69434e-03,-1.53379e-01,2.31318e-01,-2.36484e-02,5.00907e-01,3.06725e-02,-1.79874e-01,2.82040e-01,1.19364e-01,-3.24120e-02,-4.41985e-01,-1.07633e-01,-9.91554e-02,2.95666e-01,-1.17911e-01,-4.56788e-02,-4.20365e-02,-4.43334e-02,2.41277e-01,8.32623e-02,-1.67529e-01,3.07867e-01,-5.70229e-02,-3.24868e-01,
-5.90280e+00,3.21397e-01,-8.50120e-02,-3.54629e-01,1.34829e-01,2.16857e-01,-3.29558e-02,-6.99871e-02,-2.62657e-02,-9.38862e-02,-1.99792e-02,1.54842e-01,7.94672e-02,1.03810e-01,-7.88520e-02,-3.33211e-02,-2.02854e-01,1.17941e-01,1.04214e-01,-2.96229e-02,8.67672e-02,3.62160e-01,-8.29885e-03,-1.50468e-01,-1.11699e-01,-3.30305e-01,5.05411e-02,-2.36997e-01,-3.00293e-01,-3.09779e-01,2.18892e-01,-3.53209e-03,4.15580e-01,-1.53452e-01,-1.03651e-01,-2.59234e-01,-1.40356e-01,1.25465e-01,1.78240e-01,7.05428e-02,
-7.01943e+00,-1.71833e-01,-2.29224e-01,-1.81801e-01,-2.30148e-01,1.70097e-01,8.57561e-02,-1.38650e-01,-6.11864e-02,2.63738e-01,2.05394e-01,-3.98019e-01,-5.49595e-02,-3.06851e-01,7.16385e-02,1.12379e-01,-1.04043e-01,-7.28846e-02,-6.71524e-03,-1.18254e-01,1.00234e-01,-2.48117e-02,-5.61042e-02,1.81827e-01,1.15645e-01,-1.40399e-01,7.98398e-03,-3.23087e-02,-2.56067e-01,8.45323e-02,-1.72067e-01,-5.86017e-02,-2.41956e-02,1.37141e-01,2.47868e-01,3.55807e-01,1.31477e-01,2.78873e-02,-2.01071e-04,1.60466e-01,
-2.90707e+00,-8.79860e-02,1.03106e-01,1.69022e-02,-6.94497e-02,8.05824e-02,2.90148e-02,5.13849e-02,1.36147e-01,1.74167e-01,1.97046e-01,-6.00332e-02,-2.52383e-01,2.04522e-02,1.11898e-01,3.64956e-01,-4.85839e-02,-9.04005e-03,-3.16008e-02,-9.60794e-02,3.40472e-02,7.08065e-02,9.38294e-02,2.00343e-01,-2.02252e-01,-2.36181e-01,-1.11695e-01,-9.52448e-02,-5.61799e-02,1.23360e-01,-4.12071e-02,6.82123e-03,1.86677e-01,2.00827e-01,1.93041e-01,9.40765e-02,7.58972e-02,4.89108e-02,6.38416e-02,5.51986e-02,
-2.43415e+00,-6.86981e-02,-8.75653e-02,-8.24939e-02,-6.88983e-02,6.13180e-02,5.92965e-02,-1.32317e-01,-2.10464e-02,1.66075e-01,1.15831e-01,-1.13000e-01,-4.31594e-02,2.93146e-03,-1.12520e-01,7.24542e-02,2.01768e-03,3.15937e-02,3.78101e-02,-1.37899e-02,-8.60141e-02,-9.01124e-02,8.99027e-02,-2.07363e-02,1.26606e-03,-5.94479e-02,-1.43795e-02,-6.14055e-02,4.26679e-02,5.51603e-02,1.83284e-01,1.98177e-02,5.43708e-02,-1.92341e-01,-1.48323e-01,-1.33317e-01,-9.25156e-02,1.15315e-01,1.39025e-01,1.07806e-01,
-5.11274e+00,2.29825e-03,6.52201e-02,-1.29292e-01,2.30741e-01,-2.22192e-03,7.88871e-02,1.73874e-01,1.38241e-01,1.22774e-01,3.39568e-02,6.68776e-02,-4.05622e-02,-7.52608e-02,7.23872e-02,9.93167e-03,1.18157e-01,-3.98612e-02,1.25293e-01,1.96097e-01,5.37934e-02,1.70846e-01,-9.44379e-02,2.60381e-01,3.20177e-02,1.82309e-01,2.44159e-02,-1.81512e-01,2.00812e-01,-4.97117e-04,-1.98478e-01,-8.72044e-03,6.39154e-03,1.60647e-01,4.53298e-03,9.92319e-02,-2.30588e-01,-1.24659e-01,-2.45310e-01,-1.02664e-01,
-5.07113e+00,-1.20509e-01,-6.03057e-03,-4.03777e-01,2.46384e-01,-8.26670e-02,-3.35179e-01,-1.12130e-01,-1.00792e-01,8.67176e-02,1.37234e-01,8.34178e-02,-1.05810e-03,-3.01064e-02,5.63781e-02,1.26819e-01,2.38935e-01,-1.66707e-01,4.26078e-02,6.23975e-02,-2.11655e-02,1.60709e-01,-2.25759e-01,1.47768e-01,2.16972e-01,1.06181e-01,-2.46552e-01,1.29920e-02,8.69256e-03,2.40284e-01,1.03901e-01,6.20551e-02,2.74512e-02,-2.83124e-01,1.14984e-01,5.16163e-02,8.62790e-02,5.72356e-02,-1.04694e-01,-2.16931e-02,
-4.46971e+00,1.10733e-01,-1.65521e-01,-1.48547e-02,-1.67252e-01,-5.73262e-01,-2.94271e-03,7.43729e-02,2.88116e-02,-3.20296e-01,3.42164e-02,-1.38174e-01,1.90724e-01,-3.08705e-02,8.09596e-02,5.89592e-02,1.43415e-01,1.23241e-01,-1.11691e-01,-1.70354e-02,-9.98682e-02,-6.92033e-02,2.74065e-02,1.00117e-02,-2.48420e-01,-1.45501e-01,-1.77442e-01,-4.92152e-02,1.76488e-02,2.02638e-01,1.61745e-01,2.05126e-02,1.98548e-01,-7.80263e-02,-5.59890e-02,-1.09835e-01,-1.30053e-01,1.22135e-01,2.85886e-01,1.08194e-01,
-6.25587e+00,-6.57662e-02,2.45632e-01,-2.66589e-01,8.86940e-02,-1.11078e-01,-4.62457e-02,3.98536e-02,1.12189e-01,8.57745e-02,9.49061e-02,2.06007e-01,-3.71135e-02,6.07079e-02,-9.86562e-02,-9.28346e-02,-9.60509e-02,-7.43655e-02,9.16680e-04,-1.09700e-01,-2.10068e-01,-1.26257e-01,-3.05824e-01,1.81720e-01,1.13853e-01,8.75068e-02,1.38728e-01,3.79614e-02,-2.69848e-01,-7.26309e-02,-1.02195e-01,2.68848e-02,2.47943e-01,2.22031e-01,1.38671e-01,1.38162e-02,-1.18466e-01,-1.81017e-01,-1.86177e-01,7.92813e-02,
-7.49125e-01,1.13473e-02,1.03996e-01,-6.68195e-02,1.36508e-01,7.82697e-02,-1.52988e-01,2.46758e-01,-5.88731e-03,-1.47664e-02,9.43582e-02,3.39379e-02,2.48568e-01,-4.93289e-01,-1.12648e-01,2.91672e-01,2.10079e-01,1.07279e-01,-4.34490e-02,-1.20163e-02,1.93770e-02,-4.22673e-01,3.30718e-01,-1.11009e-03,8.46023e-02,-1.84186e-01,3.86047e-02,1.13428e-01,-1.42830e-01,-1.74573e-01,-1.52933e-01,-6.98812e-02,1.53592e-01,1.47198e-01,-2.45432e-01,8.93243e-02,-7.69793e-02,-1.59386e-01,5.02153e-02,-1.28871e-01,
-5.14400e+00,-1.62588e-01,6.41021e-02,7.58959e-02,1.37884e-01,-1.89806e-01,-1.05252e-01,2.43579e-01,-1.10403e-01,9.29881e-02,-8.51254e-02,-8.05171e-02,1.04044e-01,9.20442e-02,-1.14931e-02,-2.79064e-01,-4.32755e-02,-3.21778e-01,8.81943e-02,9.00769e-02,8.68848e-02,-1.27126e-01,-2.33409e-01,-1.67375e-01,-1.54617e-01,5.83951e-03,-4.28264e-03,-2.38582e-01,1.10323e-01,2.43428e-01,1.69830e-01,-8.43609e-02,-1.37327e-02,8.35322e-02,-3.46818e-02,-7.98541e-02,-6.49471e-02,-3.11994e-02,4.66683e-02,-1.33311e-01,
-3.37917e+00,1.00675e-01,-7.56131e-02,7.44607e-02,-7.97881e-02,1.16534e-01,2.38494e-01,-1.24299e-01,9.19088e-02,7.96083e-02,1.13814e-01,-9.28110e-02,4.91994e-02,1.46140e-01,-2.74557e-02,1.04262e-02,2.17006e-01,5.03776e-02,1.33712e-03,8.56431e-02,2.02322e-02,-4.95119e-02,-4.00707e-02,-1.36835e-01,-5.15459e-03,-1.94898e-01,5.47914e-02,-1.79179e-01,8.71362e-02,1.04898e-01,-1.43678e-02,-1.55898e-02,1.17147e-01,-9.18172e-02,-9.98338e-02,2.49483e-01,1.62202e-01,6.46345e-02,-1.28707e-01,2.35706e-02,
-1.02939e+00,-4.98809e-02,-6.74776e-03,1.57795e-01,-4.63249e-02,3.38443e-02,-1.33970e-01,-1.27036e-02,6.54220e-02,5.78986e-02,-1.41739e-01,1.08007e-01,-6.05243e-02,1.39181e-01,1.98019e-02,2.47234e-01,3.44191e-02,-7.09905e-02,-1.42045e-01,-1.00468e-01,2.68926e-02,-1.91293e-01,-7.82968e-02,-1.21587e-01,1.75505e-01,2.11404e-02,6.68447e-02,-1.31049e-01,3.89350e-03,3.47896e-01,3.88838e-03,3.34184e-03,7.75282e-02,-1.93273e-01,-9.05224e-02,5.41437e-02,7.94394e-02,2.36146e-02,-1.92589e-01,2.84307e-01,
-6.97439e+00,1.06394e-01,7.57318e-02,-1.76464e-01,2.38834e-02,6.72051e-02,-7.30411e-03,2.42581e-01,-3.75700e-02,2.51391e-02,4.82608e-02,-4.08281e-02,3.73511e-01,-2.59760e-02,7.63694e-02,8.60427e-02,-5.53867e-02,2.04834e-02,1.88050e-01,3.26350e-02,9.97523e-02,-7.01557e-02,-2.36100e-01,5.26477e-02,4.94381e-02,-1.63166e-01,-1.51459e-01,-1.72246e-01,-2.81422e-01,2.86564e-01,-1.01761e-02,-8.53465e-02,1.57101e-02,-1.59111e-01,4.10300e-02,1.35620e-01,1.84131e-01,9.50126e-02,2.57134e-03,2.52994e-02,
-6.81037e+00,1.68061e-01,-2.92491e-01,2.17594e-01,-7.82989e-02,1.29746e-01,9.76650e-02,2.90774e-01,-1.69446e-01,2.51692e-01,-9.16943e-02,-2.21901e-02,1.36303e-01,-5.48492e-02,-1.57067e-01,-1.95730e-03,-2.09256e-01,6.26880e-02,-2.66427e-01,-3.21311e-02,6.22820e-03,2.09140e-01,-2.85086e-01,-2.53996e-01,1.85120e-01,-6.08905e-02,1.75544e-02,3.76141e-01,9.57258e-02,3.55190e-01,-2.17868e-01,-7.82631e-02,2.40719e-01,-2.78937e-01,-1.17207e-01,-2.65383e-01,2.13208e-01,-5.42974e-02,6.04884e-02,-1.21743e-01,
-1.84524e+00,2.53010e-02,1.10798e-01,-1.27693e-01,1.54845e-01,1.39420e-02,-1.46617e-01,1.84281e-01,-8.60343e-02,-8.99975e-04,8.00871e-02,3.61807e-02,-2.65098e-02,-8.94167e-02,5.33637e-02,1.31298e-01,1.45948e-02,-7.20432e-02,-1.18470e-01,-1.20580e-01,4.82707e-02,1.43795e-01,7.36146e-02,-1.44117e-02,7.66555e-02,5.39733e-02,3.76069e-02,6.83637e-02,-7.37739e-03,1.12400e-01,1.34551e-01,-2.42537e-02,1.34752e-02,6.90156e-02,6.69686e-02,1.64937e-01,-2.59472e-01,-5.62615e-02,-5.35827e-02,-7.96874e-02,
-4.63037e+00,-1.09800e-01,-7.03430e-02,-3.55010e-02,-2.69592e-02,4.48565e-02,-1.02426e-01,3.59604e-02,7.27484e-02,4.20684e-02,1.90142e-02,7.68417e-02,1.29390e-01,2.69906e-02,-1.45136e-01,1.16967e-01,7.34218e-02,-3.43886e-02,-8.92704e-02,1.94671e-01,-6.04499e-02,-9.05510e-03,-9.88031e-02,1.14379e-02,1.22118e-01,-4.32248e-02,1.19590e-01,8.38879e-02,5.97985e-02,-2.89298e-01,-8.88399e-02,-3.01000e-02,5.69141e-02,-2.51424e-02,-6.82460e-02,-2.54785e-01,8.53048e-02,4.60361e-02,1.81520e-01,7.23870e-02,
-5.45281e+00,-2.24788e-01,1.63685e-01,-9.90928e-02,7.42598e-02,-9.24164e-02,-2.79911e-02,-1.18600e-01,1.98111e-01,3.41059e-02,6.74136e-02,3.88440e-01,-1.83244e-01,-6.46895e-03,1.30660e-01,-2.11365e-01,-3.12143e-02,-1.52516e-01,8.35836e-02,-3.05922e-02,-3.08086e-01,-2.54956e-01,-2.40869e-01,7.72650e-02,-4.41798e-02,1.59771e-02,-1.97152e-01,1.31142e-01,-1.11534e-02,-9.43399e-02,1.20353e-02,9.17828e-03,4.03818e-01,2.35907e-01,2.66427e-01,-1.77829e-03,2.38662e-02,-3.58177e-01,2.62444e-01,2.05120e-01,
-5.69871e+00,1.10635e-01,4.22973e-04,2.61340e-01,-1.26703e-01,-8.22484e-02,1.50344e-01,-4.16079e-02,8.96237e-02,1.61962e-01,2.89746e-01,6.70771e-02,5.64947e-01,4.17116e-01,-4.16150e-02,-8.68883e-02,1.21559e-01,-7.24436e-02,2.95540e-01,2.11221e-01,1.24693e-01,-1.38554e-01,-2.30086e-01,-7.01628e-02,1.59088e-01,-5.54625e-02,-7.41247e-02,-1.26861e-01,2.32063e-01,-6.78634e-02,2.98319e-02,4.22281e-01,4.74484e-02,1.43103e-01,-1.89632e-01,9.68159e-02,2.02957e-01,2.09957e-01,-1.87611e-01,8.85630e-02,
-1.34092e+01,1.46573e-01,-1.34830e-01,-6.03205e-02,2.44690e-01,-1.00815e-01,-1.09044e-01,-1.14596e-01,1.36960e-01,-2.68513e-01,-6.56037e-02,-3.24156e-02,-7.59364e-02,3.74048e-01,1.87451e-01,-9.67192e-02,7.45359e-02,5.49298e-02,-1.39586e-01,-2.44345e-01,-4.15304e-02,4.09408e-01,-5.44539e-02,5.37245e-02,3.59460e-02,2.72121e-01,-1.45075e-01,-2.82970e-01,1.78281e-02,6.94195e-02,-2.06342e-01,-2.72991e-01,1.72820e-01,-4.72422e-02,-1.00214e-01,-6.33693e-02,-5.55099e-02,4.66663e-02,1.40992e-01,1.31463e-01,
-1.19010e+01,3.29023e-02,1.01917e-01,-1.14668e-01,1.06514e-02,-4.59761e-02,2.72406e-01,-9.52156e-03,2.36463e-01,2.35995e-01,4.18060e-01,2.07736e-01,3.35139e-02,-1.38265e-01,-3.27551e-01,1.35908e-01,-2.05125e-01,-5.10960e-02,-1.20665e-01,-5.96261e-02,3.17639e-02,-1.95622e-01,-5.59725e-03,3.36442e-01,-4.52118e-01,2.72017e-01,-4.21165e-01,-3.72950e-01,-9.14753e-02,1.99851e-01,-3.91595e-02,1.21788e-01,2.34899e-02,-1.28210e-01,-1.09293e-01,-2.27979e-01,-2.71821e-01,9.45067e-03,-2.88277e-02,3.30873e-02,
-5.99335e+00,7.02497e-02,-2.15577e-02,-2.20404e-01,1.87136e-02,2.91439e-02,-2.62882e-02,7.74229e-02,-2.00419e-01,-7.55606e-02,1.08189e-01,-1.90216e-02,2.88078e-01,-9.12562e-02,-5.05731e-03,-8.42032e-02,2.14086e-01,-5.75169e-02,-3.38533e-02,1.24807e-01,-5.04824e-02,-1.51498e-02,-1.01084e-01,-1.65232e-02,1.43167e-01,-1.99666e-01,4.23895e-02,-1.66589e-01,-1.05071e-01,1.74405e-01,-1.03496e-01,-4.51966e-02,8.25077e-02,5.24823e-02,2.42273e-02,2.11914e-02,6.32866e-02,1.87577e-01,9.80380e-02,-9.31526e-02,
-7.34217e+00,-4.79345e-02,-3.11800e-02,-1.09234e-02,-1.15844e-01,5.04490e-02,1.49601e-01,-2.04751e-01,-7.80839e-02,3.53205e-01,3.13481e-01,1.49020e-01,-3.04697e-01,3.68573e-02,3.02382e-01,6.16359e-02,2.92280e-02,8.81386e-03,-1.81470e-02,1.52419e-01,-1.10964e-01,8.72214e-02,2.10464e-01,-3.02649e-01,2.55461e-01,-3.68488e-01,1.68361e-01,1.62110e-01,-3.75578e-02,-1.76348e-01,-5.72436e-02,-3.04143e-01,-2.03965e-01,1.69193e-01,5.36473e-02,1.40359e-03,-3.07647e-01,7.14916e-02,-2.29726e-01,1.85472e-02,
-1.60167e+00,-3.22721e-02,-3.34154e-02,9.17958e-02,2.51125e-02,-2.47204e-01,4.13940e-02,1.11617e-01,-6.71091e-02,-2.39817e-01,3.01745e-02,5.10668e-02,3.88460e-02,5.10780e-02,-2.37531e-02,2.43508e-01,2.45848e-02,-1.21633e-01,2.33854e-02,2.14079e-02,-3.84509e-02,1.04238e-01,-6.78931e-02,1.03900e-01,-2.58769e-01,-1.54694e-02,7.77572e-03,2.15206e-01,-7.73434e-02,-8.86410e-02,-4.21061e-03,1.16455e-01,-4.76717e-02,3.02064e-01,-1.77448e-01,-6.10148e-03,-1.18629e-01,3.30849e-01,2.10858e-01,4.98175e-02,
-2.81784e+00,-1.75725e-01,-9.86669e-02,-1.17628e-01,-2.13908e-01,-1.26892e-01,3.29198e-01,-1.02295e-01,-7.10372e-02,1.68915e-01,6.46095e-02,-4.60772e-02,-3.93140e-01,-5.32481e-03,1.65647e-01,1.16496e-03,6.72722e-02,7.01959e-04,7.32431e-02,5.94169e-02,-1.20572e-01,-2.66271e-02,1.15833e-03,-5.46196e-02,7.47781e-02,-2.37279e-01,2.15942e-01,4.34346e-02,-2.51603e-01,-9.12201e-02,9.86556e-03,9.36084e-02,-1.18241e-01,1.49358e-01,5.98509e-02,3.32716e-03,6.21481e-02,1.11839e-01,1.26189e-01,-6.86016e-02,
-2.06918e+00,1.65105e-01,-4.65641e-02,1.26130e-01,-1.03154e-02,7.38261e-02,-1.33561e-01,-7.09004e-02,1.44232e-01,1.21449e-01,1.14532e-01,5.22249e-02,1.72123e-01,-1.52358e-02,-2.93286e-01,-6.29245e-02,-5.90465e-02,-3.72105e-01,-1.94048e-01,3.69803e-02,1.02820e-01,4.42473e-04,-4.01700e-02,2.27470e-01,-4.02822e-02,-2.18413e-01,1.04555e-01,-7.28615e-02,1.56932e-01,9.13449e-02,6.07962e-04,-4.44395e-02,-1.72087e-02,-2.88143e-02,-1.27410e-01,-5.16315e-02,1.30822e-01,-7.80549e-02,1.02897e-01,1.61235e-01,
-5.30420e+00,-2.15428e-02,1.43858e-03,1.31546e-01,-2.61892e-01,-2.13266e-01,1.74108e-01,-6.17244e-03,2.80338e-02,2.49901e-01,3.54008e-01,-2.78014e-03,-1.61352e-01,-1.27357e-02,4.97628e-02,8.34430e-02,-1.76256e-02,3.51047e-02,2.57947e-01,-9.81567e-03,-7.89296e-02,1.45307e-02,1.04530e-01,-1.33095e-01,-3.72587e-02,-3.56181e-01,2.52530e-01,-2.17103e-01,5.53169e-01,6.47160e-02,3.58054e-02,3.11979e-02,-1.41416e-01,-4.94178e-02,-1.61838e-02,2.50192e-01,3.84193e-02,-1.38159e-01,-9.75858e-02,-1.05455e-01,
-1.65843e+00,8.27095e-02,-8.70178e-02,-2.96470e-02,-1.73995e-01,-3.07877e-02,-1.00482e-01,1.94485e-02,1.55567e-01,-6.03311e-02,-1.22525e-01,2.97068e-01,-1.62700e-01,-1.30026e-01,1.27709e-01,2.41643e-01,9.06202e-02,2.32022e-02,6.17918e-02,-1.12382e-01,6.10560e-03,1.05245e-01,6.14363e-04,1.94715e-01,1.14817e-01,8.41106e-02,2.38481e-02,-1.11973e-01,8.64928e-03,1.03116e-01,-1.38372e-02,-7.88073e-02,1.35061e-01,1.00220e-01,1.12913e-01,8.26495e-02,-8.97477e-02,-1.39560e-01,-7.04159e-02,-1.41015e-01,
-5.61529e+00,1.18457e-01,1.23918e-01,-9.40093e-02,1.55704e-01,-2.40132e-02,-3.19292e-02,1.84811e-01,7.55516e-02,-2.23871e-01,2.92751e-01,-5.93517e-02,1.18473e-01,1.42965e-01,-4.07795e-02,2.09378e-01,1.64100e-02,6.24404e-02,-1.87605e-01,3.68166e-01,1.40960e-01,-1.41917e-01,-3.66135e-01,3.10593e-01,1.03361e-01,8.58868e-02,-1.87224e-02,1.12357e-01,3.15744e-02,-6.59665e-02,1.09485e-01,-1.58852e-01,3.07655e-03,7.95557e-02,1.34297e-01,-1.64344e-01,-4.10721e-02,1.48111e-01,-7.33252e-02,-3.40035e-01,
-6.55448e+00,-2.39206e-01,-1.77807e-01,-2.63336e-01,-1.27635e-01,-2.92866e-01,5.38275e-02,-2.94776e-02,4.11140e-02,-5.98065e-03,-1.04395e-01,-7.49397e-02,1.54183e-01,-3.85293e-02,-5.71006e-03,1.46007e-02,-1.11615e-01,-3.85214e-01,2.21618e-01,-1.02747e-01,3.27704e-01,2.45696e-01,-3.32114e-01,2.86453e-01,-1.33927e-01,-1.95778e-01,-2.10610e-01,-8.32759e-03,-1.24899e-02,1.20144e-01,6.01092e-02,-2.48823e-01,-4.79853e-02,-1.74667e-01,2.25298e-01,-2.86997e-01,2.04126e-01,4.12576e-01,2.63864e-02,-1.00575e-01,
-2.07969e+00,-1.79215e-01,1.39342e-01,3.44098e-02,5.94347e-02,-9.02179e-03,1.89449e-02,2.56202e-01,-2.72465e-01,-1.10206e-01,6.80612e-02,-1.25696e-01,-6.20942e-03,-1.55667e-01,6.79883e-02,2.80325e-01,-1.25561e-01,1.38626e-02,-1.72105e-01,1.13258e-01,-1.19585e-02,-1.76758e-01,-3.33744e-02,1.10256e-01,-9.37804e-02,2.81853e-01,-8.58763e-02,1.59377e-04,-8.33669e-02,1.83742e-01,-2.27463e-02,7.77941e-02,-6.42196e-02,-8.33268e-02,-2.06977e-02,2.11977e-01,-1.71251e-01,2.46022e-01,8.33641e-02,-1.47904e-01,
-7.49924e+00,-1.73584e-01,-1.97727e-01,-1.18737e-02,-2.32939e-01,-9.02612e-02,-1.32476e-02,-3.66315e-02,-3.64680e-02,-2.15734e-01,-1.81998e-02,-1.59485e-01,4.36791e-01,5.56154e-02,-2.16726e-02,1.55876e-01,6.41308e-02,9.83063e-02,-6.67673e-02,2.44874e-01,-1.42507e-01,1.31666e-01,-6.52253e-02,-3.38366e-02,-1.61644e-01,-9.07885e-02,-8.83223e-02,-2.08767e-01,-2.85693e-01,-1.97629e-01,-2.66279e-03,-9.88527e-02,1.24327e-01,2.38235e-01,-8.87233e-02,2.76291e-01,1.22044e-01,-1.28600e-01,-6.73800e-02,3.43821e-02,
-6.09506e+00,-7.30077e-02,2.10413e-01,-1.32355e-01,6.91040e-02,-7.54766e-02,-1.53565e-01,4.16570e-02,-1.22036e-01,-6.09368e-02,-2.19349e-01,-1.49262e-01,-2.79328e-02,-2.64492e-02,7.67313e-02,-1.08801e-01,-1.53220e-01,9.73352e-02,-9.83012e-02,-1.13749e-01,-4.41139e-02,1.03937e-01,-1.50319e-01,-2.40704e-01,-2.72788e-01,-2.19618e-01,2.50234e-02,-1.16415e-02,-1.33979e-01,-9.18471e-02,2.20432e-02,-2.66821e-01,-2.15533e-01,7.12056e-04,6.91210e-02,-1.01350e-01,1.68254e-01,1.65165e-01,3.15899e-01,-2.47727e-01,
-3.16211e+00,7.77316e-02,1.59849e-01,-1.46934e-01,3.04275e-02,1.18113e-01,-9.06573e-02,-7.75769e-02,1.06777e-01,-4.93249e-02,7.48733e-02,-7.53615e-02,1.18876e-01,-1.19531e-01,-1.51441e-01,1.41319e-01,-1.12809e-01,-2.88329e-02,1.08254e-01,6.03571e-02,2.39854e-01,-9.43395e-02,-1.83409e-01,1.31455e-01,-4.50008e-02,-1.52491e-01,2.24372e-02,-1.59021e-02,3.18408e-02,1.15481e-01,3.12767e-01,4.64356e-02,5.37791e-02,-9.58072e-02,-6.25923e-03,6.08347e-02,3.37728e-01,-3.25375e-02,1.71791e-01,8.17022e-02,
-3.43536e+00,1.34503e-01,-1.59203e-02,-5.69738e-02,-1.56058e-01,4.34589e-02,-2.03717e-01,-2.04665e-01,1.20758e-01,-8.36335e-02,-1.07787e-01,-3.44004e-02,-5.25956e-02,-1.09082e-01,-9.60127e-03,1.32300e-01,-9.18876e-02,5.33663e-02,-4.32210e-02,-5.24098e-02,1.43521e-01,-2.89185e-01,-2.06776e-02,-1.15647e-01,3.41428e-02,3.66397e-02,1.55395e-01,-4.07691e-02,-6.08429e-02,-1.66818e-01,1.03620e-01,-9.62461e-02,-1.95767e-02,1.73693e-03,5.77108e-02,-1.06753e-01,-2.05262e-01,2.03461e-02,1.01374e-01,9.61068e-02,
-3.47585e+01,1.70999e-01,3.16117e-01,5.96933e-02,-5.35078e-02,-1.14039e-02,4.41455e-02,4.63052e-02,2.07563e-01,1.63303e-01,-4.51509e-02,3.96762e-01,-2.09182e-01,-5.23548e-02,-1.16152e-01,-2.44220e-02,8.02451e-03,2.24024e-01,2.02991e-01,9.21987e-02,-4.96435e-02,-1.52402e-01,-6.48691e-02,1.39670e-01,1.65294e-01,1.35590e-01,1.31439e-01,1.69559e-01,-1.81175e-01,-1.06175e-01,1.67911e-02,-2.72884e-01,-4.72570e-02,4.52239e-02,1.04261e-01,-8.81403e-02,-1.43652e-01,-1.69337e-01,-1.93820e-01,-9.87580e-02,
-3.06553e+00,1.21007e-01,1.79504e-01,-8.07444e-02,-1.17357e-01,-4.73173e-02,-6.20894e-02,-9.66294e-02,-1.44752e-01,6.78237e-02,2.24168e-01,7.70930e-02,-1.73697e-01,1.24271e-02,-6.12581e-02,-1.70100e-01,-2.37986e-02,-1.75389e-01,9.43656e-02,1.53000e-01,4.35177e-02,-1.04947e-01,2.01409e-01,4.94844e-03,2.19070e-01,-1.53420e-01,1.40315e-01,-1.93396e-01,6.64344e-02,-1.17451e-01,1.49555e-02,7.70688e-02,-6.47715e-02,6.44886e-02,9.36451e-02,-8.97883e-02,-9.68422e-02,-1.99635e-01,1.17217e-01,9.66404e-03,
-3.58951e+00,-1.02169e-01,-9.73462e-02,-9.12242e-02,1.69956e-01,-1.05813e-01,-2.39077e-01,2.67099e-01,-5.38878e-02,2.34882e-01,1.46659e-02,-1.31710e-01,1.59241e-01,1.07146e-01,2.60130e-01,6.70129e-02,3.62965e-02,-1.87617e-01,-1.99504e-01,-2.46678e-01,-1.27935e-01,-2.45214e-01,3.42582e-02,-2.31560e-01,2.03507e-02,2.26093e-01,-5.22246e-02,-1.21934e-01,5.07467e-03,1.57945e-01,-1.59477e-02,-5.32398e-02,6.45541e-02,1.94721e-01,-3.05717e-01,1.52319e-01,5.67943e-02,1.10907e-01,7.17250e-02,-2.71536e-02,
-6.67002e+00,-1.67692e-01,3.28909e-01,-2.62281e-01,1.77238e-01,3.44342e-01,4.99297e-02,3.01168e-02,2.79918e-01,1.03249e-01,3.64500e-01,-2.05100e-02,-1.41686e-01,-1.16080e-01,-7.98198e-02,4.93155e-02,1.67255e-03,3.11824e-01,6.35775e-02,2.95656e-02,-2.42194e-02,3.23760e-02,-7.95364e-02,-1.95492e-01,-9.33946e-02,2.28411e-01,-6.35410e-02,1.08277e-01,-1.87336e-02,-2.97836e-02,3.20080e-02,-3.30853e-02,-1.17215e-01,-4.57508e-03,3.17615e-01,3.81035e-02,-4.39200e-02,-4.31045e-01,-3.17040e-03,8.42785e-03,
-8.69353e+00,
-5.30246e+00,
-4.62384e-01,
2.22192e+01,
7.84157e-01,
-1.35311e+00,
-6.89341e-01,
2.31000e+00,
-7.78710e+00,
-1.51310e+00,
-2.72155e+00,
6.67094e+00,
-7.89482e+00,
-5.72540e+00,
5.48679e+00,
-7.13902e+00,
3.68613e+00,
9.28797e+00,
-2.00512e+00,
-5.78522e+00,
-7.05125e+00,
-3.68336e+00,
-1.50733e+00,
5.55717e+00,
-1.70164e+00,
-7.43058e+00,
1.58404e+00,
-7.78137e+00,
-6.98475e+00,
-8.70638e+00,
-1.19618e+00,
1.28190e+00,
7.78927e+00,
-2.20510e+00,
-9.17495e+00,
2.66991e+00,
5.96611e+00,
3.56319e+00,
-7.06233e+00,
-4.40774e+00,
-5.59541e+00,
1.99125e+00,
2.57945e+00,
-3.05857e+00,
6.93346e+00,
4.45414e+00,
-7.85093e+00,
-3.56299e+00,
-5.23376e+00,
-3.74507e+00,
1.34866e+01,
3.62568e+00,
-3.43555e+00,
-8.15444e+00,
5.49023e-01,
-6.70203e+00,
-6.71808e+00,
-4.25912e+00,
-6.86299e+00,
-9.98702e+00,
-8.03189e+00,
-1.99022e+00,
-8.22767e+00,
8.59661e+00,
-8.68707e-02,
-8.34307e+00,
-6.67501e+00,
1.67187e+00,
9.01681e+00,
-9.48881e+00,
1.56708e+00,
-3.80825e+00,
-4.63226e+00,
4.65673e+00,
-7.08841e+00,
1.91307e+00,
-5.58263e+00,
-4.31649e+00,
-7.64506e+00,
-9.37326e+00,
-7.96453e+00,
-2.63660e-01,
1.02233e+00,
-1.67854e+00,
-6.75797e+00,
-7.97594e+00,
-9.37231e+00,
-8.66212e+00,
-8.46287e+00,
1.26899e+01,
-7.52682e+00,
-7.46451e+00,
-2.41636e+00,
-4.38658e-02,
-6.56103e+00,
-4.22942e+00,
-5.55852e+00,
-8.56725e+00,
1.09275e+01,
-4.34377e+00,
-3.00927e+00,
5.18680e+00,
-7.98327e+00,
-7.55359e+00,
9.62799e-01,
-4.92802e+00,
-5.39565e+00,
-7.19894e+00,
-5.12944e+00,
-7.05211e+00,
-9.16676e+00,
-8.24121e+00,
5.23985e+00,
6.99541e-01,
1.55595e+00,
-5.37564e+00,
4.98936e+00,
-5.97560e+00,
-8.40481e+00,
1.90977e+00,
-7.78271e+00,
-7.06412e+00,
-3.92561e-01,
-9.23471e-01,
2.92009e+00,
5.67717e-01,
-1.94752e+00,
-7.25882e+00,
5.43039e-02,5.82278e-02,-1.76695e-01,-1.55575e-01,4.39855e-02,-1.27188e-01,-3.73671e-02,-1.56136e-01,-1.35158e-01,6.25449e-02,-1.06758e-01,9.26111e-02,-1.54059e-01,-1.60651e-01,6.11465e-02,-5.94809e-02,8.87801e-02,-1.92071e-01,-3.57552e-02,-1.07673e-01,5.20989e-02,-1.94569e-01,-9.89579e-02,-9.00133e-02,-1.20507e-01,-1.36368e-01,3.96174e-02,-3.61664e-02,-1.98189e-01,-1.84274e-01,1.49839e-02,-5.52658e-02,6.79260e-02,-5.07465e-02,-1.39369e-01,-9.51810e-02,3.29545e-03,-1.11933e-01,-6.51689e-02,-3.85021e-03,-1.47945e-01,-1.21745e-01,6.17944e-02,-1.82789e-01,-2.15586e-01,-1.14168e-01,-2.59710e-02,-1.98631e-01,-1.86700e-01,-2.38637e-02,-1.41239e-01,5.68330e-02,-1.66241e-01,5.03401e-02,-4.91759e-02,-7.92570e-03,-8.14038e-02,-1.88813e-01,-1.85077e-01,-7.70070e-02,-1.40903e-01,2.57837e-02,-2.06616e-01,-2.51014e-02,-2.17804e-01,2.74245e-03,-3.97690e-02,5.05778e-02,-2.01815e-01,1.37062e-02,-1.35595e-02,-9.16668e-02,-1.70236e-01,-1.54917e-01,-1.03631e-01,-1.38430e-02,-1.81849e-01,-8.14719e-02,-1.49116e-01,-5.15619e-02,-1.85973e-01,1.87221e-02,-7.30823e-03,-1.17458e-03,-7.77260e-02,-1.04136e-01,-1.24360e-01,-1.07235e-01,-1.86184e-01,-1.89608e-01,5.39132e-02,-1.47840e-02,-9.89067e-02,-1.01801e-02,4.68373e-02,3.94329e-02,-1.99099e-01,-2.03778e-01,-2.33503e-02,-2.12776e-01,9.30265e-02,-2.39902e-02,-1.95904e-01,-6.55967e-02,1.19708e-02,-1.87746e-01,7.09869e-02,-2.95416e-02,-4.91108e-02,-1.45240e-01,-1.11192e-01,-1.28518e-01,-3.59064e-02,-9.42153e-02,-1.48087e-01,-1.68013e-01,3.48205e-02,7.94402e-02,8.27585e-03,1.23127e-02,-8.76299e-02,-1.08125e-01,-1.69784e-01,-9.39918e-02,-1.87267e-01,-1.73781e-02,-8.79032e-02,-3.65336e-02,
-2.45252e-02,1.24445e-02,-8.45653e-02,-3.37282e-01,-7.38507e-02,4.83473e-02,-6.45471e-02,-2.29861e-01,2.89311e-02,-4.75526e-02,-1.08574e-01,-1.03214e-01,3.16341e-02,-8.44435e-02,-9.07223e-02,3.38281e-02,-1.47810e-01,-6.09800e-02,5.73457e-02,-2.58652e-01,-7.22421e-02,-1.19982e-01,-9.35640e-03,-1.47920e-01,-2.22545e-01,-1.45139e-01,1.30448e-01,-1.74237e-01,-1.03636e-01,-1.24917e-01,-6.23033e-02,-3.77789e-02,-2.94989e-01,-2.67091e-01,-2.04853e-01,-1.33722e-01,-4.04042e-01,-2.02263e-01,-9.52129e-02,-8.27304e-02,-2.33181e-01,-8.89591e-02,-7.82691e-02,-8.67636e-02,-2.06516e-01,-2.47557e-01,7.93224e-02,5.04859e-02,-7.31550e-02,-8.07712e-02,-1.40744e-01,-1.05122e-01,-2.67256e-01,-8.12251e-02,-1.74134e-01,2.95841e-02,-4.71400e-02,-1.21693e-01,-1.24414e-01,-6.02546e-02,8.03667e-02,-2.19509e-01,-6.86467e-02,-9.88956e-02,6.11286e-03,8.80931e-02,-3.34177e-02,1.73804e-02,-2.19624e-01,-1.45985e-01,-2.31215e-01,-2.84481e-02,-1.22108e-01,-8.10250e-02,-3.16790e-01,8.90314e-03,-1.88744e-01,7.81310e-02,9.24649e-02,1.14914e-02,1.08954e-02,-2.26646e-01,1.47227e-01,-1.09281e-01,-2.06525e-01,-1.69792e-01,-2.38067e-01,4.24429e-02,-1.00076e-01,-3.00155e-01,1.30269e-01,-1.50154e-01,-1.39976e-01,4.58999e-02,1.24861e-01,4.92604e-02,-2.95191e-02,-2.17276e-02,-2.37594e-01,-9.47310e-02,-1.81953e-01,-1.33683e-01,-1.17731e-01,8.41064e-03,-4.82998e-02,1.68189e-02,-4.90009e-02,-6.56702e-02,8.66264e-02,-1.96919e-01,-1.26447e-01,-3.71440e-02,-2.60169e-01,7.49316e-04,6.22692e-02,5.98718e-03,-8.85592e-02,-1.67007e-01,-9.79426e-03,6.05146e-02,-1.24976e-01,-2.34612e-01,-1.83890e-01,2.62851e-02,-2.68594e-02,-9.46775e-02,-1.73541e-01,-1.01063e-01,
-1.17990e-01,-3.29793e-02,-1.57358e-01,-3.64455e-01,-2.80345e-01,-9.06590e-02,2.14343e-02,3.09030e-02,-1.43720e-01,-1.54129e-01,-1.71015e-01,-7.88058e-02,-1.03776e-01,-1.51385e-01,-1.76746e-01,-3.91722e-02,-6.86485e-03,-6.30339e-02,-9.84022e-02,-7.13396e-02,3.45004e-02,3.71068e-03,-5.90465e-02,-2.58106e-02,-2.12218e-01,-2.03496e-01,-1.78193e-01,7.92994e-02,-1.30178e-01,-1.90853e-01,3.61738e-03,-9.73226e-02,-1.03087e-01,-2.51002e-02,-7.99433e-02,3.87214e-02,-8.80081e-02,-3.98996e-03,-3.04111e-03,-3.03431e-02,-4.96657e-02,-3.10796e-01,-1.34278e-01,-1.49373e-01,-6.71554e-02,-9.83140e-04,-1.05867e-01,-9.83905e-02,-1.88804e-01,-1.00876e-01,-5.91888e-02,-1.78316e-01,-1.28199e-01,-8.70457e-02,-4.41786e-02,-1.19624e-02,-3.57389e-02,-7.86864e-02,-1.98755e-02,-1.27638e-01,-1.21056e-01,9.17962e-02,6.48950e-02,-1.38914e-01,-1.61484e-01,-5.54413e-02,1.60133e-01,-8.44589e-03,-2.07487e-01,-6.95083e-02,8.10495e-03,-1.35561e-01,2.51259e-02,-9.59112e-02,-1.30010e-01,-1.70343e-02,-1.51010e-01,-2.05382e-01,-5.95315e-03,2.81213e-02,-2.78046e-02,2.80165e-02,-1.97693e-02,-1.43022e-02,8.36067e-02,-1.78002e-01,-1.22331e-01,6.46759e-02,-2.81055e-01,-1.50744e-01,2.43088e-02,-4.24931e-03,8.19836e-02,-1.22093e-01,-6.18092e-02,-6.97531e-02,-1.32274e-01,-1.64615e-01,-2.45478e-02,-1.13888e-01,-1.99998e-02,-2.00977e-01,-1.31982e-01,-6.77168e-02,2.07357e-02,-1.61921e-01,-1.86141e-01,6.32478e-02,-1.80080e-01,4.36266e-02,2.08155e-02,8.99676e-02,-3.63787e-01,-1.98493e-03,-7.45580e-02,6.76503e-02,-6.19382e-02,-2.75194e-02,-1.39285e-01,-1.06281e-01,-2.29930e-01,-8.90545e-02,-1.76711e-01,-8.59358e-02,-1.41899e-01,-1.69158e-01,-9.53756e-02,-2.34279e-01,
4.30071e-02,8.43541e-02,-7.68306e-02,-1.88585e-01,-6.57225e-03,-1.44490e-01,-7.60867e-02,-1.79737e-01,1.09795e-02,1.62539e-02,-2.15146e-01,-9.41517e-02,5.52635e-02,5.75303e-02,-1.79859e-01,1.06465e-01,-3.35359e-03,-1.34348e-01,-1.31327e-01,-1.33364e-01,-4.33647e-02,-5.96265e-03,-1.60797e-01,-7.90502e-02,-5.37918e-02,-1.83293e-01,-2.12979e-02,6.76119e-02,-5.62833e-02,4.06641e-02,-1.17139e-01,-1.22134e-01,-1.95560e-01,-1.21841e-01,-1.53003e-01,-1.67795e-01,8.61404e-02,-4.70323e-02,-2.03447e-01,-6.54566e-02,-1.10391e-01,-2.30079e-01,4.16818e-02,-1.13926e-01,-1.92815e-01,-1.68542e-01,6.48817e-02,-1.13396e-01,-1.64811e-01,-1.89220e-02,-1.69874e-01,6.79846e-02,7.98534e-03,3.29812e-02,2.84238e-02,1.88239e-02,-5.87600e-02,1.14043e-02,4.94478e-03,-1.34992e-01,-1.40179e-01,6.73490e-02,-1.97245e-01,5.55224e-03,5.18718e-02,-1.06345e-01,-1.79065e-01,7.69347e-02,-4.69341e-02,-2.29651e-01,-2.15233e-01,-2.07691e-01,-2.86541e-02,1.36365e-02,-2.69633e-02,-1.74933e-01,-5.54006e-03,-6.41389e-02,-1.11313e-01,-8.26794e-02,2.82690e-02,8.17894e-02,-1.39589e-01,-1.54641e-01,-1.38498e-01,7.32605e-03,-1.00214e-01,-1.48615e-01,-3.11343e-02,-1.22217e-01,-1.20483e-01,-4.01759e-02,9.64782e-02,-8.36038e-02,-2.11344e-01,-1.36774e-01,-1.74117e-01,3.70419e-02,-1.05222e-01,7.22939e-02,2.35113e-02,1.30713e-02,-3.76576e-02,-2.09927e-01,-5.76566e-02,-1.80700e-01,-1.10904e-01,-3.76718e-02,4.91086e-02,-1.69410e-01,-1.59676e-01,2.51871e-02,-1.64388e-02,-2.20075e-01,-8.14458e-02,6.42052e-02,-1.70406e-01,1.39103e-02,-1.37357e-01,-7.99859e-02,1.01479e-01,-5.26405e-02,-1.62799e-01,-5.32556e-02,-1.30077e-01,7.24566e-02,-1.30740e-02,-7.84937e-03,
-3.84795e-02,5.70522e-02,-4.44241e-02,-3.54419e-01,4.73224e-02,-3.44279e-01,-1.28731e-01,-1.84044e-01,3.15410e-02,-1.33312e-01,-3.41313e-02,-1.02073e-01,-1.72857e-01,5.68854e-02,-1.01778e-01,-2.41999e-02,-9.36130e-02,-1.83387e-01,-2.78352e-01,-8.86059e-02,5.15871e-02,-1.61591e-01,-3.57608e-02,-2.07973e-01,-2.39887e-01,4.89907e-02,3.78316e-02,-1.85092e-01,-3.70882e-02,-1.53910e-01,-1.38397e-01,-5.56866e-02,-2.51321e-01,-6.01079e-02,-2.62866e-02,-2.90538e-01,-2.49432e-01,-3.70063e-01,-2.89150e-02,-1.64045e-01,-1.66159e-01,-3.14293e-02,-2.84805e-01,1.35015e-02,7.42902e-03,9.93159e-03,-1.34628e-01,-7.57915e-02,3.72104e-02,6.55883e-02,-2.55876e-01,-9.20831e-02,3.46559e-02,-1.43221e-01,-1.45565e-01,8.35599e-02,-1.36274e-01,-1.42023e-01,-1.10456e-01,-1.47291e-01,4.40259e-02,-9.90593e-02,-2.00545e-01,-2.18739e-01,-2.19913e-04,1.02907e-01,-7.27788e-02,-4.32334e-02,1.15453e-02,-3.86167e-02,-2.62735e-02,-1.83143e-01,-1.06257e-01,-2.44245e-01,1.67537e-02,-1.81159e-01,-4.56103e-02,-7.21979e-02,-1.74342e-03,-9.62282e-03,8.17161e-02,-1.57425e-01,6.11656e-02,-1.83577e-01,4.52345e-02,-2.33949e-02,-1.50878e-01,4.09539e-02,6.10647e-02,-1.17627e-02,-7.05338e-02,1.22124e-01,-1.64898e-02,-7.73248e-04,-1.18151e-01,-6.66095e-02,1.25090e-02,-3.91023e-02,-3.76236e-01,7.19137e-02,-1.83726e-01,-1.34809e-01,-1.46022e-01,-1.10367e-01,-4.05292e-01,-1.07954e-01,-1.26741e-01,7.12500e-02,7.77406e-02,-1.80575e-01,-1.23658e-01,-4.10358e-02,-1.02748e-02,-1.41278e-01,-6.94828e-02,7.78589e-02,-1.92996e-01,1.90992e-02,5.06744e-03,-2.27692e-01,-3.05791e-02,-1.17060e-02,-4.41274e-03,-9.73313e-02,-1.94928e-01,-2.02467e-01,4.82745e-02,-9.62760e-02,
-1.34687e-01,-3.04905e-01,-1.27694e-02,-1.79948e-01,-2.45680e-01,-4.35783e-01,-1.26387e-01,-1.63144e-01,-5.55984e-01,-2.35522e-01,-1.69833e-01,-1.87031e-02,-5.97653e-02,-1.80565e-01,-1.33340e-01,-1.88021e-01,4.05886e-02,-2.02992e-01,-1.38790e-01,-1.72294e-01,-2.00888e-01,-4.84307e-01,-2.97572e-01,-2.63629e-01,-2.84987e-02,-2.73378e-01,-4.30667e-01,-2.17465e-02,-9.85956e-02,-7.11991e-02,-3.52087e-01,-2.28929e-01,-2.71425e-01,-3.07650e-02,4.40008e-02,-5.49335e-01,-3.31508e-03,-2.18737e-01,2.13389e-02,-2.38922e-02,-3.40811e-01,-1.58144e-02,-1.88566e-01,5.99837e-03,-1.92075e-01,-4.17076e-02,-2.35026e-01,-6.22650e-02,7.64937e-02,2.07500e-02,-5.74866e-02,-2.80256e-01,-1.82387e-01,-3.51341e-02,-6.14255e-02,-1.30597e-01,-1.93935e-01,-1.18984e-01,-2.52730e-01,-1.28161e-01,-1.50005e-01,9.73240e-02,-1.65330e-01,-1.51898e-01,-3.04820e-01,4.99437e-02,-1.99061e-01,6.95195e-02,-2.84625e-01,-2.31891e-01,-1.98835e-01,-5.35149e-01,-1.60651e-01,-4.18346e-01,-8.15980e-02,-1.36574e-01,-4.36410e-01,-2.53269e-02,-1.57580e-01,-1.41515e-01,-2.39112e-01,-2.70199e-01,-2.99285e-01,-1.40981e-01,-1.99039e-02,-9.81753e-02,-7.66907e-02,3.94977e-02,-2.60778e-02,-3.02759e-01,-2.54458e-04,-3.51381e-02,-1.37555e-01,-1.01327e-01,-1.10105e-01,-2.44373e-01,-1.85354e-01,6.25710e-04,2.94260e-02,-1.09332e-01,-1.51320e-01,-3.79429e-01,-1.81588e-01,-1.29353e-01,-1.07795e-01,-6.27556e-02,-1.82691e-01,1.02841e-01,3.80129e-02,-1.41798e-01,-1.18243e-01,-1.76015e-01,-7.13169e-01,-1.32599e-01,-2.10984e-01,-2.30220e-01,-9.29508e-02,-1.54685e-01,-4.30573e-02,4.49696e-02,-8.32767e-02,-8.06371e-02,-9.15595e-02,-2.94984e-01,-4.23227e-02,-3.55200e-01,-8.27210e-02,-1.21380e-01,
-5.79273e-02,7.23109e-02,-7.33725e-02,-3.28962e-01,8.05587e-03,-1.40696e-01,-9.70796e-02,-2.60933e-01,2.22198e-02,-1.20144e-01,-1.79594e-01,-3.90238e-02,-1.58170e-01,4.14188e-02,6.38141e-02,7.37167e-02,-1.88771e-01,-3.35787e-01,-9.14447e-02,-2.77260e-02,-1.74415e-01,-2.81897e-01,-1.55979e-01,2.40893e-04,-1.19303e-01,-1.53698e-01,-1.19986e-01,2.14365e-02,-1.78170e-01,-2.16528e-01,-2.10078e-01,-1.16098e-01,-1.83398e-01,-2.02829e-01,2.27230e-02,-3.05570e-01,-3.90252e-02,8.98534e-03,-2.17065e-01,7.48164e-02,-1.15615e-01,-1.89783e-01,-2.94627e-01,-1.63998e-01,-6.68686e-02,-3.33452e-03,-1.34767e-01,-2.01919e-01,-3.54478e-02,-2.07607e-01,-2.02239e-01,-2.25934e-01,1.01183e-02,1.61851e-02,-2.72903e-01,4.95422e-03,-7.04501e-02,1.98933e-02,4.38467e-02,-9.74160e-02,-1.27539e-01,-2.50727e-01,-2.08465e-01,-2.51691e-01,2.19843e-02,3.67277e-02,-2.81813e-02,3.07617e-02,-1.91488e-01,-1.60289e-01,-8.71105e-02,4.80231e-02,-3.67131e-02,-1.71847e-01,1.97489e-02,-1.16616e-01,-1.02356e-01,-2.48698e-02,-2.26863e-01,6.43845e-02,-1.31181e-01,-2.01494e-01,-2.14442e-01,-1.28290e-01,-8.61451e-02,6.35770e-02,-1.92140e-01,-2.86347e-02,5.83314e-03,-4.06383e-01,-2.38045e-02,-1.55536e-02,2.71667e-02,-2.06392e-01,2.54884e-02,-1.58405e-01,1.66696e-02,-1.65070e-01,-1.23982e-01,-1.36071e-01,-1.58892e-01,-1.85215e-01,5.13079e-02,-6.59865e-02,-2.30925e-01,-2.08645e-01,-1.79835e-01,-1.76458e-01,-8.23919e-02,-1.68640e-01,-6.34403e-02,5.98967e-03,-1.21860e-01,-1.78860e-01,-2.13140e-01,5.12622e-02,-9.47958e-02,-9.06544e-02,9.41813e-03,-2.81245e-01,-1.36684e-01,-1.47433e-01,-2.93126e-01,-1.43150e-01,-1.55904e-02,-3.63137e-01,-4.70856e-02,-1.18568e-01,
-9.45631e-02,-3.32966e-02,-2.10110e-01,-3.98964e-01,-1.70437e-01,6.92618e-02,-2.23934e-01,1.04623e-02,-1.44086e-01,1.79200e-02,-1.48251e-01,7.41409e-02,6.56087e-02,-1.48306e-01,-2.54377e-01,5.01548e-02,-1.74397e-01,-2.59192e-01,-1.49542e-01,-7.90761e-02,-1.70742e-01,-1.17076e-01,-1.79499e-01,-2.72106e-02,-2.09935e-01,-2.87664e-03,4.22535e-02,-1.67501e-01,-2.35948e-01,-1.22882e-01,-1.53429e-01,-2.16784e-01,2.87030e-02,3.82886e-02,-1.21785e-02,-3.25938e-02,-3.39004e-02,-1.75373e-01,-1.57535e-01,-5.30333e-02,-9.90496e-02,-2.62885e-02,-4.51930e-01,-1.33910e-01,-2.01889e-01,-1.00076e-01,-1.10431e-02,-2.91528e-02,-1.20231e-01,-1.15867e-01,-1.64537e-01,1.23321e-02,-1.10578e-01,4.55873e-02,6.93149e-02,-7.26667e-02,1.31787e-02,3.00221e-02,-1.14924e-01,-1.74736e-01,-7.26772e-02,4.83839e-02,-1.85932e-02,-2.53406e-01,-1.37589e-01,-3.15754e-02,-6.53737e-02,-2.05086e-01,4.89961e-02,-6.79611e-02,-2.45845e-02,-1.98735e-01,5.09327e-02,-7.51571e-02,-2.17930e-01,-3.54055e-01,-1.06281e-01,-1.37842e-01,-1.79289e-01,-2.20427e-01,-1.08980e-01,-2.06893e-02,-5.84956e-02,-6.77042e-02,-1.35591e-01,5.13949e-02,-1.63004e-01,-2.61802e-02,-1.52109e-01,-4.84056e-01,-6.32130e-02,-8.92722e-02,-8.58828e-02,-1.91621e-01,-1.45822e-01,-1.47382e-01,6.04447e-02,-2.14919e-01,-1.31253e-01,4.92375e-02,-7.33803e-02,-1.24037e-01,-1.38987e-02,2.19143e-02,-1.15304e-01,-7.20676e-02,-4.60454e-02,-4.01360e-02,-1.67615e-01,-1.46524e-01,-1.59361e-01,7.94486e-02,-2.28394e-01,-6.35104e-02,-4.85197e-02,-1.29682e-01,-1.10724e-01,-2.76660e-02,-1.75399e-01,-1.23214e-01,2.69015e-02,-4.73870e-02,-6.39427e-03,-6.57826e-02,8.00220e-02,1.94454e-02,5.56525e-03,-3.68215e-02,
-1.44443e-01,-3.34058e-02,4.51283e-02,-1.36421e-01,-2.95623e-03,5.88994e-02,4.71459e-02,-2.69156e-02,-7.94883e-03,-3.17549e-02,-1.10440e-01,7.98809e-02,-7.38210e-02,-7.74276e-02,-4.65425e-02,-9.57968e-02,-8.85832e-02,-6.12612e-02,-9.71754e-02,-1.42092e-01,-1.92877e-01,-1.96531e-01,-1.18332e-01,-1.90776e-01,2.99690e-02,-1.17262e-01,-8.04748e-02,2.09898e-02,-9.43005e-02,-1.94495e-01,-2.15175e-01,-9.55624e-02,-9.40929e-02,-8.66679e-02,-1.77324e-01,6.02800e-02,-1.94778e-01,-1.02278e-01,-1.21364e-01,-1.38345e-02,-1.93503e-01,-2.35789e-01,-1.02981e-01,-1.41771e-01,-1.17496e-01,2.23528e-02,2.61566e-02,-3.89781e-02,-1.75839e-01,-1.61450e-02,-1.51047e-01,-2.34600e-02,-2.58668e-01,-1.13286e-01,-1.09500e-01,1.22704e-02,-1.71713e-01,-1.24571e-01,-5.47514e-02,-1.27959e-01,-5.20143e-02,-7.37199e-02,-5.22866e-02,-1.52780e-01,2.25825e-02,-7.28732e-02,-1.66307e-02,-2.25762e-01,-3.26147e-02,-3.30565e-03,-1.23130e-01,-1.62899e-01,-1.23687e-01,-1.99669e-01,-1.94410e-01,-1.15032e-01,-1.72977e-01,-1.84312e-01,-6.81624e-02,-1.54197e-01,-8.66203e-02,2.05699e-02,-2.07246e-02,-1.10224e-01,-9.59321e-02,-1.19575e-01,2.01293e-02,-6.31578e-02,-1.06720e-01,-2.03247e-01,-1.17450e-01,-1.92210e-03,1.04588e-01,6.17353e-02,-6.35371e-04,-1.36081e-01,-3.41630e-02,-2.43031e-02,2.70031e-02,3.01037e-02,-1.37293e-01,-9.89613e-02,4.61448e-02,-2.24331e-01,-5.01844e-02,-6.38855e-03,-4.87731e-02,-2.01161e-01,-4.31196e-02,-1.17682e-01,2.95943e-02,4.40565e-02,-6.39224e-02,-9.51874e-02,-1.27073e-01,-1.42553e-01,-1.43838e-01,-4.73034e-02,3.62242e-02,-5.23689e-02,4.00904e-02,-1.61338e-01,-1.29993e-01,-1.11864e-01,3.99483e-02,-1.69850e-01,-1.75705e-01,-1.85975e-01,
-1.96585e-02,-4.65689e-03,-5.58020e-02,-2.75325e-01,-8.44680e-02,-2.74695e-02,-1.87477e-01,7.23081e-02,1.62986e-02,-3.30045e-02,-1.52779e-01,-1.43623e-01,-1.47498e-02,-2.12173e-01,-2.56915e-01,1.93878e-02,-7.21527e-03,-3.41523e-01,-2.25475e-01,-1.40355e-01,-5.49523e-02,1.08211e-02,-3.27015e-02,-1.84776e-01,-1.63958e-02,-1.50992e-01,-6.19009e-02,-9.21673e-02,-2.19392e-01,1.07698e-02,-2.21668e-01,-1.43086e-01,-1.16268e-01,3.28323e-03,-1.12053e-01,-1.57998e-01,-1.92570e-01,1.22975e-02,7.89395e-02,-1.04605e-01,-9.79936e-02,-1.99006e-01,1.27665e-02,5.09196e-02,-1.15434e-01,-1.60054e-01,-1.60461e-01,-2.06645e-01,-2.00353e-01,-2.03737e-01,-4.89738e-01,-2.42210e-02,6.06014e-02,-1.42803e-01,-1.72187e-01,-1.63602e-01,-1.81764e-02,4.77108e-02,7.05321e-02,-1.77356e-01,-4.80983e-02,1.64519e-02,1.50360e-02,-3.55164e-01,3.88993e-02,-9.68584e-02,4.81440e-02,-2.33386e-01,-2.08193e-01,-6.26512e-02,-5.02234e-03,4.43016e-02,-3.51860e-02,8.63752e-03,-5.14551e-02,-1.07372e-01,4.39525e-02,-6.91553e-03,-7.69283e-02,1.73771e-02,-1.25644e-02,7.34539e-02,-2.19891e-01,-4.65220e-02,-8.32333e-02,8.69482e-02,4.04509e-02,-1.59377e-01,-1.16791e-01,-2.13281e-01,-7.44173e-02,8.81528e-02,4.11532e-04,-1.57610e-01,-1.20640e-01,-4.73382e-02,-1.35665e-01,-2.31007e-02,-4.19448e-01,8.29365e-02,-1.38152e-02,-2.82152e-01,-1.75681e-01,1.02474e-02,-1.75743e-01,-2.07359e-01,-2.06692e-01,-1.85369e-01,-4.06356e-02,-1.30759e-01,-8.56262e-02,-5.65600e-02,-3.73996e-03,9.88746e-03,-1.34976e-01,-1.72376e-01,-4.42111e-02,4.58525e-02,-1.38176e-01,-8.69918e-03,5.59448e-03,-1.42789e-02,-2.51392e-01,-9.08858e-02,-1.19923e-01,-1.53997e-01,-1.18107e-01,1.88474e-02,
-6.64129e-02,-1.35692e-01,-1.35747e-01,-1.65564e-01,-1.30680e-01,-1.44691e-01,6.07010e-03,-3.38139e-02,-6.21787e-02,-1.29115e-01,-1.70646e-01,6.34671e-02,9.85087e-02,3.29337e-02,4.13619e-02,5.42300e-02,-1.40214e-01,-1.47528e-01,-2.83795e-02,2.22260e-02,-1.04369e-01,3.21048e-02,3.75437e-02,-2.25173e-02,1.50592e-03,7.39878e-03,-7.10374e-02,-5.88193e-03,3.37176e-03,-1.37227e-01,-1.37129e-01,-9.72868e-02,-8.94824e-02,-6.27386e-02,-5.23857e-02,2.21897e-02,-5.07893e-02,-1.06527e-01,-1.22940e-01,-8.61666e-02,-1.72706e-01,-6.97192e-02,-3.44184e-02,7.38209e-02,2.12847e-02,-1.03395e-01,-1.71267e-03,-7.21335e-02,1.92480e-02,-2.08166e-02,-7.89608e-02,-1.88215e-01,-6.55790e-04,1.16511e-01,-1.37539e-01,2.36224e-03,-4.68813e-03,-2.42333e-02,1.07748e-01,-5.02038e-02,5.72064e-02,-1.54581e-01,-1.78264e-02,-5.15092e-02,5.74136e-03,4.51987e-02,-1.68120e-01,-1.31527e-01,-8.84227e-02,-1.55849e-01,-3.13614e-02,3.32396e-02,-1.06444e-01,-1.56631e-01,-3.06444e-02,6.88371e-02,3.85846e-02,-1.04876e-01,1.82902e-02,-5.66524e-02,6.62167e-02,-2.00114e-01,-1.63190e-01,3.02254e-03,4.41524e-02,5.15380e-03,3.27750e-02,-1.43849e-01,-7.69425e-03,1.74981e-03,1.65902e-02,-4.62637e-03,-2.13552e-02,-1.79656e-01,-1.64341e-01,8.23867e-02,-7.71814e-02,-8.47548e-02,-7.91071e-02,-2.20850e-01,2.51516e-02,-1.52469e-01,-6.02492e-02,-1.18313e-01,-1.58247e-01,-1.78941e-01,-1.28408e-01,-1.48462e-02,-8.43137e-02,-3.34581e-02,-1.28092e-01,9.86834e-02,-8.18007e-03,-2.00943e-01,-6.94011e-02,-1.91152e-01,-1.82508e-01,8.95355e-02,2.55627e-02,1.18326e-02,-8.65842e-02,-6.62818e-03,5.49517e-02,-9.85385e-04,4.05434e-02,1.13001e-02,-1.35073e-01,-5.66978e-02,
-3.45061e-02,-2.50840e-01,-1.75814e-01,-4.08617e-01,4.02401e-02,-1.80123e-01,-3.55980e-02,9.85953e-02,-1.65173e-01,-1.06112e-01,-1.99612e-01,1.04373e-01,5.86226e-02,-1.63671e-01,-1.73003e-01,-1.76821e-01,-1.52347e-01,-2.55636e-01,2.17614e-02,-1.63053e-01,-7.60105e-02,-1.29867e-01,-4.10724e-01,-1.89548e-01,4.68277e-02,5.74981e-02,-2.09230e-01,-6.41290e-02,-5.85205e-02,-9.57281e-02,-1.39310e-01,-9.60455e-02,-2.69911e-01,6.79244e-02,-3.86835e-02,-5.45294e-02,-1.22561e-01,-3.70987e-02,-2.34096e-02,-1.70099e-01,-1.31261e-01,-8.50943e-02,-1.65054e-01,-3.06354e-01,-1.70832e-01,-1.81671e-01,-2.98714e-02,-4.03797e-02,-1.38636e-01,-1.37378e-01,-2.59721e-01,-2.50457e-01,-3.20918e-01,2.94646e-02,-1.35340e-01,-7.50539e-02,5.17580e-02,-7.74491e-02,8.00068e-02,-3.22683e-02,4.20996e-02,-1.42516e-01,-5.33475e-02,-1.56379e-01,1.73794e-02,4.43974e-02,-6.68340e-02,-3.30341e-01,-8.64683e-02,-1.20217e-01,-2.74312e-01,-3.85601e-02,2.89337e-02,8.69844e-02,-1.51399e-01,-2.38296e-02,-1.03617e-01,-9.22171e-04,-7.87008e-02,-1.74622e-01,-7.89539e-03,9.80741e-04,-1.25967e-01,1.06719e-01,-1.34444e-02,-1.79074e-01,1.74392e-03,-1.39932e-02,-1.20298e-01,-2.10635e-01,-4.07915e-02,-4.79872e-02,-6.61784e-03,-6.99629e-02,-1.14864e-01,-1.08644e-01,-8.67692e-03,-1.67748e-01,-1.79768e-01,-9.91720e-02,-7.91783e-02,-7.54030e-03,-1.12590e-01,3.50250e-02,-4.71106e-01,1.04102e-01,-8.59485e-02,-2.05071e-01,-1.97361e-01,-1.74918e-01,-8.03343e-02,-8.32969e-02,-2.15289e-01,-1.84731e-01,-2.49178e-01,-1.31476e-01,-9.31061e-02,-2.84509e-01,7.27867e-02,-1.06573e-01,-1.45437e-01,-1.30812e-01,-7.99785e-02,-1.71860e-01,1.10065e-01,-1.81650e-01,-1.96925e-01,-4.17744e-02,
3.39366e-02,6.78924e-02,-1.01568e-01,-3.78852e-01,-5.38831e-03,-1.33202e-01,-3.22977e-01,-1.79487e-01,-6.97912e-02,-8.82076e-02,-2.26707e-01,-6.18828e-03,5.35517e-02,-1.55254e-01,-1.52966e-01,-1.89138e-01,-1.66367e-01,-2.79376e-01,-7.06403e-02,-1.46296e-02,-1.29035e-01,-1.23171e-01,-7.95268e-02,-1.85406e-01,2.17318e-02,-3.07791e-02,-1.19699e-01,6.64358e-02,-1.20170e-01,-4.58027e-02,-1.56096e-01,5.91044e-02,-2.95092e-01,-1.80736e-01,-1.99247e-01,-2.71543e-01,-2.87879e-01,-2.98679e-01,-2.78847e-02,5.79761e-02,6.20934e-02,2.15296e-02,-1.38062e-01,-1.08744e-01,-1.02062e-01,-1.27619e-01,-3.59563e-02,-3.87909e-02,-8.81537e-02,3.66612e-02,-8.59802e-02,4.74846e-02,-3.55416e-02,-1.23359e-01,-6.33356e-03,-6.87959e-02,-1.11684e-01,-8.41844e-02,-1.30972e-01,-1.74689e-01,-4.20965e-02,-6.95133e-02,-1.65141e-01,-5.40744e-02,-1.57172e-01,-4.75920e-02,1.23827e-02,-1.93884e-01,-2.24896e-03,-1.31235e-01,-3.23529e-01,-1.38439e-01,3.62865e-02,-2.84473e-01,-1.78028e-01,-2.37997e-01,-5.53008e-02,-5.80833e-03,-6.59912e-02,-6.80775e-02,-1.97580e-01,-2.18523e-03,-8.42905e-02,-1.14506e-01,-2.14750e-01,-1.92018e-01,-9.96144e-04,-1.14725e-01,5.23307e-02,-7.73366e-02,-3.55905e-02,-1.10468e-01,-1.23129e-01,-1.13340e-01,-6.91943e-02,-1.68396e-01,-5.64681e-02,-1.68267e-01,-7.59812e-02,-1.61617e-01,5.89974e-02,-4.00766e-01,-2.26371e-01,-1.66519e-02,-7.84743e-02,-1.08157e-01,2.52058e-02,-1.91684e-01,-4.05633e-02,4.94969e-02,7.89152e-02,-2.14833e-01,-2.24663e-01,-8.71478e-02,-1.06055e-01,-1.05703e-01,-6.75339e-02,-1.61243e-01,-2.99053e-02,1.19380e-02,6.61433e-02,-7.36304e-02,-2.90427e-01,-2.25135e-01,2.28099e-03,-8.79282e-02,-9.34757e-02,3.80337e-02,
-1.88992e-01,-3.79674e-03,2.10295e-02,-2.85227e-01,-3.74670e-01,-2.60874e-01,-6.24279e-02,-3.47892e-01,2.69530e-02,-1.46678e-01,-1.96036e-01,1.45625e-02,7.30860e-02,-8.49694e-02,-1.57358e-01,-1.75702e-01,1.34716e-01,-5.48238e-02,-2.78348e-01,-8.28148e-02,5.12155e-02,-1.29108e-01,-1.61330e-01,-2.92896e-01,-1.91429e-01,-3.29107e-02,-6.10266e-02,2.52385e-02,-2.85965e-02,-1.61030e-01,-9.55999e-02,-2.00727e-01,-1.39254e-01,3.33499e-02,-4.56046e-02,-1.73924e-01,-4.57818e-01,-2.83259e-01,1.34393e-01,-9.14702e-02,5.24225e-02,-3.28024e-01,-2.22660e-01,7.21443e-02,-9.82914e-04,-2.97125e-01,-1.24701e-01,8.10591e-02,6.54688e-02,-1.75601e-01,-2.98802e-01,-3.76499e-01,-5.22360e-03,8.05550e-02,-1.81881e-01,6.33972e-03,-9.31514e-02,-4.62761e-03,4.63170e-02,-3.12356e-02,-1.14966e-01,-6.39287e-02,-1.14696e-01,8.65908e-02,-4.21699e-02,-1.40193e-01,-3.29559e-01,-4.68991e-02,-7.99927e-03,-1.24323e-01,-1.72333e-01,-5.54994e-02,-6.37473e-02,-7.39272e-02,-2.83724e-03,-2.37478e-02,-3.60221e-02,-3.04102e-01,-1.38113e-01,-6.11633e-02,4.93438e-02,-1.38862e-01,-1.76503e-01,-1.14735e-01,-1.35403e-01,-1.83933e-01,-7.79714e-02,-9.46307e-02,-7.88199e-02,-3.40733e-01,-1.99783e-01,1.51516e-02,-8.04834e-02,-1.02121e-01,-1.59308e-01,-3.26392e-01,-1.34408e-01,-1.74409e-01,-3.42795e-01,-9.97051e-02,-7.64590e-02,-2.27057e-01,6.91559e-02,3.59528e-02,-1.48842e-01,-1.00241e-01,-1.11343e-01,-8.88563e-02,-8.91411e-02,-1.18182e-02,2.99218e-02,-7.74380e-02,-8.39973e-02,-8.69262e-02,5.53278e-02,-9.10984e-02,-1.99816e-01,-3.30032e-01,6.82112e-02,-1.02742e-01,-1.21211e-01,-1.25982e-02,3.39024e-03,-3.02718e-01,-1.72189e-01,-8.92989e-02,-1.73381e-01,-4.58814e-02,
-8.64667e-02,1.85996e-02,-3.06865e-01,-3.08953e-01,-2.72337e-01,-2.44262e-01,-1.92861e-01,-1.05710e-02,-1.59532e-01,-2.52189e-01,-4.33318e-02,-1.06873e-01,-1.15705e-01,5.32936e-02,-1.51010e-01,7.51955e-02,-5.25049e-02,4.32453e-03,-3.71613e-02,-3.90893e-02,7.99361e-02,-2.50593e-01,-1.80142e-01,-8.25132e-02,-8.73532e-02,8.61221e-02,-4.00460e-02,-1.93919e-01,-6.60202e-02,7.89151e-02,-1.83780e-01,-1.59223e-01,-4.32925e-01,-2.53414e-01,-7.08448e-02,-9.38966e-02,-3.09661e-01,-1.76934e-01,-3.75128e-02,-8.07195e-02,-1.73552e-01,-8.92981e-02,-1.71193e-01,-1.40982e-01,6.25202e-02,-1.37936e-01,-2.31762e-01,-3.10352e-01,-1.11081e-01,1.85809e-02,-3.38784e-01,-3.17852e-01,-1.23895e-01,-1.98894e-01,-2.01538e-01,-9.52151e-02,-2.46295e-01,-2.20935e-01,3.76236e-02,-4.33855e-02,-7.00437e-02,-3.06779e-02,4.82458e-02,-3.64908e-01,-2.76670e-01,-1.61647e-01,6.36860e-02,-1.70729e-01,-2.79604e-01,-9.25153e-02,-9.91840e-02,1.90680e-02,-1.91930e-02,-1.37673e-01,-2.64680e-01,-1.13448e-02,-1.25331e-01,-4.63720e-02,-6.82791e-02,-8.01170e-02,-1.80046e-01,-6.03379e-02,-2.09446e-01,-2.14683e-01,2.15805e-02,-1.25681e-01,-1.64874e-01,-1.18743e-01,-1.91768e-01,-3.87529e-01,-2.35942e-02,7.31868e-02,4.44853e-02,-2.71236e-01,-9.45622e-02,-4.78634e-02,4.52063e-02,-1.09918e-01,-1.03571e-02,-2.43356e-01,4.58738e-03,-1.24405e-01,4.60992e-02,1.96735e-02,-2.32162e-01,-4.08560e-01,-2.14385e-02,-2.21468e-01,6.24938e-02,7.20655e-02,-2.93420e-02,-6.58437e-02,-6.24105e-02,-1.81803e-01,-1.89201e-01,-1.49442e-01,-8.74733e-02,-1.03651e-01,3.02762e-02,-7.20586e-02,-1.50100e-01,-1.28144e-01,-1.62234e-01,-3.25458e-01,2.10367e-02,-1.71739e-01,-2.09846e-01,-1.67078e-01,
4.36820e-02,-6.66667e-02,-8.25055e-02,-4.41751e-01,-6.89738e-02,-1.02086e-01,-6.04035e-02,-4.00233e-02,6.89097e-02,-5.23954e-02,-1.45864e-01,-1.32167e-01,-3.03848e-02,-1.64080e-01,-3.74339e-01,-1.95948e-01,-4.37102e-02,-1.14657e-01,-1.34827e-01,-1.38572e-01,-2.16518e-02,-9.74028e-02,-1.82853e-01,-1.23020e-01,-7.25847e-02,4.46313e-02,4.29995e-02,5.42010e-02,2.84466e-02,5.56111e-02,-1.32233e-01,2.35938e-02,-2.77569e-01,-6.87146e-02,-9.44884e-02,-3.52263e-02,-1.28283e-01,-3.66255e-01,-8.12652e-02,4.07398e-02,-5.81900e-02,4.21459e-03,-1.45710e-01,-1.77660e-01,-1.97603e-01,-7.65051e-02,-1.19149e-01,-1.46491e-01,-6.84308e-02,-1.72148e-01,-3.24199e-01,-2.36183e-01,-1.61871e-01,-1.15207e-01,-8.40118e-02,-2.02014e-01,8.78436e-03,-1.90458e-01,-2.53764e-01,-2.24633e-02,-1.14315e-01,6.31468e-02,-1.26587e-01,-4.05336e-01,5.12449e-03,1.48047e-02,-8.57624e-02,-6.71264e-02,-2.77292e-01,-4.60297e-02,-1.85488e-01,-4.21569e-02,-5.92237e-02,4.33387e-02,3.30116e-02,4.23580e-02,-7.56692e-02,-3.40534e-02,-1.47420e-01,-1.13555e-02,-7.67128e-03,5.68591e-02,-1.72003e-01,-1.54465e-01,-1.28799e-01,-9.30449e-03,-2.31487e-01,-5.90418e-02,-1.41505e-01,-8.44928e-02,-2.93762e-02,-1.91555e-01,-9.07691e-02,-3.69003e-02,3.26569e-02,6.39549e-02,-1.50736e-01,-5.42672e-02,-3.50291e-01,-1.70389e-01,8.26645e-02,-7.08253e-02,1.55105e-02,2.23039e-02,-2.41560e-01,-3.31380e-02,5.84586e-02,5.10604e-02,-2.18490e-01,8.77385e-02,-6.33459e-02,-4.30113e-02,-6.03502e-02,-1.85873e-01,-4.24398e-02,-7.52833e-02,-9.30288e-02,-1.88780e-01,-2.14221e-02,-1.78758e-01,-9.79481e-02,-8.90234e-02,-1.01380e-02,-5.45013e-02,-1.45155e-01,-8.33622e-02,-2.00800e-01,-3.85372e-02,
-1.51857e-01,6.69257e-02,-4.73314e-01,-1.81389e-01,-2.78952e-02,8.06488e-02,-1.84873e-01,-4.66991e-01,2.22647e-02,-3.82420e-01,-1.29566e-01,7.84210e-02,-1.34961e-01,-4.95306e-02,-4.36154e-01,-2.26673e-01,-2.54609e-01,-3.47995e-01,-4.65905e-01,-9.03955e-02,4.44469e-02,-1.40996e-01,-3.02824e-01,-4.39105e-01,-4.09024e-01,-1.86979e-01,-1.91745e-01,-1.21215e-01,1.52872e-02,1.05577e-01,-3.87232e-01,-3.34259e-01,-2.81646e-01,-5.07535e-01,-6.68693e-02,-4.29262e-01,-3.51318e-01,-2.77189e-01,-1.12541e-01,-7.88181e-02,-5.00267e-02,-4.89679e-01,-3.63909e-01,-2.51369e-01,-4.03666e-01,-4.07755e-01,-1.39646e-01,-3.88249e-01,5.39482e-03,-2.85132e-01,-2.48195e-01,-3.05928e-01,-4.57436e-01,-5.89423e-02,-1.61470e-01,-6.02556e-02,-1.00208e-01,-4.86426e-01,-3.60746e-03,-1.40895e-01,2.97142e-02,-5.46357e-01,-2.07764e-01,-1.92635e-01,-3.14670e-01,-2.34268e-03,-2.32674e-01,-1.54399e-01,-2.97386e-01,-4.78006e-02,-4.09881e-01,-4.50915e-01,-1.71605e-01,-4.29011e-01,1.52747e-03,-3.54295e-01,6.35007e-02,-2.59774e-01,-4.92192e-02,6.28727e-02,-1.05160e-01,-2.80752e-01,-5.17001e-01,-6.34573e-01,2.78733e-02,-2.00925e-01,-1.63115e-01,5.11965e-02,3.85764e-02,-4.79940e-01,4.87952e-02,-2.06440e-01,-2.55752e-01,-4.88747e-01,-1.57122e-01,4.82190e-02,-1.26802e-01,7.20710e-02,-3.98212e-01,-3.25836e-01,-3.41057e-01,-2.83705e-01,-1.12227e-01,-7.70604e-02,-2.66702e-01,6.13624e-02,-4.64257e-01,7.16742e-02,-1.03566e-02,-6.31783e-03,-7.20297e-02,2.47987e-02,-4.15107e-01,-5.22332e-01,-1.69572e-01,-4.97385e-02,-4.90885e-01,-4.61666e-02,-4.86700e-02,-3.36479e-01,-6.12769e-02,7.69003e-02,-3.09442e-01,-5.35390e-01,-6.96169e-03,-2.17849e-01,-3.83526e-01,-1.89178e-01,
-1.84264e-01,-6.60503e-02,-3.07360e-02,-1.75667e-01,-1.04674e-02,9.44981e-02,-1.15752e-01,-1.65527e-01,-2.90362e-02,-1.06291e-01,-5.57932e-02,4.68397e-02,6.13164e-03,-2.83650e-02,-1.64951e-02,4.94025e-02,-1.22251e-01,-1.99298e-01,-5.66279e-02,1.25653e-02,-9.68028e-02,-7.23287e-03,-3.69213e-02,-9.97089e-02,-3.53974e-02,-1.99073e-01,-1.60400e-01,4.30444e-02,-8.74510e-02,2.29056e-03,-2.03287e-01,-1.05444e-01,-1.52237e-01,2.56164e-04,-1.65478e-02,-6.51333e-02,-2.07101e-01,-1.17982e-01,-5.26642e-02,8.87176e-02,-1.65814e-01,-8.38802e-02,7.02378e-02,5.41585e-02,-1.10032e-01,-1.83089e-01,-2.43383e-02,3.68144e-02,-4.07017e-02,4.30894e-04,-1.37507e-01,-2.11670e-02,-6.76221e-02,3.75725e-02,-9.02386e-02,5.36516e-02,4.80060e-02,4.99880e-02,-5.54174e-02,-8.61461e-02,-9.91765e-02,-1.43227e-01,-4.19950e-02,-4.48139e-02,-1.94751e-01,-9.78814e-04,-6.56094e-02,-6.60860e-02,-1.02841e-01,-2.42194e-02,6.34855e-02,-4.94177e-02,-1.47330e-01,-3.40840e-02,-6.92349e-02,-1.82555e-02,-1.15474e-01,-7.61239e-02,6.86533e-02,7.01354e-02,-1.23090e-01,-7.93042e-02,-1.96009e-01,-1.25969e-02,-7.36398e-02,-3.60864e-03,-3.63310e-02,5.16423e-02,1.42106e-02,-1.73955e-01,-6.17106e-02,2.66586e-02,3.63652e-02,-1.32611e-01,6.87162e-02,-1.89135e-01,6.79342e-02,-1.61028e-01,-5.90440e-02,-8.40626e-02,-1.39788e-01,-4.45531e-02,-1.24334e-01,5.88270e-02,-1.86168e-01,3.60983e-03,5.84616e-02,-1.25093e-01,-2.03492e-01,3.80606e-02,-3.90749e-02,6.63146e-03,-9.53897e-02,-9.05373e-02,4.14221e-02,-1.63388e-01,-8.89294e-02,-8.37552e-02,-5.44656e-02,-1.44130e-01,-6.48389e-02,-2.05423e-01,1.49262e-02,-1.02479e-01,-9.15259e-02,-1.03394e-01,-1.25203e-01,-1.50234e-01,
-2.74301e-01,3.72544e-02,-4.60083e-01,-4.68900e-01,-1.51732e-01,-2.63930e-01,-2.43469e-01,-4.77792e-01,-1.63839e-01,1.01040e-01,-3.02473e-01,-2.05489e-01,-6.40162e-02,-1.62501e-01,-2.72784e-01,-4.13680e-01,-2.42710e-01,-3.78075e-01,-4.94572e-01,-1.78229e-01,-5.89023e-02,4.01323e-02,-2.96904e-02,-3.65011e-01,-5.11377e-01,-6.47009e-02,-2.62379e-01,5.47663e-02,-1.92692e-01,-3.70234e-02,3.81748e-02,-2.02291e-01,-2.43318e-01,-3.53412e-01,-2.48367e-01,-2.34982e-01,-2.37329e-01,-1.52839e-01,-9.89923e-02,-3.42948e-01,2.40068e-02,4.58927e-02,-2.18473e-01,-4.18126e-02,-2.60213e-02,-1.98998e-01,1.60219e-01,-2.90073e-01,2.37150e-02,-1.94786e-01,-3.72985e-01,-3.01509e-01,-1.17155e-01,-1.82666e-01,-1.22342e-01,-2.10809e-01,9.18422e-02,-6.06796e-02,-4.43580e-01,-6.81319e-02,-3.44943e-02,-2.06739e-01,-1.60354e-02,-5.24526e-02,-3.67841e-01,4.18781e-03,-4.23350e-01,-6.63076e-02,-1.71005e-01,-2.61502e-03,-2.61258e-01,1.39682e-01,-2.10053e-01,-4.65840e-01,-1.81144e-01,-1.72099e-01,-1.83111e-01,-3.96474e-01,-2.18915e-02,1.40561e-01,-6.64346e-02,-1.97857e-01,-2.46388e-01,-3.36715e-02,-9.87221e-02,-1.81034e-01,-2.03651e-01,-1.17753e-01,-1.91103e-01,-3.46757e-01,-1.32363e-01,-3.35274e-02,-2.28762e-01,-3.73982e-01,1.85274e-01,-6.80613e-02,-2.08883e-01,-3.37654e-01,-7.29024e-02,-7.31143e-02,-1.79858e-01,-3.99956e-01,-1.39193e-01,-1.01413e-01,-1.98124e-01,-3.10302e-01,-1.20135e-02,-7.00080e-03,3.00866e-02,-1.11061e-01,6.83185e-02,1.03527e-01,-1.09682e-02,-1.47781e-01,7.13415e-02,-3.43053e-01,-3.29433e-01,6.88107e-02,-7.03396e-03,1.41728e-02,-8.05624e-02,-2.13433e-01,-1.98338e-02,-4.67078e-01,-1.10512e-01,-1.26475e-01,-1.69226e-01,-1.73397e-01,
-1.42478e-01,3.43420e-02,-1.29479e-01,-3.67576e-01,-2.56919e-01,3.25600e-02,-6.52255e-02,-1.09284e-02,9.41398e-02,-1.11217e-02,-4.38371e-01,-2.53123e-02,-2.93751e-02,7.06553e-02,-2.25191e-01,7.26428e-02,-5.85547e-03,-3.42334e-01,-1.67729e-01,-1.81045e-01,8.01333e-02,-1.88449e-01,-6.57866e-02,-2.88705e-01,-2.50183e-01,7.05975e-02,-4.13642e-01,-1.52394e-01,-1.98951e-01,4.73791e-02,-4.37397e-03,-8.36325e-02,-1.89114e-01,-1.75266e-01,-4.58410e-03,-2.31910e-01,-1.75449e-01,5.96100e-02,-1.66479e-01,-1.83583e-01,-5.04702e-02,-4.91156e-02,-1.52521e-01,5.26393e-02,-1.18137e-01,-2.53675e-01,6.40260e-02,-1.54461e-01,-3.77197e-01,-1.13375e-01,-6.40750e-02,-1.47845e-01,6.82174e-02,7.73437e-02,-9.90198e-02,-1.70990e-01,-1.10249e-01,-4.39558e-01,7.95704e-02,-7.02125e-02,-1.97279e-01,3.25258e-03,4.07678e-04,-2.90113e-01,-9.08339e-02,-9.94153e-02,-7.58586e-02,-2.57444e-01,-1.88438e-01,-1.40296e-01,-4.75814e-01,-1.83618e-01,-1.11715e-01,6.32847e-02,-2.08352e-01,-8.44905e-02,6.12354e-02,-3.84808e-01,-1.51809e-01,-1.72934e-01,-1.50445e-01,-2.64721e-02,-7.26034e-03,-2.77074e-01,-1.23146e-01,3.05950e-03,-3.55442e-02,1.96756e-02,1.89048e-03,-2.71234e-01,-1.98164e-01,2.64723e-03,-1.67189e-01,-1.13465e-01,-2.21649e-02,5.87378e-02,4.23687e-03,-5.36164e-02,-1.62693e-01,-5.81765e-02,-2.05404e-01,-4.30475e-02,-7.20490e-02,-1.08379e-01,-2.66053e-01,-1.95352e-02,-1.40688e-01,3.31329e-03,1.03285e-02,4.61085e-02,-8.43240e-02,4.87720e-02,-3.97969e-01,-1.39008e-01,-1.37722e-01,-3.74709e-01,-2.02788e-01,-5.48085e-02,-8.15192e-02,-1.26762e-01,-7.87407e-02,-2.52015e-02,-7.81979e-02,-1.81509e-01,9.47776e-02,-3.96890e-01,-4.29600e-02,2.59179e-02,
