// Neural Network File Format by Kyle Julian, Stanford 2016
3,40,20,264,
40,264,264,20,
0,
-1,-1,-1,-1,-1,-1,-1,-1,-1,-1,-1,-1,-1,-1,-1,-1,-1,-1,-1,-1,-1,-1,-1,-1,-1,-1,-1,-1,-1,-1,-1,-1,-1,-1,-1,-1,-1,-1,-1,-1,
1,1,1,1,1,1,1,1,1,1,1,1,1,1,1,1,1,1,1,1,1,1,1,1,1,1,1,1,1,1,1,1,1,1,1,1,1,1,1,1,
0.0,0.0,0.0,0.0,0.0,0.0,0.0,0.0,0.0,0.0,0.0,0.0,0.0,0.0,0.0,0.0,0.0,0.0,0.0,0.0,0.0,0.0,0.0,0.0,0.0,0.0,0.0,0.0,0.0,0.0,0.0,0.0,0.0,0.0,0.0,0.0,0.0,0.0,0.0,0.0,0.0,
1.0,1.0,1.0,1.0,1.0,1.0,1.0,1.0,1.0,1.0,1.0,1.0,1.0,1.0,1.0,1.0,1.0,1.0,1.0,1.0,1.0,1.0,1.0,1.0,1.0,1.0,1.0,1.0,1.0,1.0,1.0,1.0,1.0,1.0,1.0,1.0,1.0,1.0,1.0,1.0,1.0,
2.48189e+00,-1.67520e-01,5.18916e-02,1.52771e-01,1.77771e-01,-2.11930e-01,4.78021e-02,-9.46705e-02,5.68186e-02,-2.62615e-03,1.74496e-02,-1.61163e-01,-1.81504e-01,-2.45906e-02,-1.20012e-01,7.62408e-02,-1.70223e-01,-5.94257e-02,8.77658e-02,1.37032e-01,4.25193e-02,-3.55539e-02,-5.94661e-02,-5.32291e-02,1.47465e-01,3.52794e-02,-7.46939e-02,4.76862e-02,6.09779e-02,-5.27101e-02,3.04368e-01,1.33554e-02,-2.72643e-01,2.37318e-02,-1.04720e-01,-6.73045e-02,-8.36804e-02,-2.53043e-01,-1.88609e-01,1.80045e-02,
4.57325e+00,-2.86978e-01,-1.07955e-01,1.37638e-02,-5.86705e-02,-1.52583e-02,4.91298e-02,2.16270e-02,-2.71093e-01,1.92022e-01,-7.85181e-02,1.96172e-01,-9.99040e-02,-6.04194e-02,9.48022e-03,6.19568e-02,-1.83036e-01,3.01813e-01,8.93180e-02,-1.39853e-01,-4.98446e-03,1.21812e-01,1.00193e-01,8.82129e-02,4.10374e-01,-1.63114e-01,3.83196e-02,1.47958e-02,-7.88240e-02,2.87083e-01,-1.48229e-01,-2.34774e-01,-3.50005e-01,3.16943e-02,5.24141e-02,2.90804e-02,1.38987e-02,5.48556e-01,-5.22026e-02,-1.35550e-01,
1.39146e+00,-6.63711e-02,2.50962e-01,2.09005e-01,-1.21795e-02,5.00869e-01,-2.26874e-01,9.19101e-02,-2.66750e-01,2.99040e-02,2.30989e-01,-5.42265e-02,-4.58484e-01,2.55334e-01,-1.07414e-01,-1.55383e-01,1.37247e-01,1.80352e-01,-3.11384e-01,1.52160e-01,-1.02476e-01,-4.00626e-02,-3.48748e-01,1.00801e-01,2.69143e-02,1.73175e-01,-3.09091e-01,2.58297e-01,1.10035e-01,-3.21562e-01,2.95793e-03,-1.21027e-01,1.60038e-01,1.19561e-01,1.07038e-01,2.04268e-01,2.67035e-01,-9.17590e-02,2.58145e-01,-2.22228e-02,
4.09876e+00,-9.12903e-02,3.38100e-03,3.49145e-02,7.19430e-02,-1.25617e-01,1.46725e-02,-3.23073e-02,-4.02662e-02,1.99916e-01,-1.38853e-01,-1.57082e-01,1.13958e-02,-2.62490e-02,4.86419e-02,-7.40503e-03,5.78811e-02,1.10016e-02,-4.28672e-02,-7.24737e-03,-1.17998e-02,-1.18696e-01,5.08404e-02,1.80977e-01,-3.90984e-02,1.36829e-01,-1.57109e-02,-1.98623e-01,-1.51955e-01,1.01405e-01,5.67672e-02,-7.41076e-02,1.84151e-01,7.41182e-02,-2.03725e-02,3.15635e-01,9.60736e-02,-3.00816e-02,6.90512e-03,9.16843e-03,
4.22120e+00,-8.05860e-02,-1.31055e-01,-1.73620e-01,2.44680e-01,-4.52333e-02,1.84563e-01,-7.13277e-02,2.54639e-02,4.34159e-02,-1.65161e-01,4.94161e-02,-2.89815e-02,-3.27256e-02,7.67082e-02,-9.19654e-02,2.76299e-01,2.13163e-01,1.05487e-01,-1.06314e-01,1.04770e-01,-2.82081e-03,-9.06936e-02,-1.00063e-01,-7.40125e-04,-6.14970e-02,-1.19445e-02,1.22494e-01,1.62862e-01,-1.29142e-01,-4.12105e-01,1.08546e-01,-2.32541e-01,8.63285e-02,-2.16533e-02,-9.05785e-02,-4.78380e-02,3.21717e-02,-1.78325e-01,-2.70803e-01,
4.33113e+00,4.66418e-02,6.76242e-02,4.70928e-01,-5.62105e-02,-1.45455e-01,1.34278e-01,-1.04116e-01,1.39535e-01,3.84000e-01,6.41052e-02,-9.72546e-02,-1.03361e-02,8.43442e-02,-5.76272e-02,-4.17346e-03,-3.16498e-01,4.77162e-02,-6.70972e-02,-2.50468e-01,6.04321e-02,-1.49973e-01,1.35351e-01,3.35344e-02,3.86611e-02,1.06199e-01,7.68978e-03,2.37966e-01,-1.42214e-01,6.73274e-02,-1.94012e-01,-6.28725e-02,-1.41996e-01,2.90413e-01,-3.18127e-01,-1.42469e-01,-2.66110e-01,3.58050e-01,1.35649e-01,-2.59600e-01,
8.12239e-01,-3.92648e-02,-4.01168e-01,1.36330e-01,-1.72778e-01,4.83162e-01,5.65533e-01,1.91320e-01,-1.13713e-02,-3.68123e-02,2.96420e-01,2.06959e-01,4.57283e-01,-4.68269e-01,-3.18348e-02,-3.65538e-01,-7.86259e-02,2.14952e-01,-3.14297e-01,-1.29363e-01,-4.40886e-01,-5.00950e-01,4.05099e-01,-2.33852e-01,-5.53496e-01,2.50840e-01,3.95292e-01,-4.63433e-01,3.18155e-01,4.70052e-01,5.88635e-01,-5.19882e-02,2.78893e-01,2.95180e-01,-2.74773e-03,1.59609e-02,3.59242e-02,2.96297e-01,-2.19299e-02,1.10584e-01,
7.05703e-01,4.16080e-02,-3.18588e-01,-2.55832e-01,6.59977e-01,4.48193e-01,4.03805e-01,-2.23944e-01,-1.98057e-01,1.83705e-01,7.07184e-02,-3.40899e-01,6.18411e-02,1.04505e-01,3.74307e-01,3.65275e-01,5.26300e-01,3.85131e-01,3.54363e-01,1.76899e-01,2.09269e-01,7.10398e-01,5.73356e-01,3.49609e-01,2.92929e-01,-4.84327e-01,-2.99805e-02,1.66910e-01,6.27431e-01,1.27170e-01,-1.73741e-01,-2.81553e-01,2.39635e-01,-1.89562e-01,3.26765e-02,2.11842e-01,-4.65456e-01,3.54224e-01,-1.80835e-01,-4.79271e-01,
2.86917e+00,-6.03604e-02,1.47327e-01,1.23744e-01,-1.62015e-01,1.33844e-01,-6.34583e-02,5.77020e-03,-3.67614e-02,-1.32606e-01,2.50402e-01,1.21609e-01,1.98967e-02,3.48226e-01,9.06702e-02,-5.06153e-02,1.71598e-01,1.30032e-01,2.27308e-01,1.63662e-01,8.61339e-02,1.12313e-01,1.20645e-01,-1.03447e-02,8.31385e-03,4.95428e-02,2.07573e-01,-9.31892e-02,1.63494e-01,1.21288e-01,-1.52102e-01,-6.94756e-02,1.03997e-01,-2.39180e-01,-1.71345e-02,-1.46543e-01,8.77909e-02,2.01366e-01,-1.04437e-01,-3.06949e-02,
2.80922e+00,-3.53364e-02,4.41610e-02,-2.50943e-01,1.10467e-01,2.40218e-01,-7.66070e-02,-1.02021e-01,-4.43295e-02,-1.21262e-01,-1.20127e-01,-1.48730e-02,2.42336e-01,-6.06358e-02,-1.31706e-01,-4.67172e-02,9.91333e-02,9.69150e-03,2.48726e-02,4.02912e-02,-1.02535e-02,-2.85449e-01,-7.28807e-03,-9.86792e-02,1.19065e-01,-8.15319e-02,1.46502e-01,-8.70351e-02,-8.43340e-02,-3.18791e-02,-1.54292e-02,-1.69181e-01,-1.19928e-01,5.03062e-02,7.89843e-02,2.12038e-01,2.24767e-02,-1.29193e-01,2.89752e-02,2.03578e-01,
5.19612e+00,-9.37316e-02,-2.91968e-02,2.02004e-01,1.13934e-01,-1.67479e-01,-2.83443e-02,-1.19315e-01,3.87897e-03,1.45287e-01,7.19365e-02,3.68647e-02,-1.64232e-02,2.97685e-01,-1.49870e-01,-5.54940e-02,1.93222e-01,-3.15424e-01,2.77871e-01,-1.00373e-01,-2.70148e-02,1.87714e-01,1.29055e-01,-1.74672e-01,1.63710e-01,1.94786e-01,1.29295e-01,2.07379e-02,1.86239e-01,-1.39609e-01,-2.18158e-01,2.35803e-01,-2.97387e-02,1.14995e-01,8.05721e-02,-5.96043e-02,-1.14451e-01,6.69050e-02,-1.01297e-01,-4.20783e-02,
5.19905e+00,-9.48759e-02,-5.48469e-04,-1.96310e-01,4.82332e-02,-1.30844e-01,8.58545e-02,-2.84110e-02,3.48231e-02,6.74423e-03,-1.00399e-01,9.84695e-02,-6.52226e-02,3.75113e-01,-6.41106e-01,2.92777e-01,-2.95950e-01,-1.45920e-01,-4.51602e-01,-9.00832e-02,2.47984e-01,-9.10558e-02,4.60910e-02,4.02873e-03,1.10581e-01,-1.78557e-01,-1.23836e-01,-3.47498e-01,2.74320e-01,-7.15332e-02,3.76669e-02,2.07618e-03,1.68468e-01,-5.02752e-02,7.15812e-02,4.12967e-01,-1.40730e-01,1.27271e-01,4.35863e-01,3.35768e-02,
5.93587e+00,-2.87436e-01,3.79167e-01,4.27831e-01,-2.40992e-01,1.46213e-01,-8.61513e-02,-8.15430e-02,-1.70863e-01,9.70898e-02,-1.82258e-02,-1.03023e-01,-4.22223e-03,-6.97542e-02,-1.10950e-02,-1.78100e-01,2.68615e-01,-1.33067e-01,1.51351e-01,4.47489e-02,-2.87200e-02,-1.00419e-01,-1.30283e-02,3.85128e-01,1.20342e-01,-2.36606e-01,6.54321e-02,4.74536e-01,-9.26314e-02,-1.72042e-01,-2.51171e-01,-8.38651e-02,-2.76849e-01,2.52482e-01,3.71625e-02,6.67921e-03,-1.27724e-02,5.13688e-01,-2.72237e-02,-9.66132e-02,
2.50868e+00,-4.12981e-02,5.56411e-02,-5.68375e-02,-2.14346e-01,6.04447e-02,7.15589e-02,-1.85559e-01,-2.07990e-01,-8.45606e-02,-2.67438e-01,-2.42009e-01,2.08227e-01,-6.36796e-02,-5.02267e-02,7.51530e-02,-2.32614e-01,3.78472e-01,-4.56643e-02,2.00915e-01,-2.66127e-01,-2.52237e-01,-5.10368e-02,-1.15547e-01,1.87445e-02,-1.54752e-01,-3.61483e-01,2.40328e-01,1.43403e-01,-8.52527e-02,1.11226e-02,-1.72296e-02,3.52176e-02,2.63934e-01,3.45108e-02,1.75787e-01,-1.54000e-01,1.37375e-01,-8.09394e-02,-1.57640e-01,
6.57804e+00,-3.23310e-01,-1.92014e-01,1.48751e-02,1.19603e-01,-3.92402e-03,3.66104e-01,2.33512e-01,-1.03926e-01,2.56429e-01,-1.37890e-01,1.68930e-02,8.03348e-02,1.75977e-01,1.34664e-01,-2.71476e-02,-4.08487e-02,-3.28134e-02,-2.21856e-01,2.33663e-01,1.40550e-01,-4.92389e-04,-5.18830e-02,-1.49491e-01,7.32629e-02,-1.12848e-01,1.58562e-01,4.11812e-02,6.62719e-02,6.04014e-02,1.52261e-02,8.68752e-02,-1.33230e-01,-9.93960e-03,-8.16635e-02,-1.56665e-01,1.72586e-01,-1.12177e-01,6.01025e-02,2.80057e-01,
7.36131e+00,-3.67931e-01,-4.76416e-02,1.68600e-01,-1.63635e-01,-1.83867e-01,-6.23981e-02,-8.18247e-02,1.65109e-01,4.56113e-02,-9.56669e-02,2.14688e-01,3.62802e-01,1.75381e-01,-1.99889e-01,5.48062e-03,2.95018e-02,9.61455e-02,-1.64633e-01,2.60001e-01,1.99371e-01,-2.77636e-02,1.02387e-01,-1.75336e-01,7.80336e-02,4.59050e-01,-8.51259e-02,-2.48853e-01,-6.97574e-02,4.08938e-01,-5.95984e-02,5.45222e-02,-3.52748e-02,-1.40234e-02,8.08011e-02,1.33952e-01,-5.77850e-02,2.55197e-02,-9.38920e-02,-7.64799e-02,
9.21683e-01,-1.06706e-01,-4.33358e-01,-5.28482e-01,-2.55254e-02,-1.02815e-02,-1.50717e-01,4.93247e-01,-1.58905e-01,-1.72881e-01,-4.93291e-01,-2.04262e-01,-6.34905e-02,-3.83253e-01,-2.05004e-01,7.73278e-02,-1.05057e-01,-2.03827e-01,7.49577e-01,3.71946e-02,-2.06747e-01,-3.45998e-01,1.83859e-01,-9.97981e-02,2.51013e-02,-3.64442e-02,-1.89512e-01,2.41989e-01,3.75323e-02,-2.51924e-02,2.27742e-02,3.83934e-02,-2.64984e-01,1.12785e-01,1.73642e-01,-2.69744e-01,-2.40107e-01,1.31500e-01,2.59932e-01,1.19484e-01,
3.97175e+00,-4.90215e-02,3.20600e-01,-1.01373e-01,-1.43533e-01,-2.53458e-01,4.65454e-02,-1.14998e-02,-3.33465e-02,-1.75040e-01,5.29734e-02,-1.37503e-01,1.75490e-01,-1.75935e-01,-1.24163e-01,7.29211e-02,3.52023e-02,-1.17921e-01,1.05240e-01,-1.16544e-02,1.48456e-01,-8.49141e-02,-1.72545e-01,-6.66623e-02,-2.66731e-03,1.40333e-01,-5.43618e-02,-1.47901e-01,-1.34613e-01,1.80947e-01,-1.03625e-01,-5.01564e-02,4.23197e-02,-3.14015e-03,1.02042e-02,6.74287e-02,2.89861e-02,5.32169e-02,-1.55776e-02,-1.57146e-01,
3.08774e+00,2.36046e-01,1.87397e-03,1.89680e-01,-3.48551e-01,-9.68715e-02,-1.99146e-02,1.11932e-01,-1.64261e-01,-1.98500e-01,2.18574e-01,-3.17987e-02,9.49814e-02,-3.58195e-01,-1.75547e-01,2.44912e-01,-2.29395e-02,-2.65486e-01,-1.20212e-01,4.88117e-02,-4.38912e-02,-3.32717e-02,3.49155e-02,-1.86268e-01,2.07381e-01,-7.09748e-03,1.22210e-02,-9.19287e-02,-1.26497e-01,9.95649e-02,1.31991e-01,1.35520e-01,-3.44420e-02,4.46667e-02,-3.14355e-03,5.72142e-02,-6.95566e-05,1.59935e-01,-1.06560e-01,2.02237e-01,
2.67725e+00,1.88512e-01,-1.26735e-01,2.66831e-02,-2.72820e-01,-1.95678e-01,2.73397e-01,-2.02310e-02,-3.39882e-02,9.92932e-02,2.79561e-01,-3.64971e-02,-9.21040e-02,-8.21929e-02,-1.68023e-01,1.65995e-01,-8.32453e-02,-2.55178e-02,2.70212e-01,-2.51306e-01,-1.24883e-02,2.11399e-02,8.19533e-02,1.68096e-01,-1.30979e-01,9.19717e-02,-3.06245e-01,6.96339e-02,-1.22753e-01,1.45179e-01,-3.35238e-01,2.86792e-01,1.93643e-01,2.21936e-01,1.50247e-01,-8.73741e-02,-1.09524e-02,1.97687e-01,-1.33379e-01,-1.25688e-01,
6.15359e+00,1.38593e-01,-5.58203e-02,-1.02833e-01,5.20640e-02,2.73392e-01,1.08426e-01,2.20189e-01,6.28908e-02,8.44090e-02,1.15318e-01,1.97839e-02,1.31823e-01,-3.42322e-01,-2.63872e-02,7.11359e-02,-2.35850e-02,-1.36113e-01,-1.25126e-01,2.08088e-01,-8.78780e-02,4.42080e-02,8.74067e-02,1.75490e-01,1.60824e-02,-3.06146e-01,-1.92832e-01,-6.06923e-02,-5.22990e-02,-9.98662e-02,1.28162e-01,1.78728e-01,-2.67705e-01,3.57426e-02,-8.52794e-02,2.69231e-02,8.52615e-02,-3.38935e-01,-1.62006e-01,8.93606e-02,
4.25142e+00,-1.31925e-03,-9.16222e-03,-3.31751e-01,-1.22540e-01,-9.65176e-02,4.01404e-01,2.47205e-01,-2.33579e-02,-6.18844e-03,-1.78103e-01,2.34894e-01,-3.95212e-01,1.14470e-01,1.35327e-01,-8.34259e-02,1.90931e-01,5.42308e-01,6.99114e-02,-6.66136e-02,5.06450e-01,-3.00633e-01,-1.95438e-01,-4.92895e-03,4.19182e-01,1.48124e-01,-1.47881e-01,6.94504e-02,1.60638e-01,8.61980e-02,-2.92061e-01,1.70101e-01,4.88504e-01,3.45451e-01,-2.15540e-01,-6.83861e-02,-6.02181e-02,-5.01462e-02,-4.32664e-01,2.85937e-01,
5.34163e+00,-1.32615e-02,1.99770e-01,-4.42731e-02,-6.22822e-02,-1.51359e-01,1.50389e-02,-8.08859e-02,2.73165e-02,-1.23359e-02,8.27538e-02,-2.41981e-01,1.23418e-01,3.76403e-02,8.29472e-02,1.22569e-02,4.70375e-02,7.68221e-02,2.57874e-02,-1.56894e-01,-8.71608e-02,-1.36132e-01,-4.39556e-02,-1.33310e-01,8.33387e-02,2.50284e-01,-4.33166e-02,1.42150e-01,1.96204e-01,2.98715e-01,8.92812e-02,1.15205e-01,6.33032e-02,1.53775e-01,-6.92689e-02,-1.32585e-01,1.02714e-01,1.71564e-02,-9.57402e-02,-1.24692e-01,
4.63134e+00,-1.71193e-01,-1.82992e-01,-1.35738e-01,7.48363e-02,-1.55304e-01,-6.96516e-02,-1.88479e-01,2.87342e-02,-4.86096e-02,8.18386e-02,3.56951e-01,3.48818e-02,2.34729e-01,-5.06876e-02,-1.85943e-02,1.85826e-01,-2.19348e-01,6.35355e-02,-3.22705e-02,-1.97499e-02,-1.73206e-01,-1.13907e-01,-9.58383e-02,3.61757e-02,3.15977e-02,-5.35610e-02,-9.46706e-02,-3.46206e-02,6.98479e-02,6.69020e-02,1.07315e-01,-6.65415e-02,-1.06709e-01,-2.37224e-01,1.39788e-01,1.26408e-01,7.08663e-02,2.60648e-02,2.88114e-02,
4.67208e+00,-4.31325e-02,3.99806e-02,2.08143e-01,-2.10584e-02,1.09427e-01,-2.02500e-01,1.12866e-01,-1.83244e-02,2.98699e-02,-1.49061e-01,-2.22574e-01,7.87711e-02,1.47580e-01,1.31143e-01,1.81538e-01,1.00848e-01,-9.63110e-02,-5.45141e-03,1.40389e-01,-2.21894e-01,2.39209e-01,-1.58253e-01,2.15644e-01,-1.26007e-01,-3.28059e-02,-2.34369e-01,-4.73771e-02,-1.40378e-01,3.94158e-01,-1.69514e-01,5.18956e-02,-1.68747e-01,-1.18991e-01,1.26806e-03,6.68017e-02,1.89030e-01,-4.82504e-02,-2.73087e-01,1.22301e-01,
2.93609e+00,-2.20679e-01,-2.12156e-01,-1.27712e-01,1.88523e-01,5.73967e-03,2.26124e-01,1.60194e-01,8.22215e-02,-1.80629e-01,-3.03252e-01,-1.26105e-01,-1.05261e-01,5.47664e-03,1.07951e-01,-5.16255e-02,-2.65774e-02,3.43602e-01,-4.10683e-02,1.53512e-01,1.26128e-01,-1.27448e-01,1.27813e-01,3.86600e-01,3.76562e-01,-4.19346e-01,-1.08156e-01,-8.95864e-02,-2.70833e-01,2.27170e-01,1.14265e-01,-2.98583e-02,2.50142e-01,-3.24791e-02,4.50143e-01,-2.09486e-02,-3.13384e-02,-4.55108e-03,1.66687e-01,-3.90369e-02,
1.55007e+00,-8.60369e-02,2.37397e-01,3.35964e-02,5.52925e-02,1.55474e-01,-6.42987e-02,1.90982e-01,4.74101e-03,-4.04436e-02,2.97716e-02,1.63312e-01,2.99938e-01,1.00294e-01,2.11270e-01,1.63698e-01,-2.37205e-01,-1.69013e-01,2.03889e-01,7.28514e-02,2.92314e-01,2.76096e-01,1.28617e-01,-6.37424e-02,1.66419e-01,5.50949e-02,-1.49925e-01,1.93492e-01,8.77240e-03,6.51884e-02,-2.69698e-02,1.66852e-01,-2.17802e-01,-1.71236e-01,-2.02013e-01,1.48633e-01,-4.58062e-02,3.50607e-01,-1.19120e-01,-6.10408e-02,
5.34361e+00,1.20439e-01,-6.41910e-02,-8.49107e-02,-1.98412e-01,2.31157e-01,4.10774e-01,1.70143e-02,1.65093e-01,7.49068e-03,-1.90931e-01,1.43514e-02,3.06075e-01,-6.30530e-02,-9.70555e-02,-5.00674e-01,-1.43487e-01,6.28769e-02,-2.61389e-01,2.49721e-01,-6.00007e-01,-3.56359e-01,1.44725e-01,-1.45410e-01,-1.06768e-01,2.88775e-01,7.18343e-02,3.12301e-02,2.16390e-01,2.46485e-01,2.54920e-02,2.76300e-01,9.12062e-02,2.82324e-01,-5.39065e-02,-2.02422e-01,2.63898e-01,1.19401e-01,-3.88391e-01,-2.70736e-01,
3.40593e+00,1.92710e-01,-6.72776e-02,2.84005e-01,1.34648e-01,1.53921e-01,9.89939e-03,-3.72883e-02,1.60748e-01,-7.61091e-02,-8.90074e-02,-3.39868e-02,1.89257e-01,-1.44413e-01,-2.69790e-01,-4.89818e-01,-1.54386e-01,6.01174e-02,-1.69895e-02,-1.76917e-01,-1.84428e-01,-4.02143e-01,1.92279e-01,-2.93545e-01,-1.09121e-01,1.03038e-01,5.37259e-01,4.05330e-02,1.27891e-01,1.93635e-01,2.74504e-01,-1.06328e-01,4.05140e-01,3.55898e-01,-6.30765e-02,-5.19904e-02,8.59690e-02,2.12566e-01,-2.64103e-02,-1.29178e-01,
5.88320e+00,-2.64228e-01,-3.05887e-01,7.23067e-02,1.61690e-02,-2.24901e-01,7.91189e-02,-4.49703e-02,1.56938e-01,2.88760e-01,2.64348e-01,-2.01237e-01,1.61473e-01,1.84086e-01,7.49403e-03,8.53283e-02,1.69267e-01,-3.18833e-01,-7.84295e-02,4.45171e-02,2.66042e-01,-5.17405e-02,1.28830e-02,-3.60535e-02,-1.18675e-01,-1.33197e-01,4.23098e-01,1.14778e-01,4.36655e-02,-6.84211e-02,-1.35207e-01,8.19602e-02,-6.44102e-02,-1.24710e-01,5.60100e-02,1.15016e-01,7.57292e-02,2.68665e-01,-1.87518e-01,-2.41472e-02,
4.59397e+00,1.94202e-01,3.15353e-02,9.98226e-02,-3.30431e-02,-8.96921e-02,1.87541e-01,2.22981e-01,1.53617e-01,-1.36927e-01,-1.24775e-01,-6.08890e-02,-6.27813e-04,-4.69937e-02,-6.40532e-02,2.19049e-02,1.02797e-01,5.42959e-02,1.02691e-01,1.06813e-01,1.33675e-02,-1.74037e-01,1.72969e-01,-2.03498e-01,-1.88049e-02,1.03247e-01,2.10404e-01,-2.62931e-01,2.78219e-01,1.18381e-01,1.86306e-01,8.42839e-02,9.09373e-02,1.62064e-01,-5.40922e-02,-8.27583e-02,2.88976e-02,4.60546e-02,4.59049e-02,-6.62770e-03,
4.77819e+00,2.18823e-01,1.66033e-01,3.16517e-02,-9.48403e-02,2.37618e-01,4.21422e-03,-5.52752e-02,-5.22094e-02,-4.93787e-02,-2.27894e-01,-9.58949e-03,3.46951e-01,-1.82988e-01,-3.29280e-01,-2.56104e-01,-1.43796e-01,-2.15314e-01,2.02586e-01,1.35672e-01,3.42747e-01,-3.21150e-01,-2.31772e-01,-3.02978e-01,3.12097e-02,1.19180e-01,-1.43206e-01,4.25080e-02,-1.71546e-02,-6.77835e-02,1.20128e-02,3.70498e-01,-4.17698e-02,3.47557e-03,-8.34233e-02,3.97838e-01,1.11897e-01,3.04612e-01,-2.48095e-01,-3.05170e-01,
5.15232e+00,2.13895e-01,5.14876e-02,2.76046e-01,-3.09734e-01,-1.48264e-01,1.89931e-02,1.81433e-01,-1.48625e-01,-2.00660e-01,1.03873e-01,1.48851e-03,1.30598e-01,-1.00289e-02,8.61403e-02,-6.60455e-02,1.62021e-01,1.10637e-01,2.42342e-01,-1.65955e-01,1.03332e-01,-1.12429e-01,8.46939e-02,-1.99065e-02,8.70306e-02,2.52660e-02,1.83280e-01,-1.07643e-01,2.26375e-01,2.49134e-01,6.70351e-02,3.27397e-01,1.70654e-01,-1.61458e-01,2.84311e-01,-3.92446e-02,9.88420e-02,-1.08126e-01,1.51021e-01,-6.95703e-02,
4.46672e+00,-1.56944e-01,2.09704e-01,2.04078e-01,-2.72310e-01,1.70503e-01,7.89483e-02,1.58529e-01,1.68928e-01,-5.54538e-01,-1.65921e-01,-7.12350e-02,7.28622e-02,2.46603e-01,-1.83510e-01,-9.71869e-02,5.65711e-02,-6.25130e-02,2.21654e-01,-8.08101e-02,1.62933e-01,-3.11824e-01,2.18622e-01,1.66354e-01,2.69517e-01,1.07915e-01,1.31593e-01,-1.38407e-01,-1.82560e-01,-9.42192e-02,2.29361e-01,-2.38840e-01,-9.12463e-02,-3.15272e-01,3.60488e-01,1.21772e-01,4.05461e-01,-6.09136e-02,1.18110e-01,2.95753e-01,
1.29227e+00,-7.37775e-02,8.26350e-02,-6.13507e-02,-1.55418e-01,8.68618e-02,1.39685e-01,1.50874e-01,-1.95275e-01,-1.25988e-04,1.47443e-01,1.18643e-01,-1.13490e-01,2.32108e-01,-4.40604e-03,-1.27303e-01,1.13015e-01,-7.67816e-02,-4.87938e-02,-1.26973e-01,1.00712e-01,1.49868e-01,-1.13985e-02,5.52531e-02,-1.67849e-01,-9.38458e-02,-2.72881e-02,-3.24976e-01,-5.47470e-02,-1.03327e-02,-1.96110e-01,6.14224e-02,2.23078e-01,-1.63185e-02,1.75915e-02,-8.60274e-02,-9.58871e-02,2.28178e-01,-7.71509e-02,2.32620e-02,
3.51949e+00,-8.54123e-02,-8.78438e-02,2.70945e-02,5.10982e-02,-2.23266e-01,-3.75012e-02,1.25084e-01,-1.19986e-01,2.93498e-02,-2.22603e-02,-5.91928e-02,-5.20512e-02,-1.67350e-02,8.99805e-02,-3.00922e-01,-1.91214e-01,-2.54365e-01,8.15686e-02,-1.58522e-01,2.31291e-01,-3.79780e-02,1.72398e-01,3.34432e-01,-6.38214e-02,-8.02970e-02,-2.36719e-02,-1.06014e-01,1.58650e-01,-4.23258e-02,-8.41100e-02,3.49882e-01,-1.62184e-01,3.64014e-02,3.05310e-01,6.32170e-02,2.26754e-01,1.32730e-01,-1.61989e-01,-1.90675e-01,
2.81647e+00,7.98096e-02,-5.61001e-02,-9.13707e-02,-2.83456e-02,4.49549e-02,-2.52470e-01,-1.15835e-01,7.36562e-02,-3.78581e-02,-2.70745e-01,-3.63884e-01,-3.81116e-03,1.48346e-01,-9.82808e-02,-1.31152e-02,2.64577e-03,8.55373e-02,6.84101e-02,-9.27598e-02,-1.26494e-01,1.14147e-01,-1.02457e-01,5.35092e-02,3.21305e-02,1.47941e-01,1.21022e-02,1.64626e-01,-4.65601e-03,-2.79257e-01,3.32047e-02,-1.58009e-01,-1.85413e-01,8.45108e-02,1.23391e-01,2.27053e-01,-1.34333e-01,-1.57208e-01,1.86122e-01,2.01297e-01,
4.92425e-01,7.97277e-02,2.72405e-01,-9.24744e-04,1.98125e-01,-1.14817e-01,-3.29347e-01,-1.18938e-01,1.70823e-01,5.26329e-01,4.95047e-02,-3.37562e-01,5.32091e-01,-4.52030e-01,-2.64578e-01,-9.38368e-01,-3.15382e-01,2.10226e-01,-6.66403e-02,1.26716e-01,-3.44922e-02,5.92404e-02,-3.80097e-01,1.67687e-01,-4.05464e-01,2.40103e-02,1.98412e-01,2.02782e-01,3.32789e-01,1.89754e-01,-1.27218e-01,3.94720e-01,1.76986e-02,2.33108e-01,6.63243e-01,2.40787e-01,-7.37700e-02,4.25515e-02,-4.95231e-01,1.06001e-01,
4.08485e+00,-1.53693e-01,2.76040e-02,2.34610e-01,-1.58568e-01,6.70043e-02,1.67428e-01,-3.35649e-02,-3.28705e-02,-6.33821e-02,-1.54405e-01,2.57075e-02,2.17534e-01,1.73622e-01,-6.73523e-02,1.27388e-01,1.24401e-01,-2.72333e-02,-9.01198e-02,-1.58924e-01,4.46355e-02,-6.27848e-02,-1.11073e-01,4.43432e-02,1.03735e-01,-1.82332e-01,-7.88577e-02,7.22798e-02,1.72584e-01,2.81247e-02,4.64312e-02,3.65963e-03,-1.51935e-01,9.46627e-02,-4.95285e-03,2.05638e-02,1.39717e-01,-1.04037e-01,1.13891e-01,1.33538e-01,
4.90758e+00,-9.46474e-02,-1.42290e-01,-8.11618e-03,1.52763e-01,2.36153e-01,-1.97926e-01,1.07266e-01,5.63340e-01,1.86154e-01,-2.84487e-01,-4.57664e-01,-6.91651e-02,-1.37413e-02,-1.53186e-01,-1.43882e-01,8.82482e-02,1.83218e-02,2.22152e-01,-1.96304e-01,-2.60038e-01,5.27624e-02,2.64911e-01,2.65085e-01,-8.28313e-02,2.81024e-01,1.44561e-02,1.02086e-01,-5.02182e-02,-2.19179e-01,2.78625e-01,1.05780e-01,3.33557e-01,-5.04640e-02,-1.22797e-01,2.50028e-01,2.25593e-01,-8.89921e-02,-1.36192e-01,3.82190e-02,
4.72772e+00,2.44690e-02,-4.17257e-01,4.59384e-01,-3.13864e-01,9.56570e-02,1.37287e-03,1.05310e-01,-3.51547e-01,1.46342e-01,-7.00257e-02,4.00273e-02,4.65016e-02,3.39197e-01,-2.26980e-01,5.44458e-02,1.02768e-01,1.62620e-01,3.18234e-01,-1.28001e-01,2.10599e-01,-1.02629e-01,1.91457e-01,2.21869e-01,-1.76587e-01,-3.00559e-02,2.31630e-01,6.79434e-02,3.54464e-01,-9.03821e-02,1.45771e-01,1.01916e-01,8.19104e-02,7.92343e-02,9.80586e-02,-2.75034e-02,3.53750e-01,1.97567e-01,3.42778e-01,-1.73434e-01,
1.20526e+00,2.87488e-01,-1.73773e-01,4.05576e-03,1.15408e-01,4.56199e-01,5.23693e-01,-9.30858e-02,5.87254e-01,3.24761e-01,-8.66015e-02,1.73803e-01,3.76243e-01,-9.10309e-02,-1.77579e-01,-1.16762e-01,-5.85958e-01,2.62734e-01,-3.12395e-01,-3.16956e-01,-3.77243e-01,-4.61527e-01,2.99775e-01,-2.52877e-01,-4.40959e-01,4.18434e-01,4.58473e-01,-1.23731e-01,1.49254e-01,1.46890e-01,4.07665e-01,-1.30272e-01,1.70044e-01,2.08689e-01,1.39693e-01,5.66817e-02,-2.35409e-01,5.75809e-01,-4.01871e-01,-1.21595e-02,
1.94122e+00,-6.68793e-02,-8.66805e-02,-1.94854e-01,1.51593e-01,-1.87850e-01,-3.35095e-01,1.69859e-01,-1.24309e-01,1.29107e-02,5.95318e-03,-7.85646e-02,-5.79873e-02,-1.60155e-01,-1.13576e-01,-3.64643e-02,1.38362e-01,7.23975e-02,-9.89713e-02,-2.26120e-02,1.85198e-01,8.73732e-02,6.00961e-02,-2.78421e-02,-1.39661e-01,8.73869e-02,-5.99275e-02,3.59906e-02,1.13548e-01,-2.38865e-02,-2.26272e-02,-1.47167e-01,-5.15297e-02,2.44373e-01,-2.86075e-01,7.65868e-02,9.58874e-03,3.25584e-01,-3.87012e-02,1.18313e-01,
5.50937e+00,1.56834e-01,1.46449e-01,9.73944e-02,-2.20179e-01,2.90423e-02,-1.53282e-01,1.50246e-01,8.77303e-02,7.85522e-03,-1.48820e-01,-2.27236e-01,-1.62493e-01,3.24902e-02,-9.56664e-02,1.36977e-01,-1.05989e-01,-1.66788e-01,2.33918e-01,1.36853e-01,3.02145e-01,4.41880e-03,-8.58745e-02,1.10472e-01,2.25340e-01,1.33865e-01,-1.93729e-01,-2.46463e-01,2.03638e-02,-9.47654e-02,4.82235e-01,-4.31820e-02,-1.36523e-01,3.40427e-02,1.41116e-01,-8.56821e-02,2.96448e-01,-2.32748e-01,3.31540e-01,4.03433e-01,
3.29423e+00,-5.84817e-02,2.77661e-01,6.82083e-02,-6.17563e-02,1.75123e-02,-1.23423e-02,-9.86068e-02,1.82780e-02,-4.18135e-01,-9.15381e-02,-2.07803e-01,4.39373e-02,3.05117e-01,-1.67676e-01,1.45303e-01,-2.51331e-01,-8.13862e-02,-2.64383e-02,-3.25359e-01,-1.04871e-01,4.58722e-02,-7.82691e-02,-3.41520e-02,1.52553e-02,1.40360e-01,-2.20672e-02,2.70283e-01,-2.12568e-01,-1.30809e-01,-2.50601e-02,2.42337e-01,-1.24097e-01,2.31705e-01,1.78382e-01,-3.62112e-02,-7.65419e-02,2.34177e-03,-7.90378e-02,-8.72214e-02,
1.13924e+00,-1.20097e-01,7.85653e-02,-3.02992e-01,1.14704e-01,-3.04165e-01,1.51558e-01,-1.91540e-01,6.14490e-02,5.47386e-02,-4.34081e-01,1.49134e-01,-7.47866e-01,-4.73433e-02,2.59825e-01,-3.19264e-03,1.32499e-01,-4.50016e-01,1.70852e-01,2.86435e-01,1.30439e-01,1.91122e-01,-6.66266e-01,-2.07337e-01,2.31306e-01,-4.42787e-01,-4.95621e-01,3.74011e-01,3.41212e-01,-6.15247e-01,3.29619e-01,1.78131e-01,1.77189e-02,-4.57235e-02,-3.03601e-01,-2.87370e-01,-3.88407e-01,-1.95738e-01,-1.12064e-01,-2.03204e-01,
1.75344e+00,-7.17378e-02,-8.91376e-02,-5.04289e-02,6.06129e-02,-5.52288e-02,3.17898e-01,-1.62305e-01,6.37231e-03,2.56058e-02,2.29145e-02,-9.46094e-03,-1.20687e-02,8.63695e-02,-9.76039e-02,-4.42029e-02,8.15554e-02,-1.18499e-02,1.28571e-01,2.13819e-02,5.63502e-02,-1.00367e-01,-3.58620e-02,-8.47517e-02,1.58260e-01,-2.34154e-01,1.85554e-01,-1.64138e-01,2.05923e-01,4.95854e-02,2.87573e-01,2.09274e-01,1.03863e-01,-1.98754e-02,-8.58377e-02,4.16068e-02,-6.46804e-02,2.97394e-02,4.62632e-03,-2.32240e-01,
1.67552e+00,-1.21445e-01,4.80740e-02,7.31490e-03,1.72539e-01,-2.37214e-01,-4.03531e-02,-8.74298e-02,-1.34930e-01,3.57722e-02,-7.66943e-02,1.25597e-01,3.51990e-02,7.84307e-02,2.24890e-01,4.75346e-02,-1.86990e-02,-3.09518e-02,-1.20553e-01,4.49716e-02,1.48021e-01,-5.57212e-02,-1.41936e-01,1.81533e-01,1.09558e-01,-3.51633e-02,9.49500e-02,7.87837e-02,1.81892e-01,4.66867e-02,-2.58294e-02,1.44602e-01,1.78424e-01,-2.37407e-02,6.09804e-02,-4.39091e-02,-1.08173e-01,1.87838e-01,-1.15445e-02,8.41249e-02,
5.31811e+00,3.15648e-01,-3.40374e-01,1.85274e-01,4.80651e-02,3.52114e-02,9.06611e-02,8.75834e-03,-1.99576e-01,-1.80140e-01,1.85371e-01,1.41333e-01,-3.87420e-02,-6.51033e-02,6.63649e-02,3.17903e-02,-1.73021e-01,1.14478e-01,1.13768e-01,-2.90844e-02,1.37012e-01,-1.00545e-01,9.72899e-02,5.60170e-02,-8.02257e-03,3.94729e-01,-2.67198e-01,1.63156e-01,2.87324e-02,1.50656e-01,1.69718e-01,2.20895e-01,1.51630e-01,-1.16566e-02,-1.71345e-01,1.39911e-01,-1.29789e-01,1.13451e-01,1.67228e-01,-5.97922e-02,
5.97657e-01,7.74696e-02,-7.83935e-01,2.06437e-01,-4.03396e-02,4.57570e-01,4.63051e-01,-7.73183e-02,-3.92693e-02,4.37923e-01,-2.72820e-01,2.72881e-01,-1.63860e-01,1.95502e-02,3.83875e-02,-1.79686e-01,8.72086e-02,5.64920e-01,-1.61182e-01,-3.53894e-01,-3.88301e-01,-5.96795e-01,4.80868e-01,-1.22243e-01,-4.98986e-01,4.16088e-01,2.98444e-01,-6.58607e-01,-3.04531e-01,-1.54165e-01,-5.60474e-02,-2.83664e-01,4.07670e-01,3.62885e-01,2.26834e-01,6.02832e-02,2.25049e-01,3.25403e-01,-9.79447e-01,-1.73994e-01,
3.68539e+00,-1.34472e-01,-2.27482e-01,-2.47978e-01,2.70992e-02,-2.30180e-02,2.18461e-01,-2.27001e-02,-4.86538e-02,-1.75672e-01,-5.66043e-02,1.54364e-01,-7.48354e-02,-3.29728e-01,-7.22968e-02,-4.04630e-02,-7.16140e-02,2.21068e-01,-7.23070e-02,-1.94902e-02,7.17853e-02,1.41988e-01,-2.77602e-01,-3.19383e-02,-4.71904e-02,5.85957e-02,-1.06931e-01,9.08373e-02,-2.43602e-02,-1.50138e-01,-5.35328e-02,-1.40643e-01,1.72918e-01,6.51729e-02,3.15214e-02,-1.89944e-01,1.81102e-01,1.30250e-02,1.64044e-01,-6.68089e-03,
3.14598e+00,-1.27041e-02,2.19403e-01,1.51606e-01,-7.85561e-02,-1.99021e-01,1.42950e-01,2.32804e-01,-2.26703e-01,-2.21062e-02,2.76941e-01,2.23911e-01,2.55242e-01,1.20516e-01,6.49282e-02,-2.28140e-01,-1.73370e-01,-3.70723e-01,5.90477e-02,3.90362e-02,1.98152e-01,-1.94098e-01,9.35514e-02,-2.06921e-02,-5.05732e-02,6.71786e-02,4.84730e-02,-2.17927e-02,1.37019e-01,1.45763e-01,-1.08837e-01,1.78050e-01,4.17461e-03,-1.66111e-01,5.58815e-03,1.56815e-01,-1.20336e-01,1.98658e-01,1.81760e-01,-5.45848e-03,
8.95722e-01,1.24456e-01,-1.59725e-01,-3.56542e-01,-6.43546e-01,2.90488e-01,6.47228e-01,-2.47912e-01,-2.24446e-01,-1.10367e-01,-1.56560e-01,-1.66604e-01,4.87095e-01,1.80076e-01,-6.22360e-01,2.58598e-02,-4.00960e-01,7.90456e-02,-3.04937e-01,-3.95947e-01,-9.24258e-03,-4.99095e-01,8.59481e-02,-2.45785e-01,-4.14434e-01,7.37269e-01,-1.16149e-01,-5.71490e-01,4.58429e-01,1.41328e-02,4.56133e-01,2.03926e-01,1.60749e-02,-3.22747e-01,8.39609e-02,-8.52281e-02,-1.70339e-01,4.68819e-01,-2.18506e-01,4.61520e-01,
4.63928e+00,2.28383e-01,7.52559e-02,9.84533e-02,-2.94588e-01,-1.24841e-01,2.30224e-01,-1.14078e-02,2.44181e-01,-1.73352e-01,1.12394e-01,-2.88029e-01,4.83376e-01,-1.32581e-01,-1.22335e-01,-2.38561e-01,-1.71709e-01,-2.74718e-01,-2.40379e-02,-1.34996e-01,1.11153e-01,1.38718e-02,-1.79567e-01,6.26304e-02,1.63134e-01,1.84034e-02,3.38406e-02,-3.03449e-01,-1.61690e-02,5.56286e-02,-1.56009e-02,1.37433e-01,2.97027e-02,-5.02725e-01,-1.93515e-01,-9.55974e-02,-2.28777e-01,2.91296e-03,-2.69100e-01,-5.48337e-02,
5.82076e-01,3.35932e-01,3.69614e-01,8.96346e-02,-1.03805e-02,-1.32824e-01,-5.64630e-02,-7.91406e-02,-1.05781e-01,-3.54384e-01,-3.21331e-02,-1.98626e-01,-1.01389e-01,-2.85262e-01,-1.09904e-02,1.14772e-01,-9.88572e-03,2.39681e-01,1.18104e-01,-9.97896e-02,-7.74555e-01,-4.03565e-02,5.24191e-01,6.93370e-01,2.57400e-01,2.46881e-01,-2.25109e-01,1.88727e-01,1.36166e-01,1.55732e-01,2.65462e-01,-1.43362e-01,-9.36404e-02,2.01538e-01,1.35419e-01,2.01601e-01,3.02643e-01,-1.88436e-01,1.72974e-01,9.61518e-02,
4.30051e-01,-3.21343e-01,-1.25184e-01,-4.28720e-01,-2.33053e-02,1.66973e-01,-2.02037e-01,-3.16717e-02,-3.40027e-01,-1.10762e-01,-2.35790e-02,-5.50027e-01,-5.42654e-01,2.41897e-01,8.32654e-01,1.63204e-01,5.65562e-03,4.46367e-01,-4.01710e-02,-3.07644e-01,3.10795e-01,1.92249e-01,-8.16670e-01,2.35132e-01,2.17311e-01,-4.74348e-02,-7.80918e-01,-3.71633e-01,1.10948e-01,-3.17752e-01,-1.41370e-01,5.33612e-01,2.08153e-01,2.67834e-02,-2.57968e-01,-3.52277e-01,-1.55233e-01,-4.04979e-01,1.97760e-01,5.69615e-02,
5.85490e+00,-2.46250e-01,1.96344e-01,-3.72630e-01,-1.63757e-01,8.58919e-04,8.36823e-02,-6.74922e-02,-3.31296e-02,-2.01259e-01,1.80288e-01,-5.58008e-02,-1.35170e-01,1.51259e-01,8.93448e-02,1.05892e-01,1.03265e-01,1.41009e-01,-7.16617e-02,7.85557e-02,1.60317e-01,-6.09352e-02,1.11728e-01,1.06707e-01,-6.74139e-02,-1.34329e-01,-2.24145e-01,-3.03299e-02,-3.02545e-01,3.42893e-02,-1.33947e-01,-8.23259e-02,2.84817e-02,-1.74408e-01,2.40521e-02,-3.46665e-01,1.47030e-02,4.11171e-02,8.25356e-02,-1.58536e-01,
1.33883e-02,-3.46073e-01,-7.11581e-01,4.80612e-01,-3.07217e-01,-4.31265e-01,-1.42729e-01,-1.90778e-01,3.72660e-01,-1.18772e-01,4.34672e-01,-5.67053e-01,-1.61776e-01,-4.01720e-01,2.40822e-01,3.40183e-01,-6.71117e-02,8.22123e-02,4.87306e-01,4.48319e-02,-4.67238e-01,6.18233e-01,4.74214e-01,2.20738e-01,-8.78357e-02,4.17340e-01,2.11802e-01,-5.46529e-01,-2.49897e-01,-2.75863e-01,3.77490e-01,5.46939e-01,3.30588e-01,-5.89072e-01,2.48218e-02,-9.18799e-03,-6.87293e-01,-6.62076e-01,-4.69756e-01,-3.93382e-01,
2.18429e-01,-4.68426e-01,3.72115e-01,3.90061e-01,4.47102e-01,2.77407e-02,-3.70533e-01,4.85258e-01,1.68250e-01,2.53693e-01,-3.75774e-01,-1.71628e-01,3.10667e-01,3.26627e-01,-2.11108e-01,1.20922e-02,-2.44604e-01,1.79628e-01,5.79531e-01,3.49491e-01,1.11241e-01,-2.36742e-01,-7.18037e-01,-1.14594e-02,1.72958e-01,-2.00893e-02,2.00083e-01,1.17681e-01,-3.90431e-01,-6.38622e-01,-1.29039e-01,-5.46717e-01,-1.33633e-01,-3.97530e-01,-2.30676e-01,-2.26877e-01,-2.26426e-01,5.04864e-01,4.27869e-02,1.59002e-02,
4.02990e+00,-3.89848e-01,6.97152e-03,-8.98625e-02,3.95421e-01,-1.68591e-01,2.14779e-01,2.05311e-02,7.07529e-02,4.29102e-02,2.17143e-01,-1.18305e-01,-1.13890e-01,2.12094e-01,2.00170e-01,1.84909e-02,-1.00309e-02,2.36410e-01,-6.01848e-02,-2.57316e-02,-2.81630e-01,-1.68895e-01,-2.34719e-01,3.19802e-01,3.15737e-01,-1.02512e-02,1.06032e-02,1.76348e-01,4.35955e-02,2.38803e-01,-1.49811e-02,-2.34073e-01,-2.43933e-01,5.39191e-02,-1.44468e-01,-1.79953e-01,-1.16326e-01,6.14903e-02,-1.04833e-01,4.30747e-02,
7.87222e+00,-8.54551e-02,1.90435e-01,-1.41944e-01,1.81074e-01,-1.19352e-01,-3.28611e-01,-4.28341e-02,8.33867e-02,2.05663e-01,-1.67250e-01,2.55644e-01,1.76171e-01,2.70312e-01,-3.74920e-01,-1.11862e-01,2.60658e-01,6.94488e-02,-5.31212e-02,-2.77432e-01,-9.42381e-02,9.96300e-02,4.63181e-03,-2.51531e-02,-1.28048e-01,2.60286e-01,1.90644e-02,5.81258e-02,1.58025e-01,-7.99714e-02,-6.78227e-02,-8.77813e-02,-5.84657e-03,2.63390e-01,8.49972e-03,-1.24482e-01,-2.18058e-01,-1.30748e-01,1.05820e-01,-2.99707e-01,
-1.47704e+00,8.69659e-02,-8.30096e-02,7.02150e-02,6.42466e-02,1.58403e-01,6.43401e-02,-3.80062e-02,-1.86874e-01,-7.44302e-02,3.02835e-02,1.50950e-01,-8.38022e-02,1.13646e-01,-1.32905e-01,-3.16037e-01,7.44913e-02,-3.05958e-01,-1.23091e-01,-1.29641e-01,3.69762e-02,-2.59422e-01,-1.56817e-01,-1.69446e-01,1.17360e-01,2.93174e-01,1.51873e-01,2.02032e-01,8.32692e-02,2.16213e-01,5.14151e-02,-2.03117e-01,1.51580e-01,1.17745e-01,-2.22922e-02,-2.70854e-02,-1.17741e-01,2.26973e-02,-4.50624e-02,-1.36351e-01,
6.04070e+00,1.16805e-02,1.07096e-01,-1.27372e-01,-7.95500e-02,-1.24592e-01,-5.56568e-02,-2.06571e-01,-1.08673e-01,8.94781e-02,-3.12377e-02,3.06856e-01,2.71926e-03,1.34204e-01,3.39029e-01,-2.66609e-01,-1.09942e-01,-7.95951e-03,-2.22831e-01,2.62662e-01,2.17741e-01,-1.19096e-02,-1.73475e-02,-1.58904e-01,-1.98570e-01,1.37057e-01,-2.52464e-02,-1.34809e-01,6.91827e-02,3.19010e-02,-2.72637e-01,9.76554e-02,5.01920e-02,1.39179e-01,1.19760e-01,1.36354e-01,-1.07704e-01,-1.16239e-01,-1.65464e-02,-3.97392e-02,
4.33783e+00,-1.56361e-01,1.15911e-01,-8.76059e-02,3.27065e-01,-6.45529e-02,-1.06110e-01,1.68872e-01,7.02361e-02,5.71318e-02,1.44518e-01,2.51653e-01,4.73133e-02,3.39252e-01,1.73146e-02,1.67554e-01,-2.43592e-01,-1.83387e-01,1.25855e-01,2.04148e-03,-2.22722e-01,6.50522e-03,-3.81968e-02,7.71700e-03,-3.96713e-01,1.98826e-02,-1.46789e-01,6.19772e-02,3.21904e-01,1.64411e-01,1.64289e-01,2.60786e-01,1.19687e-01,1.70180e-01,2.10989e-01,2.29203e-01,-2.76369e-01,-8.34936e-04,6.64742e-02,-1.65033e-01,
3.15903e-01,1.07459e-02,2.20162e-01,7.93103e-02,-3.83021e-01,-9.52563e-01,-1.21081e-01,-4.56674e-01,-5.31224e-01,-3.26100e-02,5.62034e-02,-3.32242e-01,-3.08959e-01,3.79501e-01,2.55166e-01,2.51676e-01,-3.19503e-01,1.22892e-01,5.31574e-02,4.71064e-01,1.13393e-03,5.47626e-01,-4.80081e-02,2.24998e-01,-8.97454e-02,-1.27542e-01,-2.01219e-01,5.37805e-02,-4.15027e-01,5.46716e-02,-2.09913e-02,-3.97802e-01,-1.11391e+00,2.38818e-01,6.78340e-02,2.57609e-01,-6.78866e-01,-2.19063e-01,1.66294e-01,-2.41924e-01,
5.52602e-01,4.48932e-02,4.90427e-02,6.61354e-04,-6.21910e-01,5.68731e-02,1.58891e-01,-5.44189e-01,-2.68960e-01,6.49685e-03,-3.44264e-01,7.75095e-01,2.16055e-01,-2.22852e-01,-3.75755e-01,-6.23533e-02,3.02267e-01,1.73262e-01,1.80253e-01,7.31955e-01,-6.33216e-02,-1.26601e-01,-4.68356e-04,2.40119e-01,5.82100e-01,2.37988e-01,-3.36591e-01,-8.01993e-01,-1.18213e-01,5.22089e-01,-6.15698e-01,1.44733e-01,1.57675e-03,-1.71739e-02,-9.71185e-03,5.01979e-03,-5.57122e-01,-1.90689e-01,3.94033e-01,-1.37050e-01,
3.30407e+00,2.30263e-02,9.09656e-02,-8.96059e-02,-1.22141e-01,4.39947e-02,1.93066e-01,-6.22794e-02,-5.21166e-02,2.76606e-02,-1.39632e-01,1.37203e-01,2.18808e-01,6.49297e-02,-5.18098e-02,-8.31683e-02,-7.06059e-02,-1.28902e-01,-2.29111e-01,4.05777e-02,1.68327e-01,1.87890e-02,-2.35713e-01,1.48530e-01,-1.35737e-01,6.14421e-02,1.21012e-01,-1.21211e-01,-8.31933e-02,-1.08970e-01,-4.47610e-02,6.26525e-02,-4.62336e-02,-6.58830e-03,9.96542e-02,1.42683e-01,-4.29122e-02,-7.37037e-02,-2.35797e-02,7.57913e-02,
3.06140e+00,3.70108e-02,8.65593e-02,6.17691e-02,3.03046e-02,-4.50603e-02,8.08300e-03,-2.55850e-02,3.18936e-02,2.12371e-02,-1.35347e-01,2.99319e-02,-5.43191e-02,-2.63030e-02,-1.81384e-02,3.48997e-02,1.52857e-02,1.83150e-01,9.09806e-02,3.82624e-02,2.36071e-02,1.56637e-01,9.67213e-03,-1.17456e-02,-4.51974e-02,5.04404e-02,-1.10181e-01,5.95405e-02,-3.06568e-02,-3.67085e-02,-1.98577e-01,1.15053e-01,1.63819e-02,5.15979e-02,2.23283e-02,-6.16774e-02,-2.79888e-03,-6.37868e-02,1.66542e-02,6.68688e-02,
4.78290e+00,1.94329e-01,1.41338e-01,7.78864e-02,1.86985e-01,2.91384e-01,-1.56029e-01,-7.44592e-02,-9.20921e-02,8.62566e-02,-1.98478e-03,-3.72631e-02,2.76662e-01,9.49974e-02,4.92605e-02,-1.25693e-01,3.27415e-02,2.56399e-01,-2.20914e-01,-4.42930e-03,-2.05701e-01,7.30289e-02,8.00754e-02,-1.91347e-01,1.72666e-01,3.16276e-01,-1.42275e-01,8.93095e-02,-3.53463e-02,2.58143e-01,9.87507e-02,-1.07042e-01,-5.61828e-03,-3.21716e-03,-1.78725e-02,-8.94943e-02,-1.17319e-01,-6.65495e-02,1.68912e-02,-1.66217e-01,
4.50521e+00,8.08094e-02,1.55389e-01,1.62514e-01,3.96847e-01,-1.93717e-02,-2.28901e-02,1.78712e-01,1.30675e-02,2.71948e-01,1.73473e-01,-2.32110e-01,8.74712e-02,9.76436e-02,5.32009e-02,-1.00950e-01,-1.97358e-01,1.82110e-01,2.95624e-01,-2.52929e-01,5.07597e-02,-1.17374e-01,-1.83183e-01,-1.72133e-01,-3.49705e-01,-1.44114e-01,2.38206e-01,2.40170e-01,-2.93727e-01,-1.69696e-01,1.60501e-02,-1.55452e-01,-1.13025e-01,-8.04546e-02,4.68416e-01,6.58447e-02,-1.02107e-02,-1.31879e-01,-1.22174e-02,-2.17568e-01,
4.75131e+00,2.82736e-01,-3.67437e-01,4.45890e-01,9.52344e-02,-2.90500e-01,2.23682e-01,7.29410e-02,-3.12558e-01,2.43293e-01,-1.63532e-01,1.09665e-01,2.18034e-01,3.69862e-01,-2.77002e-02,2.03158e-01,-7.67499e-02,7.01488e-02,-7.99262e-04,4.53484e-02,-1.03734e-01,2.01893e-01,5.49956e-02,3.20530e-01,-1.55884e-01,-1.06528e-01,8.41278e-02,1.27909e-01,4.18674e-01,-2.41596e-01,-1.45021e-02,2.13409e-01,-1.92648e-02,4.02829e-02,9.26477e-02,3.84664e-02,3.00603e-01,1.05455e-01,1.16896e-01,-5.83706e-02,
2.07233e+00,-6.17911e-02,2.29011e-02,2.14557e-01,-6.01863e-02,2.24903e-02,1.23311e-01,-5.55671e-02,3.12795e-01,5.63099e-02,-2.08090e-01,-4.04447e-02,-6.83282e-02,-1.60900e-01,-2.53170e-01,1.29046e-01,2.45727e-01,3.85676e-01,-1.10995e-01,3.69396e-02,1.05027e-01,-1.12877e-01,1.22004e-01,1.76032e-01,-9.98747e-02,1.50801e-01,-1.43620e-01,1.40480e-02,2.11808e-02,-2.75485e-02,-6.03503e-02,-1.56369e-01,3.45672e-01,1.60845e-01,-3.88720e-02,8.16002e-02,4.18410e-02,-2.07082e-01,-5.17448e-02,1.15933e-01,
4.89321e+00,1.94110e-01,2.20665e-01,-1.83847e-01,-2.93431e-01,-1.21205e-02,-4.47097e-02,-1.99249e-01,-1.97194e-01,1.95036e-01,-1.05241e-01,-8.23150e-02,8.53786e-02,-7.59822e-02,6.04221e-02,-3.39579e-01,9.02535e-03,-4.78764e-01,-2.66955e-01,1.29064e-01,2.21319e-01,8.13149e-04,-2.59640e-01,-7.68546e-03,-5.00482e-02,-3.21976e-02,-7.10904e-02,-7.87928e-02,-2.80695e-01,-2.21997e-01,-3.72822e-02,-4.30456e-02,-1.66618e-01,-3.11457e-01,-3.68307e-02,1.62404e-01,-2.12581e-01,9.27889e-02,-1.80513e-01,-4.91857e-02,
8.16328e-01,6.23344e-01,-3.49420e-01,9.68148e-02,-1.21873e-01,3.51191e-01,-9.39911e-01,-1.91205e-01,-2.42839e-01,2.95189e-01,1.44021e-01,-5.20807e-02,1.91989e-01,-1.00447e-02,4.94370e-01,-4.79965e-01,1.44682e-01,9.20458e-02,2.41398e-01,-5.67592e-01,2.24973e-01,-4.45374e-02,-6.39072e-02,3.35405e-02,-1.60431e-02,-3.25461e-01,-2.86725e-01,-1.09917e-01,4.89722e-01,-2.23448e-01,1.22542e-01,-1.91066e-01,-2.01282e-01,1.04457e-01,1.87428e-01,2.25277e-01,8.83982e-02,-3.89419e-01,1.29122e-01,-2.33639e-01,
2.03099e-02,-5.97938e-03,1.21663e-01,-1.07309e-02,3.76128e-01,7.44752e-02,-1.41081e-01,2.10710e-01,1.61368e-01,7.60515e-01,1.32206e-01,-8.02574e-02,-6.69364e-01,4.94847e-01,1.91714e-01,-1.74920e-02,1.26496e-02,2.88365e-01,2.23259e-01,-8.93639e-02,3.34378e-01,1.70387e-01,-6.98950e-02,8.36458e-02,4.65398e-01,-3.80795e-01,3.62639e-01,-2.22278e-01,6.64074e-01,-4.86121e-02,-1.85495e-01,-4.95025e-01,5.03237e-01,2.30485e-01,2.68528e-01,1.93534e-01,4.42736e-01,-3.26890e-01,7.23197e-02,5.89619e-01,
2.95943e+00,-2.00608e-02,-4.30588e-02,-2.61846e-02,3.65323e-02,-8.55954e-02,-3.71847e-02,1.51210e-02,4.37306e-02,-8.54654e-02,-7.97887e-02,-5.38425e-02,-4.36784e-02,-5.71388e-03,-1.08097e-01,-3.96326e-02,-1.28298e-01,-1.30391e-02,1.65049e-01,1.07946e-01,-7.03517e-02,-1.76439e-01,-9.37288e-02,2.10132e-01,-5.78187e-02,-1.15599e-01,9.81312e-02,-2.59430e-01,1.76874e-02,1.29387e-01,-4.48907e-02,2.00027e-01,-4.86672e-02,7.54606e-02,-1.00706e-01,1.98097e-02,6.85035e-02,2.66431e-02,7.51524e-02,2.39610e-01,
6.53971e+00,-4.07669e-01,2.59720e-01,3.18423e-02,-3.78539e-02,1.06698e-01,-1.33278e-02,1.22903e-01,-1.96644e-03,-9.62335e-02,1.36161e-01,-1.54414e-01,-1.94940e-01,-7.40696e-02,-3.46778e-01,-2.89125e-01,-4.97528e-03,-8.69140e-02,3.58015e-01,1.81732e-01,-3.58336e-01,7.26005e-02,-7.08405e-02,-9.09154e-02,-2.84245e-01,1.49352e-01,1.17218e-01,-1.16169e-01,-1.41760e-02,-2.62949e-01,-1.55849e-01,2.07714e-01,3.38206e-01,2.76504e-02,-8.42590e-02,1.74681e-01,-1.92947e-01,1.59354e-01,-3.17989e-03,-2.94799e-01,
1.85857e+00,2.62938e-01,-1.22161e-01,9.64378e-02,5.92662e-04,5.08503e-01,3.27649e-01,1.86265e-03,2.35374e-01,2.28566e-01,-1.69143e-01,8.15272e-02,3.90179e-01,-2.17495e-01,-1.20728e-01,-4.21962e-01,-2.18737e-01,2.26203e-01,-2.14517e-01,-3.90229e-01,-3.18356e-01,-4.00697e-01,4.15198e-01,-1.59942e-01,-3.63681e-01,1.00127e-01,3.03101e-01,5.31449e-02,8.96410e-02,2.26338e-01,2.83472e-01,-8.60324e-02,2.38539e-01,1.47265e-01,1.20132e-02,7.79836e-02,-1.34681e-01,3.89234e-01,-1.68370e-01,1.27536e-01,
5.36416e+00,2.14780e-01,2.54906e-01,-1.59385e-01,4.01770e-01,8.42512e-02,-3.53507e-01,-1.72934e-01,3.82310e-02,1.39310e-01,-1.75928e-01,-2.24681e-01,1.95676e-01,-2.80720e-02,-2.05436e-01,3.60816e-02,1.16563e-01,-9.94319e-02,8.01185e-02,1.74068e-01,1.42056e-01,-8.01810e-02,4.93620e-01,1.79282e-01,1.86985e-01,-1.07471e-01,-3.95372e-02,-2.68323e-01,-1.40034e-01,-1.96038e-01,1.50936e-01,6.03910e-02,-7.39922e-02,2.97249e-02,-7.95439e-03,3.95522e-02,-5.62100e-02,-3.84151e-01,-2.00676e-01,3.43499e-01,
4.58056e+00,-1.93334e-01,-4.62099e-01,4.33111e-01,-3.20231e-02,-1.08037e-01,-1.52920e-01,1.79407e-01,-1.42460e-01,-2.85060e-02,2.22780e-01,3.75614e-02,3.46325e-02,2.49677e-01,8.70982e-02,-2.65316e-01,-6.06145e-02,-1.98901e-02,1.32375e-01,-9.56024e-02,3.20088e-02,3.06981e-01,2.46310e-01,2.96581e-01,-2.89670e-01,7.39844e-02,1.57864e-01,1.30590e-03,1.92120e-01,-1.82294e-02,2.99217e-01,2.36491e-01,-1.44755e-01,1.16575e-01,2.46346e-01,3.53143e-01,1.60227e-01,1.85926e-01,1.41742e-01,2.95066e-02,
3.59664e+00,-2.35160e-01,-1.02594e-01,1.03622e-02,-6.22293e-02,-1.51708e-01,-7.16996e-03,-2.59914e-01,9.73277e-03,6.12331e-02,-3.60273e-01,9.90676e-02,4.08541e-01,1.04726e-01,1.37088e-01,-2.50628e-01,-1.77718e-01,-2.28547e-02,2.49020e-01,2.30377e-01,2.09041e-01,3.26100e-02,-1.03359e-01,3.44818e-02,-1.58914e-01,-9.04746e-02,-8.63837e-02,1.01913e-01,-1.76063e-01,-7.55579e-02,-1.67479e-01,5.79825e-02,2.90297e-01,-1.20956e-01,-1.93293e-01,-8.60824e-02,6.17307e-03,6.85971e-02,-1.23624e-01,-4.68461e-02,
3.69349e+00,2.01218e-02,-5.51788e-02,5.97505e-02,-1.89729e-01,-2.07054e-03,2.48300e-01,2.27319e-02,2.78503e-02,-9.25120e-02,4.80472e-02,1.00306e-01,6.11125e-02,-2.42333e-01,-6.19268e-02,1.68034e-01,-2.11652e-01,-1.25681e-01,2.01543e-01,4.26039e-02,1.21899e-01,-6.59958e-02,-4.30575e-02,4.17607e-02,1.55796e-01,1.14094e-01,3.83250e-02,-1.99880e-01,-2.57727e-02,-2.14189e-03,1.72445e-02,3.55146e-02,-1.96152e-01,1.80709e-02,1.15019e-01,5.09358e-02,-1.92436e-02,4.01626e-02,4.63286e-02,-1.35572e-01,
2.07019e+00,5.54523e-02,2.07274e-01,-1.09349e-02,4.28085e-03,-3.55557e-01,-2.15238e-01,2.61310e-02,-4.17687e-02,-3.13261e-02,-7.96801e-02,-2.39650e-01,-4.56346e-01,1.03086e-01,2.19392e-01,3.02109e-01,3.69364e-01,-9.11804e-02,2.25033e-01,1.75807e-01,2.22346e-01,4.19797e-02,-2.89374e-01,2.08831e-01,2.25194e-01,-3.62620e-01,-5.26739e-01,2.41156e-01,-3.05099e-01,1.58492e-02,-2.38707e-01,3.67826e-01,-4.63761e-02,-2.64647e-01,-1.75052e-01,-1.34431e-01,-1.09834e-01,-3.50805e-01,2.89744e-01,-1.32272e-01,
1.16821e+00,-6.40751e-01,-2.42096e-01,1.12342e-01,-1.69447e-01,4.13007e-01,1.51958e-01,-4.35867e-01,-1.58421e-01,1.57528e-01,1.67152e-01,-4.61843e-01,1.28337e-01,-9.69718e-02,-1.19423e-01,-4.26028e-01,4.64741e-02,3.92784e-01,-3.39252e-01,1.33496e-01,-2.90145e-01,-4.29064e-01,-1.00330e-01,-2.82281e-01,-1.82317e-01,3.92373e-01,-1.84725e-01,1.36667e-01,8.40882e-02,3.49389e-01,1.86126e-01,-1.82684e-01,5.44186e-01,2.24439e-01,2.79109e-01,-2.72144e-02,-3.92853e-01,1.31463e-01,4.50270e-03,3.26096e-01,
4.15092e+01,1.12745e-01,2.63958e-01,3.39806e-01,1.44430e-02,1.10055e-01,2.50913e-02,-2.34094e-01,-4.19275e-02,-1.47846e-01,-3.61273e-01,-9.83968e-02,-8.21525e-02,1.60599e-02,-2.84453e-01,-4.93567e-02,-2.00109e-02,2.17601e-01,-3.66625e-02,2.33986e-01,9.81860e-02,-1.48378e-01,-1.15152e-01,2.01980e-01,3.50933e-02,-1.52277e-01,6.00084e-02,-3.03986e-02,-2.64998e-01,-4.02761e-02,-1.40772e-02,2.26879e-01,-3.85500e-02,-1.93368e-01,-5.53361e-02,1.72975e-01,7.35099e-02,-2.52896e-01,-1.87552e-01,-6.26088e-02,
2.49676e+00,8.78781e-02,-2.32654e-02,2.45487e-01,-1.11280e-01,1.85709e-01,4.33743e-02,-2.43298e-01,8.14876e-02,4.15252e-02,-1.76447e-01,-2.30131e-02,8.31362e-02,-1.24579e-01,-1.78384e-01,-3.11757e-01,-1.95849e-01,1.21476e-01,-4.38678e-02,-1.55356e-01,-1.51686e-01,-1.33299e-01,-7.23637e-03,-1.28471e-01,7.10534e-02,2.02034e-01,2.53526e-01,6.15589e-02,4.00360e-02,-1.32395e-01,2.45616e-01,-7.04179e-02,1.64819e-01,2.26060e-02,1.29311e-01,5.25710e-02,-8.94856e-02,3.75570e-01,5.76142e-02,1.95855e-02,
4.67994e+00,-1.34750e-01,1.00081e-01,2.21043e-02,-2.06572e-03,1.07073e-01,1.68855e-01,4.19078e-02,-2.26750e-01,4.58207e-02,1.46767e-01,2.98307e-01,2.90047e-02,-1.15309e-01,8.56691e-02,1.38176e-01,6.67162e-02,6.29689e-02,-2.24509e-01,8.77456e-02,1.63923e-01,-1.34816e-01,9.69535e-02,-1.36747e-01,1.00420e-01,-1.30537e-01,-3.67028e-02,-2.23649e-01,1.31080e-01,1.66300e-01,-2.89505e-01,-1.05034e-01,7.15284e-02,2.20928e-01,1.76228e-01,4.97688e-02,5.07223e-02,-1.36136e-02,7.52678e-02,-3.90676e-01,
2.90690e+00,-7.42730e-02,-4.32295e-02,-2.61730e-02,-7.62315e-02,-7.26992e-02,-2.48626e-01,-2.34718e-02,-1.36088e-01,-5.13564e-02,-4.07033e-02,-3.37577e-01,-1.99091e-01,-1.65069e-01,-7.04012e-02,-5.71393e-03,-1.55065e-01,-5.91726e-02,-1.43945e-01,4.94279e-02,-1.56015e-01,-4.55506e-02,-1.25640e-01,3.17873e-01,-1.46879e-01,2.51997e-01,-3.44930e-02,-1.02950e-01,2.64984e-01,9.46501e-02,-7.51803e-02,2.38107e-01,8.57175e-02,1.42720e-01,6.04578e-02,1.23770e-01,2.15636e-01,-1.53304e-01,-1.00899e-01,2.71589e-01,
3.07010e+00,-2.91200e-02,-6.05633e-02,-8.98055e-02,-3.63139e-01,1.39000e-01,1.61907e-01,1.40320e-01,-2.89526e-01,2.22175e-01,1.62154e-01,2.13399e-01,-1.48081e-01,2.21841e-01,-1.66021e-01,9.34787e-02,1.58892e-01,7.02274e-02,1.16827e-01,-2.20796e-02,-4.30927e-02,-1.23717e-01,-1.91637e-01,1.08030e-02,-8.84084e-02,-1.56777e-01,3.39884e-01,1.97269e-01,9.61080e-02,-1.62089e-02,-1.05895e-01,6.57475e-02,3.88618e-02,2.77931e-01,-8.33126e-02,-1.03347e-01,1.88432e-01,3.54213e-02,9.45111e-02,-8.55870e-02,
3.18091e-01,2.03085e-01,1.32007e-02,4.88877e-01,1.36054e-01,4.56142e-02,-5.98883e-01,2.36699e-01,2.98127e-01,-7.73656e-01,-1.02079e-01,4.07895e-01,-4.51825e-01,2.00927e-01,4.10196e-01,-6.68010e-02,6.47460e-01,-2.57023e-03,1.58006e-01,-4.50715e-01,3.23526e-01,2.74560e-01,1.07675e-01,3.01541e-01,-7.79075e-01,2.67353e-01,-4.54382e-02,-4.85122e-01,-2.50935e-01,1.16328e-01,2.40275e-02,1.91210e-01,4.64388e-01,-4.13132e-01,3.79308e-01,4.47257e-01,-4.87590e-02,-2.09931e-01,4.79799e-01,3.62774e-01,
5.86533e+00,7.37824e-02,-2.66942e-03,-1.96549e-02,1.77881e-01,1.70957e-02,3.90844e-01,-1.97261e-02,1.68150e-01,-1.48712e-01,-1.01207e-02,-2.53397e-02,2.33396e-01,-2.90423e-01,-3.27947e-02,7.91107e-02,-3.12984e-02,2.53869e-02,-1.61135e-01,2.74292e-01,1.18658e-01,-1.93162e-01,1.88395e-01,-3.27944e-02,9.66199e-02,-2.64204e-01,1.62752e-01,3.46716e-02,-1.97322e-02,1.73371e-02,-1.45382e-01,5.08934e-03,-9.69195e-02,3.11803e-01,2.09051e-01,1.33547e-01,1.10287e-01,-1.80194e-01,-2.20437e-01,1.15587e-02,
5.48604e+00,1.07790e-02,8.61679e-02,3.16335e-02,1.23492e-01,-1.39588e-02,-1.12458e-01,-5.80655e-02,-6.14626e-02,-3.79682e-02,-2.96035e-01,-1.20570e-01,4.48015e-02,1.46657e-02,-6.95950e-02,1.77933e-01,-2.51009e-01,-1.24503e-01,3.56069e-01,-6.45509e-02,2.07570e-01,3.20757e-01,-1.92394e-01,7.04721e-02,6.91717e-02,-1.73579e-02,-9.27923e-03,-8.76288e-02,1.29055e-02,-2.39534e-01,-8.30595e-03,1.70914e-01,-2.59685e-02,-2.31090e-01,1.24465e-01,-1.44463e-01,-3.35753e-01,-2.30835e-01,-2.74425e-02,1.15973e-01,
6.11428e-01,4.91656e-01,-4.81277e-01,4.26743e-01,3.07595e-01,-5.15474e-01,-2.23084e-01,-2.76461e-01,4.22486e-01,2.36005e-01,-5.28379e-02,4.66938e-01,4.48762e-01,-4.09319e-01,9.23700e-02,5.43237e-01,-5.95114e-02,-2.66981e-01,1.26756e-01,-4.95852e-01,2.40087e-01,-1.52987e-01,1.16962e-02,-2.99400e-01,4.58390e-01,-4.42128e-01,-1.26356e-01,-7.05081e-02,-9.06121e-02,2.08643e-02,1.38868e-01,4.22138e-01,7.03239e-02,3.10826e-02,3.99779e-01,-5.55382e-01,-2.69103e-01,2.24700e-01,4.70986e-02,-7.26082e-02,
4.28792e+00,2.64158e-02,-2.91444e-01,1.15598e-01,-1.54622e-01,-1.15325e-01,-2.25316e-01,6.79523e-02,2.22330e-01,2.17895e-02,3.06189e-01,-4.02280e-02,-9.75315e-02,2.18398e-01,-1.96753e-01,-7.58076e-02,-1.06353e-01,1.61671e-01,-3.39021e-01,9.27376e-02,-3.71846e-01,-3.20304e-02,3.44562e-01,1.76618e-01,-1.83124e-01,-1.19221e-01,2.59625e-01,-1.09190e-01,2.66317e-01,1.30073e-01,1.55878e-01,-2.33372e-01,3.36038e-01,-1.42307e-01,3.97897e-01,-9.65485e-02,1.75027e-01,3.70528e-01,3.45146e-01,-5.48183e-01,
6.12876e+00,-1.43833e-01,-2.63181e-03,1.84259e-01,1.87779e-01,5.67843e-02,1.36071e-01,2.45121e-02,1.19344e-01,6.07184e-02,-2.74100e-01,1.13182e-01,1.97118e-01,-4.24393e-01,-1.77243e-01,1.50398e-01,-3.80198e-02,-1.49652e-02,1.79760e-01,1.05928e-01,1.57812e-01,5.62848e-02,2.32524e-01,1.51369e-01,1.94942e-01,-4.69520e-02,1.82555e-01,-1.30056e-01,1.75163e-01,-8.16896e-02,-1.63999e-01,-3.59468e-02,-2.35851e-01,2.45883e-01,1.83103e-01,2.64478e-02,-5.01847e-02,-1.94962e-02,-4.44273e-02,-1.94275e-01,
6.65541e+00,8.72195e-02,1.21497e-01,-1.56671e-02,-1.57414e-01,2.21170e-01,-2.40578e-02,-2.45956e-01,-8.51622e-03,-6.24133e-03,-1.25857e-02,1.48323e-01,-1.15090e-01,-3.00372e-02,-3.13277e-01,-1.47285e-01,2.60278e-02,1.01058e-01,-2.13976e-01,5.22605e-01,1.12310e-01,8.74806e-03,7.34621e-02,1.22046e-01,1.83854e-01,-1.50279e-01,-3.45216e-01,2.34586e-01,-2.28819e-01,1.48935e-01,-2.62385e-01,-3.36451e-02,-8.94631e-02,2.13646e-01,1.42417e-02,9.36820e-02,-9.68272e-02,1.75969e-01,-3.49467e-02,-5.64442e-04,
4.60830e+00,2.18010e-01,7.91773e-02,9.22306e-02,1.26773e-01,7.46859e-02,-2.64773e-01,-1.56836e-02,1.85878e-01,3.65691e-01,-2.69187e-01,-1.10769e-01,2.93004e-02,5.07904e-02,-3.08383e-02,-2.94233e-01,-2.95412e-01,-1.12115e-01,6.07515e-02,6.68565e-02,-4.84262e-01,-3.61855e-02,-6.08669e-03,2.76657e-02,4.28487e-02,-1.04491e-01,-8.37453e-03,-3.41231e-02,-2.53678e-01,-2.91934e-01,9.73327e-02,6.55935e-02,4.70572e-02,-2.96442e-02,8.23629e-02,-6.23921e-02,2.82812e-02,-4.87285e-02,-8.87367e-03,1.75988e-01,
5.00858e+00,3.88583e-02,-1.12580e-01,-1.02515e-01,4.43494e-02,-1.33798e-01,2.13837e-01,-3.83493e-02,6.97492e-03,-3.40057e-02,-9.41191e-02,9.98498e-03,1.49726e-01,-1.21785e-01,2.39923e-01,-1.89900e-01,2.58787e-02,4.69072e-01,-1.36902e-01,2.00012e-01,1.26226e-01,1.29174e-01,-3.03446e-01,-1.03605e-01,-1.01496e-02,-9.33782e-02,1.57555e-01,1.02510e-01,-1.55994e-01,-4.05592e-01,-1.34651e-01,-1.06595e-01,2.38573e-01,2.75021e-01,-2.03550e-01,-2.20443e-01,-2.37110e-02,7.18184e-02,1.92744e-01,-1.28507e-01,
5.22574e+00,-3.00744e-02,3.19951e-01,1.36616e-01,-2.14152e-02,-2.59114e-01,1.73505e-01,-4.19847e-02,4.93856e-02,2.56041e-01,1.46632e-01,1.31078e-02,-6.55192e-02,-3.04795e-01,-7.59129e-02,-1.56979e-01,-9.40139e-02,-8.79537e-03,1.93040e-02,-1.14086e-01,5.92645e-02,-8.20192e-02,-1.08822e-01,-1.96039e-01,7.40680e-02,1.17635e-01,-8.87088e-02,1.07090e-01,1.75018e-01,-2.03803e-01,-4.49989e-02,8.40819e-02,-1.46057e-01,-1.13048e-01,-3.69980e-03,1.46516e-01,1.30645e-01,2.45897e-01,-1.64381e-01,1.45271e-01,
6.03592e+00,-3.57390e-01,1.08829e-01,3.51160e-01,-1.81061e-01,9.79284e-02,-2.41757e-02,-9.38947e-02,-1.47645e-01,-6.27699e-02,9.79342e-02,-7.16386e-02,1.37299e-01,4.78109e-03,5.31585e-02,5.59377e-02,-4.95004e-01,-8.49613e-03,-1.83868e-01,4.87106e-01,-5.89286e-01,-1.35922e-01,-5.77343e-03,2.12103e-01,-2.14804e-01,1.33273e-02,-4.75236e-01,-1.89883e-01,-1.67030e-01,-1.80764e-02,-1.16530e-03,-6.67964e-02,-1.45963e-01,-1.05102e-01,2.40908e-01,-1.76872e-01,-3.66818e-02,2.33250e-01,1.09315e-01,2.23124e-01,
5.11191e+00,1.05378e-01,-1.72557e-01,9.75864e-02,2.02694e-02,2.39608e-01,1.01423e-02,-3.45176e-02,1.39768e-01,-7.12670e-02,2.34336e-01,-1.24141e-01,-3.34262e-02,-2.80854e-02,-2.17023e-01,-2.94499e-01,1.46625e-01,1.79569e-01,-3.20475e-01,-9.96255e-02,-9.19123e-02,2.59770e-01,1.09597e-01,-2.83508e-02,-5.76681e-02,9.10276e-02,1.51052e-01,-2.18766e-01,1.35339e-01,2.37731e-01,1.39511e-01,-1.65126e-02,-5.15431e-02,2.46769e-01,3.49663e-01,7.56284e-02,1.57061e-02,2.19549e-01,-1.07700e-01,-6.83266e-02,
5.83804e+00,5.70013e-02,-1.00417e-01,2.03751e-01,-3.43345e-01,6.71174e-02,5.30246e-02,-1.81584e-02,-6.14190e-02,-1.41968e-01,4.88080e-02,-2.23838e-01,-1.52932e-01,-3.80783e-01,-1.89778e-02,-1.97620e-02,-1.06400e-01,-1.85505e-01,2.18123e-01,2.12721e-02,1.70415e-01,-2.41886e-01,-2.44232e-02,-4.06602e-03,4.75571e-02,6.20317e-02,2.05351e-02,-4.00793e-01,-2.96269e-01,-1.08230e-01,2.16688e-01,4.83407e-01,-1.63600e-01,6.07620e-02,4.78038e-02,2.44099e-01,2.79687e-01,-4.97160e-02,2.52901e-02,-3.02332e-02,
5.06282e+00,-6.66127e-02,2.45676e-01,1.09808e-01,-1.73770e-01,-1.45765e-01,-2.87366e-01,-6.96529e-02,-2.38529e-01,-4.25427e-02,-1.21613e-01,-1.42225e-02,4.08608e-03,-1.43014e-01,6.16845e-02,-1.02949e-01,9.09839e-02,-2.36832e-01,1.65173e-01,-1.39185e-01,1.88529e-01,1.12353e-01,7.24177e-02,5.72141e-02,1.75477e-01,5.17635e-02,2.60605e-02,1.63764e-01,-2.34670e-01,-2.67645e-01,-1.84854e-01,1.68141e-01,2.35701e-01,-1.45649e-01,6.24227e-02,-5.64265e-02,-1.44604e-01,-6.83223e-02,8.06852e-03,-1.74063e-02,
4.97590e+00,-1.05502e-01,1.62016e-01,-1.55646e-01,8.41306e-02,5.01582e-02,-1.71310e-01,1.42043e-01,9.30672e-02,-1.86933e-02,-3.34218e-02,6.49124e-02,1.35865e-04,-3.04463e-01,1.42095e-01,-1.09155e-01,2.08419e-01,-1.63654e-02,3.13624e-02,9.17277e-02,3.00298e-01,-7.02539e-02,-2.12424e-01,1.08647e-01,1.36919e-01,-3.94845e-01,-9.56025e-04,-1.30231e-01,-1.07452e-01,2.13952e-01,2.69295e-02,8.36934e-02,5.84988e-02,-1.17255e-01,1.05918e-02,7.05358e-02,-5.29275e-02,-8.48276e-02,-1.19121e-01,4.08350e-03,
3.81043e+00,-1.71030e-01,-2.81132e-01,-9.01016e-02,-4.39128e-02,2.24734e-01,1.58058e-01,5.33381e-02,3.24453e-01,3.45970e-02,-3.19737e-01,-1.78604e-01,2.51781e-01,-1.48612e-02,-2.65608e-01,-5.43635e-01,3.77256e-01,-9.96771e-02,-5.04742e-02,-1.28460e-01,4.10197e-01,1.94584e-01,2.95434e-03,9.50459e-02,-1.22591e-01,1.87579e-02,3.11064e-01,3.12825e-02,8.86441e-03,-3.38024e-03,2.01726e-01,1.59889e-01,2.00294e-01,2.92154e-01,-1.28981e-01,1.91047e-01,1.53212e-01,1.76569e-01,1.78027e-01,-9.28145e-02,
3.30442e+00,-2.71816e-02,5.34954e-02,1.48424e-01,-2.32584e-01,1.12846e-01,-1.78502e-01,9.09979e-02,9.27184e-02,1.40311e-01,-3.09525e-02,-2.53401e-01,-1.20507e-01,1.10486e-01,-1.21349e-01,1.20605e-01,-1.88576e-01,-1.78636e-01,6.13578e-02,1.69816e-01,-1.23068e-02,1.22726e-01,-2.92465e-01,-8.96937e-02,5.70825e-02,1.38230e-01,-1.79730e-01,9.17143e-02,1.08829e-01,8.69403e-02,-1.35139e-01,2.00457e-01,-2.68763e-02,-4.49173e-03,-2.91779e-02,-1.28210e-01,1.88359e-01,-2.25028e-01,2.27058e-01,3.02084e-01,
8.68306e-01,1.71715e-01,-5.58756e-02,6.02143e-01,9.06957e-02,-1.15728e-01,3.16560e-01,1.79387e-01,-2.74171e-02,5.27822e-02,2.69162e-01,8.33250e-01,3.58621e-01,3.30308e-01,-5.41013e-02,-2.12783e-01,-4.64228e-01,3.29224e-01,-3.00947e-01,-6.11780e-01,-4.44123e-01,-2.72011e-01,2.43177e-01,-1.11805e-01,-3.20982e-01,3.27571e-01,-9.36954e-03,-6.25072e-02,2.80042e-01,4.76219e-01,-1.00148e-01,-8.69370e-02,2.37102e-02,6.32679e-01,-2.96004e-01,-7.73057e-03,-2.31286e-01,6.02232e-01,-3.11152e-01,9.48030e-01,
5.46786e+00,-1.08668e-01,8.70460e-03,3.49395e-01,-3.40203e-02,-1.61040e-02,-1.94150e-01,-2.52332e-03,-1.53701e-02,5.70028e-02,9.33307e-02,1.69368e-01,-2.00679e-01,1.56610e-01,7.15023e-02,1.70767e-01,6.80013e-02,-1.60981e-01,4.79483e-02,1.58422e-01,-2.42921e-01,4.26201e-02,-8.52854e-02,1.88495e-01,1.79819e-01,2.04668e-01,8.90259e-02,-2.94449e-02,-1.41523e-01,5.52196e-02,-1.02985e-01,4.36953e-02,1.70253e-01,-1.54500e-01,-3.59270e-02,-3.04187e-01,4.64088e-02,-1.44747e-01,-5.83832e-02,-1.19078e-01,
4.33071e+00,1.97624e-01,1.53102e-01,6.43782e-02,-2.39703e-02,-2.18617e-01,6.86499e-02,3.95779e-02,-1.56377e-02,1.42484e-02,7.34535e-02,1.76100e-01,1.68084e-01,-1.38909e-01,6.41020e-03,9.57155e-02,8.46136e-02,-1.40000e-01,-1.11859e-01,7.61327e-02,-1.79234e-01,-1.16001e-01,-5.04201e-02,-1.17819e-02,6.35771e-02,-2.70536e-01,-8.43260e-03,-6.57834e-02,7.54419e-02,6.06926e-02,-8.29702e-03,1.24503e-01,-3.02315e-02,-1.70844e-01,-2.31283e-01,-1.09658e-01,-2.20558e-02,9.23840e-02,1.58117e-02,-1.09210e-01,
3.62492e+00,-5.20182e-02,-1.17576e-01,9.62612e-02,-6.86387e-02,2.89164e-01,1.28177e-01,-2.01661e-01,2.52671e-01,-2.66159e-01,4.21008e-01,-6.43834e-02,-1.19920e-01,6.49281e-02,-3.44525e-01,1.48126e-01,-2.21455e-01,-1.90489e-01,-2.91189e-03,2.34918e-01,-3.89712e-02,6.50135e-02,1.47472e-01,1.37696e-01,-1.19328e-01,2.22408e-02,1.36722e-01,-3.22071e-01,3.41572e-02,7.19727e-02,-3.88731e-02,-2.52543e-02,-1.15820e-01,2.74988e-01,8.85854e-02,-9.11861e-02,1.45558e-01,2.93611e-01,-1.75428e-02,-6.61095e-02,
3.23608e+00,8.51817e-02,-1.68447e-01,-7.23760e-02,1.44438e-01,3.29535e-01,3.38007e-03,-8.21977e-02,2.37986e-01,-6.45693e-02,9.13782e-02,3.54226e-01,2.83750e-01,-1.10016e-01,1.03981e-01,-3.25908e-01,-3.63378e-01,5.12732e-03,-2.09569e-01,1.08403e-02,-2.05478e-01,-3.51624e-01,1.34485e-01,-1.28944e-01,-6.38080e-02,-7.65913e-02,6.21126e-02,1.71558e-02,2.77514e-01,3.66577e-01,2.35953e-01,6.89039e-02,3.15470e-02,2.22891e-01,1.35696e-01,1.80259e-02,-1.88145e-01,3.89185e-01,-2.64398e-01,6.72991e-02,
3.40443e+00,7.34981e-02,-3.98037e-02,-1.95067e-01,7.72371e-02,2.81624e-02,1.90900e-01,7.45399e-04,2.42849e-01,3.42076e-01,-2.22103e-01,1.09753e-01,3.37468e-02,2.18386e-02,-1.91922e-01,1.03138e-01,-1.16222e-01,-8.85610e-03,1.11002e-01,-1.09643e-01,1.63683e-01,9.20864e-02,-1.89890e-01,-1.14004e-01,7.55630e-02,4.50739e-02,1.61627e-02,3.07251e-01,7.41434e-02,7.27909e-02,1.75256e-01,-1.44587e-01,-2.23286e-01,2.19646e-01,2.84114e-01,1.37406e-03,-6.86256e-06,-1.18776e-01,7.58802e-02,6.97480e-02,
4.52822e+00,-1.43326e-01,-1.71051e-01,1.65634e-01,7.49235e-02,1.13310e-02,3.67080e-02,8.13295e-02,9.14875e-03,4.22056e-01,-4.26153e-02,-9.89812e-02,1.79737e-01,1.70545e-01,1.32874e-01,1.54164e-01,-1.44817e-01,3.89665e-02,-1.61972e-01,2.33105e-01,7.82911e-02,-2.26223e-02,-3.75390e-01,-1.99011e-01,-1.16495e-01,-2.36377e-02,2.47998e-01,1.17865e-01,-2.67351e-01,-3.88729e-02,9.58924e-02,2.51074e-02,-1.46926e-01,6.93757e-02,7.48930e-02,-1.19903e-01,-1.25170e-01,5.96702e-02,1.54500e-01,-4.21698e-03,
-1.29681e+00,1.40742e-01,6.13382e-02,-9.30893e-02,-2.23092e-01,3.56963e-01,-8.24161e-02,-6.50869e-02,-4.51251e-02,-4.13489e-01,-7.61818e-01,4.00063e-01,2.16091e-01,1.15276e-01,1.17897e-02,2.87497e-01,-5.31332e-01,1.84792e-01,-7.14443e-01,-2.24311e-01,-2.97657e-01,5.12545e-01,-1.22738e-01,-1.28630e-01,-4.72966e-01,-3.58928e-01,2.60071e-01,-4.31438e-01,2.59369e-02,3.24381e-02,5.16857e-01,-2.02176e-01,-1.17977e-01,-2.08515e-01,3.94336e-01,-4.28155e-01,-1.54247e-01,4.53382e-01,-1.94426e-01,1.47012e-01,
8.96975e-01,4.08546e-02,9.27479e-02,-1.70980e-01,5.69292e-02,-1.10945e-01,2.46062e-01,-3.78911e-01,3.32653e-01,-2.22541e-01,2.31587e-02,1.00994e-01,-1.92134e-01,1.10561e-01,-5.10557e-01,-1.78841e-01,-6.47382e-02,5.05563e-01,1.69325e-01,-9.40903e-02,1.97856e-02,-3.58503e-01,3.10457e-01,4.22864e-03,-3.41818e-01,4.44415e-01,-1.90293e-01,1.14782e-01,9.33327e-02,-6.54095e-02,1.17867e-01,-5.70638e-01,1.41825e-03,1.04362e-01,-4.86486e-02,3.42646e-01,-3.70467e-01,3.66276e-01,-3.65457e-01,1.28078e-01,
6.62490e+00,-1.18261e-01,3.29300e-02,2.58110e-01,3.01556e-01,-9.49831e-02,1.21167e-01,-4.12724e-01,-1.76562e-02,-7.01515e-02,-2.56301e-02,-7.63556e-03,-5.31373e-01,2.84625e-01,-2.19290e-02,-3.87903e-01,-1.43222e-01,1.63835e-01,-1.50902e-01,5.37483e-02,-3.40704e-01,1.80232e-01,8.78855e-02,-1.11373e-01,-3.22368e-01,-5.29481e-02,-1.08375e-01,-1.86786e-01,7.00679e-01,1.41005e-01,3.89627e-01,-7.15694e-02,1.45798e-01,4.93384e-02,3.39891e-01,1.46349e-01,-4.78839e-01,3.99993e-02,2.71547e-01,-4.06205e-01,
4.53882e+00,-8.11070e-02,2.73574e-02,1.35069e-02,-1.74246e-02,3.24233e-01,-1.17831e-01,-3.03065e-02,2.14750e-02,-2.80161e-01,-1.45314e-01,4.53488e-02,-3.13884e-02,-3.54465e-02,1.72805e-01,1.14688e-01,-1.69440e-01,8.30470e-02,1.03969e-02,-7.00322e-02,1.53694e-01,-3.75897e-02,-5.94608e-02,1.41763e-02,1.04513e-01,2.41851e-01,1.47141e-01,4.54179e-02,-3.01803e-01,-1.90087e-01,2.18241e-01,-1.12084e-01,-1.89266e-01,-1.86481e-01,2.30432e-01,1.38158e-01,-4.58341e-02,1.82256e-01,-1.27071e-02,6.80325e-02,
6.79855e+00,-1.29070e-01,7.05961e-02,-7.47024e-02,1.56997e-01,1.83397e-01,-8.82199e-02,-1.17542e-01,-5.13721e-02,5.98013e-02,2.02747e-02,2.28140e-01,1.24648e-01,-3.65789e-02,1.23253e-01,-1.09380e-01,-6.72287e-03,1.46131e-01,1.38912e-02,2.82091e-02,-5.63598e-02,-3.24575e-01,4.53278e-02,8.94188e-02,3.29361e-02,-2.12006e-02,-1.00163e-02,-1.40044e-02,6.73499e-02,9.89118e-02,-2.40805e-01,-1.19116e-01,-4.98726e-02,1.44453e-01,5.44085e-02,1.46813e-01,1.49635e-01,-1.08621e-01,-7.57854e-02,1.28898e-01,
3.18794e+00,-5.84779e-02,-1.78524e-01,-1.03944e-01,6.58644e-02,-2.72508e-01,1.10528e-01,5.34421e-02,-1.31262e-01,1.41236e-01,1.07219e-01,2.64049e-01,-4.35681e-02,2.11103e-01,-2.53044e-02,-5.23110e-02,-6.45458e-02,-1.11634e-01,-4.84306e-02,-4.00147e-02,-3.34670e-03,1.12719e-01,3.60141e-02,6.39666e-02,-4.68403e-02,-3.50236e-02,3.27701e-01,1.29826e-02,5.00613e-02,1.03533e-01,-4.60089e-02,1.27381e-01,8.20636e-02,-5.69189e-02,-3.24857e-02,-1.64275e-02,7.07275e-02,-1.09313e-01,2.25199e-01,-4.53882e-02,
3.71150e+00,-1.10821e-01,3.55532e-02,-8.09781e-03,-6.10441e-02,6.94635e-02,5.93381e-02,-2.65171e-02,-9.91659e-02,-2.18718e-02,9.47830e-02,5.48357e-02,2.02734e-01,-8.80391e-02,9.57970e-02,-5.63262e-02,1.51454e-02,-1.84431e-01,-4.02706e-02,-1.64735e-01,-1.21717e-02,-9.13576e-02,-4.62899e-02,1.12263e-01,-1.05383e-02,1.00920e-02,-6.05414e-02,-1.29918e-01,2.70014e-02,1.73286e-01,-8.40041e-03,-4.55507e-02,7.31667e-02,7.50330e-02,-5.99878e-02,4.78101e-02,5.58522e-02,-8.63016e-02,5.34208e-02,7.30557e-02,
3.08766e+00,7.83144e-02,-1.86598e-01,-1.85121e-01,-8.09838e-02,1.00829e-02,-4.03260e-01,-1.00745e-01,-2.61529e-01,2.39853e-01,-1.84646e-02,-1.23179e-01,1.90626e-01,1.52789e-01,-2.24564e-01,-3.16467e-01,1.21702e-01,9.79936e-02,-3.59094e-02,-1.15140e-01,-1.94300e-01,-8.52744e-02,5.32943e-03,4.71516e-02,3.69587e-02,-2.49535e-01,3.28443e-01,1.49781e-01,-1.02195e-01,-6.43197e-02,2.38051e-01,1.58413e-01,-6.99481e-02,2.34541e-01,-7.08570e-02,-1.09146e-01,5.57283e-02,2.04449e-01,-7.30715e-02,-8.17560e-02,
3.77820e-02,3.69633e-01,-1.81134e-01,-1.97376e-01,-3.59946e-01,4.60419e-02,9.38050e-02,-2.57305e-01,2.74106e-01,2.95837e-02,-8.54830e-03,-5.63188e-01,3.03840e-01,4.58249e-01,-3.49898e-01,9.22385e-01,-1.41113e-01,-6.24886e-01,3.57216e-01,-3.10694e-01,1.67570e-01,-3.09622e-02,-2.18799e-01,3.03902e-01,-3.66958e-01,1.23570e-01,-3.96137e-01,5.02515e-01,-2.42315e-01,-1.97132e-01,-9.22954e-02,-1.34225e-01,5.64057e-02,-3.65678e-02,6.40565e-02,2.30417e-01,3.78441e-01,-6.35138e-01,-7.72336e-02,-4.11829e-02,
1.61010e+00,-2.74826e-01,2.66551e-01,4.00397e-02,-1.74016e-01,-3.09855e-02,5.16975e-01,-2.02958e-01,-8.01840e-02,2.43083e-02,-3.95030e-01,7.39753e-02,-1.77176e-01,4.69454e-01,-1.74686e-01,1.78338e-02,-1.25413e-01,3.05930e-01,-3.60071e-01,-1.49289e-01,2.73076e-02,-6.70734e-02,2.22084e-01,-1.16084e-02,3.97795e-01,-3.95096e-01,3.84388e-01,-3.96359e-01,3.50639e-02,-2.46757e-01,3.00059e-01,3.00171e-01,-1.09192e-02,-6.59097e-01,-2.39362e-01,-1.17749e-02,-6.52857e-02,-7.37984e-02,-4.53809e-02,3.35854e-01,
5.85764e+00,4.33838e-02,1.75037e-01,1.30522e-01,-1.59902e-01,2.10561e-01,-1.28853e-01,1.78921e-01,-1.20218e-01,-2.13676e-01,-6.96893e-02,-3.95408e-01,1.37612e-01,-1.30537e-01,-1.24782e-01,1.11687e-02,9.48627e-02,-2.04797e-01,1.61213e-01,-3.49019e-02,8.99164e-02,1.84317e-03,8.35244e-02,2.67926e-01,8.34304e-02,-1.58652e-01,2.66836e-02,1.08204e-01,-1.56336e-01,-1.70931e-02,1.57018e-01,-1.11902e-01,-2.47712e-01,-1.78492e-01,-2.01706e-02,-1.24551e-01,1.79209e-02,-2.98723e-02,-1.18370e-01,5.25158e-02,
4.37818e+00,5.09736e-03,-1.76423e-03,3.37888e-01,-7.25274e-03,-6.01883e-02,1.22834e-01,-2.05743e-02,6.92218e-03,4.09955e-01,2.29521e-01,5.23820e-02,2.57813e-01,-1.06697e-01,3.04710e-02,1.87092e-02,-2.94014e-03,3.66354e-02,-6.58268e-02,-6.54696e-02,8.53335e-02,9.45684e-02,-2.59190e-02,5.20458e-03,-1.93978e-01,7.01941e-02,7.95458e-02,-1.18751e-01,-6.85305e-02,-5.23146e-02,-1.54794e-02,-9.34812e-02,7.23616e-02,1.56323e-01,-9.39326e-02,3.83663e-02,-3.23280e-01,-3.66841e-02,1.47607e-03,-1.83489e-02,
4.45997e+00,3.74838e-01,1.40005e-02,-1.41782e-01,-1.86491e-01,1.63214e-01,9.54850e-02,1.28184e-01,1.36770e-01,-1.55184e-01,2.11184e-01,-2.39348e-02,2.83918e-01,-4.59623e-02,-7.27910e-02,2.58115e-01,1.67085e-01,9.59753e-02,7.52468e-02,-5.95743e-02,1.69729e-01,-7.39052e-02,-7.38717e-02,2.72522e-02,5.41681e-02,-2.47401e-01,-1.69320e-01,-3.43713e-01,-1.50683e-01,-8.29011e-02,1.61993e-01,1.18365e-01,1.56540e-02,-1.22717e-01,4.16370e-01,2.88180e-01,5.31349e-02,-1.67873e-01,-2.51345e-01,2.16635e-02,
6.47088e+00,2.43115e-01,-3.81028e-01,6.15592e-01,1.04704e-02,9.78590e-02,4.45663e-02,-7.51813e-03,-4.14125e-03,2.04185e-01,-7.77010e-02,2.52969e-01,2.94608e-01,2.46075e-01,1.00928e-01,-4.64422e-01,5.08741e-01,3.36078e-01,1.21531e-02,-9.61926e-02,9.06698e-02,-3.42531e-01,4.00553e-02,1.44949e-01,-2.79377e-01,7.80957e-03,3.03022e-01,2.61762e-01,2.32368e-01,2.69222e-01,3.50953e-01,-2.80187e-01,-3.52032e-01,-1.07743e-01,-4.57018e-02,2.13777e-01,2.10173e-01,2.08600e-01,-3.89483e-02,-2.97129e-02,
-3.57745e-02,-2.34338e-02,-8.61384e-02,-4.32853e-02,4.21359e-01,-9.56627e-02,2.69909e-01,-1.52903e-01,-6.78728e-01,-1.40589e-01,-2.45767e-01,-3.60793e-01,-1.07714e-01,-1.51304e-01,2.80825e-01,5.72821e-02,-2.48367e-01,1.39666e-01,3.43073e-01,1.04795e-01,1.00671e-01,1.29894e-01,-2.04664e-01,-3.44619e-01,-7.51735e-02,-2.35488e-01,-3.54383e-01,-9.67976e-03,-8.74011e-01,-3.41315e-01,-3.20936e-01,5.89623e-01,3.09035e-01,3.91218e-01,1.40944e-01,2.72939e-01,1.29721e-01,-1.06978e-02,4.51356e-01,3.71228e-01,
5.63073e+00,-1.09627e-01,-1.06104e-01,-6.11955e-01,-4.50575e-02,-9.43561e-02,2.39344e-02,1.47301e-01,4.51005e-01,1.85682e-01,2.56095e-01,5.61332e-02,-9.52038e-02,-1.26422e-01,-1.90758e-01,1.63886e-01,3.34368e-01,-5.68554e-02,8.83377e-02,-1.03057e-02,-1.52306e-01,-2.76810e-02,-2.13170e-01,5.09481e-03,2.31155e-02,2.57405e-01,2.11228e-01,2.70317e-01,-7.85552e-03,2.06989e-01,-5.44140e-02,4.29069e-01,1.35255e-02,2.55620e-01,8.65908e-03,2.15085e-01,-1.09403e-01,3.92310e-02,-2.83272e-01,-2.96699e-02,
4.22235e+00,-1.45023e-01,2.90197e-02,2.81475e-01,1.45699e-02,-6.79276e-02,1.16073e-01,-1.75016e-01,9.91014e-02,1.96723e-02,-1.02370e-01,2.19132e-01,6.76376e-02,-1.96880e-02,-1.47308e-03,1.23740e-01,1.41945e-01,2.82894e-01,-1.53205e-02,-8.25385e-02,6.77350e-02,-6.28410e-03,-1.01772e-01,-1.08518e-01,1.26002e-01,3.88866e-02,9.67828e-02,9.69172e-02,1.65795e-01,-1.68364e-02,-1.28077e-01,7.54459e-02,-1.78841e-01,-2.00283e-02,1.83592e-01,3.95709e-02,8.89763e-03,-6.24995e-02,9.82286e-02,-1.16033e-01,
9.55922e-01,-6.31513e-01,-1.88851e-02,-9.50133e-03,4.68901e-01,-1.73800e-01,1.03458e-01,-8.60800e-03,4.29372e-02,-4.23617e-02,1.99060e-01,3.24535e-01,2.86303e-01,-1.28542e-01,3.94229e-01,1.24865e-01,-1.25538e-01,-1.04146e+00,-3.35799e-01,-2.07598e-02,-2.45077e-01,-3.88490e-01,-5.56525e-02,2.25893e-01,-9.97191e-02,1.19740e-01,2.69001e-02,1.62811e-02,2.92705e-01,-6.29482e-01,-4.11220e-01,1.24118e-01,-5.02044e-01,1.12384e-01,1.18480e-01,-4.87234e-03,-5.10019e-02,1.75690e-01,2.45274e-01,9.33985e-02,
3.44348e-01,-1.73005e-01,2.38632e-01,1.44801e-01,2.72040e-01,6.33173e-02,1.74779e-01,4.19279e-01,-1.14397e-01,-8.36595e-02,3.21485e-02,-4.60340e-02,2.93704e-02,1.42837e-01,3.58512e-01,1.79741e-01,-1.51480e-01,1.62476e-01,-4.31980e-01,3.33375e-01,-1.24866e-01,-7.87244e-01,-5.78418e-02,2.29532e-01,1.16056e-01,-6.10387e-01,-3.47852e-01,9.67791e-01,-1.38625e-01,-3.48697e-02,-3.56916e-02,-1.35762e-01,5.41304e-03,-1.34617e-01,-3.62056e-01,4.00703e-01,-6.46006e-01,-6.02175e-01,-2.13118e-01,5.57109e-01,
5.86698e+00,-1.26614e-01,1.46487e-01,-1.26381e-01,1.30428e-01,1.65231e-01,1.77759e-01,-1.35013e-01,4.63175e-03,-2.26688e-01,-1.89658e-01,2.60389e-01,2.06621e-01,-1.07020e-02,1.18386e-03,1.82562e-01,-3.10519e-01,-5.07663e-02,5.16397e-02,7.65650e-02,2.20944e-01,1.29912e-01,-2.46836e-01,-1.00741e-02,-2.60179e-02,-3.16264e-02,1.58988e-01,4.85555e-02,-2.50083e-01,-3.18417e-02,-3.55102e-01,-3.86484e-02,5.83745e-02,8.99134e-02,2.18914e-01,1.10526e-01,-2.64065e-01,2.02000e-01,-1.11569e-01,-2.76172e-02,
4.45198e+00,-3.11323e-01,7.05429e-02,8.66441e-04,-2.27550e-01,-3.90784e-01,5.07922e-02,1.83283e-01,2.38355e-02,1.47140e-01,2.95447e-01,1.01845e-01,9.40015e-02,4.22336e-02,-9.07329e-02,-2.74334e-02,3.58835e-01,-3.62709e-01,7.78005e-02,-3.25715e-02,5.34432e-02,1.43996e-01,3.35904e-02,-3.51495e-02,-7.47915e-02,1.02080e-01,8.59981e-02,2.56744e-01,-1.33081e-02,2.37822e-01,-3.55951e-01,3.46027e-01,-8.08601e-02,3.67516e-01,1.87735e-01,1.88131e-01,1.11382e-01,-1.43536e-01,-2.75442e-01,1.61833e-02,
5.24354e+00,-9.04856e-02,5.42244e-02,1.76781e-01,1.43087e-01,1.09690e-01,2.62488e-01,1.33808e-01,-2.27930e-01,1.96997e-01,2.13896e-01,5.98580e-02,-4.29471e-02,3.73737e-01,-1.64423e-01,-2.00330e-01,-2.22803e-01,-4.58931e-02,-1.63722e-01,2.03699e-03,-2.37660e-02,-2.30484e-01,-1.31402e-01,-1.02350e-01,1.10517e-01,-1.11309e-01,3.66351e-01,9.96162e-02,2.37381e-01,-1.28383e-01,-3.57516e-02,-7.99716e-02,-1.09331e-01,2.05716e-01,1.93582e-01,-3.11485e-01,2.71586e-01,1.43374e-01,2.78753e-04,2.22474e-01,
3.41592e+00,2.88129e-01,-1.55306e-01,-1.17057e-02,-5.22126e-02,-7.40172e-02,8.59338e-02,-1.64079e-01,8.17756e-02,-8.62643e-03,6.28902e-02,9.13856e-02,-1.17347e-01,5.67997e-02,-8.08027e-02,-3.31154e-02,-5.83587e-03,2.01945e-01,-1.80821e-01,-7.06040e-02,1.32509e-01,-8.74480e-02,2.02613e-01,-4.70616e-02,8.19915e-02,2.77680e-02,4.10904e-01,1.15787e-01,2.78393e-01,6.92088e-02,-1.54880e-01,-1.44237e-01,-8.24596e-02,1.72344e-01,1.29722e-01,-5.96874e-02,-2.14947e-02,-1.14696e-01,1.91873e-01,-2.39260e-01,
9.92281e-01,-3.10924e-01,-5.06696e-02,3.53134e-01,-1.46110e-01,-8.22131e-02,2.47451e-01,3.89966e-01,-9.41977e-02,7.61538e-02,4.02065e-02,1.03753e-01,-1.13801e-02,2.43389e-01,1.53531e-01,2.06122e-01,7.15942e-02,-3.13855e-02,-1.96054e-01,-1.47208e-01,-4.16182e-02,2.96764e-01,-1.47279e-01,-5.94144e-02,-2.49431e-01,-1.82105e-01,6.65935e-01,2.41579e-02,3.60790e-01,4.98596e-01,2.57433e-02,1.91214e-02,-5.16697e-01,-3.15255e-01,-4.18423e-01,2.22776e-01,6.53744e-01,-3.68422e-01,-4.40774e-02,-3.54614e-02,
6.26623e+00,3.88711e-02,1.06345e-01,-7.89496e-02,1.65609e-01,-3.66312e-02,-2.36986e-02,7.82043e-02,1.27482e-01,-1.87662e-01,1.15924e-01,3.03528e-01,4.28080e-02,-1.60681e-02,-6.74238e-02,-4.26629e-02,2.43076e-02,3.02821e-01,-1.92743e-01,-2.33284e-01,-6.75566e-02,-2.77464e-01,1.24104e-01,-8.88919e-02,1.13957e-01,1.37916e-02,8.60265e-02,3.02887e-02,1.97234e-01,1.96205e-01,-1.47575e-01,9.72329e-02,-1.14304e-01,2.28504e-01,5.71455e-02,4.54839e-02,-1.01377e-01,-1.41417e-01,4.13515e-02,-3.02851e-01,
4.25874e+00,9.14873e-02,-1.75758e-02,-1.21262e-01,-6.97289e-02,6.14310e-02,-5.24027e-02,-2.79086e-03,-7.51694e-02,-5.88615e-02,2.05101e-01,1.17439e-01,-2.52129e-01,1.79425e-01,1.09600e-01,-3.42062e-02,1.17649e-01,5.24301e-02,8.53460e-02,-1.73213e-02,7.94310e-02,3.19480e-02,-4.36845e-02,5.08758e-02,-7.76941e-02,-1.90421e-01,2.57607e-01,-1.00038e-01,1.68660e-01,1.68824e-01,-1.40335e-01,2.85537e-02,3.03461e-02,1.09205e-02,1.23789e-02,8.34389e-02,8.34122e-02,5.74100e-02,6.78777e-03,6.23214e-02,
5.90458e+00,-3.90744e-01,-4.01493e-01,6.00405e-02,7.40377e-02,-6.09740e-02,3.56572e-02,6.93886e-02,1.76302e-01,1.16355e-01,-1.19337e-01,-1.25212e-01,-1.77887e-01,-1.01249e-01,7.69568e-02,3.79756e-02,7.92102e-02,-1.02205e-01,-1.30133e-01,2.13507e-01,-4.15623e-01,-5.71479e-02,-1.84895e-01,3.99135e-02,-4.55537e-02,3.85720e-01,-4.66330e-02,2.36621e-01,4.04468e-03,3.76703e-02,-2.58990e-01,3.16010e-01,1.70371e-01,-3.86564e-02,1.73086e-01,8.10755e-02,7.35743e-02,4.59760e-02,8.73660e-02,-5.53965e-02,
3.91612e+00,1.38591e-02,-9.30442e-02,1.40392e-01,1.76524e-02,-8.65253e-02,4.00806e-01,2.29022e-01,-5.15610e-02,-1.23906e-01,-6.72718e-02,5.15745e-02,-1.92621e-01,1.10885e-01,-3.64719e-02,7.80519e-02,-2.29659e-01,-8.78673e-02,1.67765e-01,-1.54497e-01,2.22056e-01,3.75957e-02,-1.59279e-02,-2.85906e-02,7.02530e-02,-2.54794e-02,2.00283e-01,-2.18009e-01,3.12394e-01,3.35457e-01,-2.80792e-01,-1.61606e-01,2.13376e-01,-2.01086e-01,8.78059e-02,1.63403e-01,1.68967e-01,-4.60841e-02,-2.43373e-03,-1.86878e-01,
3.37455e+01,-1.62258e-01,1.15583e-01,-2.76400e-01,-2.02327e-02,1.99452e-01,-6.05695e-01,1.19230e-01,-3.16486e-01,1.74029e-01,-2.56067e-01,-1.71315e-01,1.36147e-01,5.46132e-02,-9.16144e-02,3.92459e-02,2.54062e-01,8.72380e-02,-7.51551e-02,-1.43276e-01,-3.26333e-02,7.26884e-02,8.54407e-02,8.09395e-02,8.57878e-02,1.56308e-01,4.37252e-02,2.32572e-02,-1.23165e-01,-2.63218e-01,9.54846e-03,1.47280e-01,-9.14085e-02,1.34736e-01,2.39911e-01,-4.20295e-01,2.25464e-02,9.87564e-02,9.67074e-02,-2.28772e-01,
2.09575e+00,-1.39418e-03,1.63241e-01,1.82675e-01,-4.01433e-02,9.56319e-02,3.73625e-02,6.66715e-02,8.49811e-04,1.22927e-01,-1.40493e-01,1.96283e-01,-6.11262e-03,-2.21450e-01,-7.54547e-02,2.27522e-01,-7.96346e-02,2.52035e-01,-5.84186e-02,-9.83299e-02,2.30875e-02,-1.13527e-01,-1.65006e-01,2.47933e-02,9.82259e-02,-2.36357e-01,2.35702e-02,4.72256e-02,2.36328e-01,-1.00018e-01,-4.97883e-02,-3.06816e-02,1.04224e-01,1.27471e-02,-1.39894e-01,-1.38673e-01,3.49063e-02,6.18034e-02,8.21913e-03,-9.07149e-02,
6.91542e+00,-2.88170e-03,-3.23225e-02,-1.88353e-01,1.07572e-02,3.00058e-01,-5.98540e-02,-7.11972e-01,-3.08419e-02,-4.85854e-02,1.82247e-01,1.31733e-01,2.11035e-01,2.26152e-01,-1.08403e-01,-1.72749e-02,2.82059e-01,-9.66883e-02,-1.02419e-01,2.88832e-01,2.05725e-01,1.98596e-01,5.76830e-02,3.43949e-01,-1.31738e-01,-1.69505e-01,-1.81520e-01,9.99913e-02,-3.23668e-01,-2.10072e-01,-2.90242e-01,-2.81439e-01,1.45110e-01,-1.83540e-02,-1.42224e-01,-4.68788e-02,3.68611e-01,7.09553e-03,1.11201e-01,6.94111e-02,
5.11766e+00,1.47414e-04,5.50782e-02,-1.10727e-01,7.30739e-02,-1.67155e-01,1.24495e-01,-1.38231e-01,2.28769e-03,-5.56098e-02,2.32034e-01,5.41551e-02,3.65727e-02,9.25349e-02,-1.97204e-01,6.50662e-02,1.17367e-01,3.12433e-01,-4.27568e-03,-1.82932e-01,3.51532e-02,-2.29548e-02,-1.34091e-01,-3.29704e-02,1.31976e-01,2.44492e-01,8.71626e-03,-3.88642e-02,2.14704e-01,-5.21501e-02,-2.64774e-01,-1.45969e-02,7.67329e-02,-3.67622e-01,-1.93147e-02,1.72136e-01,1.73136e-01,3.52727e-01,1.93741e-01,1.34866e-01,
1.17490e+01,3.28695e-02,2.68721e-01,-7.26348e-02,2.82317e-02,-7.13031e-02,-1.24015e-02,-2.00009e-01,-7.79036e-02,-2.35996e-01,-8.04445e-02,-6.30164e-02,-2.33878e-02,-2.61739e-01,1.49062e-01,-1.74562e-01,-5.79892e-02,-1.00409e-01,8.21813e-02,-1.52454e-01,3.13633e-02,-1.00481e-02,-4.09406e-01,1.26790e-03,-8.69380e-02,-4.91332e-02,-1.58816e-01,-5.20157e-02,-4.91414e-02,2.97099e-01,-1.99809e-02,-5.11736e-02,-4.95177e-02,-1.12204e-01,-2.82007e-01,3.41116e-02,1.59864e-01,7.49430e-02,-2.03897e-01,-1.78359e-01,
4.44629e+00,-3.09774e-03,9.00277e-02,-3.19524e-02,-2.54013e-02,-6.96152e-03,-2.26270e-01,1.84735e-01,5.34283e-02,1.17294e-01,-1.92613e-01,-2.12218e-01,-2.18611e-01,1.45040e-01,-1.08793e-01,-1.76383e-01,8.40837e-02,1.70673e-01,-2.56711e-01,-5.91164e-02,-9.08360e-02,-2.86680e-02,2.22951e-01,4.31823e-02,3.57786e-01,7.58454e-02,-1.44391e-01,-1.38231e-01,1.30373e-01,-2.01685e-02,5.46136e-02,3.96840e-02,-3.55413e-01,-5.18783e-02,-1.98690e-01,2.13997e-02,6.04528e-02,-1.52968e-01,3.16057e-01,3.31226e-02,
7.29597e-01,-1.27729e-01,9.73266e-02,2.00426e-01,-1.80049e-01,-3.78375e-01,-3.23113e-01,2.57443e-02,3.74896e-01,6.93106e-01,-4.23104e-01,1.24948e-01,-3.01442e-01,4.51699e-01,2.18879e-01,-3.29968e-01,-3.55799e-01,-1.25136e-01,-1.28471e-01,-3.01155e-01,9.84005e-02,-3.82939e-01,5.23005e-01,2.24676e-01,1.15998e-01,1.53495e-01,-3.90557e-01,1.24565e-01,-9.14132e-02,5.43802e-03,-4.03918e-01,3.00754e-01,-8.56656e-02,7.79620e-02,2.24692e-01,-2.17691e-01,-1.98180e-01,-1.06082e-01,2.98425e-01,-3.23103e-01,
5.21619e+00,1.51852e-01,-6.32715e-02,-1.91741e-01,1.03269e-01,-1.25623e-02,6.40556e-02,5.06454e-02,6.89332e-02,4.73769e-01,-1.71541e-01,-2.73882e-01,-1.30438e-01,-7.02377e-02,-1.81311e-01,-1.98315e-01,-1.22321e-01,-2.97453e-01,-5.32891e-02,-6.63850e-02,3.64285e-03,-1.36798e-01,-2.46153e-02,-1.95387e-01,9.99470e-03,-2.43165e-02,-2.18659e-01,6.32447e-02,2.82222e-01,-1.78458e-02,-2.49635e-01,-4.76598e-02,-1.01306e-01,8.44742e-02,-1.04627e-01,-1.57252e-01,1.59323e-01,3.60899e-02,-3.49458e-01,-4.66743e-01,
5.11220e+00,-9.18341e-03,4.19561e-01,5.89644e-02,-1.09269e-01,1.90012e-01,1.38276e-01,-8.95180e-02,-1.04805e-01,1.47822e-01,7.21269e-02,4.62944e-02,9.47738e-02,-2.00396e-01,9.54907e-02,5.84053e-03,9.98125e-02,8.84249e-02,-9.23662e-02,-3.37793e-01,8.78959e-02,4.33831e-04,1.12555e-01,-2.09611e-01,1.84495e-01,7.62202e-02,2.49098e-02,-9.73867e-02,1.19738e-01,1.38489e-01,-1.25056e-01,1.80745e-01,-1.84704e-01,1.89677e-02,1.64947e-01,-1.25432e-01,3.96395e-01,1.38007e-01,-6.71098e-02,-3.01205e-01,
4.43486e+00,-9.58005e-02,1.18189e-01,4.03886e-02,1.03142e-02,-7.30269e-02,2.45968e-01,3.09888e-02,6.64590e-02,-7.32299e-02,-1.93915e-01,-2.45581e-02,1.23737e-01,-1.50062e-01,-2.15623e-01,-2.84297e-01,2.10093e-01,1.05088e-01,1.14605e-01,3.08483e-02,-1.24777e-01,-3.10878e-01,4.67647e-02,2.75067e-01,-1.65941e-01,-2.49634e-01,3.46980e-01,-1.74741e-01,-5.02183e-02,-2.35689e-01,-1.78745e-01,3.58411e-01,1.73941e-01,1.01349e-01,-1.21068e-01,1.29093e-01,6.07389e-03,-1.98633e-01,-2.46963e-01,-1.91206e-01,
5.05266e+00,-2.17845e-01,2.21516e-01,-2.12127e-01,-1.92846e-01,-7.79851e-02,-2.48656e-01,-6.18875e-02,-8.52097e-02,1.10095e-01,-7.79620e-02,-2.46638e-01,2.31866e-01,-7.54481e-02,3.22913e-02,8.01294e-02,-8.33170e-02,-2.77619e-01,-3.64079e-02,-1.48187e-01,2.69597e-02,-3.65825e-01,1.72109e-01,9.52332e-02,-8.06590e-02,2.62456e-01,2.78009e-02,1.35722e-01,-8.97064e-03,-2.44231e-01,-1.16419e-01,-3.00028e-01,2.08877e-01,-1.28420e-01,2.53051e-01,4.51063e-01,-2.58841e-02,-3.78484e-01,3.97930e-02,-3.82496e-02,
5.49580e+00,-2.78540e-01,-1.49306e-01,4.06347e-02,6.61346e-02,-1.28130e-01,6.61700e-02,3.87067e-02,1.60507e-01,1.79245e-01,1.16895e-01,2.33106e-01,-5.60959e-02,1.98656e-01,-6.96288e-02,-9.52428e-02,-3.40773e-01,3.70261e-03,-2.08708e-01,1.09402e-01,-3.67665e-01,2.26845e-01,1.06956e-01,-1.06673e-01,2.90887e-01,2.29524e-01,-6.81816e-02,5.79054e-02,-2.77848e-01,9.50819e-02,1.13496e-01,4.24153e-02,-9.43194e-02,1.59265e-01,9.89053e-02,-1.22294e-01,1.15463e-01,-1.63474e-01,-3.93293e-02,-2.02503e-01,
5.33614e+00,-3.56797e-01,-2.68769e-01,3.54550e-01,1.94361e-01,2.32035e-01,-3.52390e-01,-1.30197e-02,4.02289e-02,2.53568e-01,-1.15175e-01,-5.24528e-02,-1.27697e-01,1.38915e-01,1.25783e-01,1.61081e-01,4.11961e-03,-2.00590e-02,-1.39738e-02,-1.88245e-01,-1.18759e-01,-3.04180e-02,-2.29442e-01,7.85738e-02,2.22437e-02,-9.22845e-02,2.58418e-02,2.55963e-01,3.72089e-01,7.35114e-02,1.19696e-01,4.51819e-01,7.97155e-02,2.36693e-01,-1.35580e-01,2.74571e-02,-8.22177e-02,3.60567e-01,-2.58012e-01,1.04931e-01,
9.82588e-02,3.73907e-01,1.90029e-01,-5.47036e-01,-2.56590e-01,1.86747e-01,2.81867e-01,5.66227e-01,1.22811e-01,3.38308e-01,-3.34132e-01,-5.20824e-01,-4.72955e-01,1.04046e-01,9.59150e-02,3.00812e-01,-3.81095e-01,3.87037e-01,-4.58039e-02,5.29758e-01,-4.10750e-03,-8.18364e-01,3.19577e-02,1.89593e-01,1.25238e-01,3.91684e-01,3.89549e-01,-1.17913e-01,2.14469e-01,2.44318e-01,3.31352e-01,4.07914e-01,4.26952e-01,4.37161e-02,-2.17326e-01,-3.37011e-01,4.40142e-01,5.50718e-01,7.89957e-03,-1.79399e-01,
2.27140e+01,-2.61508e-01,1.51163e-01,-3.89994e-02,-2.00610e-01,5.10151e-02,-1.32786e-01,1.58120e-01,-4.00694e-01,-2.01595e-01,-1.39626e-01,1.74959e-01,2.34299e-01,-2.46786e-01,-1.24256e-01,-2.17577e-02,2.60272e-02,-2.26576e-01,-9.89003e-02,-2.03261e-01,3.29355e-01,-2.11296e-01,4.76931e-01,-1.53962e-01,-1.59074e-01,2.47713e-01,-1.23140e-01,-1.34000e-01,4.50933e-01,4.70103e-01,-2.55919e-01,-2.60457e-01,-1.30895e-01,2.08498e-01,1.36326e-01,2.83158e-01,5.43087e-02,-1.78705e-01,-1.55106e-02,-3.27363e-01,
1.89081e+00,-5.52922e-03,1.99884e-01,5.85400e-02,-2.15429e-02,1.99751e-01,5.11012e-01,-1.92500e-02,2.70879e-01,4.15199e-02,1.85755e-01,3.34526e-01,1.72901e-01,2.77149e-01,-2.75068e-01,-1.10725e-01,-1.87926e-01,8.43466e-02,1.40471e-02,-1.39312e-01,-4.50130e-01,-3.51644e-02,4.19227e-01,-4.56084e-02,-1.69479e-02,1.23892e-01,6.05324e-02,-2.14183e-01,-4.80284e-03,1.62096e-01,2.51069e-01,-2.32501e-01,1.39789e-01,3.02752e-01,-8.57276e-02,-1.00615e-01,2.39411e-01,6.33208e-01,-2.38079e-01,4.15143e-01,
5.09087e-01,1.82483e-01,3.55994e-02,1.98830e-01,6.81715e-01,1.88970e-01,2.28097e-01,-2.86704e-01,-6.23703e-01,1.46774e-03,3.45090e-01,-8.00672e-02,-6.06961e-01,-1.37542e-02,-7.03044e-01,4.68870e-01,-1.69792e-02,5.14704e-01,-5.04734e-01,-1.06756e-01,-1.85402e-02,-2.53970e-01,1.93410e-01,-3.25033e-01,1.71014e-01,-1.34767e-01,-7.39399e-02,-2.98878e-01,-3.10825e-01,4.87272e-02,1.91467e-01,1.67819e-01,3.72822e-02,-2.06785e-01,4.81471e-01,-1.21952e-01,2.90181e-01,-3.24830e-01,-2.22887e-01,-2.51107e-01,
2.91098e+00,-2.90239e-01,-1.06133e-02,-3.66211e-02,-6.53767e-02,-9.20112e-02,-2.57882e-02,-2.02706e-02,4.38726e-02,-2.46776e-02,-6.73859e-02,-1.47336e-01,-8.97400e-02,-2.61059e-02,-1.68958e-01,-5.18697e-02,-3.65885e-02,-6.26308e-02,4.06901e-02,4.78589e-02,5.52479e-02,-3.41316e-02,-4.07952e-02,3.44129e-03,7.87735e-02,1.61242e-01,2.64030e-02,-1.06410e-01,-3.01285e-02,-1.80251e-01,-2.46463e-02,1.27474e-01,-1.01196e-01,8.74106e-02,-8.84617e-02,5.78482e-02,-8.93390e-04,-7.81080e-02,-2.83520e-02,-1.39396e-01,
6.06248e+00,-1.12126e-02,9.64754e-03,5.63751e-03,2.39703e-01,5.76709e-02,1.87972e-01,1.59973e-01,3.17613e-01,1.13051e-01,-1.94999e-02,2.91718e-01,-4.69946e-02,-1.68253e-01,1.74425e-01,3.03223e-01,-8.16890e-02,-2.66245e-01,3.82876e-01,-1.80958e-02,1.34055e-01,-1.02979e-01,2.07035e-01,2.31335e-01,2.65200e-01,-1.07294e-01,3.33420e-01,-1.69395e-01,-1.09404e-01,-4.96819e-02,1.40029e-02,2.06763e-01,-2.15656e-01,6.17738e-03,-1.50659e-01,-5.83842e-02,-1.22166e-01,-1.10638e-01,-5.16847e-02,5.88264e-02,
1.21410e+00,4.89092e-01,4.74557e-01,-1.73319e-01,-1.10415e-01,-1.19044e-01,-5.44775e-02,-5.46628e-02,-3.39086e-01,-2.02751e-01,-3.30013e-01,2.69556e-01,-2.23492e-01,6.70340e-01,-5.21682e-02,-3.12860e-01,6.92386e-02,-9.96537e-02,2.45377e-01,3.71996e-01,-3.07320e-02,1.87934e-01,4.14012e-01,-9.28826e-02,3.92299e-01,-4.53294e-01,4.52639e-01,-1.36040e-02,2.47085e-01,-8.59681e-02,1.32561e-01,1.82892e-01,4.34000e-02,-2.04643e-01,-1.23854e-02,-1.25823e-02,1.98868e-02,8.53677e-02,-4.57079e-02,-2.19779e-01,
7.29414e-01,-8.34721e-02,5.27799e-01,4.92152e-03,-1.60195e-01,-3.52935e-01,1.82021e-01,-6.17512e-01,-4.91688e-01,-3.35064e-01,1.26019e-01,-3.37708e-01,-2.36569e-01,3.95625e-01,-2.12775e-01,3.15047e-02,-1.44501e-02,-3.53455e-01,2.35741e-01,1.35575e-01,7.02784e-02,4.45114e-01,3.80700e-01,2.07015e-01,5.04917e-01,-3.20451e-01,-6.24165e-02,3.99019e-01,-2.24973e-01,-6.48617e-01,-9.23885e-02,3.16173e-01,7.52649e-02,1.35494e-02,4.33060e-01,3.69602e-01,2.40035e-01,-1.68433e-01,2.29328e-01,-1.26256e-02,
4.55916e+01,-1.08739e-01,9.49687e-03,-5.04187e-02,-1.03608e-01,6.65650e-02,-1.20651e-01,7.00570e-02,-5.68358e-02,3.11586e-03,-3.94423e-02,1.31179e-01,1.92792e-01,-8.85467e-02,1.38658e-01,-2.45089e-02,1.62642e-01,-7.23148e-02,-2.11040e-02,-2.73818e-02,-3.06212e-02,-1.31138e-01,1.09425e-01,-4.64714e-02,-4.84935e-02,1.55605e-03,-1.23602e-01,-1.41175e-01,3.92107e-02,6.11687e-02,-5.35504e-02,1.23624e-02,1.20083e-01,7.85721e-02,-3.14731e-02,-1.05393e-01,-1.46761e-01,-1.84708e-02,1.39256e-02,-9.09592e-02,
6.08649e+00,-1.22724e-01,-2.02584e-02,5.05580e-02,1.95411e-01,3.63091e-02,-6.57608e-02,1.10096e-01,-1.95545e-01,2.29607e-01,-1.57831e-01,-2.38001e-01,-4.37377e-02,1.69937e-01,-9.35061e-03,2.47083e-01,1.49717e-01,-1.76648e-01,-2.85490e-02,2.27095e-01,-1.32579e-02,-1.93760e-02,4.43064e-02,2.46021e-01,7.71759e-02,-6.78136e-02,2.37496e-01,-1.69766e-01,-1.45120e-01,2.12111e-01,-1.76065e-01,3.41284e-01,-1.41724e-01,-2.40594e-02,-1.95439e-02,2.18093e-01,1.34952e-01,-1.72328e-01,3.71924e-01,2.02665e-02,
3.91410e+00,-1.32109e-01,1.40505e-01,-3.87406e-02,5.16993e-02,-2.26317e-01,1.14392e-01,-9.08190e-02,1.77299e-01,-5.22360e-02,1.71449e-01,2.60303e-01,-4.42750e-03,-2.04287e-01,-6.10629e-03,9.45069e-02,-2.12335e-01,-1.20633e-01,1.71626e-01,3.44443e-02,4.89354e-03,-5.94573e-02,3.35668e-01,-5.15291e-03,1.16091e-01,7.52116e-02,8.27006e-02,-8.85097e-02,3.12651e-01,2.96858e-01,-6.68284e-02,-1.18797e-01,-9.99712e-03,2.17360e-01,1.49194e-01,-6.40317e-03,-4.14556e-02,-5.01372e-02,-2.57911e-01,1.45889e-01,
5.22156e+00,2.47078e-01,1.37002e-01,1.21491e-01,-3.52992e-01,-6.50293e-01,8.25209e-02,-2.49665e-01,-1.73073e-02,-1.57848e-01,2.83901e-01,-1.50669e-01,6.28611e-01,-2.43779e-01,-4.60927e-01,-7.54801e-02,-1.76527e-01,3.18001e-02,1.56708e-01,1.08154e-01,-3.03167e-01,9.91201e-02,-2.13121e-01,-8.25107e-02,5.89094e-02,-1.40688e-01,-1.74692e-01,-3.00739e-02,-2.48240e-01,-8.89526e-02,3.07687e-01,8.03964e-02,-1.17292e-01,4.38932e-02,-1.33498e-01,-8.33137e-02,-3.37239e-01,2.42835e-02,-1.53740e-01,1.57504e-02,
-2.87822e-01,-5.60439e-01,-7.61144e-01,-3.38240e-01,-1.63982e-01,-1.16063e-01,-5.98188e-02,-3.88554e-01,6.26785e-01,9.22800e-02,1.84935e-02,8.66958e-02,3.76400e-01,-5.08099e-01,-6.74256e-02,-3.23782e-01,-6.94678e-01,1.60176e-01,-3.61333e-01,-3.03524e-02,6.92489e-01,-1.11359e-01,9.29034e-01,-4.30495e-01,-1.62066e-01,4.18320e-02,5.24715e-01,4.73028e-01,1.85388e-01,-2.97569e-01,7.25167e-01,1.67273e-01,-3.82225e-01,-9.21796e-02,-3.94342e-01,4.34495e-01,2.81400e-01,3.04794e-01,2.18339e-01,3.08467e-01,
4.97268e+00,3.22507e-02,1.54551e-02,-1.09733e-01,-7.73481e-02,-2.24108e-02,-1.14890e-01,-2.49823e-01,-1.37016e-02,1.24095e-01,-8.32857e-02,1.37144e-02,2.75329e-01,5.15821e-02,1.76334e-01,-2.41663e-02,9.03429e-02,3.59021e-02,-1.96930e-01,8.27960e-02,2.63525e-01,-3.13808e-02,-1.42541e-01,-1.47355e-01,-1.35042e-01,8.91135e-02,-5.02843e-03,2.32794e-01,7.14513e-03,-6.08974e-02,1.35337e-01,1.31762e-01,1.61147e-01,-1.02726e-01,-5.18444e-02,5.48018e-01,-7.61405e-02,-3.84272e-02,3.18442e-01,-1.66125e-01,
5.46640e+00,1.30926e-01,-1.13358e-01,-1.34706e-01,1.14490e-01,1.40323e-02,5.56908e-02,-4.64728e-02,-1.02587e-01,-6.46504e-02,1.35411e-01,-9.53064e-02,-1.16691e-02,-4.15731e-02,1.72333e-01,1.19971e-01,1.13341e-01,-9.84876e-02,1.76555e-01,1.39260e-01,-1.18494e-02,9.42261e-03,4.04669e-02,1.56999e-01,8.66813e-03,-1.37171e-01,9.55998e-02,-1.01504e-01,1.20159e-01,-1.70005e-02,-1.35613e-01,1.50929e-01,9.42367e-02,6.54970e-02,-1.05654e-01,9.59380e-02,4.27981e-02,2.10464e-01,2.92738e-02,2.24848e-02,
2.69670e+00,-3.50096e-02,3.65717e-02,1.95756e-02,-3.69341e-02,-1.09596e-01,-5.80675e-02,-2.26198e-01,2.19186e-01,8.50221e-02,-1.96948e-01,2.14296e-01,-2.04393e-01,1.69690e-01,2.20400e-01,3.49302e-01,5.16401e-02,9.74880e-02,6.77310e-02,4.06403e-02,-3.82692e-01,-7.60726e-02,-6.54682e-02,5.61756e-02,1.99480e-01,6.05699e-02,8.68941e-02,-1.47890e-01,1.01697e-01,1.55291e-01,-3.24710e-01,-2.77817e-02,1.37446e-02,2.50768e-01,-2.04830e-01,-1.79938e-01,2.16165e-01,2.00552e-01,-3.60722e-01,1.00828e-01,
5.97721e+00,-4.27684e-01,-3.07230e-01,4.36132e-02,1.51733e-01,-4.16706e-02,-1.08340e-01,-3.39359e-01,-5.86970e-02,-1.35195e-01,1.80487e-01,9.57424e-02,-2.68800e-01,1.81648e-01,2.25490e-01,2.68398e-01,-4.19685e-02,8.04816e-02,-1.89997e-01,-4.76420e-02,-1.72872e-01,-2.80125e-02,9.04389e-02,-4.62325e-02,1.25668e-01,1.29146e-01,-1.71166e-01,-2.12099e-02,6.04301e-02,-1.32696e-01,1.52245e-01,1.15887e-01,1.34267e-03,-2.29676e-01,5.45135e-02,-2.65472e-01,2.05594e-02,-9.30700e-02,1.37679e-01,-1.53360e-01,
5.71612e-01,-1.41726e-01,-3.63020e-01,3.45534e-01,-1.40023e-02,6.92095e-01,-1.71525e-01,-2.99173e-01,7.19039e-01,-1.84212e-01,2.65436e-01,1.13338e-01,-1.30810e-01,-2.57446e-01,-3.54795e-01,-6.25634e-01,-5.05348e-01,1.57207e-01,-2.05706e-01,1.13556e-01,-3.40962e-01,-3.90208e-01,-3.31386e-01,-3.66000e-01,-2.97345e-01,4.72446e-01,4.48300e-01,1.84394e-02,-2.21702e-01,7.62352e-01,1.84966e-01,-7.59592e-01,3.79393e-01,6.33307e-01,2.77576e-02,1.45185e-01,1.56315e-01,3.00249e-01,-6.69763e-02,1.75519e-01,
4.56200e+00,-1.31423e-01,5.71445e-02,4.56375e-02,-1.45750e-02,1.35905e-01,1.01319e-01,-2.10887e-01,-2.60286e-01,-6.23743e-02,4.57228e-02,2.55382e-02,1.26136e-02,-2.69687e-02,-1.00871e-01,-5.48094e-02,1.92753e-01,-2.03490e-01,6.17469e-02,4.83354e-02,-6.16772e-02,-4.37565e-02,-4.88842e-02,-1.28158e-02,-1.25887e-01,1.24464e-01,1.74535e-01,1.39937e-01,7.76375e-02,2.89504e-03,-2.16254e-01,-1.65193e-01,-6.36795e-02,7.52290e-02,1.55530e-01,3.47438e-02,1.77531e-01,2.28222e-01,-5.50997e-02,-1.91385e-02,
2.75916e-01,-3.81806e-01,1.77909e-01,-3.01399e-01,7.20803e-02,-9.11059e-01,3.11829e-01,-2.42465e-01,1.28709e-01,-3.65824e-01,4.00713e-01,-2.28293e-01,1.98806e-01,-3.34792e-01,4.29533e-01,-3.57643e-01,3.16966e-01,-9.73627e-02,4.08821e-01,2.67942e-01,5.87059e-01,-1.02092e-01,1.49807e-01,-3.15075e-02,1.17321e-01,-6.62589e-01,-1.57045e-01,-6.01952e-02,-4.57063e-01,3.89616e-01,-2.96406e-01,-1.99721e-01,-1.03700e-01,-6.24099e-01,2.02746e-01,-7.93077e-01,4.17545e-01,-1.12736e-01,-6.47902e-01,5.55528e-01,
5.42987e+00,-1.08113e-01,-2.25048e-01,-5.13892e-02,-2.24265e-01,-3.59569e-03,2.33992e-01,-9.12074e-02,-2.56629e-02,-6.65142e-02,2.94295e-01,-3.43663e-01,1.57387e-01,-1.37686e-01,4.14015e-02,-1.26519e-01,2.65801e-01,-3.02558e-02,3.07945e-02,-2.27885e-01,8.73770e-02,1.08233e-02,1.64135e-01,1.50176e-01,1.61262e-01,2.87820e-01,-1.51440e-01,-2.75270e-01,2.95732e-03,-1.33455e-01,-1.17740e-02,-2.35409e-02,3.54556e-02,-2.22314e-01,-4.16012e-01,2.07873e-01,-2.82832e-02,3.83750e-02,-8.58590e-02,-1.12732e-01,
4.72769e+00,-1.94012e-01,-8.81093e-02,-1.22804e-01,-1.31109e-04,-3.81565e-01,1.65635e-01,2.60203e-02,-1.11998e-01,2.24438e-01,-8.38162e-02,1.01087e-01,-2.79622e-03,5.78374e-02,7.80082e-02,1.22076e-01,1.69151e-01,1.27960e-01,-5.45891e-01,4.65830e-02,2.89743e-01,-7.20624e-02,-7.93010e-02,-5.00782e-01,1.22466e-01,-2.20212e-01,1.40635e-01,-1.67407e-01,4.03013e-01,-3.00221e-01,1.38479e-01,1.79961e-01,1.73913e-01,-1.57562e-01,-8.85767e-02,6.63276e-03,-1.44281e-02,-1.28679e-01,-1.03556e-01,2.34161e-01,
2.34513e+00,6.50139e-02,1.67300e-01,1.14102e-01,1.32329e-01,5.06274e-02,5.68832e-02,-1.42806e-01,-1.47418e-01,1.22307e-02,-2.35762e-01,2.89833e-02,1.55954e-02,4.26679e-01,-1.91377e-01,-2.80981e-02,8.90155e-02,1.10451e-01,1.36220e-01,-2.65243e-01,-7.42422e-02,-1.23265e-01,1.86443e-02,-6.62318e-02,2.64997e-02,-3.87982e-01,1.06774e-01,2.12522e-01,1.29755e-01,-1.06845e-01,1.38845e-01,4.75337e-02,-2.02350e-01,-9.09495e-02,9.12579e-02,8.84926e-03,2.90774e-02,-3.72008e-02,5.92073e-02,1.76405e-01,
4.89651e+00,-6.66026e-03,-1.81128e-01,-2.51699e-01,4.99330e-02,-1.15758e-01,1.35402e-01,6.51271e-02,2.92229e-01,-1.65286e-02,3.35199e-02,4.22192e-02,-2.72492e-01,1.44415e-01,-9.74077e-02,7.63156e-02,-9.59809e-02,5.62187e-02,1.98700e-02,-7.37686e-02,-2.25722e-01,-6.43279e-02,-1.21502e-02,1.53168e-01,-4.38759e-02,3.00880e-01,-3.01491e-01,-1.96632e-02,-1.03841e-01,-1.65563e-01,-1.08734e-01,-1.21824e-01,2.44097e-01,-8.88042e-02,2.87054e-02,5.25979e-02,-1.90005e-01,1.43299e-02,1.68581e-02,-7.09606e-02,
4.40179e+00,-3.25329e-01,-1.14224e-01,-2.52645e-01,-4.58965e-02,2.20690e-02,-4.50976e-01,-2.79086e-01,-1.63307e-01,2.46610e-01,-8.73675e-02,-1.46330e-01,1.78497e-01,-1.14332e-01,-6.66961e-02,-3.59297e-01,4.01074e-03,1.46737e-01,2.66317e-01,1.35218e-01,-3.28417e-01,-2.12714e-01,9.14681e-02,-1.54294e-01,-2.46129e-01,2.55242e-02,-2.71224e-01,-4.87963e-02,3.43952e-02,2.61794e-01,-2.03011e-01,5.27751e-02,-1.94936e-01,8.53307e-02,1.73129e-01,-2.22931e-01,-3.40549e-01,1.26734e-01,-1.27204e-01,-5.47567e-02,
6.28338e+00,-3.37805e-02,1.74481e-01,-4.72340e-02,-1.81369e-02,5.61002e-02,-6.79846e-02,-2.11808e-01,9.65914e-02,1.66893e-01,5.38616e-02,-1.85523e-01,1.18700e-01,-1.82159e-01,-1.02200e-01,-1.88086e-02,-3.87145e-01,-7.40511e-02,-6.45129e-02,-2.00174e-01,2.75800e-01,-7.16818e-02,-1.58061e-01,1.54829e-01,2.03504e-01,-1.89052e-01,-3.57473e-02,5.99594e-02,-3.75666e-01,-2.50230e-01,-5.95081e-02,1.26368e-01,-1.94580e-01,-1.31944e-01,2.28779e-01,7.72406e-02,-8.22429e-02,4.54949e-03,-2.41996e-02,1.13657e-01,
4.64094e+00,2.75729e-02,-3.02564e-01,-2.98554e-02,2.21912e-02,-1.08743e-02,2.17580e-01,-1.12934e-02,-1.59394e-01,-3.00900e-01,-6.79612e-03,-3.32824e-01,-1.53621e-01,-1.03682e-01,1.26658e-01,-1.01718e-02,-7.42569e-02,-2.02150e-01,2.85091e-01,-2.44355e-02,1.15131e-01,-2.30782e-02,-9.16800e-02,2.28533e-02,3.68736e-02,-5.92087e-02,-7.44500e-02,7.35064e-02,-2.32592e-01,-2.03713e-01,-9.90527e-02,1.80421e-01,-1.08140e-01,3.46451e-02,-5.72524e-02,2.36158e-01,-1.44419e-01,3.92140e-02,-1.30011e-01,-4.12962e-03,
6.93055e-01,-4.66999e-01,-2.41487e-01,7.75676e-01,-9.65354e-02,-9.72014e-02,-5.75844e-01,3.48722e-01,7.31075e-02,3.12211e-02,-8.18121e-04,-3.69059e-01,-1.50035e-01,3.42002e-01,-7.74221e-03,-7.58982e-02,3.49939e-01,-1.55986e-02,-1.01127e-01,8.45237e-01,-2.64502e-01,6.44538e-01,-2.40892e-01,-2.27423e-01,4.14910e-01,3.66562e-02,-5.92040e-01,3.59557e-02,1.45839e-01,-1.63684e-01,-3.93619e-01,4.70665e-01,-3.15466e-01,-4.70913e-01,-5.99794e-02,-1.43672e-01,2.73591e-01,-8.88980e-02,1.15582e-01,-2.21372e-01,
1.42088e+00,-3.90771e-02,-2.29653e-01,1.67457e-01,-3.04167e-01,3.68281e-01,2.07643e-01,2.54817e-01,2.08836e-01,3.91548e-02,3.02283e-01,4.35922e-02,-1.64416e-02,-8.58027e-03,-6.20532e-02,-1.47729e-01,5.06858e-02,-3.86584e-01,-4.73805e-02,-1.18521e-01,5.59124e-01,-5.02252e-02,-2.83681e-01,-4.65319e-01,6.37727e-01,-1.14326e-01,5.52995e-02,-1.55659e-01,-3.59838e-01,1.55538e-01,1.90871e-01,-1.24416e-01,-2.92465e-01,-1.81321e-01,2.32792e-01,3.16250e-01,1.42440e-01,4.44354e-01,2.33287e-01,-1.82950e-02,
4.28214e+00,-1.72200e-01,-1.92483e-01,1.89776e-01,2.90496e-01,4.60419e-02,1.30703e-02,2.01148e-01,3.21851e-01,2.37201e-01,-1.43293e-01,-6.38015e-02,-1.42331e-01,3.30342e-02,-1.63733e-01,-3.47361e-01,-3.02609e-02,-1.42892e-02,7.78612e-02,-1.22411e-01,-2.50390e-01,1.56881e-01,-1.73412e-01,1.12836e-01,-1.73334e-01,3.99908e-02,-2.31945e-02,-8.75577e-02,8.54352e-02,9.72470e-02,-3.58181e-03,6.21396e-02,2.52236e-01,1.84380e-01,2.61325e-01,2.01311e-01,8.51211e-02,1.62552e-01,1.33363e-01,-5.80904e-02,
2.50213e+00,-1.57789e-02,1.54680e-01,2.30778e-01,-1.48778e-01,-7.22420e-02,2.36919e-01,1.61636e-02,2.53147e-01,-2.97902e-02,-8.70113e-02,4.53282e-02,-1.53257e-02,1.88780e-01,-9.19546e-02,-4.55991e-02,-4.49785e-02,-3.29355e-02,7.28210e-02,1.36459e-01,1.14569e-01,1.86835e-01,-9.33067e-02,1.24429e-01,-7.99251e-02,-7.81055e-02,-1.47294e-01,-2.65177e-02,3.95712e-02,3.23897e-01,4.50622e-02,-6.20921e-03,2.96000e-02,1.62112e-01,4.74876e-02,9.86930e-02,2.98963e-01,2.87253e-02,1.47450e-01,-8.12374e-02,
5.40667e+00,4.67550e-02,2.06085e-01,-4.27217e-02,2.69524e-02,-3.17998e-01,3.14075e-01,1.15483e-01,-2.12197e-01,1.30971e-02,4.62212e-02,1.86665e-01,4.62650e-01,-2.76278e-01,-1.64637e-01,-1.17629e-01,-2.53700e-01,-3.93559e-01,-8.32626e-02,-4.29650e-02,7.17110e-02,-1.04481e-01,-1.62637e-02,1.59315e-01,-6.14369e-02,1.20874e-01,-6.08459e-02,-2.07570e-02,4.56802e-02,1.97188e-01,1.46306e-01,1.08795e-01,1.25489e-01,-5.92240e-02,1.55404e-02,8.17867e-02,3.36612e-02,1.03072e-01,3.19894e-02,5.77392e-02,
5.12552e+00,-1.93836e-01,9.26899e-02,-6.03841e-02,9.12910e-02,4.10963e-01,-2.53532e-01,4.79431e-02,3.09519e-01,5.90795e-02,-4.73379e-01,-2.12580e-01,2.08288e-03,2.42680e-02,-2.02039e-01,1.94568e-01,-6.35749e-02,1.71223e-01,9.55601e-03,-2.50443e-02,-3.90737e-01,-1.28993e-01,8.98260e-02,-4.13099e-02,1.79899e-01,1.27520e-01,2.40629e-03,-1.86173e-01,2.90613e-02,3.07391e-01,-7.33202e-02,-2.09393e-01,2.87118e-02,-1.71499e-02,2.33405e-01,-2.45031e-01,-6.80132e-02,8.35140e-02,8.38290e-02,2.38073e-01,
2.02127e+00,1.68243e-01,-1.15732e-01,1.43902e-01,1.06550e-01,3.67964e-01,2.74816e-01,-4.13263e-02,2.14384e-01,-3.77749e-02,-2.24331e-01,1.11464e-01,1.48218e-01,-6.20243e-02,-2.15457e-01,-5.08871e-01,-3.63885e-01,9.97441e-02,-2.05764e-02,-2.18577e-01,-2.58784e-01,-2.83080e-02,8.03062e-02,-2.98576e-01,-1.95631e-01,3.44354e-01,1.94250e-01,1.86057e-01,3.05041e-02,2.11327e-01,2.92214e-01,-2.41423e-01,4.94051e-02,7.41788e-02,3.53742e-02,1.81452e-01,2.42141e-02,3.34941e-01,-2.78594e-01,1.13170e-01,
6.26538e+00,8.92529e-03,1.11207e-01,-1.87992e-01,-1.77940e-01,4.59937e-01,1.43086e-01,-1.42677e-01,-2.71767e-01,-4.66434e-03,-1.09271e-01,-1.52781e-01,6.49177e-02,-4.76821e-01,-2.36957e-02,2.73410e-02,3.89934e-01,-7.01518e-02,4.40968e-02,2.94743e-01,-1.00998e-01,-1.05625e-02,-1.04483e-02,3.62958e-01,2.02556e-01,2.81292e-03,-1.48024e-01,-1.74258e-02,-1.37975e-01,7.71519e-02,-1.49420e-01,-1.34130e-01,-2.06116e-01,6.64682e-02,3.36057e-01,1.28234e-01,1.20973e-01,-1.84147e-01,-1.40625e-01,-3.97994e-01,
3.70816e+00,-1.41566e-01,-2.37049e-01,2.84666e-01,1.49509e-01,-1.01475e-01,-3.23812e-02,1.70398e-01,-2.33043e-01,-1.36317e-01,-3.42965e-02,2.05678e-01,2.97697e-02,-7.82382e-03,5.55482e-02,-4.66518e-02,-9.81651e-02,2.34211e-01,1.03052e-01,-2.77830e-02,9.41489e-02,-1.76917e-01,-5.09171e-03,2.35723e-01,7.23758e-02,2.79248e-01,-4.67756e-03,6.10534e-02,1.21985e-02,1.49265e-01,1.99165e-01,2.80455e-01,1.69942e-01,-1.85902e-02,2.45249e-03,9.78468e-02,-8.34353e-02,2.60807e-01,2.28179e-01,3.95155e-02,
-5.38214e-02,4.96456e-01,-4.02360e-01,5.60404e-02,-2.54291e-01,3.31393e-01,9.74079e-01,6.35228e-01,5.42485e-01,-1.40512e-01,-4.15319e-01,7.90894e-01,4.02290e-01,3.52630e-02,-1.52044e-01,-4.00226e-01,-3.38493e-01,4.42768e-01,-1.32635e-01,1.04453e-01,-4.45640e-01,5.95097e-03,-1.56965e-01,6.56812e-02,7.84510e-02,1.23179e-01,-1.82618e-01,-5.23912e-02,2.99205e-01,4.01050e-03,3.74784e-01,8.83024e-02,1.86014e-01,4.69521e-01,3.50330e-01,1.74483e-01,7.38631e-02,-2.06526e-01,-3.87376e-01,-1.92552e-01,
3.12914e+00,-1.52261e-01,1.58431e-01,-8.55375e-02,1.07473e-01,-2.65876e-01,-1.93810e-02,1.48308e-01,6.68671e-02,-2.04651e-01,-7.21131e-02,-1.17498e-01,4.18135e-01,-1.06339e-01,-2.13386e-01,5.08923e-02,1.50272e-01,-1.29980e-01,-7.67534e-02,-1.55217e-01,2.07071e-01,-2.14762e-01,-1.19929e-01,-2.74364e-02,-4.03499e-01,2.03977e-01,-1.46736e-01,7.07799e-02,4.00071e-01,-7.27913e-02,-1.58839e-02,6.55149e-03,3.01547e-03,4.46710e-03,-2.36235e-01,2.70416e-02,1.26447e-01,-1.77334e-01,2.60190e-01,5.32814e-02,
6.75933e+00,1.26694e-01,1.00682e-01,8.93150e-02,5.13843e-02,-2.52916e-01,9.79836e-02,-1.45461e-01,-1.22894e-01,1.80144e-01,-2.08714e-01,1.88810e-01,3.90225e-01,-8.23063e-02,1.47969e-02,-9.26661e-02,-6.17910e-02,-2.65931e-01,-5.64928e-02,-1.84721e-01,-2.49046e-01,6.58398e-02,-2.15565e-01,-1.34048e-01,-1.59604e-02,6.59757e-02,-5.91673e-02,-4.26660e-01,-2.17319e-01,1.74410e-01,-1.68697e-01,-6.62333e-02,2.97511e-01,-1.82903e-01,-2.51833e-01,-2.68999e-01,-4.39965e-02,-6.81423e-02,1.45313e-01,-8.27143e-02,
6.34054e+00,1.46979e-02,1.79687e-03,-2.49544e-02,1.89165e-01,-3.16645e-01,1.49123e-02,3.79278e-04,4.59717e-03,8.34027e-02,-2.81901e-01,-3.94843e-02,-1.61215e-01,2.60590e-01,-1.97197e-01,-1.03705e-01,9.90605e-02,2.26388e-01,2.98246e-02,3.96937e-02,1.68070e-02,-3.74961e-02,-3.83696e-01,3.99601e-01,7.64424e-02,-2.01456e-01,-2.13460e-01,-1.78692e-01,4.05044e-02,5.55444e-02,-2.66732e-01,-1.82859e-02,-8.21069e-02,-1.38335e-01,-2.33983e-01,7.74624e-02,1.83316e-01,-3.86154e-02,2.89146e-01,-1.43409e-01,
6.57011e+00,1.45592e-01,1.68593e-01,1.18267e-01,1.40569e-01,-9.22769e-03,7.05374e-02,1.75035e-02,1.54799e-01,-5.72670e-03,1.06452e-01,-1.00346e-02,3.52768e-02,4.11717e-01,-1.07741e-01,-9.62176e-02,-9.93059e-02,1.23821e-02,-6.66404e-02,-1.68781e-01,-5.40201e-01,-8.51360e-02,7.68448e-02,1.44603e-01,-1.98051e-01,9.94491e-03,-1.65107e-02,1.45890e-01,-2.82667e-02,1.41230e-01,-8.95723e-02,2.09543e-01,6.02730e-03,2.47902e-01,7.63032e-02,-1.84223e-01,-6.81486e-02,4.52168e-02,7.81951e-02,-3.57990e-02,
5.58072e+00,1.02705e-01,1.39971e-01,6.32391e-03,-2.15974e-02,2.60054e-02,-3.57443e-01,1.09445e-01,9.37067e-03,-4.54016e-02,4.47459e-02,2.18150e-01,7.65289e-02,1.39442e-01,1.60669e-01,-4.01287e-01,6.87946e-02,1.42621e-01,1.89661e-01,-8.43824e-02,3.37696e-01,-1.09639e-01,-1.92725e-02,-4.33918e-02,9.95048e-02,1.82193e-01,1.39486e-01,2.15593e-02,-9.00871e-02,6.31158e-02,-8.94997e-02,3.07490e-01,3.23214e-03,1.13254e-01,1.55942e-01,3.00897e-02,-7.94983e-02,-1.23927e-01,1.47784e-01,1.34022e-02,
2.42626e+00,1.30298e-02,4.45726e-02,-1.60543e-01,3.17565e-01,1.54326e-01,-1.69305e-01,-4.55720e-02,1.09569e-01,1.85310e-01,-1.55602e-02,-9.20301e-02,-2.70250e-02,4.66602e-01,-2.32077e-01,-1.35902e-01,-7.74505e-02,1.30008e-02,1.67208e-01,-1.94980e-01,4.64446e-03,1.97637e-01,-3.73964e-01,-8.12835e-03,-1.31292e-01,8.26893e-02,1.16895e-01,3.17354e-01,-6.98360e-02,-6.74256e-02,2.23182e-01,-2.52433e-01,-3.85006e-02,2.33016e-01,-2.16509e-02,1.96716e-02,-9.72607e-05,-1.44623e-01,1.32210e-01,4.30555e-01,
5.72315e+00,5.33861e-02,-1.76380e-01,-2.55819e-01,1.58815e-02,7.58635e-02,-1.20009e-01,2.56709e-01,1.43978e-01,1.83182e-01,-1.52359e-01,1.34297e-01,-4.33523e-02,5.52989e-02,-5.45964e-02,-2.86510e-01,8.42007e-02,9.96282e-02,1.00413e-01,1.01713e-01,-6.55952e-02,5.24551e-02,-1.80673e-02,2.15365e-01,-2.33993e-01,6.29241e-02,-1.57152e-03,2.44557e-01,-9.99223e-02,2.51596e-02,-1.06044e-01,1.59315e-03,1.96366e-01,-1.18730e-01,-1.13904e-01,1.28721e-02,2.05288e-01,-2.56718e-01,-7.23306e-02,4.78861e-02,
