// Neural Network File Format by Kyle Julian, Stanford 2016
5,10,5,10,
10,8,8,8,8,5,
0,
-1,-1,-1,-1,-1,-1,-1,-1,-1,-1,
1,1,1,1,1,1,1,1,1,1,
0.0,0.0,0.0,0.0,0.0,0.0,0.0,0.0,0.0,0.0,0.0,
1.0,1.0,1.0,1.0,1.0,1.0,1.0,1.0,1.0,1.0,1.0,
2.21398e+01,-9.98978e-02,1.54579e-01,7.99553e-03,-3.78228e-02,-1.02513e-01,1.06452e-01,-2.15905e-02,7.04999e-02,5.55665e-02,
-9.18441e-01,1.09408e-01,1.14227e-01,6.33138e-01,-4.20589e-01,-4.33400e-02,2.90526e-01,-2.43000e-01,4.21686e-01,-2.03031e-01,
-8.28282e-01,1.06394e-02,1.80764e-01,4.07744e-01,-3.42148e-01,3.73065e-02,2.78179e-01,-3.36272e-01,9.31539e-02,6.87148e-02,
-4.51272e-01,-1.84471e-01,-8.82959e-02,-1.84340e-01,-1.26568e-01,-5.23417e-01,5.31459e-02,-2.04515e-01,3.54624e-01,5.59502e-01,
-2.67025e-01,2.89366e-01,4.95351e-02,6.41384e-01,-2.53690e-01,-8.67223e-02,4.45552e-01,-2.01056e-01,1.98315e-01,1.00706e-02,
-1.03571e+00,-1.89839e-01,8.25590e-03,-4.65915e-01,-4.69082e-01,2.93780e-01,6.03382e-02,9.19690e-02,3.78150e-01,-9.09326e-03,
-2.14579e+01,1.89495e-01,-1.89984e-01,-1.95474e-01,-4.26471e-02,1.03661e-01,-1.48173e-02,1.18431e-01,1.04080e-01,-5.17547e-02,
-7.55670e-01,9.94123e-02,-2.51882e-01,2.62541e-02,2.10057e-01,-2.12058e-01,2.72788e-01,2.09182e-01,2.39006e-01,-1.61957e-01,
2.66021e+00,
-1.99106e+00,
-2.69322e+00,
-3.74827e+00,
-3.61152e+00,
-3.66075e+00,
5.39138e+00,
-2.90301e+00,
-4.56827e-01,-1.19600e-01,-8.56546e-01,-4.34511e-01,-3.92955e-01,-1.13329e-01,-4.02992e-02,-2.40586e-01,
-6.45335e-01,-2.24297e-01,-7.42097e-01,-2.29983e-01,-1.89828e-01,-3.93227e-01,-4.99578e-01,-8.55208e-01,
-4.28418e-01,-6.72731e-01,-6.93138e-01,2.32841e-01,-1.44134e-01,-2.45512e-01,-9.56208e-01,-6.93654e-02,
-4.60676e-01,-5.89252e-01,-2.51714e-01,7.25666e-02,-3.95032e-01,-4.20010e-01,-1.01054e+00,-7.74906e-02,
-7.01315e-01,-1.85730e-02,-5.83511e-02,-1.57918e-02,-2.46842e-02,-6.72460e-04,-4.41552e-01,-5.08716e-01,
-1.47257e+00,1.19704e-01,8.88846e-02,1.22384e-01,1.38973e-01,7.35675e-02,1.90243e+00,1.64548e-01,
-9.34559e-01,-2.80407e-01,9.62641e-03,4.74914e-03,-8.38493e-02,-1.94375e-01,-1.13088e+00,-5.35666e-01,
-2.69950e-01,-3.93420e-02,-9.63032e-01,-6.40392e-01,-4.02151e-01,1.16258e-02,-5.01827e-01,-5.66393e-01,
-3.52275e-02,
-8.58273e-01,
-1.02584e+00,
-9.16765e-01,
-4.93338e-01,
3.26956e+00,
-1.16500e-01,
-2.72258e-01,
1.38256e-01,-4.12592e-03,2.82698e-01,1.17393e-01,3.56672e-01,3.02528e-01,1.26003e-01,-3.40003e-01,
2.23813e-01,3.41983e-01,5.32922e-01,3.04487e-01,2.46679e-01,-9.84237e-03,2.17905e-01,-2.46172e-01,
-2.11028e-01,-1.20559e-01,2.37810e-02,1.48961e-01,-1.86660e-01,-4.62021e-01,-5.55129e-01,2.88718e-01,
1.96826e-02,-4.90716e-01,-3.43976e-01,3.31374e-01,3.46141e-01,-4.61635e-01,-2.76976e-01,3.18384e-01,
2.32912e-01,-8.47973e-02,-3.80417e-01,2.05187e-01,2.52131e-01,4.95750e-01,-1.13786e-01,8.58187e-02,
-8.25029e-03,2.90391e-01,2.19249e-02,3.90205e-01,3.16517e-01,-5.16066e-01,-6.10754e-01,-4.39836e-01,
4.89502e-02,-3.24708e-01,-1.13852e-02,-3.47891e-01,-6.59427e-01,-5.26982e-01,2.38135e-02,3.23900e-01,
8.38106e-02,-5.86084e-01,1.05595e-01,-8.60412e-03,3.57259e-01,3.30267e-01,-1.30818e-01,2.11170e-01,
-2.39189e+00,
-6.43945e-03,
-9.57608e-01,
-3.80352e-01,
1.74061e-01,
-2.75887e-01,
-7.96395e-01,
-2.70146e+00,
3.70257e-02,-2.43264e-01,-3.42968e-01,3.65608e-01,-1.16347e+00,2.08336e-01,-1.14438e-01,4.24660e-02,
-8.72914e-01,1.79806e-01,1.72406e-01,-1.89095e-01,-8.35639e-02,7.71307e-02,-3.35103e-01,-1.18597e+00,
-4.04157e-01,-6.78465e-01,-3.68569e-02,-5.20968e-01,-2.62931e-01,-5.71615e-01,-5.92455e-01,-8.58652e-02,
-5.47287e-01,-1.14137e-01,4.07115e-01,-1.75196e-01,-3.32631e-01,-4.55552e-01,1.78362e-01,2.22594e-01,
-4.18812e-01,-1.40132e-01,2.65481e-01,-2.49416e-01,2.79257e-02,-3.26807e-01,2.86338e-01,-8.59294e-01,
-3.57020e-01,-9.76524e-02,3.02798e-01,-6.39658e-01,-5.20654e-01,-2.44340e-01,-1.72160e-01,-2.46065e-01,
-5.82821e-01,-4.94112e-01,-3.79158e-01,-4.22175e-01,4.11918e-02,-3.70533e-01,4.80010e-01,-2.72890e-01,
-2.07585e-01,-2.79423e-01,-9.14019e-03,4.20549e-01,-8.35514e-01,3.84703e-01,2.80836e-01,-3.43012e-01,
-3.28063e-01,
1.23283e+00,
-4.60630e-01,
-2.67518e-01,
1.76143e+00,
-6.43743e-01,
-5.62029e-01,
1.34533e+00,
5.13320e-02,2.16240e-01,-4.30840e-01,-2.73121e-01,3.91059e-01,2.52617e-01,4.66365e-02,8.58420e-01,
-4.02927e-01,2.17316e-01,-3.67394e-01,1.41219e-02,3.90453e-01,4.31484e-01,4.34195e-01,8.58219e-01,
8.77891e-02,2.16138e-01,1.20372e-01,-4.02464e-01,3.91116e-01,1.68184e-02,-1.75195e-02,8.58439e-01,
3.80986e-02,2.16179e-01,-6.60491e-02,-6.34226e-01,3.91094e-01,6.94106e-02,2.86539e-01,8.58432e-01,
-4.59266e-02,2.16433e-01,3.09895e-01,4.29874e-01,3.90950e-01,-3.43276e-01,3.27269e-01,8.58384e-01,
-9.98505e-01,
-9.98504e-01,
-9.98505e-01,
-9.98505e-01,
-9.98505e-01,
