// Neural Network File Format by Kyle Julian, Stanford 2016
4,70,25,128,
70,128,128,128,25,
0,
-1,-1,-1,-1,-1,-1,-1,-1,-1,-1,-1,-1,-1,-1,-1,-1,-1,-1,-1,-1,-1,-1,-1,-1,-1,-1,-1,-1,-1,-1,-1,-1,-1,-1,-1,-1,-1,-1,-1,-1,-1,-1,-1,-1,-1,-1,-1,-1,-1,-1,-1,-1,-1,-1,-1,-1,-1,-1,-1,-1,-1,-1,-1,-1,-1,-1,-1,-1,-1,-1,
1,1,1,1,1,1,1,1,1,1,1,1,1,1,1,1,1,1,1,1,1,1,1,1,1,1,1,1,1,1,1,1,1,1,1,1,1,1,1,1,1,1,1,1,1,1,1,1,1,1,1,1,1,1,1,1,1,1,1,1,1,1,1,1,1,1,1,1,1,1,
0.0,0.0,0.0,0.0,0.0,0.0,0.0,0.0,0.0,0.0,0.0,0.0,0.0,0.0,0.0,0.0,0.0,0.0,0.0,0.0,0.0,0.0,0.0,0.0,0.0,0.0,0.0,0.0,0.0,0.0,0.0,0.0,0.0,0.0,0.0,0.0,0.0,0.0,0.0,0.0,0.0,0.0,0.0,0.0,0.0,0.0,0.0,0.0,0.0,0.0,0.0,0.0,0.0,0.0,0.0,0.0,0.0,0.0,0.0,0.0,0.0,0.0,0.0,0.0,0.0,0.0,0.0,0.0,0.0,0.0,0.0,
1.0,1.0,1.0,1.0,1.0,1.0,1.0,1.0,1.0,1.0,1.0,1.0,1.0,1.0,1.0,1.0,1.0,1.0,1.0,1.0,1.0,1.0,1.0,1.0,1.0,1.0,1.0,1.0,1.0,1.0,1.0,1.0,1.0,1.0,1.0,1.0,1.0,1.0,1.0,1.0,1.0,1.0,1.0,1.0,1.0,1.0,1.0,1.0,1.0,1.0,1.0,1.0,1.0,1.0,1.0,1.0,1.0,1.0,1.0,1.0,1.0,1.0,1.0,1.0,1.0,1.0,1.0,1.0,1.0,1.0,1.0,
6.79435e-01,2.60493e-01,8.88844e-01,-2.13976e-01,-7.76684e-01,-6.03139e-01,-1.33826e+00,-4.93996e-01,-8.45137e-01,2.23339e-01,1.28109e+00,-9.32719e-01,-2.15711e-01,1.05222e+00,1.54123e+00,-2.84165e-01,-5.02071e-01,-1.62827e-01,-7.92188e-01,-1.53689e-01,6.79322e-01,4.77530e-01,-9.98207e-01,-4.40486e-01,-2.12294e-01,2.84897e-01,-2.91922e-01,-3.87214e-01,-9.50506e-02,3.77627e-01,7.90367e-01,6.18101e-02,5.30822e-01,-1.33910e-01,-8.36089e-01,-7.72177e-01,-5.41609e-01,-1.18845e+00,5.23082e-02,8.36540e-01,4.33671e-01,6.99121e-01,2.17244e-01,-2.45692e-01,-1.41281e+00,8.88325e-01,1.30137e-01,-4.19192e-01,2.38614e-01,6.55058e-01,7.63519e-01,1.25850e+00,5.72110e-01,-1.61638e+00,1.22065e-01,-1.92128e-01,-1.76848e-01,1.92888e-01,3.77246e-01,-7.33906e-01,-4.50216e-01,1.17284e+00,1.54748e-01,1.25610e+00,-5.14158e-01,7.26226e-01,-6.81245e-01,1.70803e-01,-1.36523e+00,7.82514e-02,
4.94876e+00,-1.70307e+00,-1.00566e+00,-6.46420e-01,1.52646e+00,3.64950e-02,-7.04786e-01,9.79432e-01,1.16221e+00,5.97195e-01,3.19516e-01,-5.56733e-01,8.37598e-01,-7.52629e-01,-9.53738e-01,1.32815e+00,-8.61289e-01,-5.51692e-01,-1.46723e-02,7.23944e-01,-2.02536e-01,5.56182e-01,-1.10220e+00,1.24187e-01,1.58203e+00,9.24024e-01,-5.51663e-01,6.52967e-01,-6.62416e-01,9.67991e-01,1.47318e+00,8.15136e-02,2.16446e-01,2.64504e-01,-7.44038e-01,8.52815e-01,6.68371e-01,-3.21939e-02,-3.46451e-01,-7.46023e-01,1.72178e+00,-6.87670e-01,-1.21052e+00,1.36191e+00,6.48338e-01,-6.02439e-01,1.17103e+00,9.41134e-01,1.13416e+00,-8.65706e-01,-3.53344e-01,3.98453e-01,-8.53616e-01,-1.54038e-01,5.25318e-02,-4.82655e-01,4.72547e-01,-2.75694e-01,-1.70694e-01,9.20642e-01,-2.68616e-01,1.36753e+00,7.34652e-01,2.27517e-01,-9.60882e-01,7.73000e-01,-9.93164e-01,2.49399e-01,-3.81714e-01,1.56414e-01,
1.44312e+01,-3.57252e-01,-2.11479e-01,2.06791e+00,4.28690e-02,1.47930e+00,1.44363e+00,1.63475e-01,1.13038e+00,5.67334e-01,3.17972e-01,-2.64877e-01,3.74353e-01,8.04454e-01,1.64280e-01,5.40631e-01,5.68853e-01,4.09662e-01,5.61293e-01,-9.04900e-01,1.40218e-01,-1.12577e-01,-4.91687e-01,1.07524e-01,3.22966e-01,-9.06440e-01,-2.10078e-01,1.26745e+00,1.27624e+00,3.50623e-01,4.76019e-01,4.13850e-01,-7.16315e-01,4.61420e-01,-1.77015e-01,2.58957e+00,1.39155e-01,-1.04954e-01,-4.97119e-01,-2.38137e-01,4.33848e-01,4.51854e-01,1.60647e+00,-6.68748e-01,1.77561e-01,-9.55079e-01,1.03347e+00,-8.88010e-01,3.25413e-01,-9.04372e-02,2.10899e-02,1.09881e+00,8.83416e-01,-1.07852e-01,2.17161e-01,5.96574e-01,6.16350e-01,-7.21270e-01,1.25505e-01,-1.24130e+00,-1.50167e+00,1.43415e-01,3.25922e-02,-1.24091e-01,-1.16758e+00,1.31831e+00,1.63431e+00,4.81738e-01,5.73835e-01,-5.39206e-01,
5.10014e+00,7.38833e-02,1.20061e+00,-1.09459e+00,3.66350e-01,-1.08435e-01,-1.74289e-01,1.10369e+00,2.47988e+00,4.06018e-01,6.19773e-01,-1.00608e+00,4.67851e-01,-1.98594e+00,4.27984e-01,2.18248e+00,4.06628e-01,-2.11407e-01,1.90280e+00,-4.97122e-01,1.77827e-01,-1.42832e+00,7.93703e-01,-7.94051e-01,-3.02174e-01,-1.53124e-01,-9.91661e-02,3.20697e-01,-1.44142e-02,2.55644e-01,-2.03409e+00,-6.66894e-01,-8.10876e-01,1.15945e+00,8.75271e-01,1.13640e+00,-4.10475e-01,1.01020e+00,-4.77473e-01,1.04513e+00,1.06408e-02,6.55006e-01,-3.74470e-01,7.21779e-01,1.15385e-02,-4.40129e-01,7.06162e-01,8.47304e-01,-1.08096e+00,-2.10717e+00,-5.96841e-01,1.49258e-01,-3.01252e-01,-5.22299e-01,1.78814e-01,-7.59889e-02,-4.46330e-01,2.25770e-01,-1.31555e+00,9.11804e-01,-2.94606e-01,-5.31962e-01,-4.69880e-01,1.18706e+00,-8.85510e-01,1.14478e+00,2.57142e-01,3.16940e-01,6.14068e-01,-4.94534e-02,
6.39022e+00,5.04597e-01,-2.49280e+00,8.53026e-01,-1.29569e+00,1.23546e+00,4.33425e-01,5.28161e-01,-8.14357e-02,5.02731e-02,1.11605e-02,-5.28848e-01,6.34288e-01,-1.37850e+00,9.29952e-01,3.68137e-01,1.27778e+00,-3.21336e-01,-4.89811e-01,1.46270e-01,-3.32694e-01,-6.60614e-01,-8.84851e-01,1.08070e-01,-1.04415e-01,1.10843e+00,-7.62813e-01,1.44035e-01,3.77084e-01,-8.73333e-01,1.40045e+00,-8.61960e-02,2.65759e-01,-6.55375e-01,5.33073e-01,-1.80241e+00,8.33765e-01,-6.37472e-02,-7.33554e-01,7.45462e-01,1.32812e+00,-4.31371e-01,-2.49779e-01,-2.79563e-01,-1.12395e+00,8.42988e-01,3.53941e-01,1.94359e-01,-2.29886e-01,-1.67480e-01,1.35760e-01,-7.62912e-01,-3.13883e-01,3.06238e-01,1.45180e-01,6.06254e-01,-1.15212e-01,4.33016e-01,4.64943e-01,6.11483e-01,2.14616e+00,-6.43116e-01,1.50196e+00,-2.74380e-01,-1.28396e-01,4.46253e-01,2.50225e-01,1.11588e+00,2.38077e-01,8.31823e-01,
1.08316e+01,9.36013e-01,-3.36295e-02,7.59261e-01,-7.66485e-01,-4.01052e-01,4.95039e-01,1.60165e+00,1.01210e+00,-2.43168e-01,-2.17327e-01,-1.66859e-01,-1.15957e+00,-1.98604e-01,1.37713e-01,-3.79192e-01,1.40683e+00,-7.14505e-02,9.19425e-01,-5.18075e-01,-4.72436e-01,-1.57529e-01,-4.97638e-02,-2.06818e+00,1.19117e+00,-9.97051e-01,-1.29367e+00,3.07483e-01,-4.41095e-01,2.13782e+00,5.38425e-01,-1.19672e+00,-3.53931e-01,-8.16232e-01,-1.65016e-02,9.67590e-01,-8.79199e-01,5.43246e-01,4.73175e-02,-5.72451e-01,9.31355e-01,-3.98397e-01,-9.34909e-03,-6.51364e-02,-3.65604e-01,-6.05769e-01,1.56439e+00,-2.25780e-01,6.88449e-02,7.82058e-01,-6.13134e-01,-1.40089e+00,1.80821e-01,1.56332e+00,-1.67454e+00,-6.26676e-01,-2.68462e-01,-1.27957e+00,-4.78180e-01,-5.76210e-01,1.12530e+00,2.58237e-01,-6.04238e-01,3.67074e-01,-9.93873e-01,1.11127e+00,1.10993e+00,1.23093e+00,1.11064e+00,-1.03940e-01,
6.75389e-01,-6.40335e-01,-2.16090e-01,8.53058e-01,-8.05924e-01,1.38462e-01,-1.16827e-01,-1.03563e+00,-4.20516e-01,1.35596e-01,-2.99219e-01,-7.67966e-01,-5.02949e-01,9.32076e-01,2.40499e+00,1.11908e+00,-2.08574e-01,6.61043e-01,-6.24444e-01,5.11131e-01,6.53053e-01,-9.39482e-02,7.52406e-01,1.06112e+00,5.34847e-01,4.47660e-01,-5.31466e-01,5.96696e-01,-1.82909e+00,-5.96264e-01,3.98779e-01,3.39163e-01,1.07759e+00,-8.46543e-01,-4.36109e-01,-2.17094e-01,-7.42444e-01,-7.01180e-01,-1.30048e+00,-1.48411e+00,6.84669e-01,1.17961e+00,-2.35528e-01,8.41592e-02,-6.89803e-01,1.37161e+00,-1.24160e-01,-1.56178e+00,-1.14480e+00,8.62188e-01,-4.34243e-02,1.01026e+00,8.90300e-01,-1.60790e+00,-1.42603e+00,-2.08292e-01,3.64085e-01,8.30254e-01,-1.60310e-01,9.80186e-01,6.07099e-01,-2.65232e-01,3.89002e-01,-1.36037e-01,-1.66084e-01,2.04414e-01,1.13297e-01,6.39078e-01,-1.71850e-01,-1.75657e+00,
3.70028e+00,-3.84147e-01,-2.22547e+00,-1.01737e+00,4.38636e-01,1.25657e-02,1.06447e+00,2.91570e-01,1.16163e+00,-3.01429e-01,-5.10056e-01,4.26441e-01,1.19194e+00,2.48622e-01,-1.97435e-01,-1.65838e+00,1.06900e+00,1.16668e-01,-5.14948e-01,9.45627e-02,-3.30228e-01,6.77922e-01,-4.30219e-01,-9.34801e-02,1.68095e-01,3.30999e-01,-9.11947e-02,7.00435e-01,2.57846e-01,1.07494e+00,5.39785e-01,4.29171e-01,3.77671e-01,6.01175e-01,-4.69782e-01,-2.77292e-01,-1.78377e-01,-1.11640e+00,6.56018e-01,1.58633e+00,-1.26023e-01,-1.56108e-01,1.05142e+00,-7.12338e-01,-1.00123e+00,-1.06863e+00,6.74045e-01,-8.17412e-04,-1.04767e-01,-9.10270e-01,-1.33507e+00,5.93082e-01,6.23562e-02,-7.84394e-01,-1.56875e+00,2.85948e-01,-1.46863e+00,-6.56370e-01,1.12597e+00,-5.09112e-02,2.66388e-01,6.91893e-01,-3.72706e-01,-4.22000e-01,8.34358e-01,6.09033e-01,-1.66766e-01,-1.26320e+00,-2.03711e-01,-5.86618e-01,
-1.43535e+01,-7.74193e-01,-5.25503e-01,-5.68178e-01,4.00999e-01,2.73075e-02,-2.49665e-01,5.09210e-01,-5.03829e-01,4.62234e-01,-2.69281e-01,1.64444e-02,-4.19037e-01,4.22926e-01,1.21574e+00,-1.88749e-01,-7.58080e-01,1.79800e+00,-5.87712e-02,-2.12167e+00,1.11464e+00,3.88936e-01,-3.07578e-01,-1.76554e-01,2.72267e-01,-3.70512e-01,1.17753e+00,3.62304e-01,-4.95016e-01,-4.46830e-01,-1.33485e+00,-2.69743e-01,9.12470e-01,-5.78002e-01,1.23401e+00,6.29650e-01,-7.70651e-01,-8.01872e-01,2.04747e-01,2.15126e-01,-1.03418e+00,5.92455e-02,8.54342e-01,-1.14088e-01,-5.43908e-01,6.64860e-01,7.59596e-01,3.49096e-01,-7.73203e-01,1.43963e-01,-1.23313e-01,2.04812e-01,-1.62357e-01,6.93943e-02,-3.49443e-01,-6.08915e-01,2.46912e-01,1.01799e+00,3.27660e-01,-6.12064e-01,5.28233e-01,1.95148e-01,2.57635e-01,5.35896e-01,2.17203e-01,-3.47834e-02,-4.55936e-01,2.63586e-01,-2.70798e-01,-3.64514e-01,
5.80387e+00,1.80850e-01,-8.68150e-02,1.33203e+00,2.73332e-01,2.81032e-01,-5.09934e-01,9.20707e-01,9.66699e-01,1.22486e+00,3.79125e-01,-7.53444e-01,5.48911e-01,1.28158e+00,7.73834e-01,-4.18863e-01,1.48802e+00,1.87363e-01,8.30903e-01,-1.05652e+00,3.92583e-01,-1.48087e+00,1.54102e+00,-6.66389e-01,1.35847e+00,-4.12894e-01,-8.23039e-01,1.80773e+00,2.02001e+00,-5.56539e-01,4.24033e-02,-7.87366e-01,1.00634e+00,-3.53250e-01,-3.27878e-01,-1.58820e-01,6.55318e-01,1.88377e+00,-3.92789e-01,-7.54456e-01,5.04873e-01,-4.36406e-01,-1.05921e+00,-7.04936e-02,2.30059e-02,5.90472e-01,1.51689e+00,1.80925e+00,1.19899e+00,1.53847e-01,6.57995e-01,3.37190e-01,-1.55839e+00,-1.37297e+00,-9.38020e-01,-1.67576e-01,-3.92384e-01,5.29676e-01,-2.58806e-01,8.42817e-01,2.08520e+00,-7.60045e-01,1.39710e+00,-4.08784e-01,-1.48706e+00,8.96890e-01,4.30531e-01,1.15679e-01,9.90095e-01,1.56755e-01,
5.88538e+00,8.57110e-01,-9.49822e-01,1.91442e+00,5.71925e-01,1.36291e+00,-3.98630e-01,6.05432e-01,-7.90823e-01,3.94242e-01,-2.48857e-01,-4.09204e-01,-1.49013e+00,6.82677e-01,1.66347e-01,4.26279e-01,7.74687e-01,3.35994e-01,-1.12745e-01,-1.07460e+00,-1.31543e-01,-3.88598e-01,-1.52332e+00,-6.57951e-01,-2.02819e-01,5.07273e-01,-9.35536e-01,3.68696e-01,2.34117e+00,-1.21337e+00,1.17169e+00,-9.66664e-01,7.49291e-01,1.00646e-01,-2.15936e-01,-3.20188e-01,-1.57269e+00,1.18410e-01,1.55176e-01,2.18454e-01,-5.45159e-02,-6.03644e-01,5.24305e-01,-9.17585e-02,5.72042e-01,-9.53374e-01,1.56029e-02,-1.89555e-01,4.76007e-01,3.18463e-01,1.56506e+00,1.23443e+00,6.48181e-01,-9.44511e-01,3.80854e-01,-5.28020e-01,4.96525e-01,-7.59053e-01,-3.68433e-01,-5.46053e-02,-3.89894e-01,8.86567e-01,1.81164e+00,5.16308e-01,-1.31741e+00,2.52424e-01,1.39255e+00,5.84336e-01,2.61136e-01,2.75017e-01,
1.06425e-02,4.31729e-01,3.13591e-01,-6.81046e-01,-9.45811e-01,-1.64230e-01,-3.73559e-01,-6.22654e-01,1.39424e+00,-1.21151e+00,3.20463e-01,-1.36881e+00,2.54591e-01,-9.62707e-01,9.27671e-01,1.31867e+00,-5.50254e-01,-7.85123e-01,7.66007e-01,1.60870e+00,-5.19042e-01,-3.26779e-01,3.31787e-01,5.72013e-01,-4.74949e-02,9.89294e-01,3.81015e-02,1.11564e+00,-9.50613e-01,-9.18000e-01,-5.75313e-01,2.74018e-01,8.67479e-01,1.36161e-01,-1.63469e+00,-4.46850e-01,-9.18865e-02,3.92934e-01,-1.54078e-01,-3.16300e-01,3.81779e-01,1.64997e-01,-1.27859e+00,-1.08436e+00,-2.51552e+00,1.31345e+00,3.02102e-01,-3.88013e-01,-1.03062e+00,6.40601e-02,-1.13774e-02,-5.43711e-02,-5.38751e-01,2.87915e-01,1.06885e+00,8.06350e-01,-7.35852e-01,8.10021e-01,-1.62902e+00,-2.48820e-01,9.03149e-01,-8.64961e-01,5.49074e-01,1.15374e-01,-2.61415e-02,-1.35914e+00,-1.87251e-01,-2.86636e-01,-4.33384e-01,-3.65538e-01,
5.23867e-01,-1.79539e-01,-5.99370e-01,-3.26288e-01,-7.84833e-02,6.88751e-01,2.23250e-01,-7.81682e-02,5.41394e-01,-3.51829e-02,-1.06366e-01,-8.05223e-02,7.16615e-01,1.52033e+00,5.39718e-02,-1.85533e+00,6.41483e-01,-5.93607e-01,2.45007e-02,4.84343e-01,-6.69350e-03,-7.95860e-01,-5.57895e-01,-2.51318e-03,-1.79243e+00,5.96397e-01,-1.26201e-01,-1.76595e+00,6.30813e-01,-4.85940e-02,5.03255e-01,4.30906e-02,4.48216e-01,7.94197e-01,2.74265e-01,7.11246e-01,8.53089e-02,-1.70112e+00,9.11016e-02,9.56754e-01,-7.68428e-01,-1.36052e+00,-3.40038e-01,1.21328e+00,-7.48690e-01,-2.79940e-01,-1.32625e+00,5.78830e-01,1.03100e+00,1.33442e+00,-2.27296e-02,5.06364e-01,3.43166e-01,-4.17459e-01,4.98627e-01,-5.35103e-01,7.19341e-01,-4.65655e-01,-4.03206e-01,-1.67812e+00,-6.22650e-01,5.81365e-01,-4.06204e-01,7.37740e-01,-3.43530e-02,-4.26092e-01,6.05769e-01,-9.07269e-01,-7.83189e-01,1.76513e+00,
3.85832e+00,5.86692e-01,7.68408e-02,1.18265e-01,-9.53372e-02,-1.50285e-01,-1.02011e-01,-1.01793e+00,1.30307e+00,-1.80290e-01,4.80399e-01,-8.22904e-01,2.51952e-01,-1.55641e+00,9.52159e-01,-7.21706e-01,-3.69333e-01,-9.08568e-01,7.87431e-01,1.51673e+00,9.11135e-01,-5.90604e-02,-4.83308e-01,-5.15307e-01,3.10445e-01,-5.75491e-01,2.14953e-02,-1.08189e-01,7.32569e-01,-3.72430e-01,4.31208e-01,1.22695e+00,-3.85696e-01,8.83240e-01,3.88075e-01,-2.68864e-01,3.87267e-01,-7.11986e-01,-5.92188e-01,3.96244e-01,1.58872e+00,-1.36446e+00,3.04623e-02,-7.19196e-01,1.73554e-01,1.30949e-01,6.26188e-01,9.85772e-01,3.06777e-01,-6.60832e-01,-7.99230e-01,-2.29214e-02,-7.94615e-01,1.10394e+00,-3.36148e-01,1.85079e-01,-8.23209e-02,8.08622e-01,6.17306e-01,3.83238e-01,1.40241e+00,3.77056e-01,-8.46676e-01,9.78611e-01,-5.35169e-01,6.63781e-02,5.65782e-01,-5.52050e-01,1.36232e+00,-8.46462e-01,
4.70564e+00,6.91570e-01,-9.16605e-01,5.24923e-01,-1.59142e+00,-6.09023e-02,-1.17566e+00,-1.46323e+00,-4.89600e-02,1.08040e-01,8.29335e-01,-4.19555e-01,5.78340e-01,2.43442e-01,4.67902e-01,-9.35148e-01,1.30435e+00,-1.61478e-01,-6.35887e-01,6.16095e-01,-8.68207e-01,1.02216e+00,-4.23669e-01,3.07442e-01,2.50955e-01,4.28620e-01,-9.34053e-01,-1.02309e+00,3.54382e-01,4.02509e-01,2.08673e-01,-2.91183e-01,1.04781e-01,-6.24570e-01,1.06256e+00,-9.79252e-01,2.41931e-01,2.26788e-01,-7.62246e-02,-4.63340e-02,-6.69743e-01,3.43883e-03,-7.30075e-01,-1.44421e+00,-2.51307e+00,-1.37728e-01,-6.42477e-01,-1.30226e+00,4.40524e-01,7.48372e-01,1.18904e+00,2.85946e-01,-5.31711e-01,7.65481e-01,3.39580e-01,7.84528e-01,5.80640e-01,7.32139e-01,-2.90135e-01,-3.38471e-01,-1.12741e+00,6.69609e-02,-7.35220e-01,-6.18767e-01,-3.21962e-01,-1.24618e+00,2.88971e-01,2.01047e-01,8.26672e-01,4.39093e-01,
6.72988e+00,1.24126e+00,-1.29499e+00,1.42011e+00,-1.58599e+00,-8.52503e-01,5.51301e-01,-1.53139e-01,-3.82637e-02,-4.14631e-01,-7.19644e-01,8.27321e-01,-2.73546e-01,4.62859e-01,6.07636e-01,-1.34205e+00,4.55882e-01,9.36895e-01,-3.64408e-01,1.03391e+00,3.14636e-01,-7.56462e-01,-2.01763e+00,9.39641e-01,5.36078e-02,-3.59764e-01,-1.18210e+00,-7.27546e-01,-2.06808e-01,1.68066e-01,-3.81881e-01,-3.28073e-01,2.97396e-01,-4.84902e-01,-2.47289e-01,-4.09180e-01,-1.15514e+00,-2.40995e-01,-4.84790e-03,6.01957e-01,5.15535e-01,4.22750e-01,-3.41178e-01,2.64141e-01,-1.70520e+00,-3.64771e-01,3.91449e-01,-1.55745e-01,3.56521e-01,8.69640e-01,-7.32278e-01,9.49161e-01,1.24919e+00,1.84403e-01,1.01263e-01,-5.46479e-01,3.96511e-01,-5.97616e-01,-5.17998e-01,-8.41672e-01,-5.96732e-02,1.86778e-01,-9.81004e-01,-3.63050e-01,-7.79342e-01,-8.64143e-01,1.49197e+00,-1.17244e-01,3.40357e-01,-9.04903e-02,
5.07070e+00,-3.03174e-01,-6.50645e-01,6.84154e-01,-1.09617e+00,7.24488e-01,-4.06035e-01,-1.21804e+00,-1.12285e+00,9.07358e-02,9.42426e-01,1.58854e-01,1.40884e-01,-3.63796e-01,4.76716e-01,6.03556e-02,-1.14847e+00,-9.38844e-01,7.54261e-02,4.51116e-01,-1.53539e+00,-1.19421e+00,3.15965e-01,7.28906e-01,5.46345e-01,9.83654e-01,-9.24498e-01,8.13104e-01,-4.74026e-01,-4.56525e-01,-1.80115e-01,8.17612e-02,3.22179e-01,-6.55671e-01,-9.98332e-01,-5.14257e-01,-7.79545e-01,-1.31527e+00,9.99367e-01,-5.85571e-01,1.34983e+00,-1.56317e-02,1.52976e-01,2.26640e-01,-7.48776e-01,2.24184e-01,1.34620e-01,-1.49009e-01,-9.72320e-01,7.19931e-01,1.23249e+00,3.57021e-01,5.30883e-01,-7.56727e-01,-3.88053e-01,3.40998e-01,1.21540e+00,1.86532e-01,1.42846e-01,-4.98804e-01,-7.19319e-01,7.58611e-01,-3.74729e-01,-1.23343e+00,-3.80816e-01,3.49375e-01,7.10563e-01,-9.13189e-01,-6.41479e-01,-7.13528e-02,
9.25494e-01,5.01856e-01,-6.44259e-01,-1.37296e+00,-2.20452e-01,7.27244e-01,1.16935e+00,1.32992e+00,1.60830e+00,4.97457e-01,8.99446e-01,-5.75701e-05,7.67708e-01,-2.67075e+00,-3.45310e-01,3.35326e-01,1.83653e+00,1.29776e-01,6.99688e-01,1.04171e+00,2.19525e-01,3.63863e-01,-4.07722e-01,-1.12480e+00,5.83561e-01,8.38665e-01,-3.51098e-01,8.47063e-01,-3.66743e-01,-2.69052e-01,4.30338e-01,1.95458e-01,2.75569e-01,-1.17238e+00,1.80815e+00,7.25276e-01,-1.59704e+00,-4.74784e-01,-2.39458e-01,8.60136e-01,7.48629e-01,-1.09609e+00,-4.64227e-01,8.35214e-02,-3.78334e-01,-7.95181e-01,5.45493e-01,-6.61959e-01,4.77675e-01,-1.10330e+00,1.40115e+00,1.96443e-01,-1.37866e-01,8.37064e-02,2.46685e-02,-2.56993e-01,-4.68278e-01,1.09651e+00,-3.29009e-01,1.29656e+00,-4.84011e-01,3.36053e-01,-8.65788e-01,-7.82827e-01,2.11638e-01,3.15795e-01,-5.46474e-01,1.67994e-01,-2.33871e-01,3.72378e-01,
2.09233e+00,-8.57900e-02,-7.74232e-01,-1.80625e-01,-1.22190e+00,2.58377e-01,-6.20343e-01,-9.16058e-01,-7.10152e-01,-3.39627e-01,8.63195e-01,-3.95411e-01,2.06558e-02,-1.29002e+00,2.36449e-01,5.23816e-01,-3.83669e-01,1.02471e+00,9.08321e-01,6.02574e-01,-7.74270e-01,-1.68369e+00,7.09189e-01,7.91684e-01,5.61542e-01,4.38482e-01,1.86349e-02,1.86308e+00,-3.05259e-01,-1.25710e+00,-1.14430e+00,3.69307e-01,-1.00476e+00,-5.40601e-01,5.64558e-01,5.90054e-01,4.25595e-01,-8.89672e-01,-5.82015e-01,-4.57803e-02,-5.53802e-01,8.32816e-01,-1.51096e+00,-5.42731e-01,-5.34683e-01,-5.79747e-03,5.83225e-01,-1.03474e+00,8.24462e-01,-2.41166e-01,1.43445e+00,8.49143e-01,-2.80950e-01,-7.36662e-01,1.39307e+00,2.98602e-01,1.24419e-01,-8.32972e-01,9.45211e-01,1.37497e-01,2.36484e-01,-5.71678e-01,-1.13616e+00,-1.62499e+00,-1.58023e+00,8.18259e-02,5.11567e-01,-3.39957e-01,4.44611e-01,1.38123e-01,
3.37014e+00,-2.54019e-01,1.06700e+00,4.29415e-02,1.97258e-01,1.60029e-01,-8.35807e-01,-9.51157e-01,5.98214e-01,-4.24265e-01,1.05313e+00,-5.87756e-01,6.72013e-01,-1.07234e+00,-2.32701e-01,1.76003e-01,-5.41693e-02,-9.89283e-01,4.61047e-01,4.50807e-01,-8.36729e-01,-1.45966e+00,-7.51499e-01,-1.49637e+00,-1.72980e-01,6.88032e-02,6.36104e-02,-4.29346e-01,-1.05437e+00,4.24740e-01,-1.87946e-01,-1.14059e-02,9.16985e-01,-1.19364e+00,-7.46039e-01,-5.81144e-01,4.23578e-01,-8.32878e-01,-4.21966e-01,-1.25326e+00,-3.76654e-01,4.47006e-01,-2.15085e-01,-1.85342e+00,-1.13576e+00,-8.42873e-02,-4.14054e-01,-1.04963e+00,-1.52419e+00,8.07808e-01,-1.59907e-01,-6.42755e-01,1.58177e-01,1.50593e+00,1.66575e+00,-9.01460e-01,7.92605e-01,1.27484e-02,-1.22332e+00,-1.44438e+00,-8.78399e-01,-1.02631e+00,-6.46951e-01,5.80584e-01,-7.41330e-01,3.45168e-01,-3.94168e-01,-7.51742e-01,9.70176e-01,-1.40356e-01,
-9.81357e+00,2.51369e-03,1.98067e-01,5.89669e-02,-1.10906e+00,-8.10899e-02,1.35636e+00,-1.22747e-01,3.57153e-01,-4.36267e-01,4.08986e-03,1.48307e+00,-4.79529e-01,-6.76094e-01,1.97208e-01,6.43571e-01,-5.53939e-01,2.21981e-01,8.60771e-02,-1.12673e-01,3.71036e-01,-1.42577e+00,5.79216e-01,-1.03003e+00,-3.78036e-01,9.58779e-01,-5.86710e-01,8.62015e-02,-6.22206e-01,5.99194e-01,6.65849e-01,4.34119e-01,4.29888e-01,8.16391e-01,1.66408e-01,1.40731e-02,8.68172e-01,-1.38808e-01,9.59601e-01,1.74600e+00,-7.76140e-01,-7.16371e-01,-7.64982e-01,1.86911e-01,-4.18353e-01,-1.28409e+00,-1.01182e+00,8.17479e-01,6.63418e-01,-5.81233e-01,-1.30540e-01,1.76860e-01,-7.84072e-01,-6.17136e-01,1.20354e-01,1.32166e+00,-8.96092e-01,-2.42226e-01,3.35846e-02,-1.81679e-01,3.04215e-02,5.74281e-01,1.09053e+00,-8.12741e-01,1.08063e+00,6.52300e-01,-5.09304e-01,-5.54407e-01,6.41613e-01,-1.69323e-01,
6.28232e+00,-1.13613e+00,1.11186e-01,6.14990e-01,-1.84850e-01,9.57678e-02,3.41976e-02,-3.96543e-01,-1.11120e+00,-1.57484e-01,-6.98945e-01,6.72127e-01,9.67107e-01,-6.27923e-01,1.53747e-01,3.07397e-01,8.19331e-01,-1.09468e-01,1.53765e-01,8.28067e-01,2.48282e+00,-8.79249e-01,-1.49036e+00,2.92917e-01,2.65749e-01,-1.62303e+00,3.61580e-01,5.68849e-01,-7.09742e-02,1.22055e+00,-4.26274e-01,1.40098e+00,-1.04049e+00,8.02263e-01,-1.23863e+00,6.56384e-01,-1.24577e+00,4.50947e-03,7.28237e-01,-1.38659e-02,9.85637e-01,-9.16831e-01,-9.88517e-01,-1.50960e+00,-7.22999e-01,2.92171e-01,1.24570e-01,-1.60402e+00,-1.55428e-02,-4.36230e-01,-4.64342e-02,4.72706e-01,2.22764e+00,2.39957e-01,9.76323e-01,1.92282e-01,1.38921e-01,-7.82839e-01,-1.10153e+00,-2.33582e-01,-1.38139e+00,-5.07312e-01,-5.52116e-02,5.86831e-01,-2.18729e-01,-3.32572e-01,-7.80759e-01,1.80393e+00,-7.79455e-01,-9.35788e-01,
-1.89028e+00,-9.07859e-01,-3.92921e-01,1.95215e-02,-1.27586e-01,-2.35760e-01,9.31938e-01,-1.22388e+00,-2.94998e-01,-3.88563e-01,2.50353e-01,-2.40983e-01,1.87410e-01,-6.43109e-01,-7.41683e-01,5.28272e-01,-6.98505e-01,-7.82129e-01,-3.23104e-01,-1.02621e+00,-1.39960e-03,-2.24410e-01,1.46131e+00,3.80610e-01,8.83111e-01,-8.08334e-01,-1.91431e-01,7.84121e-01,-2.54936e-01,-4.98515e-01,-2.51992e-01,7.42354e-01,1.57124e+00,-3.73173e-01,5.29075e-01,-7.74412e-02,1.71173e+00,-1.66022e-01,3.18409e-01,4.57510e-01,5.83496e-01,5.38589e-02,-2.38527e-01,2.49435e-01,-2.28706e+00,-1.03365e+00,-5.41899e-01,-1.41524e+00,-5.53711e-01,1.04842e+00,5.84136e-01,-2.13240e-01,-5.53302e-01,-6.11960e-01,3.54496e-01,1.58898e+00,-2.08856e-01,6.27707e-01,-1.05978e+00,7.12640e-01,3.98071e-01,-3.67864e-01,2.79829e-01,-1.25324e+00,1.43084e+00,1.33671e+00,-2.28371e-01,9.21062e-01,-2.27781e-01,-8.42547e-01,
5.64202e+00,-7.39870e-01,-1.32284e-01,6.02556e-01,4.12612e-02,8.48264e-01,1.94663e-01,6.39146e-01,-1.04048e-01,5.98271e-01,-2.12515e-01,-4.57355e-01,-1.14338e+00,3.98891e-01,3.66782e-01,7.67712e-01,1.06683e+00,-1.23525e+00,2.05764e+00,-2.47226e-01,4.18886e-01,-9.06460e-01,-1.04307e+00,1.31037e-01,3.38123e-01,2.45084e-02,-8.09203e-01,1.25221e+00,5.15749e-01,1.93839e-01,6.84376e-01,-2.87204e-01,-9.61986e-02,-1.18629e+00,-1.28554e-01,-1.07974e+00,-4.46039e-01,-5.52541e-01,-9.06069e-01,-9.62561e-01,2.00743e+00,-7.87986e-01,9.93614e-01,9.17646e-01,3.75299e-01,-1.08422e+00,6.57357e-01,1.23432e-01,1.60040e-01,-7.92400e-02,7.10957e-01,1.80691e-01,2.73712e-01,-1.25322e+00,-6.74283e-01,-6.04013e-01,5.45712e-01,-2.74418e-01,3.54637e-01,-1.28981e-01,5.45630e-01,6.34917e-01,4.87307e-01,4.36253e-01,-2.72478e-01,1.29506e+00,9.70182e-01,1.28777e+00,-7.07777e-02,5.18123e-01,
2.72371e+00,5.60263e-01,9.70754e-01,-3.34278e-01,-7.55104e-02,5.20446e-01,-5.55948e-01,1.06141e+00,1.17797e+00,2.04572e-01,-1.07953e+00,-9.90443e-01,-2.65232e-01,4.76387e-01,7.82743e-01,9.24733e-02,1.37536e+00,-3.02091e-01,6.95772e-01,7.45569e-01,-3.57401e-01,-4.10131e-01,-3.34993e-01,-4.12143e-02,-2.12561e-01,7.82812e-01,-6.43733e-01,-5.18468e-01,-7.50657e-01,-4.57434e-02,5.22310e-01,-7.22211e-01,1.53633e+00,1.13686e-01,9.15205e-01,3.25346e-01,-6.24147e-01,-1.64229e-01,-1.33131e+00,4.99467e-01,5.44072e-01,4.87270e-01,5.18784e-01,3.26393e-01,1.13422e+00,4.50923e-01,1.07431e-01,1.58980e+00,-1.89016e-02,-7.36300e-01,3.06163e-01,-8.32099e-01,4.36560e-01,4.71044e-01,-1.17091e+00,-4.36751e-01,-3.95813e-01,1.39800e+00,4.28858e-01,1.64837e-01,3.19417e-01,-2.68526e-01,1.15611e+00,-1.52188e-01,3.58887e-01,3.13667e-01,4.60473e-01,1.70039e+00,5.85972e-01,3.68887e-01,
4.15657e+00,-7.84461e-02,2.31617e-01,3.37354e-01,-4.42835e-02,-7.65621e-02,-7.76634e-01,1.13477e+00,-1.00592e+00,1.67805e-01,1.21251e-02,3.37340e-01,8.24663e-01,-4.59602e-01,-6.08182e-01,3.98113e-01,-1.01459e+00,-5.43508e-01,-3.40746e-01,-2.21288e-01,8.43245e-01,-4.10383e-01,-4.49644e-01,1.10120e+00,1.88138e-01,4.73778e-01,-1.07431e+00,1.23281e-01,1.09369e+00,-1.32636e-01,-8.81905e-02,-6.47534e-02,5.79462e-01,1.34829e+00,-9.20831e-01,-3.35841e-01,7.48313e-01,-1.17585e+00,-1.51786e+00,-2.98870e-01,9.09893e-01,6.21210e-01,-3.32363e-01,-4.98781e-01,-2.45494e-01,-4.61905e-01,-9.72227e-01,-3.17324e-01,-7.10176e-01,-8.27101e-02,4.47104e-01,-3.53405e-01,-1.40458e+00,-1.67198e+00,8.75048e-01,-1.42022e+00,1.10102e+00,1.04066e+00,-1.76293e+00,-2.01340e+00,2.87270e-01,7.27167e-01,-1.35018e-01,5.55160e-01,-4.43857e-01,3.43562e-01,-2.91898e-01,5.26937e-01,1.24853e+00,-1.95192e+00,
-5.50074e+00,6.10917e-01,-4.73914e-01,4.90670e-01,1.69840e-01,9.39771e-01,-8.23845e-01,6.25817e-01,9.83010e-01,6.70467e-01,-1.81702e-01,6.93804e-01,-3.73169e-01,1.62425e+00,4.56553e-01,-4.82900e-01,2.11911e-01,-2.18687e-01,-4.62904e-02,-2.49887e-01,1.60901e-01,-3.23729e-01,3.08407e-01,-7.22050e-02,-5.35272e-02,5.51541e-01,2.43776e-02,-3.91659e-01,-1.17012e+00,-1.86248e-01,1.13181e-01,-1.26998e+00,1.14339e+00,1.10751e+00,-7.83186e-03,-1.26281e+00,7.08797e-01,4.36270e-02,-4.76475e-01,1.20154e+00,-2.76807e-01,1.51202e+00,-2.59928e+00,-1.78229e-01,1.19131e+00,1.83253e-01,1.31661e-01,1.90931e+00,1.34023e-01,-8.31864e-01,-9.02465e-01,-9.19736e-01,3.12781e-01,-7.52611e-01,1.69866e-01,3.94140e-01,5.91874e-01,1.12686e+00,1.54740e+00,-2.16512e-01,-4.17650e-01,7.39045e-01,1.83269e+00,-9.88793e-01,-3.73567e-01,8.62306e-02,-3.16145e-01,-2.91683e-01,-6.07620e-01,7.66601e-01,
1.67479e+00,8.97322e-01,-1.76224e-01,-6.54845e-01,8.07341e-01,5.63744e-01,2.53408e-01,-5.16210e-01,1.05508e+00,6.88626e-01,6.82141e-01,-6.66636e-02,-3.68196e-01,-6.53919e-01,4.66622e-01,-3.20539e-01,2.97651e-01,3.47559e-01,6.93998e-01,1.43610e+00,1.00606e+00,3.02323e-01,-2.99488e-01,-1.02966e-01,5.26620e-01,7.23814e-01,-1.07564e+00,-2.95920e-01,2.17998e-01,-8.43541e-01,-2.23827e-01,1.14646e+00,1.03072e+00,5.14405e-01,-7.12725e-02,7.40646e-01,-7.68828e-01,-5.08657e-01,-4.24561e-01,-3.75015e-01,1.45598e+00,-1.13178e+00,9.92182e-02,6.77162e-02,4.30191e-01,-1.01800e+00,-4.31529e-01,7.28100e-01,4.26759e-01,-1.54706e+00,7.84175e-02,-2.91752e-02,-2.43725e-01,8.65389e-01,-3.22068e-01,-7.11531e-01,-3.87453e-01,5.36596e-01,-6.70898e-02,9.28478e-01,-2.94830e-01,7.87817e-01,-2.96465e-01,4.42983e-02,-6.76747e-01,4.39234e-01,1.26707e+00,6.71562e-01,8.28121e-01,-6.84518e-01,
3.38722e+00,6.43154e-02,1.57395e-01,-6.26063e-01,-3.11761e-01,9.14380e-01,4.53723e-01,1.05943e+00,1.03298e+00,6.22837e-01,3.20042e-01,-1.45897e+00,-2.89345e-01,-1.67158e+00,-2.02131e-02,2.06919e-01,4.79208e-01,-4.05820e-01,1.51103e+00,7.39045e-01,1.83004e-01,2.51567e-02,-5.76391e-01,9.43591e-02,9.19862e-01,5.04916e-01,-5.16165e-01,5.78956e-01,4.40690e-01,-3.82775e-01,1.44435e-01,8.03458e-01,1.54963e-01,1.56550e+00,1.07086e+00,4.90189e-01,9.12130e-02,-1.35863e+00,-2.32379e-01,4.71745e-02,1.25170e+00,6.87768e-01,1.41716e-01,1.66431e+00,3.61117e-01,-9.91918e-01,1.15573e+00,-2.98235e-01,3.77444e-01,-1.61999e+00,-6.59624e-01,8.97096e-02,1.12640e+00,4.98126e-01,-1.11054e+00,2.32890e-01,-1.85580e-01,7.46072e-01,4.46041e-01,6.76137e-01,-3.35211e-01,9.97673e-01,-8.96260e-01,4.12050e-01,-6.51664e-01,1.11754e+00,8.00792e-01,1.50654e+00,8.51516e-01,1.31835e-01,
-7.80323e-01,1.86092e-01,-2.25804e-03,3.68827e-01,-3.96208e-02,1.26104e+00,4.94891e-01,-2.07703e-01,2.17667e+00,-4.95485e-01,6.49909e-01,5.94123e-01,-2.62085e-01,4.74346e-01,4.18384e-01,1.71754e-01,8.74296e-02,-1.59589e-01,2.40210e-01,1.20222e-01,1.00107e+00,-5.17055e-01,2.01798e+00,1.37569e+00,1.42357e-01,5.35187e-01,2.57943e-01,3.04302e-01,-7.83018e-01,-1.09527e-02,-1.02190e+00,-2.23601e-01,4.51908e-01,6.70573e-01,7.94285e-01,-1.89330e-01,3.59128e-01,1.37208e-01,-1.00910e-01,3.51487e-01,-3.92264e-01,3.13211e-01,-1.17147e+00,1.13673e-02,-7.32255e-01,-6.27616e-02,-2.97698e-01,1.69155e+00,5.30810e-01,-1.15435e+00,-7.62885e-01,-1.15739e-01,-6.92864e-01,-4.55306e-01,9.13380e-01,-3.88994e-01,-1.32493e+00,1.44276e+00,9.92161e-01,-7.65583e-01,-1.07091e+00,1.74245e+00,1.79072e+00,-8.50224e-01,1.91176e-02,2.56631e-01,1.03424e-01,5.55113e-01,-2.22503e-01,-2.15764e-01,
5.34831e+00,-3.28307e-01,-1.93021e-01,6.90801e-01,-3.91784e-01,5.86204e-01,3.95752e-01,-1.03566e+00,2.95598e-01,1.06239e+00,4.04267e-01,7.05893e-02,-1.19031e-01,9.45981e-01,-3.29484e-01,-2.96957e-01,5.70953e-01,4.47118e-01,8.05112e-01,1.10451e-01,2.40190e-01,-5.05953e-01,-9.70990e-01,2.54339e-01,9.27698e-01,-8.00855e-01,-7.15366e-01,1.18565e+00,2.01377e+00,1.15489e+00,4.83685e-01,-3.38147e-01,-1.97413e+00,-1.29051e+00,1.00493e+00,-4.80249e-01,2.94267e-01,-7.94473e-01,-6.41299e-01,-7.37582e-01,1.14847e+00,-8.42182e-01,-1.33786e+00,-1.31719e+00,-6.29355e-03,-1.29741e-01,1.38247e+00,3.21485e-01,6.12830e-01,-2.30212e-01,-4.57596e-01,1.11730e+00,-1.13720e+00,-1.00378e+00,3.75191e-01,-9.08631e-01,1.05740e+00,9.87810e-01,-1.23620e+00,-4.15591e-01,-4.44739e-02,4.61040e-01,-5.29646e-01,-8.10732e-02,-1.69876e+00,4.87718e-02,2.18493e-01,3.09835e-01,-7.64792e-01,-2.92935e-02,
3.56636e+00,-9.99489e-01,2.02516e+00,-9.46218e-02,2.01238e+00,7.06317e-01,-2.83929e-01,5.40663e-01,9.46770e-01,3.49989e-01,5.34785e-01,-9.60115e-01,3.68177e-01,-1.06612e+00,-2.88727e-01,-2.53321e-01,-2.28626e+00,1.58969e-01,1.27944e+00,5.70464e-02,2.84828e-01,-1.12525e+00,2.42520e-03,-1.66678e+00,-1.46673e-01,-4.69646e-01,7.58314e-01,4.60006e-01,1.81525e-01,2.31907e-01,4.52006e-01,-1.01181e-01,6.59255e-01,2.31458e-02,-5.39300e-01,3.78082e-01,-3.63676e-01,4.49454e-01,1.49516e+00,-4.59584e-01,6.47845e-01,1.02736e-01,1.64912e+00,1.24791e+00,3.82444e-01,-1.31425e+00,9.77552e-02,-4.82086e-01,2.44507e-01,-5.17113e-01,3.09636e-01,-3.71855e-02,1.35997e-01,-1.37237e+00,-1.36370e+00,-1.23744e+00,-2.20407e-01,-6.71851e-03,-2.40116e-01,5.03985e-01,-8.47940e-01,9.41417e-02,-8.40227e-01,4.32622e-01,8.68514e-01,1.61781e+00,-1.07801e+00,9.88620e-01,8.12663e-01,-7.63710e-01,
3.12713e+00,3.97553e-01,-4.09384e-01,1.72499e+00,-7.02709e-01,6.90670e-01,-2.75482e-01,8.88584e-01,5.86699e-01,-2.45971e-01,8.69101e-01,4.34687e-01,-8.98919e-01,5.63800e-01,4.70396e-01,-3.22428e-01,-1.74319e-01,2.39549e-01,2.68424e-02,-3.97125e-01,7.43349e-01,-1.10536e-01,-3.90364e-01,1.32789e+00,-1.33049e-01,6.27416e-01,-2.54073e-01,2.97083e-01,1.13737e+00,4.16465e-01,7.78824e-01,-1.12364e-01,-3.17306e-02,1.44456e-01,-1.44336e-01,1.20944e+00,5.02717e-01,1.50274e-01,-2.97742e-01,-6.28395e-01,-7.51118e-02,-1.38902e-01,-1.09823e+00,-3.25679e-01,-4.47603e-02,-4.95016e-01,4.98322e-01,4.07540e-01,2.71312e-01,-3.79455e-01,2.05176e+00,7.80892e-01,-7.56763e-01,-9.76225e-01,-3.37726e-01,1.86018e-01,2.06560e-01,-4.19275e-01,-6.93128e-01,-4.63408e-01,-1.22768e-01,5.29538e-01,1.19554e+00,-6.30258e-01,2.41527e-02,1.27202e+00,4.52060e-01,1.38129e-01,3.24974e-01,-3.17053e-01,
5.41585e-03,6.92078e-01,8.34500e-01,7.13232e-02,1.92967e-01,1.86542e-01,-1.28856e+00,-1.35123e+00,-1.77145e+00,-4.59673e-01,2.26806e-01,-9.63313e-02,8.81332e-01,2.03592e-01,-1.30729e-01,1.77692e+00,5.34826e-01,-5.26860e-01,-5.41993e-02,6.69949e-01,1.17795e+00,1.20824e-01,-9.93267e-01,-2.27940e-01,-1.66274e+00,-3.40077e-03,2.24217e-01,3.55909e-01,-1.30840e+00,2.39616e-01,-1.23874e+00,-4.63498e-01,-1.15233e+00,-4.72813e-01,1.21333e-01,-1.19034e-01,-9.84569e-01,-5.53265e-01,2.38528e-01,-5.38701e-01,4.00613e-01,6.50759e-01,-2.89667e-02,-1.31119e+00,3.83034e-01,7.89846e-01,6.55205e-01,-8.24247e-01,-1.15630e+00,-4.79353e-01,-1.37948e-01,4.12445e-02,8.46590e-01,1.38809e-01,5.97434e-01,6.48989e-01,1.05593e+00,-1.41153e+00,4.37794e-01,1.18804e+00,-4.30711e-01,5.94203e-01,-1.11859e+00,1.50412e+00,-6.71090e-01,-4.26261e-01,-4.73114e-01,3.14981e-01,4.04888e-01,-1.31401e+00,
-7.09164e-01,-8.55945e-01,-7.45921e-01,1.20712e-01,1.27610e+00,7.85315e-01,1.33542e+00,3.26306e-01,2.62686e-01,-5.57008e-01,-4.98627e-01,6.48898e-01,7.24742e-01,2.15764e+00,1.40723e+00,-7.32084e-02,1.23718e-02,-1.08303e+00,-4.88813e-01,-1.03621e+00,-7.49286e-01,9.13112e-01,-3.38001e-01,8.60938e-02,-8.55620e-01,1.08931e-01,-2.69193e-01,-1.31656e+00,9.64493e-02,-9.30925e-01,1.14998e+00,-5.86558e-02,1.28902e+00,2.52181e-01,-1.38194e-02,1.59983e-01,5.36936e-01,-3.81041e-01,2.26139e-01,-1.74127e-01,2.80280e-02,-6.00550e-01,1.06555e-01,3.96694e-01,-7.29825e-01,-2.24735e-01,-9.95462e-01,7.16262e-01,-2.22976e-01,1.59212e+00,-5.97547e-01,1.16689e+00,3.28162e-01,-4.75392e-01,3.08345e-01,-6.48800e-01,-9.63091e-01,-3.31042e-01,5.53026e-01,3.73613e-01,-1.01795e+00,2.82822e-01,1.16396e-01,1.89475e-01,-1.11615e+00,4.67788e-01,-1.42923e+00,-1.10691e+00,-9.22694e-01,-4.17397e-01,
2.66278e+00,-4.16631e-01,5.69753e-01,-1.58489e+00,-2.57079e-01,6.51613e-01,-3.02369e-01,7.13248e-01,1.33069e+00,1.29689e+00,3.07230e-02,-5.79282e-01,2.25507e-02,-1.31023e-01,-1.31625e+00,-5.54411e-01,5.65756e-01,5.15069e-02,-7.95887e-01,4.47803e-01,3.02349e-03,-4.98831e-01,-1.61174e+00,-2.37811e-03,-2.47218e-02,-6.97922e-01,-2.96326e-02,1.47166e-01,4.95562e-02,7.22588e-01,-3.03674e-01,-1.20913e+00,-5.91515e-01,-6.27088e-02,3.08940e-01,1.14637e+00,-1.98154e+00,-1.21875e-01,-3.43734e-01,-1.93572e-01,-1.15612e+00,6.69058e-01,4.17461e-01,-1.06395e+00,2.47586e-01,-5.19306e-01,3.56819e-01,2.21888e-01,-7.03428e-01,-6.18321e-01,-2.63611e-01,4.93778e-02,-3.05845e-02,-4.82152e-02,2.05653e+00,-1.38355e+00,-5.01505e-01,-7.82625e-01,-1.36253e+00,9.85728e-01,-4.00677e-01,2.29665e-01,-5.27925e-01,1.90023e-01,5.47453e-01,-1.45306e-01,-8.20199e-01,-8.31159e-02,1.15638e+00,-6.03229e-01,
5.03659e-01,7.42388e-01,1.35079e-01,9.21298e-01,-7.94118e-01,1.19578e+00,-9.71090e-01,6.99025e-01,-8.71132e-01,5.11134e-01,1.09532e+00,1.02165e+00,1.04869e+00,-3.23026e-01,-5.93677e-01,1.11647e+00,4.92669e-02,-2.10243e-01,3.56516e-01,1.19371e+00,-6.61740e-02,1.83826e-02,-9.91255e-01,5.28698e-01,5.92772e-01,6.35899e-01,-1.24363e-01,-4.39100e-01,-1.42871e+00,-7.56592e-03,-8.89633e-01,-3.59508e-01,-4.48485e-01,-1.26594e-01,1.34242e-01,-3.09976e-01,-2.68029e+00,-5.30412e-01,6.40085e-02,-4.95042e-01,1.42861e+00,5.56573e-01,-8.62775e-01,-1.15855e+00,5.11478e-01,5.19529e-01,1.51689e+00,-1.30374e+00,-1.05093e+00,1.34777e+00,1.13028e+00,-4.69751e-01,-1.15162e+00,-2.68262e-01,1.21588e+00,1.30237e-01,9.64268e-01,-8.85469e-01,-8.25850e-01,3.91835e-01,3.35652e-02,-3.28136e-01,8.72447e-01,-1.35966e+00,-3.76929e-01,-1.03244e-01,-8.67008e-02,5.45677e-01,8.61386e-01,4.88516e-02,
1.39383e+00,5.37587e-02,-2.81596e-04,-1.52270e+00,-5.55842e-01,1.84602e-01,3.39590e-01,-7.51909e-01,1.44069e+00,-8.46121e-02,-8.66006e-01,-5.29379e-01,1.13971e+00,-1.12229e+00,-8.66467e-01,1.15873e+00,4.14191e-01,-6.71060e-01,5.67178e-01,-2.64474e-01,1.32078e-01,-1.47900e+00,3.48641e-01,-1.69338e+00,-3.53328e-01,-1.85181e-01,6.67250e-01,2.51970e-01,-5.14215e-01,6.64693e-01,7.51088e-01,-7.40721e-01,-7.82455e-01,4.48115e-01,-3.87576e-01,1.40209e+00,-2.13683e+00,2.40925e-01,3.56171e-01,3.20434e-01,-6.83654e-01,-6.98534e-02,2.44453e-01,-1.24471e+00,-7.45045e-01,-1.71926e+00,8.77464e-01,1.07376e+00,-1.70401e+00,5.72229e-02,-6.01468e-01,-4.80526e-01,-4.11391e-01,1.08352e+00,8.89565e-02,2.69253e-01,-5.86549e-01,8.03382e-01,-8.21979e-01,1.00399e+00,-8.06977e-01,1.58833e-01,-1.18608e+00,2.70394e-01,-1.76329e+00,8.88051e-01,-1.28543e+00,2.37616e-01,1.58249e+00,2.47563e-02,
1.62651e+00,-9.64925e-01,-2.63957e-01,-5.22353e-01,-1.43244e-01,5.66563e-01,3.12937e-01,7.32046e-01,-5.41328e-01,3.11865e-01,6.33778e-03,1.80329e-01,-7.97516e-02,-3.59552e-01,-1.10398e-01,-7.28944e-01,3.14898e-01,-7.61701e-01,5.51072e-01,1.08082e+00,6.17817e-01,7.41080e-01,1.46053e-02,1.14022e+00,-8.19337e-02,-1.62523e-01,-1.49749e+00,-6.26526e-01,1.53849e-01,-8.00205e-01,3.59095e-01,5.87968e-01,1.58688e-01,-2.34393e-02,-1.97369e-01,-9.50531e-01,6.55989e-01,-1.53841e+00,-1.13866e+00,5.34958e-01,5.68995e-01,-4.78650e-02,-1.45753e-01,-3.30321e-01,9.91005e-02,1.10584e+00,9.51178e-01,-1.64570e-01,8.77460e-01,-9.92104e-01,1.27274e-01,1.12323e+00,6.49548e-01,-2.35636e-01,-6.46511e-01,4.75021e-01,5.51847e-01,7.03986e-01,8.27747e-01,1.06194e+00,6.34442e-01,1.40002e+00,1.62042e-01,7.06014e-01,-6.35315e-01,-5.56930e-03,1.52935e-02,4.74397e-01,-4.22669e-01,-5.92309e-01,
3.41388e+00,-1.55342e-01,-9.90706e-01,1.31806e+00,1.22858e+00,2.29423e-01,-7.30339e-01,-1.74235e-01,2.91089e-01,-2.74974e-01,-5.48166e-02,-1.06841e+00,-2.05677e-01,2.26488e-01,7.23878e-01,-2.34163e+00,7.48708e-01,-2.35908e-01,4.87195e-01,1.06150e+00,-1.03537e+00,1.46125e+00,-8.13072e-01,6.12922e-01,1.00416e+00,1.64170e+00,-1.47846e+00,-3.39202e-01,-2.97667e-01,5.52586e-01,9.90882e-01,9.43188e-01,4.51764e-01,-5.32964e-02,-5.44850e-01,5.36005e-01,7.63219e-01,-2.84985e-01,1.10574e-01,-7.22103e-01,7.90944e-01,-1.12358e-01,2.18855e-01,7.64099e-01,1.24853e-01,-1.26330e+00,1.06623e+00,1.00599e-01,8.12347e-01,-9.89192e-01,-1.56378e+00,5.97539e-01,5.22651e-01,1.37197e+00,-1.07302e+00,-5.01638e-01,-1.38738e+00,1.39344e-01,3.82456e-01,-3.40989e-01,-4.62523e-01,1.07810e+00,1.76756e-01,2.51420e-02,8.61585e-01,5.20273e-01,3.53300e-02,-5.13262e-01,-8.51902e-02,3.09340e-01,
8.31815e-01,-6.32250e-01,-6.33648e-01,-1.02450e-01,5.87606e-01,1.66385e+00,-2.70114e-01,1.23959e-01,6.04160e-01,2.88494e-01,7.75913e-01,-8.52288e-01,3.28819e-01,1.62698e+00,1.32188e+00,-7.23817e-01,5.44596e-01,-4.76941e-01,-1.29824e-01,3.34225e-01,6.23017e-01,-4.93033e-01,5.01657e-01,8.29561e-01,-1.00756e+00,-1.01355e-01,-8.36378e-02,8.51041e-01,8.41329e-01,-8.29792e-02,1.25921e+00,2.08839e-01,-3.24211e-01,-2.21784e-01,5.39903e-01,-1.16355e+00,3.23478e-02,-8.50272e-01,2.46199e-01,1.00996e+00,-6.10026e-02,-3.95793e-01,-1.04572e+00,-4.34141e-01,-1.09538e+00,-1.66545e-01,-9.91150e-01,8.86720e-01,4.45726e-01,2.56310e-01,-1.93608e-01,1.77078e-01,6.98353e-01,-8.48836e-01,-7.69229e-01,-2.76401e-01,-1.85575e-01,1.27603e+00,-3.50721e-01,-1.39284e+00,6.46449e-02,5.00093e-02,-9.03027e-02,-7.75008e-04,-3.12573e-01,-1.23444e-01,5.02375e-01,-1.64447e-01,-3.13290e-01,1.03302e+00,
3.48552e+00,-1.69169e+00,-6.57421e-01,-1.19018e+00,7.45875e-01,5.69372e-01,-8.13551e-01,5.23770e-01,-4.97765e-01,1.78583e+00,1.09093e+00,-8.46995e-01,6.25112e-01,-1.53897e+00,-1.66879e+00,-9.48698e-01,7.96026e-01,-1.68141e+00,-1.19034e+00,-2.45634e-01,3.67521e-01,1.24205e+00,2.20946e-01,5.85921e-01,8.64523e-01,-1.45792e+00,3.97541e-02,5.99079e-01,2.24471e-01,8.48392e-01,1.70440e+00,-1.73616e-01,-3.97363e-01,3.99891e-01,-4.22302e-02,-6.71582e-01,7.96397e-02,-1.75596e+00,2.98117e-01,6.27327e-02,3.18803e-01,2.71393e-02,-8.95308e-02,3.06669e-01,-2.21245e-01,-1.24408e-01,-4.99867e-01,-9.90151e-01,-5.71104e-01,4.96446e-01,-1.71497e-01,-7.31994e-01,1.84339e-01,-4.94835e-01,9.19358e-01,-7.65795e-01,3.39306e-01,6.14300e-01,-5.53613e-01,-5.96008e-01,-2.32105e+00,-2.33577e-01,-1.18926e+00,9.73777e-01,8.72137e-02,2.95458e-01,-4.78719e-01,9.05151e-01,1.93566e-01,-1.55702e+00,
2.59284e+00,-9.19959e-01,-5.95950e-01,1.28676e+00,-1.08418e+00,-2.02508e-01,-9.55963e-01,8.04955e-01,-2.85671e-01,6.51104e-01,2.81808e-01,-4.99005e-01,-3.01590e-01,1.28027e+00,1.39323e+00,5.23550e-01,-5.79369e-01,3.53560e-02,2.50957e-01,-6.15583e-01,6.03633e-01,-9.01644e-01,-7.63172e-01,1.90382e+00,-8.22469e-02,-7.51366e-01,-2.44545e-01,6.92160e-01,3.77189e-02,-4.09169e-01,4.76576e-01,5.28768e-01,2.65421e-01,-7.05170e-01,-2.19009e-02,-4.61792e-01,6.22796e-01,1.29741e-01,9.10859e-01,-7.46011e-01,-9.18915e-02,-1.01878e+00,-2.43478e-01,-1.04290e+00,-9.62702e-01,-2.74499e-01,-6.75962e-01,1.85480e-01,5.09828e-01,-5.24166e-02,4.19495e-01,1.13667e-01,-1.57616e+00,-4.50055e-01,-3.11534e-01,-4.86775e-01,-3.18184e-01,4.26450e-02,-7.15021e-01,8.63887e-01,8.94009e-01,3.28734e-01,1.04197e-01,-1.46508e+00,3.44577e-01,-4.76032e-02,2.80260e-01,-4.84407e-01,-4.57798e-01,-4.51695e-01,
2.84684e+00,6.17750e-02,-7.19888e-02,-7.19896e-01,6.57040e-01,-1.57883e-02,-2.73025e-01,1.15018e+00,2.10251e+00,-9.83159e-01,1.28182e+00,-2.02965e-01,2.75501e-01,-1.45823e+00,2.18872e-01,3.20077e-02,5.26962e-01,-1.65440e-01,1.33131e+00,-9.89131e-02,-3.81439e-01,-1.17508e-01,3.11847e-01,-1.15144e+00,-3.16607e-01,2.38633e-01,-4.40425e-01,4.04032e-01,-9.20838e-02,-7.85324e-01,-1.02268e+00,-9.78996e-01,7.23519e-01,1.37200e+00,1.67790e+00,9.58238e-01,-5.15463e-01,-1.05830e+00,-5.27884e-01,9.74741e-01,6.68628e-01,4.94720e-01,-3.95787e-01,5.09470e-01,1.10966e+00,-7.43587e-01,9.76799e-01,4.66256e-01,-6.66653e-01,-2.40877e+00,-2.81399e-01,-5.08613e-01,8.45064e-01,8.53506e-01,-6.40305e-01,-8.60543e-01,-3.96125e-01,8.03496e-01,3.22630e-02,2.69643e-01,4.81505e-01,-9.08371e-01,-9.98732e-01,2.82993e-01,-5.50830e-01,-6.30707e-01,-3.52574e-01,7.00178e-01,2.51642e-01,-1.43845e-02,
1.05125e+00,2.25880e-01,-7.28726e-01,5.84279e-01,-1.18553e+00,5.59079e-01,8.56414e-01,9.71844e-01,4.34129e-01,-8.76694e-01,1.14714e+00,-1.20758e-01,1.38552e+00,4.15792e-01,-2.86230e-01,4.89610e-01,-9.05003e-01,3.09673e-02,4.03029e-01,-1.50059e+00,-3.32298e-01,-5.56933e-01,-4.11571e-01,1.15181e-01,-3.79141e-01,-4.86585e-01,-1.19452e+00,1.63587e-01,7.06580e-01,-7.90092e-01,2.18676e-01,1.06089e+00,-7.89776e-02,1.60941e-01,5.02824e-01,-1.40490e-01,-4.48775e-01,1.50803e-01,2.95030e-01,1.86451e-01,-1.02005e+00,1.67129e-01,-7.22024e-01,7.88324e-02,-6.93005e-01,1.36191e+00,-8.93078e-01,-5.15344e-01,-8.12092e-01,-3.87831e-02,-2.01980e-01,-9.90599e-01,-1.15082e+00,3.86297e-03,9.86690e-01,-1.21823e+00,2.65143e-01,1.71606e-01,-3.13500e-02,1.02503e+00,2.06497e+00,-2.40507e-01,9.04357e-02,-1.15400e+00,6.29077e-01,7.95763e-02,7.06416e-01,-1.08607e+00,7.47414e-01,-2.41358e-01,
1.42304e+00,-5.70388e-01,5.01802e-01,-5.47980e-01,2.07760e-02,-3.46054e-01,3.77730e-01,1.07756e+00,-6.94138e-01,2.92565e-01,1.21321e+00,-9.22966e-01,-3.04301e-01,6.48495e-02,8.48337e-01,8.40061e-01,-3.18951e-01,8.02918e-01,1.29602e+00,1.28941e+00,-2.64471e-01,1.81335e+00,-5.63478e-02,-8.68761e-01,4.20824e-01,1.25863e+00,1.28973e+00,5.91125e-02,1.69173e+00,-6.00766e-01,-4.95259e-01,4.02811e-01,1.12935e+00,1.15271e+00,1.20278e+00,-5.98409e-01,8.06549e-01,-2.31201e-01,6.26864e-01,5.20331e-01,-1.16089e+00,-3.23500e-01,9.91804e-03,1.04258e-01,1.13212e+00,-2.65384e-01,-6.69573e-02,1.28539e+00,-3.97108e-01,-7.45718e-01,2.89841e-01,-2.18257e-01,8.78040e-01,-4.35674e-02,4.30321e-01,-1.40170e+00,4.72263e-01,3.68383e-01,-2.31074e-01,-1.62140e-01,-4.99151e-03,-4.51131e-01,-2.64371e-01,7.46107e-01,3.74157e-01,4.39271e-01,-7.59476e-01,-1.10537e+00,-9.15052e-01,-8.37056e-01,
3.83898e+00,-7.46273e-01,3.54810e-01,1.10264e+00,-5.68631e-01,-8.97435e-02,5.57910e-02,1.47832e+00,6.46835e-01,-4.11246e-01,1.27389e+00,8.15744e-01,-2.37673e-01,2.91603e-01,5.41687e-02,4.46725e-01,-5.83374e-01,-4.16338e-01,6.70479e-01,-3.73534e-01,1.25465e-01,-1.00098e-01,1.17623e-01,-4.33097e-02,7.55944e-01,-2.09928e+00,-2.17627e-01,-4.91384e-01,-4.33625e-01,9.69334e-01,9.44789e-01,-1.01744e+00,4.82235e-01,-3.57457e-01,-5.10212e-01,-2.50046e-01,-4.46499e-01,-8.58602e-01,1.39400e-01,-8.97974e-01,8.11477e-01,-6.13888e-01,-5.62969e-02,-4.28390e-01,-7.78921e-02,-9.74761e-02,2.69429e-01,7.22103e-01,-2.95598e-01,2.13927e-01,-1.67794e-01,3.71040e-02,-1.14547e+00,-4.93162e-01,3.67788e-01,2.24870e-01,4.67381e-01,1.27661e+00,-1.28869e+00,-2.31462e-01,-2.73393e-01,3.08629e-01,1.31782e+00,1.08860e+00,-1.00356e+00,3.42431e-01,3.90803e-01,-1.70024e-01,2.51123e-01,7.09263e-01,
4.01164e+00,3.16406e-01,-1.30626e+00,-5.93510e-02,5.12875e-01,-3.73472e-01,-5.02651e-01,2.27761e-01,2.73947e-01,3.41679e-01,4.42146e-01,-1.89119e+00,3.30454e-01,-2.68197e-01,-7.73297e-02,-4.70555e-01,1.15712e+00,-1.35679e-01,4.11049e-01,1.04644e+00,1.33062e-01,1.11070e+00,2.68387e-01,-1.17336e+00,5.68905e-01,4.78016e-01,-1.53066e+00,1.07921e+00,6.70153e-01,5.09447e-01,1.31281e+00,-7.95793e-02,1.20177e+00,5.25876e-02,2.14102e-01,-8.15217e-01,3.99312e-01,-4.58604e-01,-4.90978e-01,3.53423e-01,4.27392e-01,-7.29193e-01,-8.25397e-01,-8.70077e-01,-2.26918e-01,-5.23527e-01,-2.96321e-01,5.25447e-01,6.09659e-01,2.95949e-01,-5.22080e-01,-9.68255e-01,-1.22338e+00,1.32991e+00,-8.25064e-01,3.79063e-01,-1.09554e+00,3.44023e-01,-6.36126e-01,-4.14794e-01,1.30714e+00,2.31360e-01,1.16793e+00,9.66666e-01,-7.00221e-01,-9.72751e-02,5.90858e-02,-1.94974e-01,3.87563e-01,9.98274e-01,
-5.25789e-02,4.61130e-01,1.37030e+00,-1.05158e-01,2.81762e-01,2.22064e-01,1.61209e-01,-8.34147e-01,3.45267e-01,2.46385e-02,1.05648e+00,1.45743e-01,-3.50270e-01,7.27988e-01,1.27301e+00,1.22607e+00,-2.98946e-01,-3.80601e-02,8.76458e-01,1.43809e-01,-9.74591e-01,-1.06639e+00,1.66560e+00,-3.52755e-01,-5.47789e-01,8.98279e-01,-6.55616e-01,-4.62280e-01,-3.08198e-01,9.80083e-01,-9.64785e-01,-9.36565e-02,-6.86624e-01,1.16199e+00,-4.59493e-01,8.57828e-01,-8.75660e-02,2.42989e-01,-6.27209e-01,1.01381e+00,1.78802e-02,9.96210e-01,-8.26121e-01,2.17054e-01,1.16016e+00,4.67549e-01,1.94356e-01,7.76175e-01,-1.12521e+00,-8.18949e-01,-5.86517e-02,-3.79054e-01,1.03857e-01,-3.55701e-01,7.00611e-01,4.41535e-01,2.38430e-01,-1.76233e+00,6.55923e-01,-2.34325e-01,-2.76008e-01,-1.03788e-01,6.13459e-01,5.53705e-02,-1.29477e+00,8.71372e-01,-1.38968e-01,-1.11082e+00,-1.92489e-01,1.66701e-01,
6.04603e+00,-2.86652e-01,-4.72694e-01,9.89357e-01,-1.16070e+00,-2.58349e-01,1.31592e-01,-1.27421e+00,-2.12891e-01,-1.38639e+00,-6.72392e-01,-1.89150e-01,9.36338e-01,4.99447e-01,6.12715e-01,-1.39280e+00,2.83315e-01,5.97515e-01,-2.28055e-01,1.05461e+00,4.00236e-01,3.64545e-01,-6.95991e-01,-2.81057e-01,-5.73318e-01,-1.45298e-01,-1.06519e+00,-1.07427e+00,3.60239e-01,1.26210e+00,2.54241e-01,1.07707e+00,3.01349e-01,7.07932e-01,-9.79797e-01,1.61243e+00,1.40329e-01,-4.36671e-01,4.51917e-02,-7.84127e-01,7.04382e-01,-3.31375e-01,-3.18348e-01,-1.60236e+00,-1.40770e+00,8.82398e-01,6.48678e-01,-7.58687e-01,7.91775e-01,-2.61905e-01,-1.55801e+00,1.38998e+00,1.28538e+00,7.46159e-01,-2.45631e-01,-2.62760e-01,-5.17467e-01,-8.00074e-01,-1.14189e+00,-6.98952e-01,2.37486e-01,9.43190e-01,-1.88411e+00,-3.93399e-01,-7.89700e-01,-2.24214e-01,-2.14402e-01,-1.89446e+00,2.37305e-01,-6.06458e-02,
-1.56488e-01,1.31150e+00,-6.63829e-01,-1.11633e+00,1.30341e+00,1.11964e+00,7.00508e-01,-4.55778e-01,1.09485e+00,6.41488e-01,7.67596e-01,-8.35605e-01,1.17407e-01,2.82976e-01,4.73334e-01,1.62629e+00,6.40986e-01,-6.83007e-01,1.06083e+00,2.62836e-02,-1.65387e+00,4.24988e-01,1.06309e+00,8.66182e-01,-6.17546e-02,4.99750e-01,7.27692e-01,2.11326e-01,-2.97416e-01,-6.62383e-01,6.27853e-01,1.23644e+00,1.50036e+00,3.86358e-01,-6.22877e-01,3.54853e-01,-1.25639e-02,1.87506e-01,-1.80893e-01,2.64928e-01,1.20322e-01,-1.02011e+00,-3.20828e-01,3.42536e-01,-3.78010e-01,4.97366e-01,7.12455e-01,6.44554e-01,-5.43163e-01,-1.12587e+00,1.33953e-01,4.32252e-01,5.21455e-01,-2.59046e-01,1.08772e-01,-5.26824e-02,-9.61060e-02,-7.41376e-01,-5.67093e-02,2.84022e-01,-2.29812e-01,1.41747e+00,2.12909e-01,4.62222e-01,-3.31626e-01,-4.93129e-01,-5.52143e-02,-1.08838e+00,6.53995e-02,4.92399e-01,
6.10881e-01,4.54925e-01,5.25320e-02,-4.09206e-01,-2.18673e-02,-5.21394e-01,-5.93973e-01,-3.27279e-01,1.36265e+00,5.00871e-01,7.98578e-01,3.54291e-03,2.25277e+00,-2.57155e-01,-6.83749e-02,1.51071e+00,5.69711e-01,-1.42430e+00,1.79218e-01,7.15459e-01,-1.03021e+00,1.26270e+00,-3.45093e-01,-4.49284e-02,9.59297e-01,-6.57339e-01,-1.50697e-01,-6.26801e-01,-9.20437e-01,7.05914e-01,6.47418e-02,5.32689e-01,-5.77772e-01,-6.01917e-01,-1.52515e+00,1.44369e-01,-2.21970e+00,7.59967e-02,-6.45214e-01,-3.38305e-01,-1.54084e-01,-1.22229e+00,2.47751e-01,-8.65141e-01,-6.24867e-01,-9.32739e-01,1.97448e-01,4.08735e-01,-1.45688e+00,-6.02083e-02,2.06360e-01,1.83140e-02,-9.97552e-01,7.67859e-01,6.58816e-01,2.01761e+00,-1.13170e+00,-3.77867e-02,-1.44310e+00,8.11830e-01,-7.66360e-01,-1.18686e-02,-7.15018e-01,9.06909e-01,-1.00970e+00,2.61337e-01,-7.37987e-01,-7.36405e-01,-2.38085e-01,2.43105e-01,
3.20388e+00,5.43717e-01,1.29689e+00,-1.07698e+00,5.53817e-01,-1.54161e+00,3.40702e-01,-3.91561e-01,2.36573e+00,9.87061e-01,-8.30225e-01,3.84049e-01,-8.29639e-01,-9.64061e-01,2.16202e-01,1.97726e+00,-9.10259e-02,-2.16164e-01,-5.67174e-01,-1.19986e-01,-4.69179e-01,-4.66565e-01,-1.93734e-01,-3.12052e-01,4.92192e-01,-1.94195e+00,-1.28096e+00,-4.44882e-01,-1.15436e+00,3.37285e-01,-5.74921e-01,6.81151e-01,-7.10433e-01,-2.21477e-01,-2.68554e-01,3.76686e-01,6.08144e-01,8.30101e-01,-3.57038e-01,2.43230e-01,1.02737e+00,-1.54684e-01,-1.22707e+00,-1.56005e-01,-8.02205e-01,-8.61757e-01,-1.22110e-01,8.40802e-01,-1.91466e+00,-7.88939e-01,-1.35929e+00,6.79711e-01,-1.29095e+00,1.12293e+00,-6.21440e-01,1.43312e+00,-4.00325e-01,-1.77377e+00,-1.41983e+00,1.74865e+00,-2.83141e-02,1.35661e+00,-1.59324e-01,1.20776e+00,-1.30855e+00,2.03746e-01,-1.83987e-01,2.69529e-01,2.57190e-01,3.93829e-01,
2.49281e+00,-1.33021e+00,-2.04442e+00,-1.05823e-01,3.51307e-01,1.11782e+00,-1.23342e+00,-1.21800e+00,8.32490e-01,-1.11648e+00,-6.54659e-01,-2.66099e-01,-4.04364e-01,-1.98892e-01,1.29015e+00,-2.36434e+00,8.52873e-02,2.23561e-01,-1.72459e-01,1.32864e+00,-8.90524e-01,4.24910e-01,-4.82966e-01,1.35081e+00,1.10898e+00,7.37791e-01,-1.76448e+00,5.67012e-01,-1.05714e+00,2.48969e-01,1.44603e+00,8.70018e-01,9.48053e-01,-1.22457e+00,-3.75447e-01,-1.99411e-01,6.45646e-01,-1.24404e+00,2.50771e-01,-7.11183e-01,2.35019e+00,-4.76987e-01,2.52502e-01,-2.02747e-01,-8.02180e-01,7.34204e-01,9.46420e-01,-1.01518e+00,-2.76520e-01,2.98540e-01,-8.51438e-02,4.31266e-02,-4.74249e-01,6.74624e-01,-1.16586e+00,-4.63068e-02,-2.40347e-01,1.38175e+00,-3.51777e-01,-4.59284e-01,-7.04262e-01,3.95749e-01,6.78068e-01,3.70963e-01,-7.85387e-01,-2.85317e-01,8.90842e-01,2.03712e-01,-6.75624e-01,2.14589e-01,
-3.01164e+01,-5.93623e-01,4.57819e-01,-1.13699e+00,6.34184e-01,-1.13712e+00,-8.72906e-03,-5.10409e-01,5.95466e-01,1.25945e-01,3.93671e-01,-1.18975e-02,-3.80467e-01,4.03134e-01,-4.92698e-01,-2.32116e-01,-1.21057e+00,3.63856e-02,-9.02601e-01,-1.34033e+00,2.57254e-02,2.50342e-01,1.02391e+00,-2.93997e-01,6.41741e-01,-5.30356e-02,2.99905e-02,3.16178e-01,-6.76848e-02,-1.28421e+00,-8.62176e-01,5.89499e-01,1.62206e-01,-5.97508e-01,6.82792e-01,-1.62887e-01,3.79504e-01,-4.26248e-01,3.01776e-02,7.95530e-01,-3.87988e-01,-2.34679e-01,1.17252e+00,1.18024e-01,-2.57717e-01,-2.68225e-01,-9.12781e-01,-1.97929e-01,1.19117e+00,-6.90397e-01,6.72328e-01,-9.97647e-01,9.40788e-01,-2.90133e-01,1.60550e-01,2.13140e-02,-9.83041e-01,5.89409e-02,3.81074e-01,-8.45669e-01,9.63009e-01,-8.59137e-01,-8.22588e-01,8.18682e-01,-1.04458e+00,-6.69691e-01,1.26884e+00,7.16574e-01,4.75487e-01,-5.03510e-01,
1.40168e+00,4.58341e-01,4.96212e-01,8.91713e-02,3.20283e-01,3.27545e-01,3.79579e-01,-2.56589e-01,-5.21626e-01,1.05076e+00,-1.17668e-01,-6.30365e-01,-4.87086e-01,1.07165e+00,7.12095e-01,9.63278e-01,1.67830e+00,-5.09874e-01,5.03336e-01,6.79373e-01,-3.08289e-01,-9.21173e-01,9.75941e-01,-4.48780e-01,2.13775e-01,4.78530e-01,-7.70943e-01,-4.64248e-01,6.54891e-01,-1.19506e-01,-8.68148e-01,1.01955e+00,6.59156e-01,4.86154e-01,-8.88168e-01,-3.82216e-02,2.39047e-01,4.22615e-01,-1.00332e+00,-1.33756e+00,1.08210e+00,-1.94427e-01,-5.17009e-01,6.36372e-01,4.26170e-01,6.64800e-01,6.42203e-01,1.69618e+00,-5.66531e-01,-7.20746e-01,-1.12177e+00,3.70959e-01,-2.09278e+00,-2.48979e-01,-4.80511e-01,-1.17874e+00,-1.53317e-01,-1.27167e+00,-1.01402e-01,1.25721e+00,-4.75687e-01,9.16846e-01,5.83312e-01,-1.48832e-01,-1.73869e+00,-2.90801e-01,3.46845e-01,-6.70782e-01,-3.46849e-01,7.53394e-01,
3.27289e+00,-3.20741e-02,7.52934e-01,5.17131e-01,-5.37997e-01,8.26964e-01,3.94374e-01,-5.99336e-01,3.13271e-01,6.39857e-02,4.43010e-01,-1.13028e+00,1.86092e-01,3.62441e-01,3.53659e-02,-8.64392e-03,2.61509e-01,5.21965e-01,1.29849e-01,-5.97902e-02,-2.35265e-01,-6.51431e-01,6.33831e-01,-1.10893e+00,7.09701e-01,4.76815e-01,6.40484e-01,-3.72434e-01,8.16835e-01,6.89102e-01,2.26756e-01,5.31806e-01,1.23789e+00,6.47864e-01,-5.85542e-01,9.91343e-01,4.65617e-01,-4.85161e-01,-2.80032e-01,-4.84737e-01,-2.80511e-01,-1.80313e+00,-1.20486e+00,9.91943e-01,1.25413e+00,2.89853e-01,-1.92445e-01,9.38193e-01,5.16799e-01,-7.62796e-01,-4.74882e-01,3.34309e-01,-1.48777e+00,2.79674e-01,8.05572e-01,-6.65094e-01,-1.28665e-01,1.01198e+00,-9.02241e-01,1.58639e-01,-2.65017e-01,-7.87084e-01,9.87667e-01,7.26399e-01,-3.53854e-01,2.77787e-01,-2.91684e-01,-9.80503e-01,-1.00879e+00,7.17768e-01,
4.15879e+00,-4.58983e-01,-1.39920e+00,1.90228e+00,-9.11581e-01,-7.22510e-01,2.58537e-01,2.13541e+00,-7.56446e-01,-1.33528e+00,-6.85543e-01,-1.96118e-01,-9.16269e-01,7.37355e-01,4.63341e-01,-5.58568e-01,4.64534e-01,-4.26555e-01,-1.01407e+00,-1.20078e+00,-6.52806e-01,5.43834e-01,-1.83624e+00,-9.35207e-01,1.10203e+00,-7.46415e-01,2.34086e-01,1.32029e+00,-4.02671e-01,8.19890e-01,9.63233e-01,7.23987e-01,-3.52133e-01,-4.13340e-01,-1.65938e-01,7.10768e-02,-4.55946e-02,-5.84672e-03,-3.05692e-01,-1.52839e-01,6.57889e-01,-5.78793e-01,5.63902e-01,7.04263e-01,-2.63706e-01,4.19049e-01,1.10294e-01,1.45405e-01,-1.83684e-01,3.99136e-01,9.99648e-01,9.50579e-01,6.65080e-01,3.28219e-01,-1.88597e+00,6.84273e-01,-4.91442e-01,-1.47638e+00,6.08319e-01,-1.23708e-01,-5.50798e-01,2.24822e+00,7.44466e-01,-1.20335e+00,6.95302e-01,-1.25268e-02,6.53339e-01,-4.11283e-02,-5.05270e-01,2.75473e-01,
6.83990e-01,-2.14654e-01,7.83142e-01,-7.89199e-01,8.83635e-01,-2.06441e-01,6.82527e-01,7.68785e-01,2.19554e-01,5.08628e-01,-7.47804e-01,-1.64393e-01,-1.06452e+00,2.03331e+00,8.24710e-01,1.03727e+00,5.28355e-01,7.90711e-01,1.56067e+00,-4.26412e-02,5.88835e-01,3.15526e-02,-1.23023e-01,-2.13965e-02,-2.89539e-01,-6.52377e-01,-7.80910e-01,-6.09408e-01,-9.33198e-01,-3.57892e-01,-1.24972e+00,-7.51269e-01,1.68555e-02,5.92493e-01,-6.78277e-01,4.96635e-01,-7.13054e-01,1.27468e-01,-6.06646e-01,1.16677e+00,1.26364e-01,1.89449e+00,-2.60756e-01,8.07042e-01,5.00016e-02,1.06606e-01,1.20126e-01,-3.66410e-02,-5.16685e-01,-1.35066e+00,-4.60739e-01,1.70670e-01,-3.75388e-01,5.33494e-01,-1.61461e-01,-4.40013e-01,-3.35964e-01,1.24824e-01,-1.60954e-01,6.90479e-01,-5.20615e-01,3.91311e-01,-3.65471e-01,6.16630e-01,2.90309e-01,1.55286e+00,-2.58127e-01,5.25863e-01,9.93326e-02,-1.09806e+00,
-4.93691e-01,-2.84126e-01,-2.74097e-01,1.13225e+00,4.75957e-02,6.79099e-01,-2.25329e-01,-5.20297e-01,4.70875e-01,5.61342e-01,-2.04153e+00,-4.83586e-01,1.08677e+00,-9.61381e-01,7.29733e-01,8.13885e-01,1.09159e-01,-1.18777e+00,-4.40340e-01,1.12009e-01,3.19717e-01,-1.08588e+00,1.80860e+00,1.20191e+00,7.45010e-01,-1.41052e-01,-5.17034e-01,9.62408e-01,-1.07991e+00,-3.56527e-01,-3.87618e-01,2.96771e-01,5.02588e-01,-1.60980e+00,1.29218e-01,1.20428e-01,-7.73068e-01,1.00794e-01,-2.59353e-01,-1.33589e+00,2.47308e+00,1.10397e+00,-6.41581e-01,-6.98238e-01,-1.55487e+00,8.38636e-02,-9.39823e-01,-2.32522e+00,-1.54092e+00,1.01070e+00,1.55767e+00,-1.01351e+00,9.92556e-01,4.31185e-01,-7.03646e-01,1.09262e+00,-2.93249e-01,-3.67642e-01,-2.29713e+00,9.04981e-01,9.97286e-01,-7.35584e-01,1.09076e+00,5.19649e-01,-5.68342e-01,-6.44901e-01,3.27133e-01,9.89851e-01,4.32681e-01,-7.42312e-01,
7.94207e+00,1.12969e+00,1.28612e+00,3.32992e-01,1.13356e+00,4.47929e-01,-4.73562e-01,1.23903e-01,-1.46857e-01,1.26760e+00,2.62146e-01,-1.03560e+00,3.02622e-01,9.32585e-02,-8.23212e-01,2.97278e-01,5.08284e-01,-1.46890e+00,3.92198e-01,2.15628e-01,1.66415e+00,-1.25689e+00,1.31677e+00,-2.95175e-01,-8.76197e-01,-7.12726e-01,-1.45657e+00,-9.50914e-02,9.21362e-01,3.41326e-01,-8.27248e-01,-2.85919e-01,8.54158e-01,1.71304e+00,-8.65316e-01,1.96317e-01,-8.62506e-01,4.21306e-01,6.08595e-01,-5.86975e-02,9.85035e-01,-7.53810e-01,2.68554e-01,-1.23165e+00,8.52598e-01,-2.17383e-01,2.13910e-01,7.52061e-01,-7.09343e-01,-2.85237e-01,-2.74679e-02,7.55411e-01,-1.46158e+00,-9.19933e-01,-7.17151e-01,-2.11666e+00,5.27920e-01,5.67357e-02,-1.65032e+00,3.04569e-01,6.96836e-01,-9.68910e-02,-5.33226e-02,9.77853e-01,-1.45799e-01,-6.45584e-01,1.73491e-01,8.86427e-01,1.03492e-01,-6.97953e-01,
2.56042e+00,9.15491e-01,1.79744e+00,-1.63080e+00,4.75977e-01,9.90825e-01,-7.97840e-01,-2.33299e-01,1.47408e+00,1.11278e+00,1.27624e+00,3.54296e-01,-1.05645e+00,-8.31136e-01,-4.65270e-01,1.79369e+00,-1.12120e+00,-3.33051e-01,2.35802e-01,-6.20696e-01,-2.63533e-01,8.23900e-01,-6.02654e-01,-1.58429e+00,-2.18660e-01,-6.40711e-01,6.57687e-01,-1.40756e-01,5.98705e-01,-4.50431e-01,-4.64640e-01,-8.63557e-01,8.03608e-01,3.66205e-01,-2.79081e-01,-2.01351e-01,3.29998e-01,1.19551e+00,-3.28979e-01,2.65757e-01,4.86591e-01,-4.05414e-01,6.05044e-01,7.73452e-01,1.54875e+00,-1.20693e+00,1.61682e+00,-2.15680e-01,-2.27294e-01,-5.28643e-01,3.45331e-01,1.18148e+00,-5.81183e-01,6.34280e-02,5.91426e-01,-2.13206e-03,2.30463e-01,-1.01511e+00,-9.98773e-01,-3.51996e-01,-1.27029e+00,-4.58893e-02,8.98061e-02,1.35432e+00,-2.57016e-01,-9.41021e-01,-3.08249e-02,1.07587e-01,-4.45870e-01,2.94774e-01,
1.68528e+00,1.78958e-01,-1.28086e-01,2.22062e+00,-3.36439e-01,4.85739e-02,-4.26651e-02,-3.24901e-01,-1.19687e-02,-1.19878e-03,6.18648e-01,-6.00720e-02,-2.74467e-01,1.98473e+00,1.89255e+00,-1.04004e-01,5.73646e-01,-1.78634e-01,1.09211e-01,8.85630e-01,4.83692e-01,1.10934e-01,-7.92178e-01,1.85538e-01,-7.24073e-01,-1.13481e+00,4.26629e-01,-2.86690e-01,5.95392e-01,3.88391e-01,4.81104e-01,-2.10079e-02,1.04786e-01,4.88957e-01,2.92540e-01,5.12878e-02,-5.34911e-01,1.21702e+00,-5.59180e-01,-6.94792e-01,6.95239e-01,-8.04853e-01,9.64495e-01,-2.81866e-01,-7.42820e-01,-2.96598e-01,-1.31418e+00,-5.25456e-01,5.03706e-01,6.28535e-02,-3.27281e-01,8.45407e-01,1.79284e+00,2.16860e-02,1.23454e+00,4.48961e-01,8.09877e-02,-5.13951e-01,7.60189e-01,-6.90251e-01,-6.21157e-01,1.64640e+00,1.97224e-01,-1.32122e+00,-1.12325e+00,6.14915e-01,7.56786e-01,-1.04559e-01,6.90738e-01,4.17960e-01,
4.89130e+00,-6.87914e-01,1.14572e+00,3.71083e-01,1.38859e+00,-4.12663e-01,-1.72166e+00,-9.81933e-01,8.42158e-01,6.55512e-01,1.04220e+00,2.42084e-01,1.24361e+00,-6.44625e-01,9.44431e-02,1.69435e+00,-1.34172e+00,-1.09613e+00,6.81253e-01,-2.18169e-02,2.47790e-01,-4.63305e-01,-3.95823e-01,-1.17048e+00,-6.90843e-01,-4.07251e-01,-1.03378e+00,2.55757e-01,-1.20194e+00,6.81923e-01,1.64111e-01,2.45843e-02,-2.05865e+00,1.32095e-01,-6.89530e-01,5.27566e-01,6.49839e-02,1.89852e-01,4.44282e-01,-5.67686e-01,4.25534e-01,7.23571e-01,2.07419e-01,-1.56616e+00,-3.30567e-01,-1.02487e+00,5.05978e-01,2.07537e-01,-2.79792e+00,7.78525e-01,-5.40338e-01,3.25577e-01,-1.84124e-01,-1.35684e-01,4.52604e-01,-1.49794e-02,1.28755e+00,-6.96341e-01,-5.99474e-01,-1.13468e+00,-2.50840e-01,-3.86349e-01,-1.10664e+00,1.24225e+00,-3.69854e-01,-1.04902e+00,1.16931e+00,6.54039e-01,2.24651e-01,-1.02273e+00,
-2.62628e+00,-6.13527e-01,2.38148e-01,-7.63318e-01,-8.46208e-01,-5.75944e-02,-8.22770e-02,9.66246e-01,-1.46831e+00,-4.51629e-01,-1.77302e-01,-1.40630e+00,8.95581e-01,-2.70065e-01,-5.98617e-01,1.14160e+00,-1.32971e-01,-4.74488e-01,3.55693e-01,-2.03827e-01,-1.31207e-01,4.68687e-01,1.18599e+00,-1.30842e-01,-2.51102e-01,5.05648e-02,9.86883e-01,5.13516e-01,1.51350e+00,-6.77064e-01,-8.79735e-01,-1.53382e+00,4.67329e-01,7.76097e-01,4.14463e-01,-4.43629e-01,3.87253e-02,-1.23729e+00,-1.64152e-01,7.16484e-01,-9.13302e-01,6.05859e-01,-1.14661e+00,-1.79323e-01,5.51537e-02,-1.98110e+00,6.46009e-01,-1.55666e+00,2.44060e-01,2.68494e-01,-1.66307e-01,-1.57210e+00,-1.51979e+00,8.07105e-01,1.53242e+00,2.29906e-01,1.52782e+00,3.19737e-01,-1.77983e+00,-6.07507e-01,-2.08097e-01,1.21593e-01,-1.05871e+00,-1.48970e-01,2.38659e+00,-1.08564e+00,1.08061e+00,1.50081e+00,-3.07855e-01,-8.36673e-01,
1.60777e+00,1.01590e+00,-2.83452e-01,3.80024e-01,7.41776e-01,-5.17479e-01,-1.81774e-01,-9.37557e-02,-1.70446e+00,-5.10619e-01,-6.96984e-01,6.19458e-01,-1.75254e+00,9.72112e-01,-2.89803e-01,-1.83289e+00,5.71408e-01,5.35408e-02,-1.32951e+00,-1.51048e-01,3.26301e-01,-9.10940e-02,-5.74267e-01,-1.25391e-01,-4.79741e-01,-5.28232e-01,1.47244e-01,-8.58523e-01,1.29325e+00,2.24226e-01,-1.07693e+00,7.29992e-01,4.59507e-01,7.89849e-01,3.50773e-01,1.45253e+00,-4.00303e-01,-5.18395e-02,1.52312e+00,6.28896e-02,4.98990e-01,-2.82302e-01,-6.18636e-01,-6.76252e-01,-9.65628e-01,1.12546e+00,-1.98513e+00,2.99466e-01,-1.06396e+00,-3.43381e-01,4.40011e-01,1.58873e+00,1.00388e+00,-1.06611e+00,7.53510e-01,-5.75531e-02,-3.03637e-01,1.76459e-01,-3.06387e-03,-1.17483e+00,-1.87356e+00,5.88216e-01,3.39554e-01,5.13709e-01,-5.14612e-01,1.42883e-01,1.01824e+00,1.21839e-01,-2.80903e-01,3.38899e-01,
-1.36727e+01,-1.65692e-01,4.72362e-02,1.13378e+00,-2.05577e-01,6.94642e-01,4.94792e-01,-2.97347e-02,2.65255e-01,-8.81042e-01,-4.75575e-01,6.11796e-01,3.28158e-01,-1.25992e-02,7.58653e-01,6.68830e-01,-8.85010e-01,4.93130e-01,-3.49839e-02,-5.75492e-01,6.82746e-01,6.08845e-01,9.97571e-01,-4.68733e-01,1.15096e-01,2.51667e-03,7.65375e-01,-1.03464e+00,9.33428e-01,-1.02450e+00,-3.20985e-01,3.79369e-01,1.41562e+00,-1.84988e-01,9.36279e-01,7.86872e-01,-2.16328e-01,-9.29711e-01,1.09095e+00,2.18888e-01,-1.05313e+00,-3.97827e-01,6.11954e-02,9.63363e-01,-9.20563e-01,-1.58523e-01,5.84739e-01,1.16880e+00,8.12315e-01,-2.84447e-01,8.17256e-01,-6.19778e-01,1.94661e-01,5.45528e-01,5.82803e-01,-9.98026e-01,-1.16541e+00,6.06108e-01,-5.29689e-01,9.78606e-02,1.27004e+00,-2.67980e-01,-6.51100e-02,1.25664e+00,5.40223e-01,1.20300e+00,-6.16915e-01,-1.55337e+00,-2.12361e+00,-1.13407e+00,
2.56003e+00,-4.81416e-02,1.45631e-01,1.12297e+00,-1.45930e+00,7.74172e-01,-6.02877e-03,-5.43183e-01,9.39409e-01,-1.41822e+00,4.98391e-02,-9.08516e-01,8.31640e-01,-1.70962e+00,-4.23014e-02,7.20164e-02,3.91838e-01,-1.05327e+00,1.69194e+00,1.44093e-01,-5.12521e-01,-9.82601e-01,1.07364e-01,1.59025e-01,-6.60259e-01,1.41617e+00,-7.33867e-01,2.48279e-01,1.10448e+00,-7.76715e-01,1.78426e+00,7.98153e-02,-3.23653e-01,-1.08839e+00,1.05218e+00,-8.01130e-01,-4.46220e-01,-1.19840e+00,-6.54695e-01,3.44298e-01,4.84765e-01,3.65074e-02,1.07344e+00,4.49828e-02,-1.24312e+00,6.47809e-01,-8.87886e-01,-1.03684e+00,-1.57796e+00,-7.03665e-01,1.20236e-01,2.34932e-01,2.73413e-01,-1.45346e-01,-4.59172e-01,-1.83837e-01,2.16193e-02,1.27250e+00,1.15999e-01,-5.32955e-01,1.23765e+00,1.70225e-02,-8.17685e-01,-1.73516e+00,-1.16078e+00,1.91822e-01,9.14702e-01,2.12039e-02,1.45292e-01,-4.40696e-01,
4.84151e-01,4.76285e-01,5.20267e-01,-6.94975e-01,1.07171e-01,-3.17639e-01,-8.76062e-01,4.30405e-01,-7.56805e-01,-7.23725e-01,-6.32175e-01,1.12129e+00,-7.51720e-01,9.29442e-01,-4.69342e-01,-2.50820e-01,-1.52473e-01,2.96502e-01,1.74544e+00,1.01821e-01,-9.84157e-01,-1.26482e+00,3.01819e-01,3.64214e-01,-1.36656e+00,-8.16961e-01,-2.04472e-01,-7.41069e-01,-7.98492e-01,2.32257e-01,-8.05482e-01,3.27853e-01,1.94991e-01,7.48402e-01,-1.81953e-01,-9.78171e-02,3.31142e-02,2.77078e-02,1.58191e-01,7.03005e-01,4.51113e-01,1.85834e+00,9.71887e-02,-2.49891e-01,6.14335e-01,-8.91315e-01,7.87263e-01,7.05803e-01,3.54194e-01,-8.11531e-01,-1.28052e+00,-2.45239e-01,-8.92243e-01,9.42626e-02,-1.10387e+00,2.80024e-01,-9.95663e-01,-7.56103e-01,-7.87592e-01,6.34715e-01,1.47837e+00,5.36471e-01,2.35631e-01,7.25425e-01,-6.52496e-01,5.66146e-01,1.65823e-01,9.23153e-01,3.45021e-01,-4.93409e-01,
-1.44183e-01,-1.93212e-01,-1.20207e+00,-4.47825e-02,1.20318e+00,1.16235e+00,1.67683e+00,3.38092e-01,-1.28772e+00,-1.71713e+00,1.03846e-01,-2.01304e-01,-1.87621e-01,2.79815e-01,-1.79489e-01,-1.45580e+00,3.88565e-01,-7.45148e-01,3.28528e-01,-1.41163e-01,-2.46036e-01,-2.32336e-01,-6.00495e-01,-4.67908e-01,-1.11389e+00,5.72112e-01,-8.39813e-01,-4.77626e-01,5.58264e-01,8.43476e-01,2.10398e-01,2.89414e-01,7.19502e-01,8.35921e-01,2.19354e-01,2.28350e+00,-4.70044e-01,-5.86708e-01,6.54378e-02,9.72651e-01,8.32192e-01,-6.95903e-01,-5.07708e-01,7.35567e-01,-9.98089e-01,3.65013e-01,-1.40530e+00,1.83172e+00,-8.89254e-03,-1.01150e-02,-3.45653e-01,8.53569e-02,-4.06005e-01,-1.84856e-01,-3.82899e-01,-1.35640e+00,-1.05829e+00,5.30968e-01,8.14594e-01,2.51774e-01,-2.13853e+00,1.03562e+00,-1.08396e+00,9.50943e-02,4.35456e-01,6.46207e-01,-3.70166e-01,-1.71247e+00,-7.81834e-01,9.91891e-01,
3.70841e+00,6.93116e-01,-7.67846e-01,9.93033e-01,-1.08321e+00,9.31040e-01,-1.13163e+00,3.36614e-01,-3.07541e-01,-9.14094e-02,4.01966e-01,-1.34763e-01,3.04516e-01,1.97568e-01,8.74728e-01,7.84698e-01,-3.45048e-01,-1.09376e+00,2.24923e-01,4.72387e-01,-1.59383e-01,-2.81015e-01,5.83065e-02,1.47489e+00,2.07345e+00,5.27721e-01,3.31376e-02,8.30285e-01,-5.65762e-01,4.08963e-01,-9.87633e-01,3.48872e-01,1.28103e-01,-8.39529e-01,-3.06029e-02,8.68668e-01,-1.82867e+00,-1.77297e+00,2.38212e-01,-1.29543e+00,5.28898e-01,1.03532e-01,-1.41103e+00,-3.11919e-01,-1.14075e+00,1.40313e+00,5.23160e-01,-1.41633e+00,-4.38573e-01,1.29394e+00,1.18134e+00,2.69486e-01,2.86643e-01,-1.33544e+00,8.38154e-01,-3.40429e-01,5.54980e-01,-3.24741e-01,-4.66993e-01,9.86843e-02,-8.82702e-01,1.20247e+00,3.85251e-01,-4.58143e-01,-5.51217e-01,-6.26364e-01,7.27275e-01,3.95964e-01,3.73538e-01,-3.39988e-01,
-2.06693e+01,8.75593e-01,-1.09193e+00,-1.01529e+00,2.95112e-01,6.21924e-01,-3.43558e-01,-1.17085e-01,3.14088e-01,-2.69007e-01,-5.16679e-01,-5.09621e-01,-5.04600e-01,4.21641e-01,6.57350e-01,8.85139e-03,-9.03886e-01,-1.47344e-01,4.79634e-02,-1.06126e+00,6.34308e-02,8.08856e-01,1.32558e+00,-7.79226e-02,-3.91091e-01,1.06700e+00,2.15522e+00,3.51676e-01,-4.44474e-01,-5.37926e-02,-1.40598e+00,-3.68180e-01,8.86726e-01,1.40664e+00,-8.57888e-02,5.45509e-01,-5.60884e-02,-5.87019e-01,-5.24347e-01,-1.06302e+00,-1.45584e+00,8.33106e-01,8.31738e-01,1.23334e-01,-2.86174e-01,5.20162e-01,-3.91344e-01,1.39084e-01,1.06642e+00,-9.33171e-01,2.14976e+00,-7.74965e-01,-1.44366e-01,8.97693e-01,-2.36340e-01,-1.33924e+00,1.10460e+00,4.87098e-01,-5.28894e-01,-4.05342e-01,3.19670e-01,-8.63102e-02,-2.20497e-01,1.11184e+00,-9.15152e-02,-1.50183e+00,2.17396e-01,6.33053e-02,-1.42205e+00,-2.64653e-01,
2.18822e+00,-5.46354e-01,-1.55441e+00,5.03895e-01,-1.31910e+00,4.93717e-01,-8.56630e-01,2.05225e-01,-1.31654e+00,-1.39260e-01,-1.11205e-01,-2.10305e-01,1.08364e+00,1.30779e+00,6.32573e-01,-3.06930e-01,-7.02328e-01,-7.50635e-01,-8.12334e-01,-4.75812e-01,-1.74784e-01,-6.82452e-02,4.48326e-01,1.08534e+00,-8.73239e-02,-5.46900e-01,-8.20484e-01,1.92438e+00,-6.67987e-02,-1.16107e-01,-4.84906e-01,6.26529e-01,3.43460e-01,-1.04217e+00,1.96964e-01,-1.58943e+00,8.52084e-03,-1.05342e-01,-3.44598e-01,-6.90304e-01,1.48524e+00,7.64462e-01,-7.26744e-01,-6.31870e-01,-1.10306e+00,1.90260e+00,5.76249e-01,-3.13248e+00,-1.06122e+00,1.26579e+00,4.91609e-01,-1.57473e-01,1.87322e-01,-8.85821e-01,-5.70185e-01,7.51625e-01,4.16010e-01,1.23421e-01,-8.99266e-01,6.54156e-01,6.72912e-02,-2.48353e-01,-4.37858e-01,2.57585e-01,8.35631e-02,-2.73771e-01,2.50725e-01,5.03129e-01,5.20985e-02,-3.49783e-01,
-4.36613e+00,1.00597e+00,-9.90257e-02,-1.13531e+00,3.08878e-01,-4.26106e-01,3.08941e-01,-1.04739e+00,-3.74131e-01,-1.21949e+00,8.44776e-01,-2.36073e-01,-1.60144e-01,-7.38420e-01,6.58175e-01,6.60770e-01,-1.48159e+00,-4.95302e-01,-4.95889e-01,-1.38818e+00,5.21591e-01,-4.84951e-02,6.13061e-01,-9.32231e-01,-5.19554e-01,3.04436e-02,9.94893e-02,-3.69543e-01,1.08373e+00,-3.13596e-01,3.72704e-01,-2.10520e-01,4.23835e-01,3.85495e-01,7.79365e-01,-5.62979e-01,-2.17875e-01,-1.61029e+00,1.20340e+00,-5.07364e-01,-6.92992e-01,-2.11288e-01,2.71096e-01,-4.91419e-01,-6.89812e-01,-1.33220e-02,-1.18268e+00,7.47639e-01,5.00897e-01,4.87242e-01,-5.42999e-03,9.64813e-01,-1.54324e-01,-1.36230e+00,4.62878e-01,-5.85523e-01,1.67426e-01,9.68132e-01,-1.25347e+00,-1.53801e+00,2.26397e-01,-3.88707e-02,-3.53030e-01,2.24438e-01,1.67651e-02,1.42803e-01,-5.28788e-01,-9.96511e-01,1.27229e-01,5.78844e-01,
1.44381e+01,-7.94411e-01,-4.06609e-01,-2.20362e-01,4.17546e-01,-2.25915e-01,4.52455e-01,8.32404e-01,-1.93167e-01,9.24032e-01,1.08812e+00,6.67613e-01,1.09019e+00,-8.79014e-01,1.30796e-01,1.44251e+00,6.15317e-01,2.73268e-01,-9.30186e-02,-8.71559e-02,-1.11961e-01,-8.75004e-01,-9.17302e-01,1.10666e+00,-6.49212e-01,-2.53759e-01,1.51484e-02,1.53148e+00,-1.24506e+00,3.22317e-01,4.64408e-01,5.94473e-01,-1.65369e+00,-1.01794e+00,-1.27466e+00,-3.61472e-01,1.69391e+00,9.88278e-01,-6.19206e-01,-1.56031e+00,1.18166e+00,-8.77048e-01,-6.45410e-01,-8.44673e-01,-4.62964e-01,6.57397e-01,-5.39705e-02,-6.16868e-01,1.74409e-01,-2.38937e-01,7.81765e-01,-1.01451e+00,3.51296e-01,-6.62613e-01,1.39106e+00,9.05868e-01,-6.52767e-02,5.24123e-01,-4.78052e-01,1.52460e-01,-6.10603e-01,-6.49952e-01,-2.24107e-01,8.44171e-01,-5.15085e-01,7.09007e-03,-9.44263e-01,3.50939e-01,-3.37672e-01,1.52465e-01,
-2.93714e+01,-2.32497e-01,7.89203e-01,-2.90564e-01,5.31611e-01,2.16821e-01,6.50653e-01,-2.66286e-01,-2.48315e-01,6.11554e-01,-9.08032e-01,4.75448e-01,-4.78051e-01,-1.33571e-01,5.70129e-01,-1.24867e+00,4.47324e-01,1.76963e-01,-4.13449e-01,6.41658e-01,6.40384e-01,-7.83128e-02,-1.57495e-01,-2.22693e-01,2.35253e-01,1.59326e+00,-1.08786e-02,-5.37834e-01,2.60419e-01,-4.04676e-01,-4.17268e-01,-4.50591e-01,1.69388e-01,-1.11536e-01,-2.74441e-01,9.66735e-01,-1.04142e-02,2.08162e-01,2.44570e-01,2.31235e-01,-8.00448e-01,1.87046e-01,2.70419e-01,6.94326e-01,9.22615e-01,-2.63182e-01,-3.61143e-01,1.20717e+00,1.79282e-01,-2.02633e-01,-7.73194e-01,-1.47954e+00,4.58380e-01,7.26545e-02,6.26005e-01,-6.66820e-01,1.77543e-01,-1.41419e-01,7.66120e-02,1.20492e+00,5.20941e-01,-1.05602e-01,-2.44429e-02,-1.84840e-02,1.07622e+00,-3.38521e-01,-1.82088e-02,-1.43032e+00,-1.59219e-01,-3.29592e-01,
3.84634e-01,-1.61052e-01,2.88887e-01,1.91980e-01,-6.89629e-01,-5.68357e-01,3.99024e-02,-3.11408e-01,8.00473e-01,3.29634e-01,7.93392e-01,2.35398e-01,1.37318e+00,9.56742e-04,3.28758e-01,1.25936e+00,2.29160e-01,-1.47852e+00,8.69916e-02,2.00343e-01,3.91513e-01,5.44284e-01,7.19294e-02,-1.07250e+00,4.71136e-01,-9.40737e-01,3.96699e-01,6.37621e-01,1.39861e-02,5.51795e-01,-1.18611e+00,6.74809e-02,-3.82617e-01,-3.60161e-01,4.83910e-02,-2.30572e-01,-1.22868e+00,1.39158e+00,7.50112e-01,-5.16726e-01,-7.42869e-02,-1.45393e+00,5.36786e-01,-8.69081e-01,-9.32965e-01,-3.74618e-01,9.50722e-01,2.53115e-01,-1.16762e+00,6.36407e-01,8.00877e-02,-2.71358e-01,-3.80277e-01,-3.16640e-01,-1.05444e+00,6.61275e-01,-5.56373e-01,-9.01012e-01,8.80351e-01,9.72160e-01,-8.26656e-01,-7.91155e-01,8.96210e-01,1.68883e+00,-1.42388e+00,7.94216e-01,3.73468e-01,6.99946e-01,3.19620e-01,7.31093e-01,
6.29925e+00,-2.52405e-01,4.00188e-02,-6.24253e-01,-1.36442e+00,-5.49405e-02,-1.41231e+00,1.37428e+00,-2.13166e-01,-9.22377e-01,1.17293e+00,-3.17129e-01,1.53895e+00,-6.11354e-01,3.35329e-01,1.30032e+00,-7.22669e-01,-1.13719e+00,-3.98449e-01,1.19000e+00,-5.05162e-01,-7.41435e-02,-1.22760e+00,-7.36265e-01,1.12937e+00,-1.33857e-01,-1.03551e+00,9.59443e-01,-1.44827e+00,7.10625e-01,-1.21825e+00,5.00895e-02,-7.52108e-01,1.93167e-01,1.05964e-01,-3.17915e-01,-5.78350e-02,1.41676e+00,-3.31053e-01,-1.41957e+00,-6.14738e-01,7.68055e-01,-1.15299e+00,-1.59820e+00,-1.07582e+00,-7.53986e-02,6.21318e-01,-1.19082e+00,-1.26958e+00,1.57485e+00,3.87800e-01,-4.28004e-01,2.78599e-01,4.34014e-01,6.95449e-01,-1.10901e+00,5.02577e-01,1.08762e-02,-9.07962e-01,-4.72763e-01,-2.21079e-01,4.50867e-01,-1.34772e+00,1.26791e+00,-4.80932e-02,-1.58455e-01,1.07197e-01,6.84810e-01,5.32106e-01,-8.49022e-01,
-8.66213e+00,-4.07550e-01,1.36044e-01,6.57190e-01,1.61404e-01,1.18832e+00,-5.69488e-01,1.19173e-01,-4.90168e-01,1.80847e-02,-1.40879e+00,1.00923e+00,8.37270e-01,-8.28731e-02,3.41065e-01,-1.00821e+00,5.12013e-01,3.23572e-01,-4.20252e-02,-8.77730e-01,1.74634e-01,-7.36620e-02,1.31146e-01,9.28328e-01,-1.18033e-01,-7.76495e-01,9.30273e-01,-3.96493e-01,-1.13911e+00,9.40145e-01,-3.48504e-01,1.55632e-01,4.68001e-01,7.84992e-01,-8.40507e-02,-2.89639e-01,3.32830e-01,3.14151e-01,-1.71854e-01,6.15125e-01,9.91783e-01,-1.03653e-01,-7.60106e-01,8.43332e-01,5.03686e-01,-1.82507e-01,9.18512e-01,7.60371e-01,6.03457e-01,7.60542e-02,3.58838e-01,-2.54678e-01,-6.26711e-02,1.04824e+00,2.06217e-01,3.82156e-01,-7.81697e-01,8.45197e-01,-9.99341e-01,1.28593e+00,1.01813e-01,1.06390e+00,1.55872e+00,-3.29475e-01,1.31173e-01,9.66277e-01,-1.41975e-01,-1.15152e-01,-3.14607e-01,5.38006e-01,
2.44643e+00,2.02520e-01,1.05515e+00,-1.13800e+00,-1.00494e+00,-6.58734e-02,4.27440e-01,3.10494e-01,1.30341e+00,8.26351e-01,7.87964e-01,-8.14324e-01,-9.92276e-01,2.69781e-01,1.31734e+00,8.83575e-01,-3.82988e-01,4.56886e-02,1.20442e+00,-1.08661e-01,7.06770e-01,-2.18410e-01,-2.79453e-01,3.62785e-02,3.70945e-01,-3.99147e-01,3.24486e-01,5.25163e-01,3.87162e-01,-7.42992e-01,-1.86999e-01,-5.80369e-01,-3.94797e-01,-1.02704e-01,-2.36174e-01,-4.10567e-01,-4.65768e-02,1.20465e-01,2.28630e-01,4.60662e-02,-6.00730e-02,2.41398e-01,-2.89333e-01,1.43774e+00,-4.73077e-02,-6.36229e-01,2.25330e-01,2.37577e-01,3.87920e-01,-3.81740e-01,6.73094e-01,2.61048e-01,-3.59427e-01,-1.78402e+00,1.40473e-01,7.57593e-02,-1.54061e-02,-4.50844e-01,6.63867e-01,-3.04550e-01,-9.99458e-01,-1.92311e-01,1.02731e+00,-3.19726e-01,-3.56165e-01,-3.66201e-02,-8.74590e-01,1.43810e-01,-4.28926e-01,6.41096e-01,
2.06490e+01,-2.17127e-01,6.69917e-02,4.85814e-01,-2.83200e-01,-7.00726e-01,-1.16483e+00,2.16055e-01,-1.11222e+00,-3.39781e-01,-5.70815e-01,2.11997e-01,-7.81193e-01,-5.47426e-01,-2.17141e-01,1.19844e+00,2.36246e-01,5.94979e-01,-5.46845e-01,1.38658e+00,-1.36458e-01,4.33620e-01,-5.20184e-01,-1.15276e-01,-1.29917e-01,-1.20469e+00,1.39944e+00,5.31249e-01,2.49611e-01,2.58672e-02,1.07518e+00,-6.37471e-02,2.04042e-01,1.82768e+00,-8.86641e-01,1.44160e-01,-1.81733e+00,-5.25245e-01,4.62434e-01,7.53989e-01,8.06248e-01,-3.22675e-01,-1.89371e-01,-6.73179e-01,3.17852e-02,-6.74174e-01,1.30333e-01,3.85473e-01,-3.24752e-01,-5.67751e-01,1.67042e+00,-1.03523e-01,8.53637e-01,-8.73358e-01,-1.01923e+00,1.46370e-01,-3.37083e-01,1.41099e-01,6.59070e-01,-5.74081e-02,1.82181e-01,-1.85269e-02,9.58027e-02,-6.42069e-01,1.04785e+00,5.58858e-01,-6.26656e-01,9.99198e-01,-6.49940e-01,-8.50499e-02,
6.85799e+00,-4.12776e-01,-2.30840e+00,8.96424e-01,-1.01434e+00,6.30922e-01,7.13840e-01,1.27671e+00,3.58784e-01,4.58046e-01,4.54764e-01,-9.30661e-01,2.41597e-01,8.35519e-01,1.80083e+00,-3.71919e-01,-1.32145e-01,-2.52893e-01,-2.33455e-01,-6.86675e-01,-7.26981e-01,4.18717e-01,-1.76806e+00,7.62631e-01,1.40821e+00,3.82899e-01,-2.20178e-01,6.79602e-01,6.40425e-01,2.88916e-01,2.29732e+00,3.19862e-02,-2.54283e-01,-6.92243e-01,-7.83252e-02,-7.18444e-01,1.14571e+00,7.00154e-01,-3.70351e-01,-1.47287e+00,7.56732e-02,9.07942e-01,1.61403e+00,3.13436e-01,-1.29459e+00,-1.19028e+00,9.62084e-01,7.35774e-01,5.18542e-01,6.58295e-01,8.61888e-02,-3.39201e-01,-2.63460e-01,2.64814e-01,-1.65208e-01,-3.70072e-01,1.98417e-01,-9.15014e-01,1.20767e+00,9.21648e-01,-3.48437e-01,1.23893e+00,6.01416e-01,-2.49914e-01,-7.31626e-01,4.81968e-01,2.44693e-01,3.31210e-02,7.85634e-01,3.63400e-02,
-1.35116e+00,-1.19684e+00,-1.94253e+00,5.17128e-01,4.44950e-01,1.16147e+00,1.90138e+00,2.04481e-01,-2.30112e-01,-4.36666e-01,-1.13972e+00,1.22678e-01,6.58805e-01,1.27420e+00,-2.16781e-01,-1.36101e+00,-1.00465e+00,1.06140e+00,-1.20776e+00,7.55961e-01,-3.02886e-01,4.81973e-02,-8.33608e-01,-2.57941e-01,-6.78508e-01,-1.15793e-03,-9.23059e-02,-1.03370e+00,-1.77525e-01,-3.07045e-01,-1.84356e-01,3.55538e-01,4.43330e-01,1.35023e+00,9.78054e-01,8.55184e-01,-4.76383e-01,-4.07949e-01,2.31399e-01,1.11221e+00,1.26796e-01,-1.37529e-03,3.28187e-01,4.54762e-01,-1.85181e+00,-5.44031e-02,-1.18919e+00,2.10390e+00,9.12637e-01,-4.43841e-01,-3.25528e-01,-1.21656e-01,1.65061e+00,-4.64711e-01,-1.01688e+00,-4.27626e-01,-8.35487e-01,6.69228e-01,8.32508e-01,-1.81553e+00,-7.77441e-01,5.93396e-01,-9.52685e-01,-6.10726e-01,-2.36343e-01,-8.87664e-01,4.65823e-02,-1.07403e+00,6.74022e-01,6.57934e-01,
3.07026e+00,6.12956e-02,3.38323e-02,6.52327e-01,-5.46893e-01,-5.86030e-01,9.06555e-02,-8.98900e-01,5.84536e-01,-5.29461e-01,-5.20717e-01,-1.37740e+00,1.06408e+00,-7.14312e-01,7.01906e-01,2.01951e-01,7.48569e-01,-4.40455e-01,5.68557e-01,-9.48644e-01,-1.60959e+00,-8.04583e-01,1.21560e+00,2.50562e-01,1.94043e-01,3.14928e-01,2.09339e-01,2.76930e-01,-1.63008e+00,-6.13119e-01,-5.32641e-01,-4.12280e-01,-4.38756e-01,-6.38898e-01,-7.57636e-01,8.28502e-02,4.12415e-01,6.37356e-01,-2.86579e-01,-2.28107e-01,2.27551e-02,1.85083e+00,1.95240e-01,-2.00820e+00,-1.15805e+00,1.56343e+00,3.04269e-01,-1.61867e+00,-7.37426e-01,4.25962e-01,4.21045e-01,-1.62206e+00,5.66834e-03,-1.17412e-01,-5.08784e-01,1.29353e+00,-1.56963e-01,-1.92735e-01,-4.30435e-01,-2.69533e-02,-1.89489e-01,-1.16247e+00,8.42037e-01,-2.04468e-01,-3.09785e-01,-1.65575e+00,-4.06117e-02,8.71064e-01,-1.51406e-01,-2.49998e-01,
-3.65282e+00,8.50447e-01,-1.70797e-01,6.33190e-01,-4.28648e-03,1.21975e+00,-8.18657e-01,-9.90814e-01,-6.61679e-01,-2.10217e-01,3.08807e-01,-1.02155e-02,2.63563e-01,1.14077e+00,1.15927e+00,3.18146e-01,1.97526e-01,1.72068e-02,8.64216e-01,7.90618e-03,3.23598e-02,1.04132e-01,3.56573e-01,6.36043e-02,-1.80012e-01,2.44217e-01,-2.26786e-02,-1.86567e-01,-9.14496e-01,-4.04582e-02,-5.28203e-01,1.42623e+00,4.10688e-02,-5.80436e-01,8.26422e-01,-1.67052e-01,-1.65769e+00,-1.57622e+00,-5.88787e-01,-1.27784e+00,1.34752e+00,1.03588e-01,-6.64875e-01,-3.41789e-01,2.89932e-01,1.66783e+00,-3.94300e-01,-1.47127e+00,1.12319e-01,9.46417e-01,9.83118e-01,1.26437e+00,1.94724e-01,-1.72614e+00,-4.46613e-01,1.55249e-01,1.65648e-01,-9.04959e-01,5.62376e-01,-3.25843e-01,-4.07177e-01,2.71672e-01,1.15639e+00,6.06392e-01,-1.58459e+00,7.43772e-01,8.36165e-02,3.66482e-01,1.32436e-01,-1.10774e+00,
3.59049e+00,-2.48273e-01,-1.06159e-01,-1.01094e+00,-5.89486e-01,5.20302e-01,-3.36683e-01,7.02838e-02,-1.13613e+00,8.52016e-01,4.59855e-01,-8.79561e-01,9.18903e-01,1.14354e+00,-3.89491e-01,1.94829e+00,7.39563e-02,-1.52063e+00,-2.53427e-01,-2.91206e-01,6.99805e-01,4.70897e-01,-6.89445e-01,-7.87232e-01,1.45672e+00,-6.85314e-01,-1.02193e+00,-8.08176e-01,1.56924e-01,1.49991e+00,-1.73945e-01,1.47177e+00,3.08277e-01,8.93230e-02,1.07003e-03,-9.50945e-01,9.65308e-01,-1.91623e-02,7.56115e-01,-2.77358e-01,7.13135e-01,-9.87218e-01,-4.60371e-01,-1.37694e+00,1.56688e-01,1.95641e-01,1.12410e+00,-4.64889e-01,4.17457e-01,1.49049e+00,-3.16621e-02,8.96957e-01,-7.57582e-01,-5.30806e-01,1.50244e+00,-6.15104e-01,2.81076e-01,1.28960e+00,1.66128e-01,-3.05725e-01,3.85912e-01,3.42716e-01,-5.63326e-01,8.37233e-01,-4.92368e-01,2.95767e-01,1.99869e-01,1.27928e+00,-7.16157e-01,-1.08329e-01,
1.67612e+00,-1.23542e+00,-1.45094e+00,3.65960e-02,-8.54009e-02,6.93323e-02,1.25509e+00,5.70280e-01,-6.96557e-01,-1.01721e+00,-3.11582e-02,-8.48042e-01,4.41399e-01,2.51180e-01,8.67849e-01,-8.21633e-01,-1.23714e+00,8.80457e-01,8.57444e-01,6.09712e-01,-3.85779e-01,1.51580e-01,-7.84497e-01,1.55770e-01,-3.89400e-01,-8.11339e-01,-7.93838e-01,-5.44088e-01,1.06660e+00,-8.82850e-02,-8.68394e-02,8.32925e-01,6.47279e-01,1.62708e+00,-2.06975e-01,-8.71473e-02,-6.51659e-01,-1.61044e-01,9.35079e-01,-6.43376e-01,3.42242e-01,-9.15807e-01,5.05297e-01,-4.14189e-01,-5.28075e-01,3.84366e-01,-2.26105e+00,1.12499e+00,2.21322e-01,-6.39551e-01,2.13248e-01,9.75774e-01,1.95901e+00,-4.15142e-01,-3.54411e-01,-4.40193e-01,-6.90582e-01,-9.34734e-01,-4.20910e-01,4.33395e-01,-9.42842e-01,1.07105e+00,-2.67745e-01,-1.17547e+00,-7.78961e-03,1.50528e-01,8.67925e-01,-1.90044e+00,4.19294e-01,8.90877e-01,
3.18389e+00,8.86844e-01,-7.17234e-01,-5.02612e-01,-9.16248e-01,9.70901e-01,-1.44879e-01,8.54484e-01,-1.66097e-01,5.77529e-02,5.36953e-01,-1.11325e+00,-2.35433e-01,1.22398e+00,1.46967e+00,-1.41993e-01,-1.85363e-01,1.10087e+00,-1.08357e+00,5.16639e-01,5.10799e-01,5.38905e-01,2.32146e-01,1.72349e+00,3.65151e-01,-5.30762e-01,-1.35971e-01,1.23345e+00,3.44839e-01,-7.23901e-01,1.11882e+00,-5.48338e-02,7.10652e-01,6.47073e-01,-1.69157e-01,-3.23012e-01,7.53753e-01,2.35501e-01,-5.13762e-01,3.95117e-02,1.76506e-01,-3.27264e-02,-1.39793e+00,-1.56020e-01,-1.40050e+00,1.24740e+00,-9.48581e-01,2.84679e-02,3.24183e-01,4.62110e-02,-1.24828e+00,-3.69279e-01,4.25303e-01,-7.00005e-01,-4.34848e-01,7.96245e-01,-5.76408e-01,1.12610e+00,1.10057e-01,-7.75229e-01,-5.22291e-01,3.58599e-01,6.65767e-01,-4.00486e-01,1.21613e-01,-4.99279e-01,6.69558e-01,8.50721e-01,-6.13555e-01,8.12746e-01,
-1.65912e+01,1.99948e-01,8.12202e-01,4.19299e-01,7.77954e-01,-9.09772e-01,-3.38588e-01,-1.20406e+00,4.90461e-02,-7.68181e-02,-1.21992e+00,9.42830e-01,-6.34299e-02,-8.25839e-01,-9.07142e-01,-1.03128e+00,-1.05215e+00,7.34074e-01,2.88704e-01,-4.37006e-01,4.20214e-01,6.17371e-01,5.17980e-01,-1.46424e+00,-5.50033e-01,2.02309e-01,7.97401e-01,3.91943e-01,5.50365e-01,3.45339e-02,-1.63667e-01,2.12311e-01,6.29924e-01,1.02357e+00,-2.79113e-01,-5.18112e-01,6.48489e-01,-3.96155e-01,1.11230e+00,5.87590e-01,-1.53888e+00,9.07193e-02,4.83912e-01,2.63751e-02,-3.01942e-01,-7.83559e-01,1.69335e+00,-5.91172e-01,1.28568e+00,1.54325e-01,4.51187e-01,-1.59927e-01,-9.71299e-01,-2.02424e-01,2.46682e-01,-1.45461e+00,-6.20794e-01,2.07815e-01,-1.07809e+00,1.44596e+00,6.55206e-01,3.87730e-01,7.88393e-01,2.55566e-02,1.60553e+00,1.86816e-01,6.85956e-01,-5.39375e-01,-1.28649e+00,-4.28118e-01,
4.49699e+00,1.19796e-02,-2.91905e-01,6.40696e-01,8.79483e-02,7.61199e-01,-9.62434e-02,9.07795e-02,-9.17599e-01,5.60724e-01,6.03426e-01,-4.95160e-01,1.57788e+00,1.49179e+00,7.98357e-01,6.72032e-01,-4.55080e-01,-6.61592e-01,-2.79264e-01,-8.88314e-01,-7.63726e-03,7.08936e-01,-4.08737e-01,-2.64395e-01,-3.36303e-01,-5.79838e-01,-8.59598e-01,1.22492e-01,2.26735e+00,-1.17945e+00,5.82249e-01,6.84112e-01,4.23989e-01,1.20023e-02,-1.28695e-01,-5.38098e-01,1.12147e-01,-6.21192e-01,-1.35947e-01,4.35302e-01,4.53089e-02,-3.32516e-01,3.50483e-01,2.83491e-01,-9.35405e-01,-4.99933e-01,-1.39481e+00,1.89477e-01,1.26936e+00,-2.40273e-02,6.69180e-01,1.47056e+00,-9.47707e-01,-1.86137e+00,3.64980e-01,-9.78482e-01,1.71074e-01,-4.96811e-01,-1.01375e+00,-1.93970e-01,-1.74081e-01,8.67953e-01,-1.41074e-01,-3.97538e-01,-8.86250e-01,6.03239e-01,-4.62265e-01,1.12347e-01,4.60674e-01,7.08382e-01,
1.15577e+01,1.46989e+00,1.20209e+00,1.12997e+00,-1.29160e+00,9.57121e-02,-1.37896e-01,-1.64435e+00,4.68296e-01,-8.89862e-01,-2.63670e-01,1.41638e+00,-1.41933e+00,3.39091e-01,1.23265e-02,-1.27595e+00,5.26733e-01,4.87888e-01,4.04652e-01,1.83792e-02,-4.69880e-01,-2.45173e-01,-5.37094e-01,-4.60485e-01,-1.26846e+00,-5.24739e-01,-5.10880e-01,-9.63881e-01,-8.40660e-01,5.18701e-01,-2.34123e+00,-2.51807e-01,2.01219e-01,5.14833e-01,1.23589e+00,-2.44051e-01,-3.30393e-01,1.66873e+00,-6.99731e-01,1.45261e+00,-5.32040e-01,1.35943e-01,-3.30472e-01,-5.21917e-02,-6.39419e-02,3.69098e-01,1.42249e-01,-7.32127e-01,-1.38047e+00,-1.40636e+00,-1.32114e+00,2.18922e+00,1.00772e+00,-1.75696e-01,-9.04632e-01,3.98981e-01,8.54409e-01,-2.02273e+00,-1.05521e+00,-1.51573e+00,1.05645e+00,-1.63927e-01,-1.00558e+00,3.00767e-01,-7.49225e-01,-3.21501e-01,8.88533e-01,-7.42295e-01,7.41481e-01,-8.31412e-01,
2.41464e+00,-2.77252e-01,-7.63338e-01,-5.70051e-01,-7.24957e-01,4.94478e-01,1.85468e-02,8.22303e-01,1.15065e+00,1.32667e+00,4.15593e-01,-7.52708e-01,5.68935e-01,1.15476e+00,1.17745e+00,7.06371e-01,3.93367e-02,-1.62254e-01,3.76369e-01,2.03829e-01,9.89688e-01,-3.33619e-01,6.75598e-01,2.28129e+00,-2.74647e-01,-4.00617e-01,4.10211e-01,-3.48975e-01,-1.92068e-01,-1.36784e-01,6.92804e-01,1.85501e-01,1.17647e+00,3.29419e-01,1.44923e-01,5.11683e-01,1.02216e+00,1.05348e+00,-3.51892e-01,-5.90307e-01,2.79653e-01,-7.54369e-01,2.53581e-01,-1.04610e-01,-1.45244e+00,6.86277e-01,-3.69058e-01,-8.74868e-01,-2.25181e-01,-3.24469e-01,-1.31723e+00,1.17761e+00,-1.92485e-01,-1.05391e+00,1.83238e-01,1.63379e+00,-8.49826e-01,-1.33594e-02,-9.10447e-01,2.04265e-01,6.25391e-01,-5.00074e-02,1.96224e+00,-3.94564e-01,2.00165e-01,2.79166e-02,-1.20706e+00,3.86074e-01,4.73636e-01,-4.99202e-01,
3.50659e+00,6.41525e-01,1.62254e+00,1.59389e-02,2.19992e-01,4.58763e-01,5.24292e-01,2.33649e-01,2.09943e+00,-3.41483e-01,-5.69765e-01,-3.25675e-01,-4.00229e-01,-8.42842e-01,-2.71820e-01,-7.66330e-01,1.79560e+00,4.46043e-02,8.24931e-01,9.79246e-01,-7.61487e-01,9.50444e-01,-2.86990e-01,-9.05272e-01,1.56369e-01,3.94935e-01,2.41854e-01,-1.41883e-01,-9.17260e-01,2.55551e-01,9.70670e-03,-2.21525e-01,-2.87978e-01,-1.58884e-01,1.61232e+00,9.33343e-01,-3.70452e-01,-1.11092e+00,-1.07122e+00,-2.45756e-01,3.85147e-01,5.34099e-01,9.89430e-01,7.62457e-01,-1.40439e+00,1.48964e-01,4.54138e-01,-7.55445e-01,4.37968e-01,-1.77327e+00,-1.23648e-01,5.13754e-01,9.46997e-01,-4.71944e-02,-8.46871e-01,-1.62169e-01,-1.38300e+00,5.72282e-01,4.13577e-03,4.06840e-01,-2.31976e-01,4.29843e-01,-1.92918e+00,-1.08394e+00,7.32544e-01,1.43254e-01,-1.13935e-01,1.38171e+00,-5.91948e-01,1.12712e-01,
5.19760e-01,4.85889e-01,-8.01992e-02,-4.49992e-02,-3.35264e-01,-1.80955e-01,-1.32435e+00,-3.66758e-01,8.93013e-01,-8.47138e-02,-3.49441e-01,-2.61974e-01,2.79828e-01,-5.69841e-01,-8.70309e-02,-4.14637e-01,-1.28569e+00,3.40979e-01,-5.17585e-01,-5.83458e-01,-1.37218e-01,-3.11221e-01,5.06967e-01,-5.92189e-01,-4.38419e-01,3.64696e-01,-5.39894e-01,-5.98031e-01,6.47490e-01,-6.32543e-01,-1.50620e-02,-1.25585e-01,6.84020e-01,7.59417e-01,-3.06564e-01,-2.46469e-01,-5.91168e-02,-1.47549e+00,-3.31297e-01,8.33436e-01,8.73402e-01,1.23429e+00,7.33879e-02,-1.30158e-01,1.07972e+00,8.07619e-01,2.95863e-01,5.42041e-01,-9.03502e-01,-1.30875e+00,-4.61550e-01,-1.24699e-01,-1.35989e+00,1.06846e+00,1.01615e+00,-8.79744e-01,9.75338e-01,2.51819e-02,-1.33302e+00,-1.06772e+00,4.56587e-01,-7.65579e-01,-3.00606e-01,4.67545e-01,-2.60843e-01,-2.67946e-01,7.32976e-01,-5.11481e-01,-1.23769e+00,-4.63718e-01,
3.18661e+00,1.48178e+00,5.28841e-02,2.70464e+00,-5.59786e-02,-9.83882e-02,-1.66436e-01,-1.45535e+00,-4.55185e-01,-7.19236e-01,-8.13956e-01,-1.24087e+00,1.87087e-01,6.15695e-01,-3.36819e-01,-1.56358e+00,-3.16347e-01,5.24448e-01,-5.43210e-01,1.39814e+00,5.27184e-01,-1.05053e+00,-9.16757e-01,1.38913e+00,-8.52904e-01,-3.92144e-01,-6.12834e-01,-9.33228e-01,-1.94753e-01,2.49694e-01,-3.69899e-01,1.01329e+00,1.43133e+00,3.04007e-01,-3.13625e-01,-3.85047e-01,-1.08507e+00,4.24758e-01,-1.49954e+00,5.07699e-01,1.41311e+00,-1.20029e-01,8.04843e-01,3.86845e-01,-1.22077e+00,3.63860e-01,1.93058e-01,-1.30511e+00,-8.43122e-01,-5.72774e-01,3.61064e-01,7.39965e-01,2.27747e+00,7.77856e-01,-6.42754e-01,8.35177e-02,-5.44374e-01,2.69082e-01,-1.70740e-01,-1.06426e+00,4.95479e-01,-7.78656e-02,6.87078e-01,-7.22674e-01,6.98603e-01,-1.64398e-01,1.33295e+00,8.37984e-01,8.43754e-02,-8.23428e-01,
1.22362e-01,4.12184e-01,-5.51896e-01,-4.80682e-01,-3.54036e-01,1.72833e+00,-3.81055e-01,3.13346e-01,1.27425e+00,2.65425e-01,-3.02347e-01,2.89530e-01,-9.29405e-02,4.80469e-01,3.55075e-01,8.53768e-01,4.79783e-01,-9.99859e-03,1.21791e+00,-1.72967e-01,2.78280e-01,-1.12210e+00,5.66288e-01,3.05463e-01,-7.82767e-01,-8.31278e-01,6.81686e-02,-5.61608e-01,1.48803e-01,-5.63609e-01,-4.10209e-01,-8.36709e-01,1.50475e+00,3.27357e-01,-4.41037e-01,-5.60758e-01,5.69889e-02,2.79877e-01,-6.67013e-01,6.86900e-01,4.61145e-01,1.47702e-02,-8.64452e-01,8.80500e-01,9.39066e-01,7.28097e-01,1.63157e+00,1.78743e+00,8.11868e-01,-1.09964e+00,5.43667e-01,-1.56657e-01,4.08740e-01,-4.81617e-01,3.45133e-01,3.61221e-01,-9.37444e-02,1.64523e-02,2.79801e-01,2.65602e-01,-1.52627e-01,-1.31225e+00,1.30917e+00,8.65537e-01,-6.06040e-01,5.54498e-02,1.34335e-01,-9.80215e-02,-1.83892e-01,-3.86073e-01,
1.69364e-02,3.78302e-01,3.58459e-01,4.95509e-01,3.09218e-01,-2.29813e-01,-7.37975e-01,-5.22562e-01,-1.19271e+00,2.99052e-01,7.54289e-01,-1.45349e-03,9.18797e-01,-1.14235e+00,-1.11413e+00,6.74975e-01,-1.13077e+00,-1.98466e+00,2.01383e-01,4.70197e-01,4.48876e-01,7.60804e-01,1.12165e+00,-1.04609e-01,4.47770e-01,-3.49588e-01,-6.60200e-01,-2.82119e-01,1.88059e-01,-2.19917e-01,-5.66437e-01,-2.31649e-01,5.70927e-01,2.32799e-01,1.37105e-01,8.42187e-02,-9.29765e-01,-1.47299e+00,3.55666e-02,-1.73049e+00,8.88340e-01,7.48995e-01,-1.46805e+00,-8.68593e-01,-1.74807e-01,-5.09628e-01,-9.01642e-01,-1.67516e+00,-4.17125e-01,2.25712e-01,7.15807e-01,-6.53911e-01,-1.56932e+00,-1.22611e-01,1.01584e+00,-6.03761e-01,1.51386e+00,6.98206e-02,-1.50377e+00,-1.67407e+00,-5.71812e-01,3.09111e-01,-1.27988e+00,1.45679e+00,5.08992e-01,-3.19355e-01,7.54074e-01,1.19108e+00,5.74525e-01,-1.25106e+00,
1.86612e+00,1.91269e-01,3.99195e-01,1.50812e+00,5.41067e-01,3.74349e-01,-1.03106e+00,7.68264e-01,-1.56611e+00,2.20744e-01,-2.98085e-01,-1.49280e-02,-5.01894e-01,7.94438e-01,-7.92027e-01,-5.22620e-01,-2.36280e-01,-7.78093e-01,-2.85388e-01,-1.31355e+00,9.96025e-01,6.88757e-02,-2.68492e-01,-3.96466e-01,-7.48426e-01,-9.60485e-01,1.48682e+00,9.42319e-01,1.27017e+00,3.92629e-01,-1.12527e-01,7.07880e-01,-2.99061e-02,7.43247e-01,-1.08838e-01,5.69624e-01,1.25530e+00,2.59191e-01,1.91110e+00,-3.31654e-01,6.20548e-01,2.22154e-01,7.62326e-02,-4.05319e-02,4.57324e-01,1.28538e-01,1.44885e+00,3.58378e-01,-6.15103e-01,1.13303e+00,1.65169e-01,4.40824e-01,-7.16219e-01,-9.49831e-01,1.45059e+00,-2.54327e-01,-5.26744e-01,1.67274e-01,-1.76140e-01,-6.64708e-01,-2.17715e-01,-6.46560e-01,-9.18654e-01,8.66488e-01,9.03724e-01,2.00777e-01,3.54571e-01,4.77237e-01,-2.32669e+00,4.51282e-01,
6.36536e+00,6.97462e-01,-4.54961e-01,1.70348e+00,-2.42746e+00,-4.91473e-01,-1.59130e-01,5.49985e-01,-3.64645e-01,1.11983e-01,6.44303e-01,-4.54431e-02,8.42072e-01,5.79609e-01,8.02385e-01,1.17073e+00,2.21687e-02,6.03884e-01,2.44006e-01,7.67072e-01,1.14445e+00,-7.26929e-01,-1.38172e+00,1.15962e+00,1.22520e+00,-1.48984e+00,-1.32880e+00,3.77757e-01,1.98413e-01,9.60606e-01,-3.97836e-01,7.53054e-01,6.01421e-01,4.18036e-01,-2.00319e+00,-2.40488e-01,2.51680e-01,5.35418e-01,-3.09690e-01,-5.16887e-01,1.51544e+00,-7.67359e-02,3.45693e-01,-1.33147e+00,-1.65301e+00,-4.31686e-01,3.02752e-01,-1.42838e-01,4.49436e-01,3.87464e-02,4.94070e-01,6.62432e-01,1.15598e+00,-1.64024e-01,4.95212e-02,5.99753e-01,2.69574e-01,-1.20311e-01,-6.16147e-01,-6.97604e-01,9.57267e-01,1.64336e-01,-3.26712e-01,-5.42489e-01,-5.21952e-02,-2.79396e-01,1.32546e+00,-2.89246e-01,5.56769e-01,-5.57189e-01,
4.15067e+00,-8.85677e-02,-1.74766e+00,5.11186e-01,-5.28144e-01,6.75233e-02,-7.75384e-02,2.06009e+00,-3.99569e-01,6.34138e-01,3.61352e-01,1.32377e-02,9.25597e-02,-3.28843e-01,1.88387e+00,8.35208e-01,-1.01622e-01,4.54769e-01,3.64230e-01,-5.52596e-01,4.92580e-01,3.53592e-01,-1.48413e+00,1.04627e+00,1.04451e+00,-1.17825e+00,-8.04837e-01,1.50052e+00,8.10102e-01,-4.54813e-01,1.17504e+00,9.73389e-01,-9.39685e-01,-2.86163e-01,-1.80411e+00,-4.99460e-01,1.51576e+00,5.06115e-01,-4.61334e-03,-8.14431e-01,1.19557e+00,-4.49277e-01,-8.11020e-01,-2.77169e-01,-1.46956e+00,8.91057e-01,-7.33210e-01,-5.67586e-01,7.35781e-01,5.91008e-02,4.28055e-01,-4.95119e-01,-1.31302e-01,-4.52047e-01,8.32249e-02,5.30078e-01,-5.93592e-01,-1.21274e-01,8.77489e-02,8.28091e-01,8.58407e-01,6.62386e-01,-1.18246e-01,1.81994e-01,-5.00502e-01,4.71852e-01,3.05001e-01,-1.22705e-01,-1.98527e-01,1.05069e-01,
7.05900e-01,1.26376e+00,-6.47238e-01,8.69718e-01,6.31996e-01,-2.33055e-01,4.37706e-01,-9.96436e-01,2.60357e-01,-4.43005e-01,-6.73925e-01,-1.01276e-02,-7.30689e-01,3.30446e-02,6.60475e-01,-1.67576e+00,-4.76158e-01,6.19468e-02,-5.69659e-01,1.01132e+00,7.55084e-01,3.83277e-01,-5.67392e-01,6.88502e-01,-3.49166e-01,-3.19592e-01,-1.76370e+00,-2.08910e+00,7.67177e-01,-1.91763e-02,1.42174e-01,1.67934e-01,8.14031e-01,1.02544e+00,2.68351e-01,-3.94408e-01,-9.27279e-01,1.01398e-01,-1.49321e+00,9.40901e-01,8.65368e-01,7.45190e-01,8.55067e-01,1.50415e-01,-3.71059e-01,-8.52574e-01,1.06013e-01,1.72331e+00,1.63824e+00,-6.47231e-01,1.13797e+00,1.10352e+00,1.50022e+00,1.97105e-01,9.75469e-01,-6.17429e-01,7.07942e-02,9.45997e-01,-3.39054e-03,-9.98409e-01,5.92873e-01,3.59697e-01,3.02286e-01,-5.87178e-01,3.63845e-01,-6.51866e-01,9.06643e-01,-7.45133e-02,6.68607e-01,-5.08595e-01,
2.93089e+00,-1.38575e+00,-8.32347e-02,2.12596e-01,1.25456e-02,-4.02770e-01,1.06241e+00,1.96363e-01,6.55766e-01,1.76204e+00,-4.89049e-01,-3.78764e-01,-5.65392e-01,-6.63020e-01,-1.96616e-01,2.84284e-01,8.55583e-01,-3.56247e-01,9.65364e-01,5.61820e-01,-3.95842e-01,2.70656e-01,-1.10405e+00,1.30534e-03,4.84748e-01,3.87898e-01,1.73237e-01,-6.46255e-02,4.87902e-01,-8.96981e-01,1.65569e-02,7.59016e-01,-1.44431e+00,-7.93952e-01,7.64461e-01,-4.35196e-01,-4.88863e-01,4.25331e-02,1.96557e-01,-8.73338e-01,-3.81697e-01,-9.50199e-01,8.36565e-01,6.79180e-01,6.88414e-02,-2.79643e-01,1.00692e-01,-9.03792e-01,7.07717e-01,-5.45319e-01,-1.21435e+00,-2.48258e-01,1.96342e+00,2.60898e-02,-2.14581e-03,1.47181e-01,4.10529e-01,7.65469e-01,1.00186e-01,-2.39938e-01,-1.36208e-01,9.29371e-01,-7.89562e-01,-9.75003e-02,6.54658e-01,5.07736e-01,1.59433e+00,9.87394e-01,3.67887e-01,-1.22485e+00,
4.26401e+00,-8.97033e-01,-8.14122e-01,-3.54456e-01,5.57311e-01,8.66232e-02,1.21014e+00,5.22817e-01,1.84958e+00,6.00970e-01,1.55066e-01,-7.77281e-01,-1.22915e-01,3.14720e-01,3.32371e-02,-6.46778e-01,1.36421e+00,-4.01927e-01,1.10600e+00,-5.23557e-01,8.23168e-01,-1.08229e-02,-3.55830e-01,5.16999e-01,2.21056e-01,4.59632e-01,-2.42374e-02,8.59162e-01,8.12608e-01,-1.24894e+00,7.38191e-01,-1.61875e-01,-1.09524e+00,-3.63315e-01,9.99682e-01,-8.12028e-01,1.16279e+00,9.11071e-01,1.04762e-01,-1.34386e+00,1.33455e+00,-8.48115e-01,3.87556e-01,1.37843e-01,-2.11839e-01,-2.46072e-01,1.98359e-01,1.40075e-01,1.63556e-01,-1.16706e-01,1.30786e-01,1.23595e+00,-1.33230e+00,-8.37512e-01,-1.41363e+00,-6.22275e-01,-1.03698e+00,3.93661e-01,7.90080e-02,2.15221e+00,1.89544e+00,5.29595e-01,1.21220e+00,-1.11089e+00,-3.45919e-01,1.93743e-01,3.09366e-01,2.06279e-01,-5.05281e-02,-7.85877e-02,
-1.35130e+01,9.10630e-02,-8.57260e-01,-5.55224e-01,-3.90172e-01,1.00001e+00,-2.20744e+00,-3.29336e-01,-2.15649e-01,-1.33398e+00,-3.17612e-01,1.03927e+00,4.87652e-01,-3.54291e-01,9.45236e-03,4.03858e-01,-1.13885e+00,-9.40221e-01,-2.10710e-01,-1.22878e+00,-1.45268e-01,-3.08162e-01,6.18953e-01,-8.41796e-01,-2.03084e-01,-8.97304e-01,3.69050e-01,-1.45770e+00,4.49627e-01,9.11774e-01,-2.60434e-01,-2.96569e-01,1.36509e+00,-9.33662e-02,-4.20112e-01,2.93362e-01,7.04728e-01,-4.95458e-01,-6.91508e-01,-2.49752e-01,-8.95961e-01,8.54684e-02,-4.98328e-01,1.04114e+00,3.83535e-02,-1.32957e+00,-2.69341e-01,1.01723e+00,-1.81765e-01,6.79703e-01,-1.37082e+00,-3.57618e-01,8.30844e-01,-5.98291e-01,4.10346e-01,5.68093e-01,1.62508e+00,1.75512e-01,1.36781e+00,-6.06616e-01,4.93807e-01,6.11285e-01,-2.04291e-01,-7.79207e-01,-2.94976e-01,1.61025e-01,-4.87297e-01,-1.23879e-01,-1.28147e-01,7.26742e-01,
-5.49297e+00,9.32732e-01,3.28524e-01,-1.15879e+00,-5.37332e-01,6.18341e-01,-1.01955e-01,4.88974e-01,5.50457e-01,5.56082e-01,4.19805e-01,-1.80387e-01,8.48003e-01,-4.64580e-01,-6.11243e-01,9.34533e-01,-8.88648e-01,-3.04391e-01,1.17383e+00,-8.34009e-01,5.82698e-01,-6.62132e-02,2.91846e-01,-1.40382e-01,-2.65798e-03,3.16188e-01,5.72107e-01,-7.71546e-01,7.90243e-02,-1.20168e-01,4.14205e-02,-1.23563e-01,9.18596e-01,-1.63874e-01,2.48419e-01,-4.34090e-01,3.55861e-01,-2.94847e-01,-8.94677e-02,-2.68501e-01,-4.93942e-01,-2.52921e-01,-3.58027e-01,1.44850e+00,-3.78359e-01,-4.29358e-01,1.42738e+00,6.78805e-01,-8.09820e-01,-4.00302e-01,-5.84078e-01,7.19149e-01,-7.66917e-01,-8.01359e-01,-2.34048e-01,9.01343e-03,-7.56583e-01,1.48875e-01,-6.45020e-01,3.48613e-01,-1.06923e+00,3.46306e-01,2.24433e+00,7.04864e-01,-6.00657e-01,-1.06454e-01,-7.00774e-01,-9.59565e-01,-8.81416e-01,6.33423e-01,
-2.16131e+00,6.99711e-01,8.44612e-01,-2.17283e+00,-2.20445e-01,-8.43139e-01,-6.47353e-02,-4.65387e-01,8.16845e-01,1.54497e+00,7.63624e-01,3.18447e-01,3.57865e-01,1.50934e-01,1.71284e-01,2.17025e-01,-9.20999e-01,4.69810e-01,1.40340e-01,6.88585e-01,4.98883e-01,-7.60200e-02,-6.62295e-02,-7.21053e-01,2.15894e-01,5.35631e-01,9.84672e-01,-4.06622e-01,2.27051e-01,-1.99633e-01,-6.91851e-02,2.55936e-01,1.37659e+00,-5.28421e-01,-1.14793e+00,3.57715e-01,-3.37373e-01,-5.39224e-01,1.85291e-01,2.84013e-01,-6.60170e-01,-6.60608e-02,-6.33949e-02,8.81328e-01,2.19817e+00,-2.79898e-01,-5.57312e-01,4.17033e-01,1.12272e+00,-1.15071e+00,-3.10148e-01,-5.26111e-01,-1.07260e+00,6.02525e-01,5.99445e-01,-3.50449e-01,5.77750e-01,-5.24382e-01,-6.42961e-01,9.02849e-02,3.43533e-02,4.11339e-02,-4.62400e-01,4.31181e-01,3.79646e-01,6.70327e-02,9.64728e-02,9.35326e-01,-7.09496e-01,-3.00752e-02,
1.39852e+00,-1.80994e+00,-5.97252e-02,3.32067e-01,1.05354e+00,-1.22064e+00,9.14841e-01,-8.98288e-02,4.18512e-01,-1.32972e-01,9.98996e-02,-8.39972e-01,3.32540e-01,-5.75833e-02,3.30253e-01,2.30528e-01,6.76784e-01,-1.81475e+00,2.57988e-01,-1.23551e+00,-1.46849e+00,5.30859e-01,-1.34600e+00,-1.24121e+00,-2.38380e-01,-8.51738e-01,1.72591e+00,7.45143e-01,-6.62305e-02,4.76180e-01,7.26932e-02,4.15435e-01,2.96970e-01,1.26885e-01,7.57597e-01,-7.22292e-01,1.99698e-01,1.35361e+00,2.51964e-02,-1.33453e+00,2.13717e-01,-1.22353e+00,1.00409e+00,1.27580e-01,-5.14377e-01,-1.40832e+00,2.42548e-01,-3.05477e-01,-5.52058e-01,7.63043e-01,-9.38629e-01,4.43707e-01,-8.13293e-01,1.25519e-01,-8.02104e-01,-5.43882e-01,-1.27332e+00,-1.97994e-01,9.18915e-04,1.29108e+00,-4.09815e-01,6.24772e-01,-1.05474e+00,-1.54806e-01,-6.13196e-01,3.96379e-01,-3.15855e-02,-3.77929e-01,-1.11766e+00,4.67597e-02,
1.82291e+01,-7.54530e-01,2.17551e-01,-1.28525e+00,-5.70407e-01,5.71571e-03,-2.16347e-01,8.96343e-01,-1.03167e-01,-7.93857e-02,7.23879e-02,-5.20942e-01,4.97052e-01,4.36945e-02,9.80209e-01,2.65283e-02,2.12782e+00,-7.27617e-01,1.40841e+00,9.92805e-01,-3.75390e-01,1.15577e+00,-3.56862e-01,5.70579e-01,-7.74917e-01,1.08017e-01,4.06148e-01,1.40519e+00,-9.83041e-01,1.55122e+00,9.26933e-01,-1.10367e-01,1.50560e+00,-9.00046e-01,1.49225e+00,-8.61752e-01,-5.14345e-01,-1.35325e+00,-9.81053e-01,-1.33198e+00,1.13921e+00,-1.50304e+00,-1.40616e-01,1.30475e-01,5.86485e-01,1.14120e+00,5.70187e-01,-1.43364e+00,7.37789e-01,-3.33905e-01,-9.75848e-01,-4.44336e-01,-1.11336e+00,-6.26220e-01,1.71040e-01,-2.86625e-02,-1.85690e+00,5.66740e-01,6.03389e-01,-2.45455e-01,-4.64695e-02,1.90277e-01,-1.59324e-01,-7.33689e-01,-5.68010e-01,-2.80277e-01,-1.68770e+00,4.70271e-01,-5.31498e-01,-3.19128e-01,
8.05169e+00,-2.99749e-01,5.85775e-02,2.46675e-01,-1.72303e+00,-5.20803e-01,4.66563e-01,1.84879e-01,1.30218e+00,-2.76695e-01,3.86193e-01,-7.60900e-01,6.88298e-01,7.33666e-01,-3.38014e-01,8.54965e-01,-7.93413e-02,-1.16942e+00,1.13365e+00,4.78701e-02,-6.74812e-01,-1.52879e+00,-3.40142e-02,-8.88095e-02,1.45652e-02,1.27554e+00,-6.35719e-01,5.28557e-01,6.39903e-01,3.71406e-01,6.07537e-01,-8.62423e-01,3.94620e-01,2.48105e-01,-1.64753e-01,-2.78852e-01,2.53163e-01,8.77646e-01,-8.41212e-01,-5.43283e-01,2.16671e-01,2.80346e-01,1.66191e+00,-1.23024e+00,-1.91292e-01,-9.28598e-01,2.32626e+00,1.40366e+00,-1.47318e+00,3.09582e-01,1.19269e+00,2.96306e-01,-7.96535e-01,-3.95318e-01,-1.01766e+00,2.76744e-01,3.43605e-03,-1.79643e+00,9.52411e-01,-9.86614e-03,1.97570e+00,6.71548e-01,9.96933e-01,1.14417e+00,-1.90954e+00,1.23720e-02,5.09529e-01,-1.74465e+00,1.03598e+00,-2.58145e-01,
2.01115e+00,3.59955e-01,2.60594e-01,-9.62557e-01,1.10978e-01,8.53293e-01,1.27478e+00,-4.33045e-01,1.29237e+00,2.22229e+00,1.22626e+00,-5.68795e-02,-7.66978e-02,-8.77852e-01,-3.83800e-01,6.89478e-02,-9.96897e-02,3.14000e-01,-2.34123e-01,-6.01547e-01,1.28487e-01,-5.77573e-01,-1.32663e+00,-1.31372e+00,-5.78275e-01,-1.51996e+00,1.16169e+00,-4.05456e-01,-1.28766e-01,1.63262e-02,-1.16064e+00,-8.81765e-01,-5.85598e-01,-9.55056e-01,1.53311e-01,1.50905e+00,-8.98267e-01,6.37552e-01,-2.44130e-01,2.74211e-01,-7.18553e-01,-2.78144e-01,4.48126e-01,-1.53800e-01,4.56230e-01,-2.03845e+00,6.46892e-01,3.12288e-01,-1.03783e+00,-1.86788e+00,-8.78194e-01,-3.56651e-02,6.35497e-02,-2.31793e-01,-7.03801e-02,-7.36735e-01,-2.18663e-01,-3.12831e-01,-7.78355e-01,3.60066e-01,-1.76678e+00,-1.12854e+00,-2.63518e-03,5.74191e-01,8.16849e-01,1.03844e+00,-9.81987e-01,-4.50928e-01,6.96009e-01,2.61846e-01,
3.54070e+00,-2.61329e-01,1.40146e+00,-4.16559e-01,9.66026e-01,-1.27945e-01,3.32551e-02,-1.93310e-02,1.81420e+00,6.02558e-01,8.45334e-01,3.51143e-01,6.70966e-01,-1.34742e+00,6.67073e-01,1.25977e+00,9.50990e-01,7.39928e-02,1.14410e+00,1.02966e-01,-3.82104e-01,-1.26420e-01,-1.41036e+00,-2.19760e+00,-2.53603e-01,3.30205e-02,-6.85453e-02,2.94175e-01,-1.24121e+00,3.35616e-01,-1.61635e+00,1.04522e-02,-1.07587e+00,-1.16768e-01,2.27586e+00,1.99730e+00,5.20591e-01,1.03402e+00,-1.68457e-01,2.02125e-01,-5.37871e-01,3.55156e-01,1.49700e-02,-5.38415e-01,-2.72482e-01,-1.41517e+00,6.40660e-01,-8.88999e-01,-8.08824e-01,-1.12672e-02,6.17940e-01,-3.01369e-01,4.70347e-01,3.98411e-01,5.30790e-01,-3.25144e-01,9.11321e-01,9.19353e-02,-5.52712e-01,-5.74177e-01,-1.42182e+00,1.99878e-01,-2.94739e+00,6.94931e-01,-8.95771e-02,2.22880e-01,8.85813e-01,1.36040e+00,3.74650e-01,-1.96380e-01,
6.45970e-01,6.22243e-02,-1.92506e+00,9.34460e-01,-1.60005e-01,-2.13786e-01,7.78665e-01,-6.89457e-01,-1.22475e+00,-5.43714e-01,-3.27107e-01,2.04330e-01,-2.62552e-01,-8.78218e-01,-1.65236e+00,-1.72621e-01,-1.59266e-01,4.67530e-01,-2.05037e-01,3.13520e-01,8.70476e-01,3.09280e-01,-2.05987e-01,5.77253e-01,-1.53439e-01,9.82161e-02,4.24207e-01,4.34573e-01,8.50675e-01,-1.25819e+00,-4.61850e-01,3.20176e-02,9.77385e-01,5.18836e-01,1.39802e+00,-1.98285e-01,-1.51516e+00,-1.34874e+00,7.05886e-01,3.55795e-02,-5.85457e-02,5.25857e-01,6.56443e-01,9.21865e-02,-5.02325e-01,1.74978e-01,5.28411e-01,-8.93315e-01,-1.96219e-01,-2.62621e-01,1.82577e-02,5.84165e-02,8.18142e-01,-1.76009e+00,-2.60731e-01,-4.57502e-01,-3.73311e-02,5.69574e-01,5.72171e-01,3.26346e-01,-1.31892e+00,-3.13349e-01,-9.57353e-01,-9.92653e-01,1.90929e-01,4.60907e-01,-2.00849e-02,-2.95489e-01,1.29459e+00,-1.97176e-01,
-3.92460e+00,-1.20064e+00,5.31018e-01,8.90724e-01,-1.26449e+00,1.17735e+00,1.20247e+00,1.47896e-01,1.50630e+00,-1.32760e+00,1.73914e-01,2.57394e-01,2.15084e-01,-1.00980e+00,2.55214e-01,1.27699e-01,2.26761e-01,-1.50882e+00,7.43141e-01,-2.13108e-02,1.15008e+00,-4.73963e-01,1.27544e+00,8.17491e-01,-1.09048e+00,2.19190e-01,9.69456e-01,-4.47674e-01,1.53118e-01,-6.87660e-01,4.44560e-01,1.86021e-01,-2.73699e-01,2.77316e-01,8.52213e-01,-5.56734e-01,8.34065e-01,5.85521e-01,5.01269e-01,1.01956e+00,-1.54754e+00,-5.54727e-01,-1.23668e+00,8.12553e-01,-2.04845e-01,2.20867e-02,-2.62119e+00,4.23174e-01,4.57678e-01,1.27283e+00,-1.88530e-01,-5.96693e-03,-7.20838e-01,1.06484e-01,1.02814e+00,4.08722e-01,-5.02979e-01,5.71392e-01,4.20011e-01,-2.45334e-01,-5.30602e-01,3.47832e-02,1.52994e+00,-1.13097e+00,7.97156e-01,8.10792e-01,-5.41075e-01,1.27249e-01,-1.46457e+00,-6.80874e-01,
